digraph Tree {
node [shape=box, style="filled, rounded", color="black", fontname="helvetica"] ;
edge [fontname="helvetica"] ;
0 [label="BTC_high <= 26320.6\nsquared_error = 300404650.09\nsamples = 1429\nvalue = 15100.28", fillcolor="#f9e3d4"] ;
1 [label="BTC_open <= 5793.3\nsquared_error = 20462269.02\nsamples = 1101\nvalue = 6375.29", fillcolor="#fdf4ed"] ;
0 -> 1 [labeldistance=2.5, labelangle=45, headlabel="True"] ;
2 [label="BTC_open <= 2315.65\nsquared_error = 2580188.31\nsamples = 482\nvalue = 2068.5", fillcolor="#fefcfa"] ;
1 -> 2 ;
3 [label="BTC_open <= 949.35\nsquared_error = 128146.19\nsamples = 278\nvalue = 814.74", fillcolor="#fffefe"] ;
2 -> 3 ;
4 [label="BTC_open <= 642.6\nsquared_error = 19502.35\nsamples = 198\nvalue = 630.07", fillcolor="#fffffe"] ;
3 -> 4 ;
5 [label="BTC_open <= 526.55\nsquared_error = 6684.73\nsamples = 111\nvalue = 528.81", fillcolor="#ffffff"] ;
4 -> 5 ;
6 [label="BTC_open <= 434.8\nsquared_error = 564.04\nsamples = 50\nvalue = 438.83", fillcolor="#ffffff"] ;
5 -> 6 ;
7 [label="BTC_open <= 420.75\nsquared_error = 30.19\nsamples = 24\nvalue = 418.14", fillcolor="#ffffff"] ;
6 -> 7 ;
8 [label="BTC_open <= 413.75\nsquared_error = 10.81\nsamples = 17\nvalue = 415.39", fillcolor="#ffffff"] ;
7 -> 8 ;
9 [label="sum_lock_weight <= 400299008.0\nsquared_error = 2.63\nsamples = 6\nvalue = 411.14", fillcolor="#ffffff"] ;
8 -> 9 ;
10 [label="mean_lock_size_ytes <= 655539.03\nsquared_error = 0.06\nsamples = 2\nvalue = 408.45", fillcolor="#ffffff"] ;
9 -> 10 ;
11 [label="squared_error = 0.0\nsamples = 1\nvalue = 408.2", fillcolor="#ffffff"] ;
10 -> 11 ;
12 [label="squared_error = 0.0\nsamples = 1\nvalue = 408.7", fillcolor="#ffffff"] ;
10 -> 12 ;
13 [label="xfer_cnt <= 465653.0\nsquared_error = 0.28\nsamples = 4\nvalue = 412.03", fillcolor="#ffffff"] ;
9 -> 13 ;
14 [label="squared_error = 0.0\nsamples = 2\nvalue = 412.4", fillcolor="#ffffff"] ;
13 -> 14 ;
15 [label="mean_hash_rate <= 1180559.0\nsquared_error = 0.04\nsamples = 2\nvalue = 411.3", fillcolor="#ffffff"] ;
13 -> 15 ;
16 [label="squared_error = 0.0\nsamples = 1\nvalue = 411.5", fillcolor="#ffffff"] ;
15 -> 16 ;
17 [label="squared_error = 0.0\nsamples = 1\nvalue = 411.1", fillcolor="#ffffff"] ;
15 -> 17 ;
18 [label="BTC_open <= 417.35\nsquared_error = 2.13\nsamples = 11\nvalue = 417.39", fillcolor="#ffffff"] ;
8 -> 18 ;
19 [label="BTC_open <= 416.0\nsquared_error = 0.36\nsamples = 6\nvalue = 416.13", fillcolor="#ffffff"] ;
18 -> 19 ;
20 [label="BTC_high <= 417.35\nsquared_error = 0.08\nsamples = 3\nvalue = 415.58", fillcolor="#ffffff"] ;
19 -> 20 ;
21 [label="squared_error = 0.0\nsamples = 1\nvalue = 415.1", fillcolor="#ffffff"] ;
20 -> 21 ;
22 [label="difficulty <= 161962016768.0\nsquared_error = 0.0\nsamples = 2\nvalue = 415.73", fillcolor="#ffffff"] ;
20 -> 22 ;
23 [label="squared_error = 0.0\nsamples = 1\nvalue = 415.8", fillcolor="#ffffff"] ;
22 -> 23 ;
24 [label="squared_error = -0.0\nsamples = 1\nvalue = 415.7", fillcolor="#ffffff"] ;
22 -> 24 ;
25 [label="mean_tx_size_usd <= 1749.22\nsquared_error = 0.13\nsamples = 3\nvalue = 416.58", fillcolor="#ffffff"] ;
19 -> 25 ;
26 [label="BTC_low <= 414.85\nsquared_error = 0.02\nsamples = 2\nvalue = 416.3", fillcolor="#ffffff"] ;
25 -> 26 ;
27 [label="squared_error = 0.0\nsamples = 1\nvalue = 416.2", fillcolor="#ffffff"] ;
26 -> 27 ;
28 [label="squared_error = -0.0\nsamples = 1\nvalue = 416.5", fillcolor="#ffffff"] ;
26 -> 28 ;
29 [label="squared_error = 0.0\nsamples = 1\nvalue = 417.0", fillcolor="#ffffff"] ;
25 -> 29 ;
30 [label="BTC_open <= 418.55\nsquared_error = 0.32\nsamples = 5\nvalue = 418.81", fillcolor="#ffffff"] ;
18 -> 30 ;
31 [label="addresses_active_count <= 436120.0\nsquared_error = 0.02\nsamples = 2\nvalue = 417.85", fillcolor="#ffffff"] ;
30 -> 31 ;
32 [label="squared_error = 0.0\nsamples = 1\nvalue = 417.7", fillcolor="#ffffff"] ;
31 -> 32 ;
33 [label="squared_error = -0.0\nsamples = 1\nvalue = 418.0", fillcolor="#ffffff"] ;
31 -> 33 ;
34 [label="sum_lock_weight <= 453533440.0\nsquared_error = 0.01\nsamples = 3\nvalue = 419.13", fillcolor="#ffffff"] ;
30 -> 34 ;
35 [label="squared_error = 0.0\nsamples = 2\nvalue = 419.1", fillcolor="#ffffff"] ;
34 -> 35 ;
36 [label="squared_error = -0.0\nsamples = 1\nvalue = 419.3", fillcolor="#ffffff"] ;
34 -> 36 ;
37 [label="BTC_open <= 425.5\nsquared_error = 4.54\nsamples = 7\nvalue = 425.79", fillcolor="#ffffff"] ;
7 -> 37 ;
38 [label="mean_lock_size_ytes <= 822806.62\nsquared_error = 1.01\nsamples = 4\nvalue = 423.88", fillcolor="#ffffff"] ;
37 -> 38 ;
39 [label="BTC_high <= 428.05\nsquared_error = 0.1\nsamples = 3\nvalue = 424.43", fillcolor="#ffffff"] ;
38 -> 39 ;
40 [label="difficulty <= 166174171136.0\nsquared_error = 0.0\nsamples = 2\nvalue = 424.65", fillcolor="#ffffff"] ;
39 -> 40 ;
41 [label="squared_error = 0.0\nsamples = 1\nvalue = 424.6", fillcolor="#ffffff"] ;
40 -> 41 ;
42 [label="squared_error = 0.0\nsamples = 1\nvalue = 424.7", fillcolor="#ffffff"] ;
40 -> 42 ;
43 [label="squared_error = 0.0\nsamples = 1\nvalue = 424.0", fillcolor="#ffffff"] ;
39 -> 43 ;
44 [label="squared_error = -0.0\nsamples = 1\nvalue = 422.2", fillcolor="#ffffff"] ;
38 -> 44 ;
45 [label="total_fees_usd <= 17012.34\nsquared_error = 2.09\nsamples = 3\nvalue = 427.32", fillcolor="#ffffff"] ;
37 -> 45 ;
46 [label="squared_error = 0.0\nsamples = 1\nvalue = 430.0", fillcolor="#ffffff"] ;
45 -> 46 ;
47 [label="sum_lock_weight <= 448480864.0\nsquared_error = 0.37\nsamples = 2\nvalue = 426.65", fillcolor="#ffffff"] ;
45 -> 47 ;
48 [label="squared_error = 0.0\nsamples = 1\nvalue = 426.3", fillcolor="#ffffff"] ;
47 -> 48 ;
49 [label="squared_error = 0.0\nsamples = 1\nvalue = 427.7", fillcolor="#ffffff"] ;
47 -> 49 ;
50 [label="BTC_high <= 538.0\nsquared_error = 331.27\nsamples = 26\nvalue = 456.86", fillcolor="#ffffff"] ;
6 -> 50 ;
51 [label="BTC_open <= 451.25\nsquared_error = 61.26\nsamples = 24\nvalue = 452.08", fillcolor="#ffffff"] ;
50 -> 51 ;
52 [label="BTC_open <= 445.0\nsquared_error = 13.74\nsamples = 12\nvalue = 445.88", fillcolor="#ffffff"] ;
51 -> 52 ;
53 [label="BTC_open <= 441.6\nsquared_error = 4.35\nsamples = 4\nvalue = 442.0", fillcolor="#ffffff"] ;
52 -> 53 ;
54 [label="squared_error = -0.0\nsamples = 1\nvalue = 439.6", fillcolor="#ffffff"] ;
53 -> 54 ;
55 [label="mean_hash_rate <= 1382794.31\nsquared_error = 0.05\nsamples = 3\nvalue = 443.8", fillcolor="#ffffff"] ;
53 -> 55 ;
56 [label="squared_error = 0.0\nsamples = 1\nvalue = 444.2", fillcolor="#ffffff"] ;
55 -> 56 ;
57 [label="difficulty <= 196783439872.0\nsquared_error = 0.0\nsamples = 2\nvalue = 443.67", fillcolor="#ffffff"] ;
55 -> 57 ;
58 [label="squared_error = 0.0\nsamples = 1\nvalue = 443.6", fillcolor="#ffffff"] ;
57 -> 58 ;
59 [label="squared_error = 0.0\nsamples = 1\nvalue = 443.7", fillcolor="#ffffff"] ;
57 -> 59 ;
60 [label="BTC_open <= 447.1\nsquared_error = 2.38\nsamples = 8\nvalue = 448.6", fillcolor="#ffffff"] ;
52 -> 60 ;
61 [label="mean_lock_size_ytes <= 789835.53\nsquared_error = 0.02\nsamples = 2\nvalue = 445.95", fillcolor="#ffffff"] ;
60 -> 61 ;
62 [label="squared_error = 0.0\nsamples = 1\nvalue = 445.8", fillcolor="#ffffff"] ;
61 -> 62 ;
63 [label="squared_error = -0.0\nsamples = 1\nvalue = 446.1", fillcolor="#ffffff"] ;
61 -> 63 ;
64 [label="BTC_open <= 448.9\nsquared_error = 0.77\nsamples = 6\nvalue = 449.26", fillcolor="#ffffff"] ;
60 -> 64 ;
65 [label="BTC_high <= 458.9\nsquared_error = 0.04\nsamples = 2\nvalue = 448.23", fillcolor="#ffffff"] ;
64 -> 65 ;
66 [label="squared_error = 0.0\nsamples = 1\nvalue = 448.5", fillcolor="#ffffff"] ;
65 -> 66 ;
67 [label="squared_error = -0.0\nsamples = 1\nvalue = 448.1", fillcolor="#ffffff"] ;
65 -> 67 ;
68 [label="BTC_open <= 449.75\nsquared_error = 0.19\nsamples = 4\nvalue = 449.88", fillcolor="#ffffff"] ;
64 -> 68 ;
69 [label="BTC_low <= 445.75\nsquared_error = 0.0\nsamples = 2\nvalue = 449.35", fillcolor="#ffffff"] ;
68 -> 69 ;
70 [label="squared_error = 0.0\nsamples = 1\nvalue = 449.3", fillcolor="#ffffff"] ;
69 -> 70 ;
71 [label="squared_error = -0.0\nsamples = 1\nvalue = 449.4", fillcolor="#ffffff"] ;
69 -> 71 ;
72 [label="difficulty <= 178668781568.0\nsquared_error = 0.01\nsamples = 2\nvalue = 450.23", fillcolor="#ffffff"] ;
68 -> 72 ;
73 [label="squared_error = 0.0\nsamples = 1\nvalue = 450.3", fillcolor="#ffffff"] ;
72 -> 73 ;
74 [label="squared_error = -0.0\nsamples = 1\nvalue = 450.1", fillcolor="#ffffff"] ;
72 -> 74 ;
75 [label="BTC_high <= 500.35\nsquared_error = 38.7\nsamples = 12\nvalue = 457.62", fillcolor="#ffffff"] ;
51 -> 75 ;
76 [label="BTC_open <= 456.45\nsquared_error = 7.98\nsamples = 11\nvalue = 455.69", fillcolor="#ffffff"] ;
75 -> 76 ;
77 [label="BTC_open <= 453.85\nsquared_error = 1.34\nsamples = 6\nvalue = 453.83", fillcolor="#ffffff"] ;
76 -> 77 ;
78 [label="BTC_open <= 452.9\nsquared_error = 0.14\nsamples = 3\nvalue = 452.6", fillcolor="#ffffff"] ;
77 -> 78 ;
79 [label="mean_hash_rate <= 1368298.12\nsquared_error = 0.02\nsamples = 2\nvalue = 452.42", fillcolor="#ffffff"] ;
78 -> 79 ;
80 [label="squared_error = 0.0\nsamples = 1\nvalue = 452.5", fillcolor="#ffffff"] ;
79 -> 80 ;
81 [label="squared_error = -0.0\nsamples = 1\nvalue = 452.2", fillcolor="#ffffff"] ;
79 -> 81 ;
82 [label="squared_error = 0.0\nsamples = 1\nvalue = 453.3", fillcolor="#ffffff"] ;
78 -> 82 ;
83 [label="BTC_open <= 454.65\nsquared_error = 0.04\nsamples = 3\nvalue = 454.85", fillcolor="#ffffff"] ;
77 -> 83 ;
84 [label="squared_error = 0.0\nsamples = 1\nvalue = 454.4", fillcolor="#ffffff"] ;
83 -> 84 ;
85 [label="mean_lock_size_ytes <= 818427.5\nsquared_error = 0.0\nsamples = 2\nvalue = 454.94", fillcolor="#ffffff"] ;
83 -> 85 ;
86 [label="squared_error = 0.0\nsamples = 1\nvalue = 455.0", fillcolor="#ffffff"] ;
85 -> 86 ;
87 [label="squared_error = 0.0\nsamples = 1\nvalue = 454.9", fillcolor="#ffffff"] ;
85 -> 87 ;
88 [label="BTC_open <= 459.45\nsquared_error = 2.04\nsamples = 5\nvalue = 459.12", fillcolor="#ffffff"] ;
76 -> 88 ;
89 [label="sum_lock_weight <= 412318624.0\nsquared_error = 0.05\nsamples = 3\nvalue = 458.15", fillcolor="#ffffff"] ;
88 -> 89 ;
90 [label="squared_error = 0.0\nsamples = 1\nvalue = 458.5", fillcolor="#ffffff"] ;
89 -> 90 ;
91 [label="total_fees_usd <= 22993.86\nsquared_error = 0.01\nsamples = 2\nvalue = 458.03", fillcolor="#ffffff"] ;
89 -> 91 ;
92 [label="squared_error = 0.0\nsamples = 1\nvalue = 457.9", fillcolor="#ffffff"] ;
91 -> 92 ;
93 [label="squared_error = 0.0\nsamples = 1\nvalue = 458.1", fillcolor="#ffffff"] ;
91 -> 93 ;
94 [label="BTC_high <= 465.5\nsquared_error = 0.42\nsamples = 2\nvalue = 461.05", fillcolor="#ffffff"] ;
88 -> 94 ;
95 [label="squared_error = 0.0\nsamples = 1\nvalue = 460.4", fillcolor="#ffffff"] ;
94 -> 95 ;
96 [label="squared_error = 0.0\nsamples = 1\nvalue = 461.7", fillcolor="#ffffff"] ;
94 -> 96 ;
97 [label="squared_error = 0.0\nsamples = 1\nvalue = 474.0", fillcolor="#ffffff"] ;
75 -> 97 ;
98 [label="mean_hash_rate <= 1546367.44\nsquared_error = 1.5\nsamples = 2\nvalue = 514.27", fillcolor="#ffffff"] ;
50 -> 98 ;
99 [label="squared_error = 0.0\nsamples = 1\nvalue = 516.0", fillcolor="#ffffff"] ;
98 -> 99 ;
100 [label="squared_error = 0.0\nsamples = 1\nvalue = 513.4", fillcolor="#ffffff"] ;
98 -> 100 ;
101 [label="BTC_open <= 599.35\nsquared_error = 501.31\nsamples = 61\nvalue = 597.23", fillcolor="#fffffe"] ;
5 -> 101 ;
102 [label="BTC_open <= 579.1\nsquared_error = 103.18\nsamples = 29\nvalue = 578.75", fillcolor="#fffffe"] ;
101 -> 102 ;
103 [label="BTC_open <= 551.75\nsquared_error = 58.51\nsamples = 17\nvalue = 571.56", fillcolor="#ffffff"] ;
102 -> 103 ;
104 [label="squared_error = 0.0\nsamples = 1\nvalue = 537.1", fillcolor="#ffffff"] ;
103 -> 104 ;
105 [label="BTC_open <= 571.15\nsquared_error = 11.46\nsamples = 16\nvalue = 572.94", fillcolor="#ffffff"] ;
103 -> 105 ;
106 [label="BTC_high <= 579.85\nsquared_error = 2.45\nsamples = 5\nvalue = 568.16", fillcolor="#ffffff"] ;
105 -> 106 ;
107 [label="mean_hash_rate <= 1561576.69\nsquared_error = 0.32\nsamples = 2\nvalue = 569.9", fillcolor="#ffffff"] ;
106 -> 107 ;
108 [label="squared_error = 0.0\nsamples = 1\nvalue = 569.1", fillcolor="#ffffff"] ;
107 -> 108 ;
109 [label="squared_error = 0.0\nsamples = 1\nvalue = 570.3", fillcolor="#ffffff"] ;
107 -> 109 ;
110 [label="BTC_open <= 566.7\nsquared_error = 0.07\nsamples = 3\nvalue = 566.85", fillcolor="#ffffff"] ;
106 -> 110 ;
111 [label="squared_error = 0.0\nsamples = 1\nvalue = 566.4", fillcolor="#ffffff"] ;
110 -> 111 ;
112 [label="squared_error = 0.0\nsamples = 2\nvalue = 567.0", fillcolor="#ffffff"] ;
110 -> 112 ;
113 [label="BTC_open <= 573.8\nsquared_error = 2.63\nsamples = 11\nvalue = 574.79", fillcolor="#ffffff"] ;
105 -> 113 ;
114 [label="total_fees_usd <= 44970.61\nsquared_error = 0.33\nsamples = 4\nvalue = 572.42", fillcolor="#ffffff"] ;
113 -> 114 ;
115 [label="BTC_low <= 570.05\nsquared_error = 0.02\nsamples = 3\nvalue = 572.1", fillcolor="#ffffff"] ;
114 -> 115 ;
116 [label="squared_error = 0.0\nsamples = 2\nvalue = 572.0", fillcolor="#ffffff"] ;
115 -> 116 ;
117 [label="squared_error = 0.0\nsamples = 1\nvalue = 572.3", fillcolor="#ffffff"] ;
115 -> 117 ;
118 [label="squared_error = -0.0\nsamples = 1\nvalue = 573.4", fillcolor="#ffffff"] ;
114 -> 118 ;
119 [label="COPPER <= 2.07\nsquared_error = 1.22\nsamples = 7\nvalue = 575.47", fillcolor="#ffffff"] ;
113 -> 119 ;
120 [label="mean_hash_rate <= 1742022.31\nsquared_error = 0.11\nsamples = 4\nvalue = 574.74", fillcolor="#ffffff"] ;
119 -> 120 ;
121 [label="mean_hash_rate <= 1393082.81\nsquared_error = 0.03\nsamples = 3\nvalue = 574.9", fillcolor="#ffffff"] ;
120 -> 121 ;
122 [label="squared_error = 0.0\nsamples = 1\nvalue = 575.3", fillcolor="#ffffff"] ;
121 -> 122 ;
123 [label="SILVER <= 8.68\nsquared_error = 0.01\nsamples = 2\nvalue = 574.83", fillcolor="#ffffff"] ;
121 -> 123 ;
124 [label="squared_error = 0.0\nsamples = 1\nvalue = 574.9", fillcolor="#ffffff"] ;
123 -> 124 ;
125 [label="squared_error = -0.0\nsamples = 1\nvalue = 574.7", fillcolor="#ffffff"] ;
123 -> 125 ;
126 [label="squared_error = 0.0\nsamples = 1\nvalue = 574.2", fillcolor="#ffffff"] ;
120 -> 126 ;
127 [label="difficulty <= 209634353152.0\nsquared_error = 0.55\nsamples = 3\nvalue = 576.78", fillcolor="#ffffff"] ;
119 -> 127 ;
128 [label="squared_error = 0.0\nsamples = 1\nvalue = 576.2", fillcolor="#ffffff"] ;
127 -> 128 ;
129 [label="mean_tx_size_usd <= 1838.93\nsquared_error = 0.12\nsamples = 2\nvalue = 577.65", fillcolor="#ffffff"] ;
127 -> 129 ;
130 [label="squared_error = 0.0\nsamples = 1\nvalue = 577.3", fillcolor="#ffffff"] ;
129 -> 130 ;
131 [label="squared_error = 0.0\nsamples = 1\nvalue = 578.0", fillcolor="#fffffe"] ;
129 -> 131 ;
132 [label="COPPER <= 2.17\nsquared_error = 34.87\nsamples = 12\nvalue = 586.54", fillcolor="#fffffe"] ;
102 -> 132 ;
133 [label="BTC_open <= 584.1\nsquared_error = 8.39\nsamples = 10\nvalue = 583.82", fillcolor="#fffffe"] ;
132 -> 133 ;
134 [label="BTC_high <= 582.8\nsquared_error = 2.06\nsamples = 5\nvalue = 581.67", fillcolor="#fffffe"] ;
133 -> 134 ;
135 [label="BTC_open <= 580.35\nsquared_error = 0.02\nsamples = 2\nvalue = 580.4", fillcolor="#fffffe"] ;
134 -> 135 ;
136 [label="squared_error = 0.0\nsamples = 1\nvalue = 580.2", fillcolor="#fffffe"] ;
135 -> 136 ;
137 [label="squared_error = 0.0\nsamples = 1\nvalue = 580.5", fillcolor="#fffffe"] ;
135 -> 137 ;
138 [label="BTC_open <= 583.1\nsquared_error = 0.24\nsamples = 3\nvalue = 583.2", fillcolor="#fffffe"] ;
134 -> 138 ;
139 [label="squared_error = 0.0\nsamples = 1\nvalue = 582.6", fillcolor="#fffffe"] ;
138 -> 139 ;
140 [label="squared_error = 0.0\nsamples = 2\nvalue = 583.6", fillcolor="#fffffe"] ;
138 -> 140 ;
141 [label="BTC_high <= 587.85\nsquared_error = 2.08\nsamples = 5\nvalue = 586.76", fillcolor="#fffffe"] ;
133 -> 141 ;
142 [label="squared_error = 0.0\nsamples = 1\nvalue = 584.6", fillcolor="#fffffe"] ;
141 -> 142 ;
143 [label="BTC_open <= 588.35\nsquared_error = 0.7\nsamples = 4\nvalue = 587.48", fillcolor="#fffffe"] ;
141 -> 143 ;
144 [label="BTC_open <= 586.8\nsquared_error = 0.13\nsamples = 3\nvalue = 587.14", fillcolor="#fffffe"] ;
143 -> 144 ;
145 [label="squared_error = 0.0\nsamples = 1\nvalue = 586.5", fillcolor="#fffffe"] ;
144 -> 145 ;
146 [label="BTC_high <= 590.0\nsquared_error = 0.04\nsamples = 2\nvalue = 587.3", fillcolor="#fffffe"] ;
144 -> 146 ;
147 [label="squared_error = 0.0\nsamples = 1\nvalue = 587.5", fillcolor="#fffffe"] ;
146 -> 147 ;
148 [label="squared_error = 0.0\nsamples = 1\nvalue = 587.1", fillcolor="#fffffe"] ;
146 -> 148 ;
149 [label="squared_error = -0.0\nsamples = 1\nvalue = 589.2", fillcolor="#fffffe"] ;
143 -> 149 ;
150 [label="GOLD <= 1343.2\nsquared_error = 0.41\nsamples = 2\nvalue = 596.88", fillcolor="#fffffe"] ;
132 -> 150 ;
151 [label="squared_error = 0.0\nsamples = 1\nvalue = 595.6", fillcolor="#fffffe"] ;
150 -> 151 ;
152 [label="squared_error = 0.0\nsamples = 1\nvalue = 597.2", fillcolor="#fffffe"] ;
150 -> 152 ;
153 [label="BTC_low <= 622.0\nsquared_error = 159.44\nsamples = 32\nvalue = 617.31", fillcolor="#fffffe"] ;
101 -> 153 ;
154 [label="BTC_open <= 614.45\nsquared_error = 31.39\nsamples = 23\nvalue = 610.04", fillcolor="#fffffe"] ;
153 -> 154 ;
155 [label="BTC_open <= 606.3\nsquared_error = 6.77\nsamples = 19\nvalue = 607.43", fillcolor="#fffffe"] ;
154 -> 155 ;
156 [label="BTC_open <= 603.8\nsquared_error = 2.2\nsamples = 7\nvalue = 604.14", fillcolor="#fffffe"] ;
155 -> 156 ;
157 [label="GOLD <= 672.05\nsquared_error = 0.36\nsamples = 3\nvalue = 602.33", fillcolor="#fffffe"] ;
156 -> 157 ;
158 [label="addresses_active_count <= 469833.0\nsquared_error = 0.02\nsamples = 2\nvalue = 602.75", fillcolor="#fffffe"] ;
157 -> 158 ;
159 [label="squared_error = 0.0\nsamples = 1\nvalue = 602.9", fillcolor="#fffffe"] ;
158 -> 159 ;
160 [label="squared_error = -0.0\nsamples = 1\nvalue = 602.6", fillcolor="#fffffe"] ;
158 -> 160 ;
161 [label="squared_error = 0.0\nsamples = 1\nvalue = 601.5", fillcolor="#fffffe"] ;
157 -> 161 ;
162 [label="total_fees_usd <= 40004.34\nsquared_error = 0.18\nsamples = 4\nvalue = 605.22", fillcolor="#fffffe"] ;
156 -> 162 ;
163 [label="addresses_active_count <= 531766.0\nsquared_error = 0.0\nsamples = 2\nvalue = 605.57", fillcolor="#fffffe"] ;
162 -> 163 ;
164 [label="squared_error = 0.0\nsamples = 1\nvalue = 605.6", fillcolor="#fffffe"] ;
163 -> 164 ;
165 [label="squared_error = 0.0\nsamples = 1\nvalue = 605.5", fillcolor="#fffffe"] ;
163 -> 165 ;
166 [label="squared_error = -0.0\nsamples = 2\nvalue = 604.7", fillcolor="#fffffe"] ;
162 -> 166 ;
167 [label="BTC_open <= 609.25\nsquared_error = 1.83\nsamples = 12\nvalue = 608.89", fillcolor="#fffffe"] ;
155 -> 167 ;
168 [label="SILVER <= 19.84\nsquared_error = 0.28\nsamples = 6\nvalue = 607.94", fillcolor="#fffffe"] ;
167 -> 168 ;
169 [label="total_fees_usd <= 43124.6\nsquared_error = 0.1\nsamples = 5\nvalue = 608.14", fillcolor="#fffffe"] ;
168 -> 169 ;
170 [label="BTC_open <= 607.9\nsquared_error = 0.01\nsamples = 4\nvalue = 608.04", fillcolor="#fffffe"] ;
169 -> 170 ;
171 [label="squared_error = 0.0\nsamples = 1\nvalue = 607.8", fillcolor="#fffffe"] ;
170 -> 171 ;
172 [label="SILVER <= 18.88\nsquared_error = 0.0\nsamples = 3\nvalue = 608.07", fillcolor="#fffffe"] ;
170 -> 172 ;
173 [label="squared_error = 0.0\nsamples = 2\nvalue = 608.1", fillcolor="#fffffe"] ;
172 -> 173 ;
174 [label="squared_error = 0.0\nsamples = 1\nvalue = 608.0", fillcolor="#fffffe"] ;
172 -> 174 ;
175 [label="squared_error = 0.0\nsamples = 1\nvalue = 609.0", fillcolor="#fffffe"] ;
169 -> 175 ;
176 [label="squared_error = 0.0\nsamples = 1\nvalue = 607.0", fillcolor="#fffffe"] ;
168 -> 176 ;
177 [label="GOLD <= 1317.9\nsquared_error = 0.57\nsamples = 6\nvalue = 610.4", fillcolor="#fffffe"] ;
167 -> 177 ;
178 [label="mean_lock_size_ytes <= 829386.81\nsquared_error = 0.14\nsamples = 4\nvalue = 611.0", fillcolor="#fffffe"] ;
177 -> 178 ;
179 [label="squared_error = 0.0\nsamples = 1\nvalue = 611.6", fillcolor="#fffffe"] ;
178 -> 179 ;
180 [label="JP225 <= 16740.0\nsquared_error = 0.02\nsamples = 3\nvalue = 610.8", fillcolor="#fffffe"] ;
178 -> 180 ;
181 [label="squared_error = 0.0\nsamples = 2\nvalue = 610.7", fillcolor="#fffffe"] ;
180 -> 181 ;
182 [label="squared_error = -0.0\nsamples = 1\nvalue = 611.0", fillcolor="#fffffe"] ;
180 -> 182 ;
183 [label="SPX <= 2143.51\nsquared_error = 0.02\nsamples = 2\nvalue = 609.6", fillcolor="#fffffe"] ;
177 -> 183 ;
184 [label="squared_error = 0.0\nsamples = 1\nvalue = 609.8", fillcolor="#fffffe"] ;
183 -> 184 ;
185 [label="squared_error = 0.0\nsamples = 1\nvalue = 609.5", fillcolor="#fffffe"] ;
183 -> 185 ;
186 [label="BTC_open <= 619.25\nsquared_error = 3.69\nsamples = 4\nvalue = 619.73", fillcolor="#fffffe"] ;
154 -> 186 ;
187 [label="BTC_high <= 630.3\nsquared_error = 0.04\nsamples = 2\nvalue = 617.57", fillcolor="#fffffe"] ;
186 -> 187 ;
188 [label="squared_error = 0.0\nsamples = 1\nvalue = 617.7", fillcolor="#fffffe"] ;
187 -> 188 ;
189 [label="squared_error = 0.0\nsamples = 1\nvalue = 617.3", fillcolor="#fffffe"] ;
187 -> 189 ;
190 [label="mean_lock_size_ytes <= 874885.91\nsquared_error = 0.3\nsamples = 2\nvalue = 621.35", fillcolor="#fffffe"] ;
186 -> 190 ;
191 [label="squared_error = 0.0\nsamples = 1\nvalue = 621.9", fillcolor="#fffffe"] ;
190 -> 191 ;
192 [label="squared_error = 0.0\nsamples = 1\nvalue = 620.8", fillcolor="#fffffe"] ;
190 -> 192 ;
193 [label="BTC_low <= 629.95\nsquared_error = 9.29\nsamples = 9\nvalue = 635.78", fillcolor="#fffffe"] ;
153 -> 193 ;
194 [label="difficulty <= 256070492160.0\nsquared_error = 1.21\nsamples = 2\nvalue = 629.4", fillcolor="#fffffe"] ;
193 -> 194 ;
195 [label="squared_error = 0.0\nsamples = 1\nvalue = 630.5", fillcolor="#fffffe"] ;
194 -> 195 ;
196 [label="squared_error = -0.0\nsamples = 1\nvalue = 628.3", fillcolor="#fffffe"] ;
194 -> 196 ;
197 [label="BTC_open <= 639.2\nsquared_error = 2.02\nsamples = 7\nvalue = 636.94", fillcolor="#fffffe"] ;
193 -> 197 ;
198 [label="BTC_open <= 636.75\nsquared_error = 0.83\nsamples = 6\nvalue = 636.58", fillcolor="#fffffe"] ;
197 -> 198 ;
199 [label="mean_tx_size_usd <= 2090.84\nsquared_error = 0.24\nsamples = 3\nvalue = 635.93", fillcolor="#fffffe"] ;
198 -> 199 ;
200 [label="sum_lock_weight <= 476015200.0\nsquared_error = 0.06\nsamples = 2\nvalue = 636.25", fillcolor="#fffffe"] ;
199 -> 200 ;
201 [label="squared_error = 0.0\nsamples = 1\nvalue = 636.0", fillcolor="#fffffe"] ;
200 -> 201 ;
202 [label="squared_error = 0.0\nsamples = 1\nvalue = 636.5", fillcolor="#fffffe"] ;
200 -> 202 ;
203 [label="squared_error = -0.0\nsamples = 1\nvalue = 635.3", fillcolor="#fffffe"] ;
199 -> 203 ;
204 [label="mean_tx_size_usd <= 3217.81\nsquared_error = 0.14\nsamples = 3\nvalue = 637.55", fillcolor="#fffffe"] ;
198 -> 204 ;
205 [label="sum_lock_weight <= 461136096.0\nsquared_error = 0.04\nsamples = 2\nvalue = 637.2", fillcolor="#fffffe"] ;
204 -> 205 ;
206 [label="squared_error = 0.0\nsamples = 1\nvalue = 637.0", fillcolor="#fffffe"] ;
205 -> 206 ;
207 [label="squared_error = -0.0\nsamples = 1\nvalue = 637.4", fillcolor="#fffffe"] ;
205 -> 207 ;
208 [label="squared_error = -0.0\nsamples = 1\nvalue = 637.9", fillcolor="#fffffe"] ;
204 -> 208 ;
209 [label="squared_error = 0.0\nsamples = 1\nvalue = 640.5", fillcolor="#fffffe"] ;
197 -> 209 ;
210 [label="BTC_open <= 792.25\nsquared_error = 7264.88\nsamples = 87\nvalue = 754.07", fillcolor="#fffefe"] ;
4 -> 210 ;
211 [label="BTC_open <= 707.65\nsquared_error = 1844.53\nsamples = 68\nvalue = 710.39", fillcolor="#fffefe"] ;
210 -> 211 ;
212 [label="BTC_open <= 679.8\nsquared_error = 327.56\nsamples = 36\nvalue = 671.27", fillcolor="#fffffe"] ;
211 -> 212 ;
213 [label="BTC_open <= 660.0\nsquared_error = 75.8\nsamples = 27\nvalue = 660.69", fillcolor="#fffffe"] ;
212 -> 213 ;
214 [label="BTC_open <= 649.05\nsquared_error = 13.07\nsamples = 13\nvalue = 652.48", fillcolor="#fffffe"] ;
213 -> 214 ;
215 [label="BTC_low <= 637.15\nsquared_error = 1.1\nsamples = 3\nvalue = 646.17", fillcolor="#fffffe"] ;
214 -> 215 ;
216 [label="squared_error = 0.0\nsamples = 1\nvalue = 644.7", fillcolor="#fffffe"] ;
215 -> 216 ;
217 [label="JP225 <= 15930.0\nsquared_error = 0.04\nsamples = 2\nvalue = 646.9", fillcolor="#fffffe"] ;
215 -> 217 ;
218 [label="squared_error = 0.0\nsamples = 1\nvalue = 647.1", fillcolor="#fffffe"] ;
217 -> 218 ;
219 [label="squared_error = -0.0\nsamples = 1\nvalue = 646.7", fillcolor="#fffffe"] ;
217 -> 219 ;
220 [label="BTC_open <= 652.9\nsquared_error = 4.51\nsamples = 10\nvalue = 653.94", fillcolor="#fffffe"] ;
214 -> 220 ;
221 [label="BTC_open <= 651.45\nsquared_error = 0.14\nsamples = 3\nvalue = 651.42", fillcolor="#fffffe"] ;
220 -> 221 ;
222 [label="BTC_open <= 651.05\nsquared_error = 0.0\nsamples = 2\nvalue = 651.05", fillcolor="#fffffe"] ;
221 -> 222 ;
223 [label="squared_error = 0.0\nsamples = 1\nvalue = 651.0", fillcolor="#fffffe"] ;
222 -> 223 ;
224 [label="squared_error = 0.0\nsamples = 1\nvalue = 651.1", fillcolor="#fffffe"] ;
222 -> 224 ;
225 [label="squared_error = 0.0\nsamples = 1\nvalue = 651.8", fillcolor="#fffffe"] ;
221 -> 225 ;
226 [label="BTC_open <= 657.35\nsquared_error = 2.4\nsamples = 7\nvalue = 655.06", fillcolor="#fffffe"] ;
220 -> 226 ;
227 [label="total_fees_usd <= 44880.22\nsquared_error = 0.16\nsamples = 6\nvalue = 654.53", fillcolor="#fffffe"] ;
226 -> 227 ;
228 [label="squared_error = 0.0\nsamples = 1\nvalue = 655.4", fillcolor="#fffffe"] ;
227 -> 228 ;
229 [label="COPPER <= 2.22\nsquared_error = 0.06\nsamples = 5\nvalue = 654.4", fillcolor="#fffffe"] ;
227 -> 229 ;
230 [label="total_fees_usd <= 46877.2\nsquared_error = 0.02\nsamples = 3\nvalue = 654.54", fillcolor="#fffffe"] ;
229 -> 230 ;
231 [label="squared_error = 0.0\nsamples = 1\nvalue = 654.7", fillcolor="#fffffe"] ;
230 -> 231 ;
232 [label="BTC_open <= 654.45\nsquared_error = 0.0\nsamples = 2\nvalue = 654.43", fillcolor="#fffffe"] ;
230 -> 232 ;
233 [label="squared_error = 0.0\nsamples = 1\nvalue = 654.4", fillcolor="#fffffe"] ;
232 -> 233 ;
234 [label="squared_error = 0.0\nsamples = 1\nvalue = 654.5", fillcolor="#fffffe"] ;
232 -> 234 ;
235 [label="SILVER <= 20.04\nsquared_error = 0.0\nsamples = 2\nvalue = 654.05", fillcolor="#fffffe"] ;
229 -> 235 ;
236 [label="squared_error = 0.0\nsamples = 1\nvalue = 654.0", fillcolor="#fffffe"] ;
235 -> 236 ;
237 [label="squared_error = 0.0\nsamples = 1\nvalue = 654.1", fillcolor="#fffffe"] ;
235 -> 237 ;
238 [label="squared_error = -0.0\nsamples = 1\nvalue = 659.3", fillcolor="#fffffe"] ;
226 -> 238 ;
239 [label="BTC_open <= 668.7\nsquared_error = 18.31\nsamples = 14\nvalue = 667.99", fillcolor="#fffffe"] ;
213 -> 239 ;
240 [label="mean_lock_size_ytes <= 869748.72\nsquared_error = 3.93\nsamples = 8\nvalue = 664.62", fillcolor="#fffffe"] ;
239 -> 240 ;
241 [label="BTC_open <= 661.75\nsquared_error = 1.53\nsamples = 6\nvalue = 663.22", fillcolor="#fffffe"] ;
240 -> 241 ;
242 [label="squared_error = 0.0\nsamples = 1\nvalue = 660.7", fillcolor="#fffffe"] ;
241 -> 242 ;
243 [label="BTC_open <= 663.95\nsquared_error = 0.32\nsamples = 5\nvalue = 663.72", fillcolor="#fffffe"] ;
241 -> 243 ;
244 [label="mean_hash_rate <= 1550378.81\nsquared_error = 0.15\nsamples = 3\nvalue = 663.33", fillcolor="#fffffe"] ;
243 -> 244 ;
245 [label="difficulty <= 211426041856.0\nsquared_error = 0.01\nsamples = 2\nvalue = 663.6", fillcolor="#fffffe"] ;
244 -> 245 ;
246 [label="squared_error = 0.0\nsamples = 1\nvalue = 663.5", fillcolor="#fffffe"] ;
245 -> 246 ;
247 [label="squared_error = 0.0\nsamples = 1\nvalue = 663.7", fillcolor="#fffffe"] ;
245 -> 247 ;
248 [label="squared_error = 0.0\nsamples = 1\nvalue = 662.8", fillcolor="#fffffe"] ;
244 -> 248 ;
249 [label="addresses_active_count <= 460238.5\nsquared_error = 0.01\nsamples = 2\nvalue = 664.3", fillcolor="#fffffe"] ;
243 -> 249 ;
250 [label="squared_error = 0.0\nsamples = 1\nvalue = 664.4", fillcolor="#fffffe"] ;
249 -> 250 ;
251 [label="squared_error = 0.0\nsamples = 1\nvalue = 664.2", fillcolor="#fffffe"] ;
249 -> 251 ;
252 [label="mean_lock_size_ytes <= 937437.94\nsquared_error = 0.15\nsamples = 2\nvalue = 666.72", fillcolor="#fffffe"] ;
240 -> 252 ;
253 [label="squared_error = 0.0\nsamples = 1\nvalue = 666.5", fillcolor="#fffffe"] ;
252 -> 253 ;
254 [label="squared_error = -0.0\nsamples = 1\nvalue = 667.4", fillcolor="#fffffe"] ;
252 -> 254 ;
255 [label="mean_tx_size_usd <= 2340.87\nsquared_error = 4.25\nsamples = 6\nvalue = 672.21", fillcolor="#fffffe"] ;
239 -> 255 ;
256 [label="JP225 <= 15950.0\nsquared_error = 0.07\nsamples = 3\nvalue = 670.25", fillcolor="#fffffe"] ;
255 -> 256 ;
257 [label="squared_error = 0.0\nsamples = 1\nvalue = 670.0", fillcolor="#fffffe"] ;
256 -> 257 ;
258 [label="DJI <= 18384.0\nsquared_error = 0.01\nsamples = 2\nvalue = 670.5", fillcolor="#fffffe"] ;
256 -> 258 ;
259 [label="squared_error = 0.0\nsamples = 1\nvalue = 670.6", fillcolor="#fffffe"] ;
258 -> 259 ;
260 [label="squared_error = 0.0\nsamples = 1\nvalue = 670.4", fillcolor="#fffffe"] ;
258 -> 260 ;
261 [label="BTC_low <= 638.25\nsquared_error = 0.73\nsamples = 3\nvalue = 674.18", fillcolor="#fffffe"] ;
255 -> 261 ;
262 [label="squared_error = 0.0\nsamples = 1\nvalue = 672.7", fillcolor="#fffffe"] ;
261 -> 262 ;
263 [label="xfer_cnt <= 567229.0\nsquared_error = 0.0\nsamples = 2\nvalue = 674.67", fillcolor="#fffefe"] ;
261 -> 263 ;
264 [label="squared_error = 0.0\nsamples = 1\nvalue = 674.6", fillcolor="#fffefe"] ;
263 -> 264 ;
265 [label="squared_error = 0.0\nsamples = 1\nvalue = 674.7", fillcolor="#fffefe"] ;
263 -> 265 ;
266 [label="GOLD <= 1288.2\nsquared_error = 70.13\nsamples = 9\nvalue = 695.24", fillcolor="#fffefe"] ;
212 -> 266 ;
267 [label="BTC_open <= 703.2\nsquared_error = 5.07\nsamples = 6\nvalue = 702.74", fillcolor="#fffefe"] ;
266 -> 267 ;
268 [label="SILVER <= 8.72\nsquared_error = 2.07\nsamples = 3\nvalue = 700.75", fillcolor="#fffefe"] ;
267 -> 268 ;
269 [label="squared_error = 0.0\nsamples = 1\nvalue = 702.1", fillcolor="#fffefe"] ;
268 -> 269 ;
270 [label="BTC_low <= 674.95\nsquared_error = 0.49\nsamples = 2\nvalue = 699.4", fillcolor="#fffefe"] ;
268 -> 270 ;
271 [label="squared_error = 0.0\nsamples = 1\nvalue = 700.1", fillcolor="#fffefe"] ;
270 -> 271 ;
272 [label="squared_error = -0.0\nsamples = 1\nvalue = 698.7", fillcolor="#fffefe"] ;
270 -> 272 ;
273 [label="xfer_cnt <= 643637.0\nsquared_error = 0.17\nsamples = 3\nvalue = 704.72", fillcolor="#fffefe"] ;
267 -> 273 ;
274 [label="addresses_active_count <= 589432.0\nsquared_error = 0.02\nsamples = 2\nvalue = 704.5", fillcolor="#fffefe"] ;
273 -> 274 ;
275 [label="squared_error = 0.0\nsamples = 1\nvalue = 704.3", fillcolor="#fffefe"] ;
274 -> 275 ;
276 [label="squared_error = 0.0\nsamples = 1\nvalue = 704.6", fillcolor="#fffefe"] ;
274 -> 276 ;
277 [label="squared_error = -0.0\nsamples = 1\nvalue = 705.4", fillcolor="#fffefe"] ;
273 -> 277 ;
278 [label="mean_hash_rate <= 1457327.81\nsquared_error = 6.82\nsamples = 3\nvalue = 686.67", fillcolor="#fffefe"] ;
266 -> 278 ;
279 [label="squared_error = 0.0\nsamples = 1\nvalue = 690.8", fillcolor="#fffefe"] ;
278 -> 279 ;
280 [label="BTC_low <= 675.9\nsquared_error = 0.01\nsamples = 2\nvalue = 685.02", fillcolor="#fffefe"] ;
278 -> 280 ;
281 [label="squared_error = 0.0\nsamples = 1\nvalue = 685.1", fillcolor="#fffefe"] ;
280 -> 281 ;
282 [label="squared_error = -0.0\nsamples = 1\nvalue = 684.9", fillcolor="#fffefe"] ;
280 -> 282 ;
283 [label="BTC_open <= 743.7\nsquared_error = 523.38\nsamples = 32\nvalue = 746.57", fillcolor="#fffefe"] ;
211 -> 283 ;
284 [label="BTC_open <= 724.1\nsquared_error = 102.88\nsamples = 14\nvalue = 724.51", fillcolor="#fffefe"] ;
283 -> 284 ;
285 [label="BTC_open <= 718.2\nsquared_error = 14.83\nsamples = 5\nvalue = 714.28", fillcolor="#fffefe"] ;
284 -> 285 ;
286 [label="total_fees_usd <= 53096.49\nsquared_error = 4.36\nsamples = 4\nvalue = 712.7", fillcolor="#fffefe"] ;
285 -> 286 ;
287 [label="squared_error = 0.0\nsamples = 2\nvalue = 715.0", fillcolor="#fffefe"] ;
286 -> 287 ;
288 [label="total_fees_usd <= 62146.34\nsquared_error = 0.23\nsamples = 2\nvalue = 710.86", fillcolor="#fffefe"] ;
286 -> 288 ;
289 [label="squared_error = 0.0\nsamples = 1\nvalue = 711.1", fillcolor="#fffefe"] ;
288 -> 289 ;
290 [label="squared_error = -0.0\nsamples = 1\nvalue = 709.9", fillcolor="#fffefe"] ;
288 -> 290 ;
291 [label="squared_error = -0.0\nsamples = 1\nvalue = 721.4", fillcolor="#fffefe"] ;
285 -> 291 ;
292 [label="BTC_open <= 730.55\nsquared_error = 14.01\nsamples = 9\nvalue = 733.16", fillcolor="#fffefe"] ;
284 -> 292 ;
293 [label="BTC_high <= 740.05\nsquared_error = 0.64\nsamples = 2\nvalue = 727.37", fillcolor="#fffefe"] ;
292 -> 293 ;
294 [label="squared_error = 0.0\nsamples = 1\nvalue = 726.8", fillcolor="#fffefe"] ;
293 -> 294 ;
295 [label="squared_error = 0.0\nsamples = 1\nvalue = 728.5", fillcolor="#fffefe"] ;
293 -> 295 ;
296 [label="BTC_open <= 736.4\nsquared_error = 4.93\nsamples = 7\nvalue = 734.9", fillcolor="#fffefe"] ;
292 -> 296 ;
297 [label="DJI <= 19138.0\nsquared_error = 0.51\nsamples = 5\nvalue = 733.89", fillcolor="#fffefe"] ;
296 -> 297 ;
298 [label="BTC_open <= 733.05\nsquared_error = 0.26\nsamples = 4\nvalue = 733.69", fillcolor="#fffefe"] ;
297 -> 298 ;
299 [label="squared_error = 0.0\nsamples = 1\nvalue = 732.6", fillcolor="#fffefe"] ;
298 -> 299 ;
300 [label="SILVER <= 17.9\nsquared_error = 0.07\nsamples = 3\nvalue = 733.87", fillcolor="#fffefe"] ;
298 -> 300 ;
301 [label="SILVER <= 8.67\nsquared_error = 0.0\nsamples = 2\nvalue = 734.05", fillcolor="#fffefe"] ;
300 -> 301 ;
302 [label="squared_error = 0.0\nsamples = 1\nvalue = 734.1", fillcolor="#fffefe"] ;
301 -> 302 ;
303 [label="squared_error = 0.0\nsamples = 1\nvalue = 734.0", fillcolor="#fffefe"] ;
301 -> 303 ;
304 [label="squared_error = 0.0\nsamples = 1\nvalue = 733.5", fillcolor="#fffefe"] ;
300 -> 304 ;
305 [label="squared_error = -0.0\nsamples = 1\nvalue = 735.3", fillcolor="#fffefe"] ;
297 -> 305 ;
306 [label="addresses_active_count <= 639558.5\nsquared_error = 2.1\nsamples = 2\nvalue = 738.95", fillcolor="#fffefe"] ;
296 -> 306 ;
307 [label="squared_error = 0.0\nsamples = 1\nvalue = 737.5", fillcolor="#fffefe"] ;
306 -> 307 ;
308 [label="squared_error = -0.0\nsamples = 1\nvalue = 740.4", fillcolor="#fffefe"] ;
306 -> 308 ;
309 [label="BTC_open <= 769.2\nsquared_error = 135.5\nsamples = 18\nvalue = 764.82", fillcolor="#fffefe"] ;
283 -> 309 ;
310 [label="BTC_open <= 756.25\nsquared_error = 46.53\nsamples = 13\nvalue = 758.18", fillcolor="#fffefe"] ;
309 -> 310 ;
311 [label="BTC_low <= 738.9\nsquared_error = 7.5\nsamples = 6\nvalue = 751.31", fillcolor="#fffefe"] ;
310 -> 311 ;
312 [label="BTC_high <= 751.6\nsquared_error = 0.96\nsamples = 3\nvalue = 748.38", fillcolor="#fffefe"] ;
311 -> 312 ;
313 [label="squared_error = 0.0\nsamples = 1\nvalue = 749.3", fillcolor="#fffefe"] ;
312 -> 313 ;
314 [label="BTC_high <= 753.8\nsquared_error = 0.2\nsamples = 2\nvalue = 747.45", fillcolor="#fffefe"] ;
312 -> 314 ;
315 [label="squared_error = 0.0\nsamples = 1\nvalue = 747.9", fillcolor="#fffefe"] ;
314 -> 315 ;
316 [label="squared_error = -0.0\nsamples = 1\nvalue = 747.0", fillcolor="#fffefe"] ;
314 -> 316 ;
317 [label="SILVER <= 16.79\nsquared_error = 0.32\nsamples = 3\nvalue = 753.66", fillcolor="#fffefe"] ;
311 -> 317 ;
318 [label="sum_lock_weight <= 540358160.0\nsquared_error = 0.05\nsamples = 2\nvalue = 753.92", fillcolor="#fffefe"] ;
317 -> 318 ;
319 [label="squared_error = 0.0\nsamples = 1\nvalue = 753.8", fillcolor="#fffefe"] ;
318 -> 319 ;
320 [label="squared_error = -0.0\nsamples = 1\nvalue = 754.3", fillcolor="#fffefe"] ;
318 -> 320 ;
321 [label="squared_error = -0.0\nsamples = 1\nvalue = 752.6", fillcolor="#fffefe"] ;
317 -> 321 ;
322 [label="SILVER <= 17.2\nsquared_error = 8.17\nsamples = 7\nvalue = 763.81", fillcolor="#fffefe"] ;
310 -> 322 ;
323 [label="BTC_open <= 766.0\nsquared_error = 1.47\nsamples = 4\nvalue = 765.76", fillcolor="#fffefe"] ;
322 -> 323 ;
324 [label="addresses_active_count <= 651330.0\nsquared_error = 0.49\nsamples = 2\nvalue = 764.9", fillcolor="#fffefe"] ;
323 -> 324 ;
325 [label="squared_error = 0.0\nsamples = 1\nvalue = 764.2", fillcolor="#fffefe"] ;
324 -> 325 ;
326 [label="squared_error = -0.0\nsamples = 1\nvalue = 765.6", fillcolor="#fffefe"] ;
324 -> 326 ;
327 [label="mean_tx_size_usd <= 1732.22\nsquared_error = 0.5\nsamples = 2\nvalue = 766.9", fillcolor="#fffefe"] ;
323 -> 327 ;
328 [label="squared_error = 0.0\nsamples = 1\nvalue = 767.9", fillcolor="#fffefe"] ;
327 -> 328 ;
329 [label="squared_error = 0.0\nsamples = 1\nvalue = 766.4", fillcolor="#fffefe"] ;
327 -> 329 ;
330 [label="GOLD <= 1234.8\nsquared_error = 1.62\nsamples = 3\nvalue = 760.4", fillcolor="#fffefe"] ;
322 -> 330 ;
331 [label="squared_error = 0.0\nsamples = 1\nvalue = 758.2", fillcolor="#fffefe"] ;
330 -> 331 ;
332 [label="BTC_high <= 768.25\nsquared_error = 0.01\nsamples = 2\nvalue = 761.13", fillcolor="#fffefe"] ;
330 -> 332 ;
333 [label="squared_error = 0.0\nsamples = 1\nvalue = 761.0", fillcolor="#fffefe"] ;
332 -> 333 ;
334 [label="squared_error = 0.0\nsamples = 1\nvalue = 761.2", fillcolor="#fffefe"] ;
332 -> 334 ;
335 [label="mean_lock_size_ytes <= 854283.19\nsquared_error = 17.92\nsamples = 5\nvalue = 779.57", fillcolor="#fffefe"] ;
309 -> 335 ;
336 [label="SILVER <= 16.88\nsquared_error = 4.89\nsamples = 3\nvalue = 781.49", fillcolor="#fffefe"] ;
335 -> 336 ;
337 [label="difficulty <= 323526901760.0\nsquared_error = 1.85\nsamples = 2\nvalue = 782.68", fillcolor="#fffefe"] ;
336 -> 337 ;
338 [label="squared_error = 0.0\nsamples = 1\nvalue = 782.0", fillcolor="#fffefe"] ;
337 -> 338 ;
339 [label="squared_error = 0.0\nsamples = 1\nvalue = 785.4", fillcolor="#fffefe"] ;
337 -> 339 ;
340 [label="squared_error = 0.0\nsamples = 1\nvalue = 778.5", fillcolor="#fffefe"] ;
336 -> 340 ;
341 [label="addresses_active_count <= 614091.0\nsquared_error = 5.52\nsamples = 2\nvalue = 772.85", fillcolor="#fffefe"] ;
335 -> 341 ;
342 [label="squared_error = 0.0\nsamples = 1\nvalue = 770.5", fillcolor="#fffefe"] ;
341 -> 342 ;
343 [label="squared_error = 0.0\nsamples = 1\nvalue = 775.2", fillcolor="#fffefe"] ;
341 -> 343 ;
344 [label="BTC_open <= 850.6\nsquared_error = 1901.74\nsamples = 19\nvalue = 877.83", fillcolor="#fffefe"] ;
210 -> 344 ;
345 [label="mean_tx_size_usd <= 2305.45\nsquared_error = 112.58\nsamples = 6\nvalue = 817.45", fillcolor="#fffefe"] ;
344 -> 345 ;
346 [label="difficulty <= 323526901760.0\nsquared_error = 11.25\nsamples = 4\nvalue = 824.8", fillcolor="#fffefe"] ;
345 -> 346 ;
347 [label="squared_error = 0.0\nsamples = 1\nvalue = 829.2", fillcolor="#fffefe"] ;
346 -> 347 ;
348 [label="mean_tx_size_usd <= 1419.2\nsquared_error = 4.9\nsamples = 3\nvalue = 823.04", fillcolor="#fffefe"] ;
346 -> 348 ;
349 [label="squared_error = 0.0\nsamples = 1\nvalue = 824.8", fillcolor="#fffefe"] ;
348 -> 349 ;
350 [label="mean_lock_size_ytes <= 717603.28\nsquared_error = 0.64\nsamples = 2\nvalue = 820.4", fillcolor="#fffefe"] ;
348 -> 350 ;
351 [label="squared_error = 0.0\nsamples = 1\nvalue = 819.6", fillcolor="#fffefe"] ;
350 -> 351 ;
352 [label="squared_error = -0.0\nsamples = 1\nvalue = 821.2", fillcolor="#fffefe"] ;
350 -> 352 ;
353 [label="SILVER <= 16.36\nsquared_error = 30.25\nsamples = 2\nvalue = 804.6", fillcolor="#fffefe"] ;
345 -> 353 ;
354 [label="squared_error = 0.0\nsamples = 1\nvalue = 799.1", fillcolor="#fffefe"] ;
353 -> 354 ;
355 [label="squared_error = 0.0\nsamples = 1\nvalue = 810.1", fillcolor="#fffefe"] ;
353 -> 355 ;
356 [label="BTC_open <= 907.1\nsquared_error = 379.54\nsamples = 13\nvalue = 904.39", fillcolor="#fffefe"] ;
344 -> 356 ;
357 [label="BTC_open <= 879.1\nsquared_error = 124.14\nsamples = 6\nvalue = 886.9", fillcolor="#fffefe"] ;
356 -> 357 ;
358 [label="squared_error = 0.0\nsamples = 1\nvalue = 872.0", fillcolor="#fffefe"] ;
357 -> 358 ;
359 [label="SILVER <= 7.98\nsquared_error = 19.7\nsamples = 5\nvalue = 894.35", fillcolor="#fffefe"] ;
357 -> 359 ;
360 [label="addresses_active_count <= 617612.5\nsquared_error = 1.82\nsamples = 2\nvalue = 887.55", fillcolor="#fffefe"] ;
359 -> 360 ;
361 [label="squared_error = 0.0\nsamples = 1\nvalue = 888.9", fillcolor="#fffefe"] ;
360 -> 361 ;
362 [label="squared_error = 0.0\nsamples = 1\nvalue = 886.2", fillcolor="#fffefe"] ;
360 -> 362 ;
363 [label="BTC_open <= 896.4\nsquared_error = 5.1\nsamples = 3\nvalue = 896.62", fillcolor="#fffefe"] ;
359 -> 363 ;
364 [label="squared_error = -0.0\nsamples = 1\nvalue = 894.4", fillcolor="#fffefe"] ;
363 -> 364 ;
365 [label="total_fees_usd <= 93372.86\nsquared_error = 0.38\nsamples = 2\nvalue = 898.83", fillcolor="#fffefe"] ;
363 -> 365 ;
366 [label="squared_error = 0.0\nsamples = 1\nvalue = 898.4", fillcolor="#fffefe"] ;
365 -> 366 ;
367 [label="squared_error = 0.0\nsamples = 1\nvalue = 899.7", fillcolor="#fffefe"] ;
365 -> 367 ;
368 [label="BTC_high <= 967.2\nsquared_error = 72.17\nsamples = 7\nvalue = 920.54", fillcolor="#fffefd"] ;
356 -> 368 ;
369 [label="SPX <= 2280.48\nsquared_error = 6.39\nsamples = 6\nvalue = 917.05", fillcolor="#fffefd"] ;
368 -> 369 ;
370 [label="sum_lock_weight <= 575734848.0\nsquared_error = 1.1\nsamples = 4\nvalue = 919.68", fillcolor="#fffefd"] ;
369 -> 370 ;
371 [label="BTC_open <= 919.3\nsquared_error = 0.34\nsamples = 3\nvalue = 919.22", fillcolor="#fffefd"] ;
370 -> 371 ;
372 [label="BTC_low <= 911.75\nsquared_error = 0.02\nsamples = 2\nvalue = 918.65", fillcolor="#fffefd"] ;
371 -> 372 ;
373 [label="squared_error = 0.0\nsamples = 1\nvalue = 918.8", fillcolor="#fffefd"] ;
372 -> 373 ;
374 [label="squared_error = 0.0\nsamples = 1\nvalue = 918.5", fillcolor="#fffefd"] ;
372 -> 374 ;
375 [label="squared_error = 0.0\nsamples = 1\nvalue = 919.8", fillcolor="#fffefd"] ;
371 -> 375 ;
376 [label="squared_error = -0.0\nsamples = 1\nvalue = 921.5", fillcolor="#fffefd"] ;
370 -> 376 ;
377 [label="xfer_cnt <= 569025.5\nsquared_error = 0.27\nsamples = 2\nvalue = 914.87", fillcolor="#fffefe"] ;
369 -> 377 ;
378 [label="squared_error = 0.0\nsamples = 1\nvalue = 914.5", fillcolor="#fffefe"] ;
377 -> 378 ;
379 [label="squared_error = 0.0\nsamples = 1\nvalue = 915.6", fillcolor="#fffefe"] ;
377 -> 379 ;
380 [label="squared_error = 0.0\nsamples = 1\nvalue = 939.7", fillcolor="#fffefd"] ;
368 -> 380 ;
381 [label="BTC_open <= 1496.7\nsquared_error = 105499.71\nsamples = 80\nvalue = 1268.3", fillcolor="#fffdfc"] ;
3 -> 381 ;
382 [label="BTC_open <= 1138.6\nsquared_error = 13341.49\nsamples = 64\nvalue = 1127.36", fillcolor="#fffefd"] ;
381 -> 382 ;
383 [label="BTC_open <= 1070.8\nsquared_error = 2238.33\nsamples = 33\nvalue = 1039.85", fillcolor="#fffefd"] ;
382 -> 383 ;
384 [label="BTC_open <= 1020.85\nsquared_error = 745.81\nsamples = 26\nvalue = 1018.92", fillcolor="#fffefd"] ;
383 -> 384 ;
385 [label="BTC_open <= 985.85\nsquared_error = 300.55\nsamples = 13\nvalue = 996.27", fillcolor="#fffefd"] ;
384 -> 385 ;
386 [label="SPX <= 2280.2\nsquared_error = 98.36\nsamples = 4\nvalue = 968.98", fillcolor="#fffefd"] ;
385 -> 386 ;
387 [label="total_fees_usd <= 115498.68\nsquared_error = 9.39\nsamples = 2\nvalue = 961.17", fillcolor="#fffefd"] ;
386 -> 387 ;
388 [label="squared_error = 0.0\nsamples = 1\nvalue = 959.0", fillcolor="#fffefd"] ;
387 -> 388 ;
389 [label="squared_error = 0.0\nsamples = 1\nvalue = 965.5", fillcolor="#fffefd"] ;
387 -> 389 ;
390 [label="BTC_low <= 960.25\nsquared_error = 2.89\nsamples = 2\nvalue = 980.7", fillcolor="#fffefd"] ;
386 -> 390 ;
391 [label="squared_error = 0.0\nsamples = 1\nvalue = 979.0", fillcolor="#fffefd"] ;
390 -> 391 ;
392 [label="squared_error = -0.0\nsamples = 1\nvalue = 982.4", fillcolor="#fffefd"] ;
390 -> 392 ;
393 [label="BTC_low <= 994.95\nsquared_error = 92.3\nsamples = 9\nvalue = 1003.86", fillcolor="#fffefd"] ;
385 -> 393 ;
394 [label="BTC_low <= 913.8\nsquared_error = 5.1\nsamples = 4\nvalue = 995.67", fillcolor="#fffefd"] ;
393 -> 394 ;
395 [label="squared_error = 0.0\nsamples = 1\nvalue = 989.3", fillcolor="#fffefd"] ;
394 -> 395 ;
396 [label="mean_hash_rate <= 2714035.62\nsquared_error = 0.66\nsamples = 3\nvalue = 996.38", fillcolor="#fffefd"] ;
394 -> 396 ;
397 [label="squared_error = 0.0\nsamples = 1\nvalue = 995.4", fillcolor="#fffefd"] ;
396 -> 397 ;
398 [label="sum_lock_weight <= 565480048.0\nsquared_error = 0.27\nsamples = 2\nvalue = 996.87", fillcolor="#fffefd"] ;
396 -> 398 ;
399 [label="squared_error = 0.0\nsamples = 1\nvalue = 997.6", fillcolor="#fffefd"] ;
398 -> 399 ;
400 [label="squared_error = -0.0\nsamples = 1\nvalue = 996.5", fillcolor="#fffefd"] ;
398 -> 400 ;
401 [label="GOLD <= 1232.6\nsquared_error = 12.86\nsamples = 5\nvalue = 1014.09", fillcolor="#fffefd"] ;
393 -> 401 ;
402 [label="DJI <= 9899.0\nsquared_error = 2.0\nsamples = 3\nvalue = 1016.03", fillcolor="#fffefd"] ;
401 -> 402 ;
403 [label="squared_error = 0.0\nsamples = 1\nvalue = 1013.0", fillcolor="#fffefd"] ;
402 -> 403 ;
404 [label="mean_hash_rate <= 2606613.12\nsquared_error = 0.19\nsamples = 2\nvalue = 1016.64", fillcolor="#fffefd"] ;
402 -> 404 ;
405 [label="squared_error = 0.0\nsamples = 1\nvalue = 1017.0", fillcolor="#fffefd"] ;
404 -> 405 ;
406 [label="squared_error = 0.0\nsamples = 1\nvalue = 1016.1", fillcolor="#fffefd"] ;
404 -> 406 ;
407 [label="mean_hash_rate <= 3043000.75\nsquared_error = 0.0\nsamples = 2\nvalue = 1008.25", fillcolor="#fffefd"] ;
401 -> 407 ;
408 [label="squared_error = 0.0\nsamples = 1\nvalue = 1008.3", fillcolor="#fffefd"] ;
407 -> 408 ;
409 [label="squared_error = -0.0\nsamples = 1\nvalue = 1008.2", fillcolor="#fffefd"] ;
407 -> 409 ;
410 [label="BTC_open <= 1039.9\nsquared_error = 56.31\nsamples = 13\nvalue = 1043.73", fillcolor="#fffefd"] ;
384 -> 410 ;
411 [label="BTC_open <= 1028.25\nsquared_error = 19.47\nsamples = 5\nvalue = 1032.54", fillcolor="#fffefd"] ;
410 -> 411 ;
412 [label="squared_error = 0.0\nsamples = 1\nvalue = 1024.7", fillcolor="#fffefd"] ;
411 -> 412 ;
413 [label="BTC_open <= 1036.45\nsquared_error = 5.14\nsamples = 4\nvalue = 1034.5", fillcolor="#fffefd"] ;
411 -> 413 ;
414 [label="COPPER <= 2.59\nsquared_error = 1.71\nsamples = 3\nvalue = 1033.37", fillcolor="#fffefd"] ;
413 -> 414 ;
415 [label="COPPER <= 1.28\nsquared_error = 0.56\nsamples = 2\nvalue = 1032.55", fillcolor="#fffefd"] ;
414 -> 415 ;
416 [label="squared_error = 0.0\nsamples = 1\nvalue = 1031.8", fillcolor="#fffefd"] ;
415 -> 416 ;
417 [label="squared_error = 0.0\nsamples = 1\nvalue = 1033.3", fillcolor="#fffefd"] ;
415 -> 417 ;
418 [label="squared_error = 0.0\nsamples = 1\nvalue = 1035.0", fillcolor="#fffefd"] ;
414 -> 418 ;
419 [label="squared_error = 0.0\nsamples = 1\nvalue = 1037.9", fillcolor="#fffefd"] ;
413 -> 419 ;
420 [label="DJI <= 20362.0\nsquared_error = 16.48\nsamples = 8\nvalue = 1047.23", fillcolor="#fffefd"] ;
410 -> 420 ;
421 [label="BTC_open <= 1050.95\nsquared_error = 4.62\nsamples = 5\nvalue = 1050.88", fillcolor="#fffefd"] ;
420 -> 421 ;
422 [label="addresses_active_count <= 662091.0\nsquared_error = 0.07\nsamples = 3\nvalue = 1049.38", fillcolor="#fffefd"] ;
421 -> 422 ;
423 [label="squared_error = 0.0\nsamples = 1\nvalue = 1048.9", fillcolor="#fffefd"] ;
422 -> 423 ;
424 [label="DJI <= 10001.0\nsquared_error = 0.01\nsamples = 2\nvalue = 1049.5", fillcolor="#fffefd"] ;
422 -> 424 ;
425 [label="squared_error = 0.0\nsamples = 1\nvalue = 1049.4", fillcolor="#fffefd"] ;
424 -> 425 ;
426 [label="squared_error = 0.0\nsamples = 1\nvalue = 1049.6", fillcolor="#fffefd"] ;
424 -> 426 ;
427 [label="mean_tx_size_usd <= 1967.26\nsquared_error = 2.28\nsamples = 2\nvalue = 1053.37", fillcolor="#fffefd"] ;
421 -> 427 ;
428 [label="squared_error = 0.0\nsamples = 1\nvalue = 1052.3", fillcolor="#fffefd"] ;
427 -> 428 ;
429 [label="squared_error = 0.0\nsamples = 1\nvalue = 1055.5", fillcolor="#fffefd"] ;
427 -> 429 ;
430 [label="addresses_active_count <= 684738.5\nsquared_error = 1.7\nsamples = 3\nvalue = 1043.58", fillcolor="#fffefd"] ;
420 -> 430 ;
431 [label="mean_tx_size_usd <= 2382.65\nsquared_error = 0.02\nsamples = 2\nvalue = 1044.58", fillcolor="#fffefd"] ;
430 -> 431 ;
432 [label="squared_error = 0.0\nsamples = 1\nvalue = 1044.4", fillcolor="#fffefd"] ;
431 -> 432 ;
433 [label="squared_error = 0.0\nsamples = 1\nvalue = 1044.7", fillcolor="#fffefd"] ;
431 -> 433 ;
434 [label="squared_error = -0.0\nsamples = 1\nvalue = 1041.9", fillcolor="#fffefd"] ;
430 -> 434 ;
435 [label="mean_lock_size_ytes <= 923343.38\nsquared_error = 218.39\nsamples = 7\nvalue = 1116.58", fillcolor="#fffefd"] ;
383 -> 435 ;
436 [label="addresses_active_count <= 692557.5\nsquared_error = 28.38\nsamples = 2\nvalue = 1093.63", fillcolor="#fffefd"] ;
435 -> 436 ;
437 [label="squared_error = 0.0\nsamples = 1\nvalue = 1086.1", fillcolor="#fffefd"] ;
436 -> 437 ;
438 [label="squared_error = 0.0\nsamples = 1\nvalue = 1097.4", fillcolor="#fffefd"] ;
436 -> 438 ;
439 [label="mean_tx_size_usd <= 2450.63\nsquared_error = 47.81\nsamples = 5\nvalue = 1124.22", fillcolor="#fffefd"] ;
435 -> 439 ;
440 [label="JP225 <= 9680.0\nsquared_error = 9.89\nsamples = 3\nvalue = 1118.58", fillcolor="#fffefd"] ;
439 -> 440 ;
441 [label="squared_error = 0.0\nsamples = 1\nvalue = 1112.4", fillcolor="#fffefd"] ;
440 -> 441 ;
442 [label="BTC_low <= 1104.15\nsquared_error = 0.42\nsamples = 2\nvalue = 1120.12", fillcolor="#fffefd"] ;
440 -> 442 ;
443 [label="squared_error = 0.0\nsamples = 1\nvalue = 1119.0", fillcolor="#fffefd"] ;
442 -> 443 ;
444 [label="squared_error = 0.0\nsamples = 1\nvalue = 1120.5", fillcolor="#fffefd"] ;
442 -> 444 ;
445 [label="addresses_active_count <= 676880.0\nsquared_error = 5.67\nsamples = 2\nvalue = 1131.28", fillcolor="#fffefd"] ;
439 -> 445 ;
446 [label="squared_error = 0.0\nsamples = 1\nvalue = 1135.4", fillcolor="#fffefd"] ;
445 -> 446 ;
447 [label="squared_error = 0.0\nsamples = 1\nvalue = 1129.9", fillcolor="#fffefd"] ;
445 -> 447 ;
448 [label="BTC_open <= 1308.1\nsquared_error = 5768.23\nsamples = 31\nvalue = 1236.26", fillcolor="#fffdfd"] ;
382 -> 448 ;
449 [label="BTC_open <= 1209.3\nsquared_error = 1798.57\nsamples = 26\nvalue = 1209.97", fillcolor="#fffdfd"] ;
448 -> 449 ;
450 [label="BTC_open <= 1160.35\nsquared_error = 335.87\nsamples = 12\nvalue = 1170.78", fillcolor="#fffefd"] ;
449 -> 450 ;
451 [label="total_fees_usd <= 248894.16\nsquared_error = 10.52\nsamples = 3\nvalue = 1144.42", fillcolor="#fffefd"] ;
450 -> 451 ;
452 [label="mean_tx_size_usd <= 2190.59\nsquared_error = 0.56\nsamples = 2\nvalue = 1148.35", fillcolor="#fffefd"] ;
451 -> 452 ;
453 [label="squared_error = 0.0\nsamples = 1\nvalue = 1149.1", fillcolor="#fffefd"] ;
452 -> 453 ;
454 [label="squared_error = -0.0\nsamples = 1\nvalue = 1147.6", fillcolor="#fffefd"] ;
452 -> 454 ;
455 [label="squared_error = 0.0\nsamples = 1\nvalue = 1141.8", fillcolor="#fffefd"] ;
451 -> 455 ;
456 [label="BTC_open <= 1182.85\nsquared_error = 90.87\nsamples = 9\nvalue = 1180.92", fillcolor="#fffefd"] ;
450 -> 456 ;
457 [label="DJI <= 20691.0\nsquared_error = 4.12\nsamples = 5\nvalue = 1175.27", fillcolor="#fffefd"] ;
456 -> 457 ;
458 [label="BTC_open <= 1176.5\nsquared_error = 0.12\nsamples = 3\nvalue = 1176.67", fillcolor="#fffefd"] ;
457 -> 458 ;
459 [label="squared_error = 0.0\nsamples = 1\nvalue = 1176.2", fillcolor="#fffefd"] ;
458 -> 459 ;
460 [label="total_fees_usd <= 202358.23\nsquared_error = 0.01\nsamples = 2\nvalue = 1176.9", fillcolor="#fffefd"] ;
458 -> 460 ;
461 [label="squared_error = 0.0\nsamples = 1\nvalue = 1177.0", fillcolor="#fffefd"] ;
460 -> 461 ;
462 [label="squared_error = -0.0\nsamples = 1\nvalue = 1176.8", fillcolor="#fffefd"] ;
460 -> 462 ;
463 [label="BTC_high <= 1185.35\nsquared_error = 0.38\nsamples = 2\nvalue = 1172.47", fillcolor="#fffefd"] ;
457 -> 463 ;
464 [label="squared_error = 0.0\nsamples = 1\nvalue = 1172.9", fillcolor="#fffefd"] ;
463 -> 464 ;
465 [label="squared_error = -0.0\nsamples = 1\nvalue = 1171.6", fillcolor="#fffefd"] ;
463 -> 465 ;
466 [label="addresses_active_count <= 718063.5\nsquared_error = 52.09\nsamples = 4\nvalue = 1193.65", fillcolor="#fffefd"] ;
456 -> 466 ;
467 [label="JP225 <= 9355.0\nsquared_error = 0.56\nsamples = 3\nvalue = 1189.5", fillcolor="#fffefd"] ;
466 -> 467 ;
468 [label="squared_error = 0.0\nsamples = 1\nvalue = 1190.5", fillcolor="#fffefd"] ;
467 -> 468 ;
469 [label="sum_lock_weight <= 598234016.0\nsquared_error = 0.09\nsamples = 2\nvalue = 1189.0", fillcolor="#fffefd"] ;
467 -> 469 ;
470 [label="squared_error = 0.0\nsamples = 1\nvalue = 1189.3", fillcolor="#fffefd"] ;
469 -> 470 ;
471 [label="squared_error = 0.0\nsamples = 1\nvalue = 1188.7", fillcolor="#fffefd"] ;
469 -> 471 ;
472 [label="squared_error = -0.0\nsamples = 1\nvalue = 1206.1", fillcolor="#fffefd"] ;
466 -> 472 ;
473 [label="BTC_open <= 1252.55\nsquared_error = 489.34\nsamples = 14\nvalue = 1245.24", fillcolor="#fffdfd"] ;
449 -> 473 ;
474 [label="BTC_open <= 1227.7\nsquared_error = 153.82\nsamples = 9\nvalue = 1233.11", fillcolor="#fffdfd"] ;
473 -> 474 ;
475 [label="xfer_cnt <= 643105.5\nsquared_error = 14.82\nsamples = 4\nvalue = 1218.36", fillcolor="#fffdfd"] ;
474 -> 475 ;
476 [label="GOLD <= 1286.15\nsquared_error = 1.82\nsamples = 2\nvalue = 1213.85", fillcolor="#fffdfd"] ;
475 -> 476 ;
477 [label="squared_error = 0.0\nsamples = 1\nvalue = 1215.2", fillcolor="#fffdfd"] ;
476 -> 477 ;
478 [label="squared_error = 0.0\nsamples = 1\nvalue = 1212.5", fillcolor="#fffdfd"] ;
476 -> 478 ;
479 [label="BTC_open <= 1221.7\nsquared_error = 0.89\nsamples = 2\nvalue = 1221.37", fillcolor="#fffdfd"] ;
475 -> 479 ;
480 [label="squared_error = 0.0\nsamples = 1\nvalue = 1220.7", fillcolor="#fffdfd"] ;
479 -> 480 ;
481 [label="squared_error = -0.0\nsamples = 1\nvalue = 1222.7", fillcolor="#fffdfd"] ;
479 -> 481 ;
482 [label="BTC_open <= 1240.65\nsquared_error = 43.1\nsamples = 5\nvalue = 1241.3", fillcolor="#fffdfd"] ;
474 -> 482 ;
483 [label="BTC_high <= 1248.75\nsquared_error = 7.09\nsamples = 3\nvalue = 1235.96", fillcolor="#fffdfd"] ;
482 -> 483 ;
484 [label="squared_error = 0.0\nsamples = 1\nvalue = 1232.7", fillcolor="#fffdfd"] ;
483 -> 484 ;
485 [label="xfer_cnt <= 721163.5\nsquared_error = 0.0\nsamples = 2\nvalue = 1238.13", fillcolor="#fffdfd"] ;
483 -> 485 ;
486 [label="squared_error = 0.0\nsamples = 1\nvalue = 1238.2", fillcolor="#fffdfd"] ;
485 -> 486 ;
487 [label="squared_error = 0.0\nsamples = 1\nvalue = 1238.1", fillcolor="#fffdfd"] ;
485 -> 487 ;
488 [label="COPPER <= 1.33\nsquared_error = 7.92\nsamples = 2\nvalue = 1247.97", fillcolor="#fffdfd"] ;
482 -> 488 ;
489 [label="squared_error = 0.0\nsamples = 1\nvalue = 1249.6", fillcolor="#fffdfd"] ;
488 -> 489 ;
490 [label="squared_error = 0.0\nsamples = 1\nvalue = 1243.1", fillcolor="#fffdfd"] ;
488 -> 490 ;
491 [label="BTC_open <= 1274.1\nsquared_error = 128.23\nsamples = 5\nvalue = 1273.53", fillcolor="#fffdfc"] ;
473 -> 491 ;
492 [label="sum_lock_weight <= 594946656.0\nsquared_error = 41.28\nsamples = 3\nvalue = 1263.67", fillcolor="#fffdfc"] ;
491 -> 492 ;
493 [label="JP225 <= 19320.0\nsquared_error = 11.9\nsamples = 2\nvalue = 1267.75", fillcolor="#fffdfc"] ;
492 -> 493 ;
494 [label="squared_error = 0.0\nsamples = 1\nvalue = 1264.3", fillcolor="#fffdfc"] ;
493 -> 494 ;
495 [label="squared_error = 0.0\nsamples = 1\nvalue = 1271.2", fillcolor="#fffdfc"] ;
493 -> 495 ;
496 [label="squared_error = 0.0\nsamples = 1\nvalue = 1255.5", fillcolor="#fffdfd"] ;
492 -> 496 ;
497 [label="SILVER <= 17.43\nsquared_error = 20.48\nsamples = 2\nvalue = 1283.4", fillcolor="#fffdfc"] ;
491 -> 497 ;
498 [label="squared_error = 0.0\nsamples = 1\nvalue = 1286.6", fillcolor="#fffdfc"] ;
497 -> 498 ;
499 [label="squared_error = -0.0\nsamples = 1\nvalue = 1277.0", fillcolor="#fffdfc"] ;
497 -> 499 ;
500 [label="BTC_open <= 1398.9\nsquared_error = 3186.58\nsamples = 5\nvalue = 1379.01", fillcolor="#fffdfc"] ;
448 -> 500 ;
501 [label="COPPER <= 1.33\nsquared_error = 90.67\nsamples = 3\nvalue = 1344.32", fillcolor="#fffdfc"] ;
500 -> 501 ;
502 [label="sum_lock_weight <= 627932864.0\nsquared_error = 11.22\nsamples = 2\nvalue = 1332.95", fillcolor="#fffdfc"] ;
501 -> 502 ;
503 [label="squared_error = 0.0\nsamples = 1\nvalue = 1336.3", fillcolor="#fffdfc"] ;
502 -> 503 ;
504 [label="squared_error = 0.0\nsamples = 1\nvalue = 1329.6", fillcolor="#fffdfc"] ;
502 -> 504 ;
505 [label="squared_error = -0.0\nsamples = 1\nvalue = 1351.9", fillcolor="#fffdfc"] ;
501 -> 505 ;
506 [label="sum_lock_weight <= 589032224.0\nsquared_error = 394.02\nsamples = 2\nvalue = 1465.75", fillcolor="#fffdfc"] ;
500 -> 506 ;
507 [label="squared_error = 0.0\nsamples = 1\nvalue = 1445.9", fillcolor="#fffdfc"] ;
506 -> 507 ;
508 [label="squared_error = -0.0\nsamples = 1\nvalue = 1485.6", fillcolor="#fffdfc"] ;
506 -> 508 ;
509 [label="BTC_open <= 1843.35\nsquared_error = 57955.57\nsamples = 16\nvalue = 1861.41", fillcolor="#fefcfb"] ;
381 -> 509 ;
510 [label="BTC_open <= 1620.4\nsquared_error = 9270.94\nsamples = 9\nvalue = 1650.57", fillcolor="#fffdfb"] ;
509 -> 510 ;
511 [label="BTC_open <= 1526.55\nsquared_error = 299.47\nsamples = 3\nvalue = 1541.44", fillcolor="#fffdfc"] ;
510 -> 511 ;
512 [label="squared_error = 0.0\nsamples = 1\nvalue = 1507.8", fillcolor="#fffdfc"] ;
511 -> 512 ;
513 [label="BTC_low <= 1524.05\nsquared_error = 20.7\nsamples = 2\nvalue = 1549.85", fillcolor="#fffdfc"] ;
511 -> 513 ;
514 [label="squared_error = 0.0\nsamples = 1\nvalue = 1545.3", fillcolor="#fffdfc"] ;
513 -> 514 ;
515 [label="squared_error = 0.0\nsamples = 1\nvalue = 1554.4", fillcolor="#fffdfc"] ;
513 -> 515 ;
516 [label="BTC_low <= 1655.25\nsquared_error = 1097.13\nsamples = 6\nvalue = 1728.51", fillcolor="#fefdfb"] ;
510 -> 516 ;
517 [label="COPPER <= 1.28\nsquared_error = 112.5\nsamples = 2\nvalue = 1693.9", fillcolor="#fffdfb"] ;
516 -> 517 ;
518 [label="squared_error = 0.0\nsamples = 1\nvalue = 1686.4", fillcolor="#fffdfb"] ;
517 -> 518 ;
519 [label="squared_error = -0.0\nsamples = 1\nvalue = 1708.9", fillcolor="#fefdfb"] ;
517 -> 519 ;
520 [label="mean_tx_size_usd <= 5242.22\nsquared_error = 263.03\nsamples = 4\nvalue = 1754.48", fillcolor="#fefcfb"] ;
516 -> 520 ;
521 [label="BTC_open <= 1758.0\nsquared_error = 69.03\nsamples = 3\nvalue = 1762.87", fillcolor="#fefcfb"] ;
520 -> 521 ;
522 [label="squared_error = 0.0\nsamples = 1\nvalue = 1752.3", fillcolor="#fefcfb"] ;
521 -> 522 ;
523 [label="xfer_cnt <= 814116.0\nsquared_error = 19.8\nsamples = 2\nvalue = 1768.15", fillcolor="#fefcfb"] ;
521 -> 523 ;
524 [label="squared_error = 0.0\nsamples = 1\nvalue = 1772.6", fillcolor="#fefcfb"] ;
523 -> 524 ;
525 [label="squared_error = -0.0\nsamples = 1\nvalue = 1763.7", fillcolor="#fefcfb"] ;
523 -> 525 ;
526 [label="squared_error = -0.0\nsamples = 1\nvalue = 1729.3", fillcolor="#fefdfb"] ;
520 -> 526 ;
527 [label="BTC_open <= 2148.65\nsquared_error = 17728.28\nsamples = 7\nvalue = 2072.26", fillcolor="#fefcfa"] ;
509 -> 527 ;
528 [label="sum_lock_weight <= 566866240.0\nsquared_error = 2963.12\nsamples = 5\nvalue = 2000.87", fillcolor="#fefcfa"] ;
527 -> 528 ;
529 [label="DOGE <= 0.0\nsquared_error = 930.25\nsamples = 2\nvalue = 1944.6", fillcolor="#fefcfa"] ;
528 -> 529 ;
530 [label="squared_error = 0.0\nsamples = 1\nvalue = 1975.1", fillcolor="#fefcfa"] ;
529 -> 530 ;
531 [label="squared_error = 0.0\nsamples = 1\nvalue = 1914.1", fillcolor="#fefcfb"] ;
529 -> 531 ;
532 [label="difficulty <= 577946419200.0\nsquared_error = 30.47\nsamples = 3\nvalue = 2045.88", fillcolor="#fefcfa"] ;
528 -> 532 ;
533 [label="mean_hash_rate <= 4078018.62\nsquared_error = 3.56\nsamples = 2\nvalue = 2041.53", fillcolor="#fefcfa"] ;
532 -> 533 ;
534 [label="squared_error = 0.0\nsamples = 1\nvalue = 2044.2", fillcolor="#fefcfa"] ;
533 -> 534 ;
535 [label="squared_error = -0.0\nsamples = 1\nvalue = 2040.2", fillcolor="#fefcfa"] ;
533 -> 535 ;
536 [label="squared_error = 0.0\nsamples = 1\nvalue = 2052.4", fillcolor="#fefcfa"] ;
532 -> 536 ;
537 [label="BTC_open <= 2275.95\nsquared_error = 862.51\nsamples = 2\nvalue = 2286.43", fillcolor="#fefbf9"] ;
527 -> 537 ;
538 [label="squared_error = 0.0\nsamples = 1\nvalue = 2244.9", fillcolor="#fefcfa"] ;
537 -> 538 ;
539 [label="squared_error = -0.0\nsamples = 1\nvalue = 2307.2", fillcolor="#fefbf9"] ;
537 -> 539 ;
540 [label="BTC_open <= 3732.6\nsquared_error = 738285.34\nsamples = 204\nvalue = 3821.32", fillcolor="#fef9f5"] ;
2 -> 540 ;
541 [label="BTC_low <= 3021.2\nsquared_error = 215528.66\nsamples = 87\nvalue = 3079.54", fillcolor="#fefaf7"] ;
540 -> 541 ;
542 [label="BTC_open <= 2665.95\nsquared_error = 24819.36\nsamples = 43\nvalue = 2654.41", fillcolor="#fefbf8"] ;
541 -> 542 ;
543 [label="BTC_open <= 2487.95\nsquared_error = 6464.21\nsamples = 23\nvalue = 2538.31", fillcolor="#fefbf9"] ;
542 -> 543 ;
544 [label="COPPER <= 2.62\nsquared_error = 2666.35\nsamples = 5\nvalue = 2401.72", fillcolor="#fefbf9"] ;
543 -> 544 ;
545 [label="BTC_low <= 2230.45\nsquared_error = 246.33\nsamples = 3\nvalue = 2440.3", fillcolor="#fefbf9"] ;
544 -> 545 ;
546 [label="squared_error = 0.0\nsamples = 1\nvalue = 2467.3", fillcolor="#fefbf9"] ;
545 -> 546 ;
547 [label="sum_lock_weight <= 585859904.0\nsquared_error = 80.1\nsamples = 2\nvalue = 2433.55", fillcolor="#fefbf9"] ;
545 -> 547 ;
548 [label="squared_error = 0.0\nsamples = 1\nvalue = 2442.5", fillcolor="#fefbf9"] ;
547 -> 548 ;
549 [label="squared_error = -0.0\nsamples = 1\nvalue = 2424.6", fillcolor="#fefbf9"] ;
547 -> 549 ;
550 [label="addresses_active_count <= 760309.5\nsquared_error = 86.24\nsamples = 2\nvalue = 2337.43", fillcolor="#fefbf9"] ;
544 -> 550 ;
551 [label="squared_error = 0.0\nsamples = 1\nvalue = 2324.3", fillcolor="#fefbf9"] ;
550 -> 551 ;
552 [label="squared_error = 0.0\nsamples = 1\nvalue = 2344.0", fillcolor="#fefbf9"] ;
550 -> 552 ;
553 [label="BTC_open <= 2571.3\nsquared_error = 1766.21\nsamples = 18\nvalue = 2571.42", fillcolor="#fefbf9"] ;
543 -> 553 ;
554 [label="BTC_open <= 2530.3\nsquared_error = 341.42\nsamples = 10\nvalue = 2534.31", fillcolor="#fefbf9"] ;
553 -> 554 ;
555 [label="SPX <= 2431.77\nsquared_error = 27.98\nsamples = 4\nvalue = 2513.0", fillcolor="#fefbf9"] ;
554 -> 555 ;
556 [label="mean_tx_size_usd <= 7075.47\nsquared_error = 4.0\nsamples = 3\nvalue = 2510.78", fillcolor="#fefbf9"] ;
555 -> 556 ;
557 [label="COPPER <= 1.32\nsquared_error = 1.39\nsamples = 2\nvalue = 2512.23", fillcolor="#fefbf9"] ;
556 -> 557 ;
558 [label="squared_error = 0.0\nsamples = 1\nvalue = 2513.9", fillcolor="#fefbf9"] ;
557 -> 558 ;
559 [label="squared_error = -0.0\nsamples = 1\nvalue = 2511.4", fillcolor="#fefbf9"] ;
557 -> 559 ;
560 [label="squared_error = 0.0\nsamples = 1\nvalue = 2508.6", fillcolor="#fefbf9"] ;
556 -> 560 ;
561 [label="squared_error = -0.0\nsamples = 1\nvalue = 2524.1", fillcolor="#fefbf9"] ;
555 -> 561 ;
562 [label="XRP <= 0.25\nsquared_error = 93.68\nsamples = 6\nvalue = 2547.09", fillcolor="#fefbf9"] ;
554 -> 562 ;
563 [label="DJI <= 10650.0\nsquared_error = 8.38\nsamples = 3\nvalue = 2560.83", fillcolor="#fefbf9"] ;
562 -> 563 ;
564 [label="squared_error = 0.0\nsamples = 1\nvalue = 2564.9", fillcolor="#fefbf9"] ;
563 -> 564 ;
565 [label="GOLD <= 1251.15\nsquared_error = 0.16\nsamples = 2\nvalue = 2558.8", fillcolor="#fefbf9"] ;
563 -> 565 ;
566 [label="squared_error = 0.0\nsamples = 1\nvalue = 2558.4", fillcolor="#fefbf9"] ;
565 -> 566 ;
567 [label="squared_error = -0.0\nsamples = 1\nvalue = 2559.2", fillcolor="#fefbf9"] ;
565 -> 567 ;
568 [label="BTC_low <= 2492.25\nsquared_error = 14.6\nsamples = 3\nvalue = 2541.2", fillcolor="#fefbf9"] ;
562 -> 568 ;
569 [label="squared_error = 0.0\nsamples = 1\nvalue = 2545.4", fillcolor="#fefbf9"] ;
568 -> 569 ;
570 [label="difficulty <= 710178308096.0\nsquared_error = 2.4\nsamples = 2\nvalue = 2538.05", fillcolor="#fefbf9"] ;
568 -> 570 ;
571 [label="squared_error = 0.0\nsamples = 1\nvalue = 2536.5", fillcolor="#fefbf9"] ;
570 -> 571 ;
572 [label="squared_error = -0.0\nsamples = 1\nvalue = 2539.6", fillcolor="#fefbf9"] ;
570 -> 572 ;
573 [label="BTC_open <= 2602.15\nsquared_error = 590.89\nsamples = 8\nvalue = 2606.35", fillcolor="#fefbf9"] ;
553 -> 573 ;
574 [label="xfer_cnt <= 505636.5\nsquared_error = 17.27\nsamples = 3\nvalue = 2581.57", fillcolor="#fefbf9"] ;
573 -> 574 ;
575 [label="squared_error = 0.0\nsamples = 1\nvalue = 2590.1", fillcolor="#fefbf9"] ;
574 -> 575 ;
576 [label="total_fees_usd <= 647118.31\nsquared_error = 6.0\nsamples = 2\nvalue = 2580.15", fillcolor="#fefbf9"] ;
574 -> 576 ;
577 [label="squared_error = -0.0\nsamples = 1\nvalue = 2582.6", fillcolor="#fefbf9"] ;
576 -> 577 ;
578 [label="squared_error = 0.0\nsamples = 1\nvalue = 2577.7", fillcolor="#fefbf9"] ;
576 -> 578 ;
579 [label="BTC_open <= 2636.2\nsquared_error = 261.97\nsamples = 5\nvalue = 2623.69", fillcolor="#fefbf8"] ;
573 -> 579 ;
580 [label="ETH <= 251.57\nsquared_error = 2.06\nsamples = 3\nvalue = 2615.62", fillcolor="#fefbf8"] ;
579 -> 580 ;
581 [label="squared_error = 0.0\nsamples = 1\nvalue = 2614.2", fillcolor="#fefbf8"] ;
580 -> 581 ;
582 [label="SILVER <= 16.17\nsquared_error = 0.06\nsamples = 2\nvalue = 2617.05", fillcolor="#fefbf8"] ;
580 -> 582 ;
583 [label="squared_error = 0.0\nsamples = 1\nvalue = 2617.3", fillcolor="#fefbf8"] ;
582 -> 583 ;
584 [label="squared_error = -0.0\nsamples = 1\nvalue = 2616.8", fillcolor="#fefbf8"] ;
582 -> 584 ;
585 [label="DJI <= 10661.0\nsquared_error = 0.72\nsamples = 2\nvalue = 2655.95", fillcolor="#fefbf8"] ;
579 -> 585 ;
586 [label="squared_error = 0.0\nsamples = 1\nvalue = 2655.1", fillcolor="#fefbf8"] ;
585 -> 586 ;
587 [label="squared_error = 0.0\nsamples = 1\nvalue = 2656.8", fillcolor="#fefbf8"] ;
585 -> 587 ;
588 [label="BTC_open <= 2838.7\nsquared_error = 7686.38\nsamples = 20\nvalue = 2807.97", fillcolor="#fefaf8"] ;
542 -> 588 ;
589 [label="BTC_open <= 2740.25\nsquared_error = 1476.51\nsamples = 14\nvalue = 2745.57", fillcolor="#fefbf8"] ;
588 -> 589 ;
590 [label="BTC_open <= 2692.75\nsquared_error = 224.86\nsamples = 6\nvalue = 2711.83", fillcolor="#fefbf8"] ;
589 -> 590 ;
591 [label="squared_error = 0.0\nsamples = 1\nvalue = 2675.1", fillcolor="#fefbf8"] ;
590 -> 591 ;
592 [label="BTC_open <= 2716.75\nsquared_error = 63.22\nsamples = 5\nvalue = 2716.42", fillcolor="#fefbf8"] ;
590 -> 592 ;
593 [label="JP225 <= 9940.0\nsquared_error = 1.08\nsamples = 2\nvalue = 2710.92", fillcolor="#fefbf8"] ;
592 -> 593 ;
594 [label="squared_error = 0.0\nsamples = 1\nvalue = 2710.4", fillcolor="#fefbf8"] ;
593 -> 594 ;
595 [label="squared_error = 0.0\nsamples = 1\nvalue = 2713.0", fillcolor="#fefbf8"] ;
593 -> 595 ;
596 [label="BTC_open <= 2728.15\nsquared_error = 32.09\nsamples = 3\nvalue = 2725.6", fillcolor="#fefbf8"] ;
592 -> 596 ;
597 [label="XRP <= 0.23\nsquared_error = 1.32\nsamples = 2\nvalue = 2721.65", fillcolor="#fefbf8"] ;
596 -> 597 ;
598 [label="squared_error = 0.0\nsamples = 1\nvalue = 2720.5", fillcolor="#fefbf8"] ;
597 -> 598 ;
599 [label="squared_error = -0.0\nsamples = 1\nvalue = 2722.8", fillcolor="#fefbf8"] ;
597 -> 599 ;
600 [label="squared_error = 0.0\nsamples = 1\nvalue = 2733.5", fillcolor="#fefbf8"] ;
596 -> 600 ;
601 [label="BTC_open <= 2781.1\nsquared_error = 656.32\nsamples = 8\nvalue = 2775.94", fillcolor="#fefbf8"] ;
589 -> 601 ;
602 [label="DJI <= 21758.5\nsquared_error = 23.24\nsamples = 4\nvalue = 2755.4", fillcolor="#fefbf8"] ;
601 -> 602 ;
603 [label="BTC_high <= 2789.0\nsquared_error = 10.95\nsamples = 3\nvalue = 2757.08", fillcolor="#fefbf8"] ;
602 -> 603 ;
604 [label="squared_error = 0.0\nsamples = 1\nvalue = 2763.4", fillcolor="#fefbf8"] ;
603 -> 604 ;
605 [label="mean_lock_size_ytes <= 939739.38\nsquared_error = 1.21\nsamples = 2\nvalue = 2755.5", fillcolor="#fefbf8"] ;
603 -> 605 ;
606 [label="squared_error = 0.0\nsamples = 1\nvalue = 2756.6", fillcolor="#fefbf8"] ;
605 -> 606 ;
607 [label="squared_error = 0.0\nsamples = 1\nvalue = 2754.4", fillcolor="#fefbf8"] ;
605 -> 607 ;
608 [label="squared_error = 0.0\nsamples = 1\nvalue = 2747.0", fillcolor="#fefbf8"] ;
602 -> 608 ;
609 [label="LTC <= 29.84\nsquared_error = 23.85\nsamples = 4\nvalue = 2806.75", fillcolor="#fefaf8"] ;
601 -> 609 ;
610 [label="squared_error = 0.0\nsamples = 1\nvalue = 2798.8", fillcolor="#fefbf8"] ;
609 -> 610 ;
611 [label="mean_tx_size_usd <= 14470.92\nsquared_error = 3.71\nsamples = 3\nvalue = 2809.4", fillcolor="#fefaf8"] ;
609 -> 611 ;
612 [label="DOGE <= 0.0\nsquared_error = 0.49\nsamples = 2\nvalue = 2810.7", fillcolor="#fefaf8"] ;
611 -> 612 ;
613 [label="squared_error = 0.0\nsamples = 1\nvalue = 2810.0", fillcolor="#fefaf8"] ;
612 -> 613 ;
614 [label="squared_error = 0.0\nsamples = 1\nvalue = 2811.4", fillcolor="#fefaf8"] ;
612 -> 614 ;
615 [label="squared_error = 0.0\nsamples = 1\nvalue = 2806.8", fillcolor="#fefaf8"] ;
611 -> 615 ;
616 [label="BTC_open <= 2936.85\nsquared_error = 1593.5\nsamples = 6\nvalue = 2906.77", fillcolor="#fefaf8"] ;
588 -> 616 ;
617 [label="BTC_open <= 2891.8\nsquared_error = 151.34\nsamples = 5\nvalue = 2884.56", fillcolor="#fefaf8"] ;
616 -> 617 ;
618 [label="mean_tx_size_usd <= 7587.23\nsquared_error = 41.09\nsamples = 4\nvalue = 2876.68", fillcolor="#fefaf8"] ;
617 -> 618 ;
619 [label="GOLD <= 1274.05\nsquared_error = 5.06\nsamples = 2\nvalue = 2868.25", fillcolor="#fefaf8"] ;
618 -> 619 ;
620 [label="squared_error = 0.0\nsamples = 1\nvalue = 2866.0", fillcolor="#fefaf8"] ;
619 -> 620 ;
621 [label="squared_error = 0.0\nsamples = 1\nvalue = 2870.5", fillcolor="#fefaf8"] ;
619 -> 621 ;
622 [label="total_fees_usd <= 276795.38\nsquared_error = 5.76\nsamples = 2\nvalue = 2880.9", fillcolor="#fefaf8"] ;
618 -> 622 ;
623 [label="squared_error = 0.0\nsamples = 1\nvalue = 2883.3", fillcolor="#fefaf8"] ;
622 -> 623 ;
624 [label="squared_error = 0.0\nsamples = 1\nvalue = 2878.5", fillcolor="#fefaf8"] ;
622 -> 624 ;
625 [label="squared_error = 0.0\nsamples = 1\nvalue = 2900.3", fillcolor="#fefaf8"] ;
617 -> 625 ;
626 [label="squared_error = 0.0\nsamples = 1\nvalue = 2973.4", fillcolor="#fefaf7"] ;
616 -> 626 ;
627 [label="BTC_open <= 3522.9\nsquared_error = 11319.86\nsamples = 44\nvalue = 3543.32", fillcolor="#fef9f6"] ;
541 -> 627 ;
628 [label="BTC_low <= 3225.05\nsquared_error = 4923.57\nsamples = 17\nvalue = 3423.45", fillcolor="#fef9f6"] ;
627 -> 628 ;
629 [label="XRP <= 0.29\nsquared_error = 928.12\nsamples = 3\nvalue = 3285.3", fillcolor="#fefaf7"] ;
628 -> 629 ;
630 [label="mean_lock_size_ytes <= 871534.06\nsquared_error = 56.25\nsamples = 2\nvalue = 3255.3", fillcolor="#fefaf7"] ;
629 -> 630 ;
631 [label="squared_error = 0.0\nsamples = 1\nvalue = 3262.8", fillcolor="#fefaf7"] ;
630 -> 631 ;
632 [label="squared_error = 0.0\nsamples = 1\nvalue = 3247.8", fillcolor="#fefaf7"] ;
630 -> 632 ;
633 [label="squared_error = 0.0\nsamples = 1\nvalue = 3315.3", fillcolor="#fefaf6"] ;
629 -> 633 ;
634 [label="BTC_open <= 3450.9\nsquared_error = 1141.89\nsamples = 14\nvalue = 3451.08", fillcolor="#fef9f6"] ;
628 -> 634 ;
635 [label="BTC_open <= 3413.6\nsquared_error = 238.23\nsamples = 7\nvalue = 3415.94", fillcolor="#fef9f6"] ;
634 -> 635 ;
636 [label="ETH <= 111.89\nsquared_error = 18.67\nsamples = 3\nvalue = 3401.85", fillcolor="#fef9f6"] ;
635 -> 636 ;
637 [label="ETH <= 97.09\nsquared_error = 2.89\nsamples = 2\nvalue = 3406.0", fillcolor="#fef9f6"] ;
636 -> 637 ;
638 [label="squared_error = 0.0\nsamples = 1\nvalue = 3407.7", fillcolor="#fef9f6"] ;
637 -> 638 ;
639 [label="squared_error = 0.0\nsamples = 1\nvalue = 3404.3", fillcolor="#fef9f6"] ;
637 -> 639 ;
640 [label="squared_error = 0.0\nsamples = 1\nvalue = 3397.7", fillcolor="#fef9f6"] ;
636 -> 640 ;
641 [label="BTC_open <= 3436.1\nsquared_error = 60.88\nsamples = 4\nvalue = 3430.02", fillcolor="#fef9f6"] ;
635 -> 641 ;
642 [label="JP225 <= 19562.5\nsquared_error = 8.64\nsamples = 3\nvalue = 3425.77", fillcolor="#fef9f6"] ;
641 -> 642 ;
643 [label="mean_tx_size_usd <= 8828.16\nsquared_error = 3.06\nsamples = 2\nvalue = 3423.95", fillcolor="#fef9f6"] ;
642 -> 643 ;
644 [label="squared_error = 0.0\nsamples = 1\nvalue = 3422.2", fillcolor="#fef9f6"] ;
643 -> 644 ;
645 [label="squared_error = 0.0\nsamples = 1\nvalue = 3425.7", fillcolor="#fef9f6"] ;
643 -> 645 ;
646 [label="squared_error = 0.0\nsamples = 1\nvalue = 3429.4", fillcolor="#fef9f6"] ;
642 -> 646 ;
647 [label="squared_error = -0.0\nsamples = 1\nvalue = 3442.8", fillcolor="#fef9f6"] ;
641 -> 647 ;
648 [label="BTC_open <= 3479.15\nsquared_error = 371.71\nsamples = 7\nvalue = 3474.52", fillcolor="#fef9f6"] ;
634 -> 648 ;
649 [label="BTC_open <= 3463.1\nsquared_error = 11.17\nsamples = 4\nvalue = 3461.3", fillcolor="#fef9f6"] ;
648 -> 649 ;
650 [label="BTC_high <= 3482.2\nsquared_error = 0.18\nsamples = 2\nvalue = 3459.4", fillcolor="#fef9f6"] ;
649 -> 650 ;
651 [label="squared_error = 0.0\nsamples = 1\nvalue = 3459.1", fillcolor="#fef9f6"] ;
650 -> 651 ;
652 [label="squared_error = -0.0\nsamples = 1\nvalue = 3460.0", fillcolor="#fef9f6"] ;
650 -> 652 ;
653 [label="xfer_cnt <= 595370.0\nsquared_error = 0.81\nsamples = 2\nvalue = 3467.0", fillcolor="#fef9f6"] ;
649 -> 653 ;
654 [label="squared_error = 0.0\nsamples = 1\nvalue = 3466.1", fillcolor="#fef9f6"] ;
653 -> 654 ;
655 [label="squared_error = -0.0\nsamples = 1\nvalue = 3467.9", fillcolor="#fef9f6"] ;
653 -> 655 ;
656 [label="BTC_open <= 3496.35\nsquared_error = 44.72\nsamples = 3\nvalue = 3500.95", fillcolor="#fef9f6"] ;
648 -> 656 ;
657 [label="squared_error = 0.0\nsamples = 1\nvalue = 3490.2", fillcolor="#fef9f6"] ;
656 -> 657 ;
658 [label="mean_hash_rate <= 35943343.0\nsquared_error = 8.27\nsamples = 2\nvalue = 3504.53", fillcolor="#fef9f6"] ;
656 -> 658 ;
659 [label="squared_error = 0.0\nsamples = 1\nvalue = 3508.6", fillcolor="#fef9f6"] ;
658 -> 659 ;
660 [label="squared_error = 0.0\nsamples = 1\nvalue = 3502.5", fillcolor="#fef9f6"] ;
658 -> 660 ;
661 [label="BTC_open <= 3621.55\nsquared_error = 2073.23\nsamples = 27\nvalue = 3611.81", fillcolor="#fef9f6"] ;
627 -> 661 ;
662 [label="BTC_open <= 3580.7\nsquared_error = 557.76\nsamples = 15\nvalue = 3579.7", fillcolor="#fef9f6"] ;
661 -> 662 ;
663 [label="BTC_open <= 3561.35\nsquared_error = 226.39\nsamples = 7\nvalue = 3560.84", fillcolor="#fef9f6"] ;
662 -> 663 ;
664 [label="addresses_active_count <= 627427.0\nsquared_error = 47.75\nsamples = 3\nvalue = 3542.72", fillcolor="#fef9f6"] ;
663 -> 664 ;
665 [label="DOGE <= 0.0\nsquared_error = 7.84\nsamples = 2\nvalue = 3539.5", fillcolor="#fef9f6"] ;
664 -> 665 ;
666 [label="squared_error = 0.0\nsamples = 1\nvalue = 3536.7", fillcolor="#fef9f6"] ;
665 -> 666 ;
667 [label="squared_error = 0.0\nsamples = 1\nvalue = 3542.3", fillcolor="#fef9f6"] ;
665 -> 667 ;
668 [label="squared_error = -0.0\nsamples = 1\nvalue = 3555.6", fillcolor="#fef9f6"] ;
664 -> 668 ;
669 [label="XRP <= 0.3\nsquared_error = 4.64\nsamples = 4\nvalue = 3572.16", fillcolor="#fef9f6"] ;
663 -> 669 ;
670 [label="squared_error = 0.0\nsamples = 1\nvalue = 3567.5", fillcolor="#fef9f6"] ;
669 -> 670 ;
671 [label="COPPER <= 1.36\nsquared_error = 1.75\nsamples = 3\nvalue = 3572.83", fillcolor="#fef9f6"] ;
669 -> 671 ;
672 [label="BTC_low <= 3532.65\nsquared_error = 0.23\nsamples = 2\nvalue = 3571.72", fillcolor="#fef9f6"] ;
671 -> 672 ;
673 [label="squared_error = 0.0\nsamples = 1\nvalue = 3570.9", fillcolor="#fef9f6"] ;
672 -> 673 ;
674 [label="squared_error = 0.0\nsamples = 1\nvalue = 3572.0", fillcolor="#fef9f6"] ;
672 -> 674 ;
675 [label="squared_error = -0.0\nsamples = 1\nvalue = 3574.3", fillcolor="#fef9f6"] ;
671 -> 675 ;
676 [label="mean_tx_size_usd <= 3151.89\nsquared_error = 114.16\nsamples = 8\nvalue = 3600.12", fillcolor="#fef9f6"] ;
662 -> 676 ;
677 [label="BTC_open <= 3608.65\nsquared_error = 27.27\nsamples = 4\nvalue = 3611.08", fillcolor="#fef9f6"] ;
676 -> 677 ;
678 [label="sum_lock_weight <= 451351728.0\nsquared_error = 0.2\nsamples = 2\nvalue = 3605.15", fillcolor="#fef9f6"] ;
677 -> 678 ;
679 [label="squared_error = 0.0\nsamples = 1\nvalue = 3605.6", fillcolor="#fef9f6"] ;
678 -> 679 ;
680 [label="squared_error = 0.0\nsamples = 1\nvalue = 3604.7", fillcolor="#fef9f6"] ;
678 -> 680 ;
681 [label="mean_tx_size_usd <= 3000.24\nsquared_error = 6.24\nsamples = 2\nvalue = 3615.03", fillcolor="#fef9f6"] ;
677 -> 681 ;
682 [label="squared_error = 0.0\nsamples = 1\nvalue = 3616.8", fillcolor="#fef9f6"] ;
681 -> 682 ;
683 [label="squared_error = 0.0\nsamples = 1\nvalue = 3611.5", fillcolor="#fef9f6"] ;
681 -> 683 ;
684 [label="COPPER <= 1.34\nsquared_error = 29.27\nsamples = 4\nvalue = 3592.3", fillcolor="#fef9f6"] ;
676 -> 684 ;
685 [label="BTC_low <= 3518.2\nsquared_error = 2.88\nsamples = 2\nvalue = 3598.4", fillcolor="#fef9f6"] ;
684 -> 685 ;
686 [label="squared_error = 0.0\nsamples = 1\nvalue = 3597.2", fillcolor="#fef9f6"] ;
685 -> 686 ;
687 [label="squared_error = -0.0\nsamples = 1\nvalue = 3600.8", fillcolor="#fef9f6"] ;
685 -> 687 ;
688 [label="xfer_cnt <= 649866.5\nsquared_error = 0.23\nsamples = 2\nvalue = 3587.72", fillcolor="#fef9f6"] ;
684 -> 688 ;
689 [label="squared_error = 0.0\nsamples = 1\nvalue = 3588.0", fillcolor="#fef9f6"] ;
688 -> 689 ;
690 [label="squared_error = 0.0\nsamples = 1\nvalue = 3586.9", fillcolor="#fef9f6"] ;
688 -> 690 ;
691 [label="BTC_open <= 3678.85\nsquared_error = 553.89\nsamples = 12\nvalue = 3659.05", fillcolor="#fef9f5"] ;
661 -> 691 ;
692 [label="SPX <= 2558.63\nsquared_error = 236.96\nsamples = 9\nvalue = 3650.42", fillcolor="#fef9f5"] ;
691 -> 692 ;
693 [label="total_fees_usd <= 696705.19\nsquared_error = 30.13\nsamples = 5\nvalue = 3661.24", fillcolor="#fef9f5"] ;
692 -> 693 ;
694 [label="mean_hash_rate <= 39451376.0\nsquared_error = 10.07\nsamples = 4\nvalue = 3664.67", fillcolor="#fef9f5"] ;
693 -> 694 ;
695 [label="addresses_active_count <= 678495.5\nsquared_error = 0.06\nsamples = 2\nvalue = 3667.83", fillcolor="#fef9f5"] ;
694 -> 695 ;
696 [label="squared_error = 0.0\nsamples = 1\nvalue = 3667.5", fillcolor="#fef9f5"] ;
695 -> 696 ;
697 [label="squared_error = 0.0\nsamples = 1\nvalue = 3668.0", fillcolor="#fef9f5"] ;
695 -> 697 ;
698 [label="mean_tx_size_usd <= 3157.06\nsquared_error = 0.02\nsamples = 2\nvalue = 3661.5", fillcolor="#fef9f5"] ;
694 -> 698 ;
699 [label="squared_error = 0.0\nsamples = 1\nvalue = 3661.4", fillcolor="#fef9f5"] ;
698 -> 699 ;
700 [label="squared_error = 0.0\nsamples = 1\nvalue = 3661.7", fillcolor="#fef9f5"] ;
698 -> 700 ;
701 [label="squared_error = 0.0\nsamples = 1\nvalue = 3654.4", fillcolor="#fef9f5"] ;
693 -> 701 ;
702 [label="GOLD <= 1285.5\nsquared_error = 18.87\nsamples = 4\nvalue = 3630.94", fillcolor="#fef9f5"] ;
692 -> 702 ;
703 [label="squared_error = 0.0\nsamples = 1\nvalue = 3626.4", fillcolor="#fef9f6"] ;
702 -> 703 ;
704 [label="addresses_active_count <= 689955.0\nsquared_error = 8.55\nsamples = 3\nvalue = 3633.97", fillcolor="#fef9f5"] ;
702 -> 704 ;
705 [label="squared_error = 0.0\nsamples = 1\nvalue = 3638.1", fillcolor="#fef9f5"] ;
704 -> 705 ;
706 [label="JP225 <= 21020.0\nsquared_error = 0.01\nsamples = 2\nvalue = 3631.9", fillcolor="#fef9f5"] ;
704 -> 706 ;
707 [label="squared_error = 0.0\nsamples = 1\nvalue = 3631.8", fillcolor="#fef9f5"] ;
706 -> 707 ;
708 [label="squared_error = 0.0\nsamples = 1\nvalue = 3632.0", fillcolor="#fef9f5"] ;
706 -> 708 ;
709 [label="mean_tx_size_usd <= 6847.98\nsquared_error = 65.42\nsamples = 3\nvalue = 3699.3", fillcolor="#fef9f5"] ;
691 -> 709 ;
710 [label="squared_error = 0.0\nsamples = 1\nvalue = 3709.4", fillcolor="#fef9f5"] ;
709 -> 710 ;
711 [label="SPX <= 1251.94\nsquared_error = 21.62\nsamples = 2\nvalue = 3694.25", fillcolor="#fef9f5"] ;
709 -> 711 ;
712 [label="squared_error = 0.0\nsamples = 1\nvalue = 3698.9", fillcolor="#fef9f5"] ;
711 -> 712 ;
713 [label="squared_error = 0.0\nsamples = 1\nvalue = 3689.6", fillcolor="#fef9f5"] ;
711 -> 713 ;
714 [label="BTC_high <= 4820.0\nsquared_error = 357758.29\nsamples = 117\nvalue = 4419.95", fillcolor="#fdf7f3"] ;
540 -> 714 ;
715 [label="BTC_open <= 4130.8\nsquared_error = 51332.13\nsamples = 82\nvalue = 4076.0", fillcolor="#fef8f4"] ;
714 -> 715 ;
716 [label="BTC_open <= 3924.0\nsquared_error = 8131.36\nsamples = 54\nvalue = 3922.41", fillcolor="#fef8f5"] ;
715 -> 716 ;
717 [label="BTC_open <= 3845.6\nsquared_error = 1515.02\nsamples = 27\nvalue = 3844.26", fillcolor="#fef9f5"] ;
716 -> 717 ;
718 [label="BTC_open <= 3798.1\nsquared_error = 364.12\nsamples = 14\nvalue = 3810.62", fillcolor="#fef9f5"] ;
717 -> 718 ;
719 [label="BTC_high <= 3847.3\nsquared_error = 247.15\nsamples = 3\nvalue = 3780.68", fillcolor="#fef9f5"] ;
718 -> 719 ;
720 [label="difficulty <= 5362509414400.0\nsquared_error = 41.1\nsamples = 2\nvalue = 3789.17", fillcolor="#fef9f5"] ;
719 -> 720 ;
721 [label="squared_error = 0.0\nsamples = 1\nvalue = 3793.7", fillcolor="#fef9f5"] ;
720 -> 721 ;
722 [label="squared_error = -0.0\nsamples = 1\nvalue = 3780.1", fillcolor="#fef9f5"] ;
720 -> 722 ;
723 [label="squared_error = -0.0\nsamples = 1\nvalue = 3755.2", fillcolor="#fef9f5"] ;
719 -> 723 ;
724 [label="BTC_open <= 3819.3\nsquared_error = 92.51\nsamples = 11\nvalue = 3818.6", fillcolor="#fef9f5"] ;
718 -> 724 ;
725 [label="BTC_open <= 3812.45\nsquared_error = 17.23\nsamples = 7\nvalue = 3811.97", fillcolor="#fef9f5"] ;
724 -> 725 ;
726 [label="GOLD <= 642.05\nsquared_error = 9.4\nsamples = 4\nvalue = 3807.98", fillcolor="#fef9f5"] ;
725 -> 726 ;
727 [label="squared_error = 0.0\nsamples = 1\nvalue = 3802.7", fillcolor="#fef9f5"] ;
726 -> 727 ;
728 [label="mean_lock_size_ytes <= 1113617.81\nsquared_error = 0.16\nsamples = 3\nvalue = 3809.73", fillcolor="#fef9f5"] ;
726 -> 728 ;
729 [label="COPPER <= 2.77\nsquared_error = 0.0\nsamples = 2\nvalue = 3809.45", fillcolor="#fef9f5"] ;
728 -> 729 ;
730 [label="squared_error = 0.0\nsamples = 1\nvalue = 3809.4", fillcolor="#fef9f5"] ;
729 -> 730 ;
731 [label="squared_error = 0.0\nsamples = 1\nvalue = 3809.5", fillcolor="#fef9f5"] ;
729 -> 731 ;
732 [label="squared_error = 0.0\nsamples = 1\nvalue = 3810.3", fillcolor="#fef9f5"] ;
728 -> 732 ;
733 [label="BTC_open <= 3815.9\nsquared_error = 0.55\nsamples = 3\nvalue = 3815.16", fillcolor="#fef9f5"] ;
725 -> 733 ;
734 [label="BTC_open <= 3814.85\nsquared_error = 0.04\nsamples = 2\nvalue = 3814.8", fillcolor="#fef9f5"] ;
733 -> 734 ;
735 [label="squared_error = 0.0\nsamples = 1\nvalue = 3814.6", fillcolor="#fef9f5"] ;
734 -> 735 ;
736 [label="squared_error = -0.0\nsamples = 1\nvalue = 3815.0", fillcolor="#fef9f5"] ;
734 -> 736 ;
737 [label="squared_error = -0.0\nsamples = 1\nvalue = 3816.6", fillcolor="#fef9f5"] ;
733 -> 737 ;
738 [label="LTC <= 46.5\nsquared_error = 40.43\nsamples = 4\nvalue = 3828.55", fillcolor="#fef9f5"] ;
724 -> 738 ;
739 [label="addresses_active_count <= 664950.5\nsquared_error = 2.42\nsamples = 2\nvalue = 3834.8", fillcolor="#fef9f5"] ;
738 -> 739 ;
740 [label="squared_error = 0.0\nsamples = 1\nvalue = 3837.0", fillcolor="#fef9f5"] ;
739 -> 740 ;
741 [label="squared_error = -0.0\nsamples = 1\nvalue = 3833.7", fillcolor="#fef9f5"] ;
739 -> 741 ;
742 [label="LTC <= 48.29\nsquared_error = 0.32\nsamples = 2\nvalue = 3822.3", fillcolor="#fef9f5"] ;
738 -> 742 ;
743 [label="squared_error = 0.0\nsamples = 1\nvalue = 3823.1", fillcolor="#fef9f5"] ;
742 -> 743 ;
744 [label="squared_error = 0.0\nsamples = 1\nvalue = 3821.9", fillcolor="#fef9f5"] ;
742 -> 744 ;
745 [label="BTC_open <= 3878.75\nsquared_error = 401.98\nsamples = 13\nvalue = 3877.91", fillcolor="#fef8f5"] ;
717 -> 745 ;
746 [label="XRP <= 0.31\nsquared_error = 51.36\nsamples = 7\nvalue = 3862.66", fillcolor="#fef9f5"] ;
745 -> 746 ;
747 [label="BTC_open <= 3870.95\nsquared_error = 0.32\nsamples = 3\nvalue = 3870.62", fillcolor="#fef9f5"] ;
746 -> 747 ;
748 [label="DJI <= 23884.5\nsquared_error = 0.0\nsamples = 2\nvalue = 3870.3", fillcolor="#fef9f5"] ;
747 -> 748 ;
749 [label="squared_error = 0.0\nsamples = 1\nvalue = 3870.3", fillcolor="#fef9f5"] ;
748 -> 749 ;
750 [label="squared_error = -0.0\nsamples = 1\nvalue = 3870.3", fillcolor="#fef9f5"] ;
748 -> 750 ;
751 [label="squared_error = 0.0\nsamples = 1\nvalue = 3871.6", fillcolor="#fef8f5"] ;
747 -> 751 ;
752 [label="ETH <= 124.75\nsquared_error = 23.61\nsamples = 4\nvalue = 3858.11", fillcolor="#fef9f5"] ;
746 -> 752 ;
753 [label="squared_error = 0.0\nsamples = 1\nvalue = 3850.9", fillcolor="#fef9f5"] ;
752 -> 753 ;
754 [label="SILVER <= 15.06\nsquared_error = 3.9\nsamples = 3\nvalue = 3861.0", fillcolor="#fef9f5"] ;
752 -> 754 ;
755 [label="SILVER <= 7.52\nsquared_error = 0.37\nsamples = 2\nvalue = 3861.95", fillcolor="#fef9f5"] ;
754 -> 755 ;
756 [label="squared_error = 0.0\nsamples = 1\nvalue = 3861.6", fillcolor="#fef9f5"] ;
755 -> 756 ;
757 [label="squared_error = 0.0\nsamples = 1\nvalue = 3863.0", fillcolor="#fef9f5"] ;
755 -> 757 ;
758 [label="squared_error = -0.0\nsamples = 1\nvalue = 3857.2", fillcolor="#fef9f5"] ;
754 -> 758 ;
759 [label="BTC_open <= 3902.2\nsquared_error = 125.47\nsamples = 6\nvalue = 3898.86", fillcolor="#fef8f5"] ;
745 -> 759 ;
760 [label="BTC_open <= 3889.3\nsquared_error = 16.05\nsamples = 3\nvalue = 3890.68", fillcolor="#fef8f5"] ;
759 -> 760 ;
761 [label="squared_error = 0.0\nsamples = 1\nvalue = 3886.0", fillcolor="#fef8f5"] ;
760 -> 761 ;
762 [label="DOGE <= 0.0\nsquared_error = 2.42\nsamples = 2\nvalue = 3893.8", fillcolor="#fef8f5"] ;
760 -> 762 ;
763 [label="squared_error = 0.0\nsamples = 1\nvalue = 3892.7", fillcolor="#fef8f5"] ;
762 -> 763 ;
764 [label="squared_error = 0.0\nsamples = 1\nvalue = 3896.0", fillcolor="#fef8f5"] ;
762 -> 764 ;
765 [label="addresses_active_count <= 654754.5\nsquared_error = 10.26\nsamples = 3\nvalue = 3912.5", fillcolor="#fef8f5"] ;
759 -> 765 ;
766 [label="squared_error = 0.0\nsamples = 1\nvalue = 3908.0", fillcolor="#fef8f5"] ;
765 -> 766 ;
767 [label="BTC_high <= 3959.55\nsquared_error = 0.2\nsamples = 2\nvalue = 3914.75", fillcolor="#fef8f5"] ;
765 -> 767 ;
768 [label="squared_error = 0.0\nsamples = 1\nvalue = 3915.2", fillcolor="#fef8f5"] ;
767 -> 768 ;
769 [label="squared_error = 0.0\nsamples = 1\nvalue = 3914.3", fillcolor="#fef8f5"] ;
767 -> 769 ;
770 [label="BTC_open <= 4021.35\nsquared_error = 2534.51\nsamples = 27\nvalue = 4000.55", fillcolor="#fef8f4"] ;
716 -> 770 ;
771 [label="BTC_open <= 3967.65\nsquared_error = 641.36\nsamples = 18\nvalue = 3973.45", fillcolor="#fef8f4"] ;
770 -> 771 ;
772 [label="BTC_open <= 3951.3\nsquared_error = 108.54\nsamples = 7\nvalue = 3946.62", fillcolor="#fef8f5"] ;
771 -> 772 ;
773 [label="XRP <= 0.31\nsquared_error = 17.37\nsamples = 5\nvalue = 3940.69", fillcolor="#fef8f5"] ;
772 -> 773 ;
774 [label="sum_lock_weight <= 518029968.0\nsquared_error = 3.92\nsamples = 2\nvalue = 3935.6", fillcolor="#fef8f5"] ;
773 -> 774 ;
775 [label="squared_error = 0.0\nsamples = 1\nvalue = 3932.8", fillcolor="#fef8f5"] ;
774 -> 775 ;
776 [label="squared_error = 0.0\nsamples = 1\nvalue = 3937.0", fillcolor="#fef8f5"] ;
774 -> 776 ;
777 [label="mean_hash_rate <= 44147222.0\nsquared_error = 0.59\nsamples = 3\nvalue = 3943.74", fillcolor="#fef8f5"] ;
773 -> 777 ;
778 [label="addresses_active_count <= 554591.0\nsquared_error = 0.0\nsamples = 2\nvalue = 3944.37", fillcolor="#fef8f5"] ;
777 -> 778 ;
779 [label="squared_error = 0.0\nsamples = 1\nvalue = 3944.3", fillcolor="#fef8f5"] ;
778 -> 779 ;
780 [label="squared_error = 0.0\nsamples = 1\nvalue = 3944.4", fillcolor="#fef8f5"] ;
778 -> 780 ;
781 [label="squared_error = -0.0\nsamples = 1\nvalue = 3942.8", fillcolor="#fef8f5"] ;
777 -> 781 ;
782 [label="difficulty <= 5376413532160.0\nsquared_error = 7.74\nsamples = 2\nvalue = 3962.43", fillcolor="#fef8f5"] ;
772 -> 782 ;
783 [label="squared_error = 0.0\nsamples = 1\nvalue = 3964.4", fillcolor="#fef8f5"] ;
782 -> 783 ;
784 [label="squared_error = 0.0\nsamples = 1\nvalue = 3958.5", fillcolor="#fef8f5"] ;
782 -> 784 ;
785 [label="BTC_open <= 3992.6\nsquared_error = 172.32\nsamples = 11\nvalue = 3991.9", fillcolor="#fef8f4"] ;
771 -> 785 ;
786 [label="total_fees_usd <= 89248.02\nsquared_error = 35.68\nsamples = 6\nvalue = 3981.61", fillcolor="#fef8f4"] ;
785 -> 786 ;
787 [label="LTC <= 49.28\nsquared_error = 4.31\nsamples = 3\nvalue = 3988.83", fillcolor="#fef8f4"] ;
786 -> 787 ;
788 [label="squared_error = 0.0\nsamples = 1\nvalue = 3985.9", fillcolor="#fef8f4"] ;
787 -> 788 ;
789 [label="BTC_high <= 4024.05\nsquared_error = 0.01\nsamples = 2\nvalue = 3990.3", fillcolor="#fef8f4"] ;
787 -> 789 ;
790 [label="squared_error = 0.0\nsamples = 1\nvalue = 3990.4", fillcolor="#fef8f4"] ;
789 -> 790 ;
791 [label="squared_error = -0.0\nsamples = 1\nvalue = 3990.2", fillcolor="#fef8f4"] ;
789 -> 791 ;
792 [label="XRP <= 0.35\nsquared_error = 12.25\nsamples = 3\nvalue = 3978.0", fillcolor="#fef8f4"] ;
786 -> 792 ;
793 [label="addresses_active_count <= 677536.0\nsquared_error = 2.94\nsamples = 2\nvalue = 3979.4", fillcolor="#fef8f4"] ;
792 -> 793 ;
794 [label="squared_error = 0.0\nsamples = 1\nvalue = 3978.0", fillcolor="#fef8f4"] ;
793 -> 794 ;
795 [label="squared_error = 0.0\nsamples = 1\nvalue = 3981.5", fillcolor="#fef8f4"] ;
793 -> 795 ;
796 [label="squared_error = 0.0\nsamples = 1\nvalue = 3971.0", fillcolor="#fef8f4"] ;
792 -> 796 ;
797 [label="mean_hash_rate <= 48069368.0\nsquared_error = 36.89\nsamples = 5\nvalue = 4005.13", fillcolor="#fef8f4"] ;
785 -> 797 ;
798 [label="ETH <= 135.35\nsquared_error = 15.63\nsamples = 4\nvalue = 4003.15", fillcolor="#fef8f4"] ;
797 -> 798 ;
799 [label="squared_error = 0.0\nsamples = 1\nvalue = 3994.7", fillcolor="#fef8f4"] ;
798 -> 799 ;
800 [label="sum_lock_weight <= 360054912.0\nsquared_error = 1.62\nsamples = 3\nvalue = 4004.84", fillcolor="#fef8f4"] ;
798 -> 800 ;
801 [label="BTC_low <= 3784.25\nsquared_error = 0.32\nsamples = 2\nvalue = 4005.42", fillcolor="#fef8f4"] ;
800 -> 801 ;
802 [label="squared_error = -0.0\nsamples = 1\nvalue = 4005.1", fillcolor="#fef8f4"] ;
801 -> 802 ;
803 [label="squared_error = 0.0\nsamples = 1\nvalue = 4006.4", fillcolor="#fef8f4"] ;
801 -> 803 ;
804 [label="squared_error = 0.0\nsamples = 1\nvalue = 4002.5", fillcolor="#fef8f4"] ;
800 -> 804 ;
805 [label="squared_error = 0.0\nsamples = 1\nvalue = 4017.0", fillcolor="#fef8f4"] ;
797 -> 805 ;
806 [label="BTC_open <= 4068.1\nsquared_error = 954.86\nsamples = 9\nvalue = 4067.06", fillcolor="#fef8f4"] ;
770 -> 806 ;
807 [label="mean_hash_rate <= 38861654.0\nsquared_error = 114.62\nsamples = 5\nvalue = 4041.68", fillcolor="#fef8f4"] ;
806 -> 807 ;
808 [label="squared_error = 0.0\nsamples = 1\nvalue = 4062.2", fillcolor="#fef8f4"] ;
807 -> 808 ;
809 [label="BTC_low <= 4015.5\nsquared_error = 36.52\nsamples = 4\nvalue = 4037.58", fillcolor="#fef8f4"] ;
807 -> 809 ;
810 [label="GOLD <= 647.65\nsquared_error = 0.8\nsamples = 3\nvalue = 4040.58", fillcolor="#fef8f4"] ;
809 -> 810 ;
811 [label="squared_error = 0.0\nsamples = 1\nvalue = 4039.7", fillcolor="#fef8f4"] ;
810 -> 811 ;
812 [label="LTC <= 59.77\nsquared_error = 0.06\nsamples = 2\nvalue = 4041.45", fillcolor="#fef8f4"] ;
810 -> 812 ;
813 [label="squared_error = 0.0\nsamples = 1\nvalue = 4041.2", fillcolor="#fef8f4"] ;
812 -> 813 ;
814 [label="squared_error = 0.0\nsamples = 1\nvalue = 4041.7", fillcolor="#fef8f4"] ;
812 -> 814 ;
815 [label="squared_error = -0.0\nsamples = 1\nvalue = 4025.6", fillcolor="#fef8f4"] ;
809 -> 815 ;
816 [label="DJI <= 10897.5\nsquared_error = 262.57\nsamples = 4\nvalue = 4097.52", fillcolor="#fef8f4"] ;
806 -> 816 ;
817 [label="mean_tx_size_usd <= 3364.46\nsquared_error = 18.49\nsamples = 2\nvalue = 4116.1", fillcolor="#fef8f4"] ;
816 -> 817 ;
818 [label="squared_error = 0.0\nsamples = 1\nvalue = 4111.8", fillcolor="#fef8f4"] ;
817 -> 818 ;
819 [label="squared_error = -0.0\nsamples = 1\nvalue = 4120.4", fillcolor="#fef8f4"] ;
817 -> 819 ;
820 [label="mean_hash_rate <= 21417502.0\nsquared_error = 41.71\nsamples = 2\nvalue = 4085.13", fillcolor="#fef8f4"] ;
816 -> 820 ;
821 [label="squared_error = 0.0\nsamples = 1\nvalue = 4089.7", fillcolor="#fef8f4"] ;
820 -> 821 ;
822 [label="squared_error = -0.0\nsamples = 1\nvalue = 4076.0", fillcolor="#fef8f4"] ;
820 -> 822 ;
823 [label="BTC_open <= 4491.45\nsquared_error = 19333.52\nsamples = 28\nvalue = 4329.77", fillcolor="#fdf8f3"] ;
715 -> 823 ;
824 [label="BTC_open <= 4282.15\nsquared_error = 6708.67\nsamples = 22\nvalue = 4280.38", fillcolor="#fef8f4"] ;
823 -> 824 ;
825 [label="BTC_open <= 4231.9\nsquared_error = 1273.18\nsamples = 10\nvalue = 4204.74", fillcolor="#fef8f4"] ;
824 -> 825 ;
826 [label="BTC_open <= 4184.2\nsquared_error = 499.44\nsamples = 7\nvalue = 4189.58", fillcolor="#fef8f4"] ;
825 -> 826 ;
827 [label="addresses_active_count <= 564268.5\nsquared_error = 134.79\nsamples = 3\nvalue = 4161.5", fillcolor="#fef8f4"] ;
826 -> 827 ;
828 [label="squared_error = 0.0\nsamples = 1\nvalue = 4141.1", fillcolor="#fef8f4"] ;
827 -> 828 ;
829 [label="SILVER <= 7.23\nsquared_error = 38.44\nsamples = 2\nvalue = 4166.6", fillcolor="#fef8f4"] ;
827 -> 829 ;
830 [label="squared_error = 0.0\nsamples = 1\nvalue = 4172.8", fillcolor="#fef8f4"] ;
829 -> 830 ;
831 [label="squared_error = -0.0\nsamples = 1\nvalue = 4160.4", fillcolor="#fef8f4"] ;
829 -> 831 ;
832 [label="LTC <= 53.74\nsquared_error = 90.39\nsamples = 4\nvalue = 4203.62", fillcolor="#fef8f4"] ;
826 -> 832 ;
833 [label="SILVER <= 8.34\nsquared_error = 0.08\nsamples = 2\nvalue = 4196.0", fillcolor="#fef8f4"] ;
832 -> 833 ;
834 [label="squared_error = 0.0\nsamples = 1\nvalue = 4196.2", fillcolor="#fef8f4"] ;
833 -> 834 ;
835 [label="squared_error = -0.0\nsamples = 1\nvalue = 4195.6", fillcolor="#fef8f4"] ;
833 -> 835 ;
836 [label="DOGE <= 0.0\nsquared_error = 8.12\nsamples = 2\nvalue = 4215.05", fillcolor="#fef8f4"] ;
832 -> 836 ;
837 [label="squared_error = 0.0\nsamples = 1\nvalue = 4212.2", fillcolor="#fef8f4"] ;
836 -> 837 ;
838 [label="squared_error = 0.0\nsamples = 1\nvalue = 4217.9", fillcolor="#fef8f4"] ;
836 -> 838 ;
839 [label="mean_hash_rate <= 8339493.25\nsquared_error = 82.64\nsamples = 3\nvalue = 4261.58", fillcolor="#fef8f4"] ;
825 -> 839 ;
840 [label="squared_error = 0.0\nsamples = 1\nvalue = 4245.9", fillcolor="#fef8f4"] ;
839 -> 840 ;
841 [label="xfer_cnt <= 629512.0\nsquared_error = 0.98\nsamples = 2\nvalue = 4266.8", fillcolor="#fef8f4"] ;
839 -> 841 ;
842 [label="squared_error = 0.0\nsamples = 1\nvalue = 4265.4", fillcolor="#fef8f4"] ;
841 -> 842 ;
843 [label="squared_error = 0.0\nsamples = 1\nvalue = 4267.5", fillcolor="#fef8f4"] ;
841 -> 843 ;
844 [label="BTC_open <= 4374.15\nsquared_error = 1271.3\nsamples = 12\nvalue = 4352.25", fillcolor="#fdf8f3"] ;
824 -> 844 ;
845 [label="BTC_open <= 4340.1\nsquared_error = 392.09\nsamples = 9\nvalue = 4331.84", fillcolor="#fdf8f3"] ;
844 -> 845 ;
846 [label="ETH <= 199.88\nsquared_error = 82.79\nsamples = 6\nvalue = 4318.22", fillcolor="#fdf8f3"] ;
845 -> 846 ;
847 [label="squared_error = 0.0\nsamples = 1\nvalue = 4296.5", fillcolor="#fdf8f4"] ;
846 -> 847 ;
848 [label="BTC_open <= 4323.95\nsquared_error = 26.78\nsamples = 5\nvalue = 4320.94", fillcolor="#fdf8f3"] ;
846 -> 848 ;
849 [label="BTC_open <= 4316.3\nsquared_error = 7.69\nsamples = 3\nvalue = 4317.32", fillcolor="#fdf8f3"] ;
848 -> 849 ;
850 [label="squared_error = 0.0\nsamples = 1\nvalue = 4314.2", fillcolor="#fdf8f3"] ;
849 -> 850 ;
851 [label="GOLD <= 1286.4\nsquared_error = 2.0\nsamples = 2\nvalue = 4319.4", fillcolor="#fdf8f3"] ;
849 -> 851 ;
852 [label="squared_error = 0.0\nsamples = 1\nvalue = 4321.4", fillcolor="#fdf8f3"] ;
851 -> 852 ;
853 [label="squared_error = 0.0\nsamples = 1\nvalue = 4318.4", fillcolor="#fdf8f3"] ;
851 -> 853 ;
854 [label="sum_lock_weight <= 537457952.0\nsquared_error = 0.44\nsamples = 2\nvalue = 4326.97", fillcolor="#fdf8f3"] ;
848 -> 854 ;
855 [label="squared_error = 0.0\nsamples = 1\nvalue = 4326.5", fillcolor="#fdf8f3"] ;
854 -> 855 ;
856 [label="squared_error = 0.0\nsamples = 1\nvalue = 4327.9", fillcolor="#fdf8f3"] ;
854 -> 856 ;
857 [label="mean_tx_size_usd <= 9295.63\nsquared_error = 13.81\nsamples = 3\nvalue = 4356.36", fillcolor="#fdf8f3"] ;
845 -> 857 ;
858 [label="JP225 <= 10741.5\nsquared_error = 3.04\nsamples = 2\nvalue = 4353.53", fillcolor="#fdf8f3"] ;
857 -> 858 ;
859 [label="squared_error = 0.0\nsamples = 1\nvalue = 4352.3", fillcolor="#fdf8f3"] ;
858 -> 859 ;
860 [label="squared_error = 0.0\nsamples = 1\nvalue = 4356.0", fillcolor="#fdf8f3"] ;
858 -> 860 ;
861 [label="squared_error = 0.0\nsamples = 1\nvalue = 4360.6", fillcolor="#fdf8f3"] ;
857 -> 861 ;
862 [label="XRP <= 0.18\nsquared_error = 83.71\nsamples = 3\nvalue = 4399.87", fillcolor="#fdf8f3"] ;
844 -> 862 ;
863 [label="squared_error = 0.0\nsamples = 1\nvalue = 4387.4", fillcolor="#fdf8f3"] ;
862 -> 863 ;
864 [label="DJI <= 22159.5\nsquared_error = 9.0\nsamples = 2\nvalue = 4406.1", fillcolor="#fdf7f3"] ;
862 -> 864 ;
865 [label="squared_error = 0.0\nsamples = 1\nvalue = 4409.1", fillcolor="#fdf7f3"] ;
864 -> 865 ;
866 [label="squared_error = -0.0\nsamples = 1\nvalue = 4403.1", fillcolor="#fdf8f3"] ;
864 -> 866 ;
867 [label="BTC_open <= 4605.1\nsquared_error = 395.07\nsamples = 6\nvalue = 4604.89", fillcolor="#fdf7f3"] ;
823 -> 867 ;
868 [label="LTC <= 69.68\nsquared_error = 93.49\nsamples = 3\nvalue = 4584.7", fillcolor="#fdf7f3"] ;
867 -> 868 ;
869 [label="squared_error = 0.0\nsamples = 1\nvalue = 4597.3", fillcolor="#fdf7f3"] ;
868 -> 869 ;
870 [label="SPX <= 1235.82\nsquared_error = 21.16\nsamples = 2\nvalue = 4578.4", fillcolor="#fdf7f3"] ;
868 -> 870 ;
871 [label="squared_error = 0.0\nsamples = 1\nvalue = 4573.8", fillcolor="#fdf7f3"] ;
870 -> 871 ;
872 [label="squared_error = 0.0\nsamples = 1\nvalue = 4583.0", fillcolor="#fdf7f3"] ;
870 -> 872 ;
873 [label="addresses_active_count <= 788389.0\nsquared_error = 86.47\nsamples = 3\nvalue = 4620.02", fillcolor="#fdf7f3"] ;
867 -> 873 ;
874 [label="JP225 <= 9700.0\nsquared_error = 7.48\nsamples = 2\nvalue = 4614.83", fillcolor="#fdf7f3"] ;
873 -> 874 ;
875 [label="squared_error = 0.0\nsamples = 1\nvalue = 4612.9", fillcolor="#fdf7f3"] ;
874 -> 875 ;
876 [label="squared_error = -0.0\nsamples = 1\nvalue = 4618.7", fillcolor="#fdf7f3"] ;
874 -> 876 ;
877 [label="squared_error = -0.0\nsamples = 1\nvalue = 4635.6", fillcolor="#fdf7f3"] ;
873 -> 877 ;
878 [label="BTC_low <= 5443.8\nsquared_error = 92818.21\nsamples = 35\nvalue = 5276.3", fillcolor="#fdf6f1"] ;
714 -> 878 ;
879 [label="BTC_open <= 5113.85\nsquared_error = 41032.44\nsamples = 26\nvalue = 5127.1", fillcolor="#fdf6f1"] ;
878 -> 879 ;
880 [label="BTC_open <= 4926.15\nsquared_error = 13075.83\nsamples = 11\nvalue = 4912.05", fillcolor="#fdf7f2"] ;
879 -> 880 ;
881 [label="BTC_open <= 4800.85\nsquared_error = 2917.93\nsamples = 6\nvalue = 4813.08", fillcolor="#fdf7f2"] ;
880 -> 881 ;
882 [label="mean_tx_size_usd <= 10259.05\nsquared_error = 299.63\nsamples = 3\nvalue = 4763.38", fillcolor="#fdf7f2"] ;
881 -> 882 ;
883 [label="squared_error = 0.0\nsamples = 1\nvalue = 4735.1", fillcolor="#fdf7f2"] ;
882 -> 883 ;
884 [label="mean_hash_rate <= 8352198.5\nsquared_error = 44.18\nsamples = 2\nvalue = 4772.8", fillcolor="#fdf7f2"] ;
882 -> 884 ;
885 [label="squared_error = 0.0\nsamples = 1\nvalue = 4763.4", fillcolor="#fdf7f2"] ;
884 -> 885 ;
886 [label="squared_error = 0.0\nsamples = 1\nvalue = 4777.5", fillcolor="#fdf7f2"] ;
884 -> 886 ;
887 [label="ETH <= 231.7\nsquared_error = 596.05\nsamples = 3\nvalue = 4862.77", fillcolor="#fdf7f2"] ;
881 -> 887 ;
888 [label="difficulty <= 6516284325888.0\nsquared_error = 133.39\nsamples = 2\nvalue = 4875.63", fillcolor="#fdf7f2"] ;
887 -> 888 ;
889 [label="squared_error = 0.0\nsamples = 1\nvalue = 4859.3", fillcolor="#fdf7f2"] ;
888 -> 889 ;
890 [label="squared_error = -0.0\nsamples = 1\nvalue = 4883.8", fillcolor="#fdf7f2"] ;
888 -> 890 ;
891 [label="squared_error = -0.0\nsamples = 1\nvalue = 4824.2", fillcolor="#fdf7f2"] ;
887 -> 891 ;
892 [label="total_fees_usd <= 601434.59\nsquared_error = 692.92\nsamples = 5\nvalue = 5025.17", fillcolor="#fdf6f1"] ;
880 -> 892 ;
893 [label="BTC_open <= 5038.75\nsquared_error = 188.32\nsamples = 4\nvalue = 5034.58", fillcolor="#fdf6f1"] ;
892 -> 893 ;
894 [label="SPX <= 1453.53\nsquared_error = 91.58\nsamples = 2\nvalue = 5026.78", fillcolor="#fdf6f1"] ;
893 -> 894 ;
895 [label="squared_error = 0.0\nsamples = 1\nvalue = 5010.2", fillcolor="#fdf6f1"] ;
894 -> 895 ;
896 [label="squared_error = 0.0\nsamples = 1\nvalue = 5032.3", fillcolor="#fdf6f1"] ;
894 -> 896 ;
897 [label="ETH <= 168.76\nsquared_error = 16.0\nsamples = 2\nvalue = 5050.2", fillcolor="#fdf6f1"] ;
893 -> 897 ;
898 [label="squared_error = 0.0\nsamples = 1\nvalue = 5054.2", fillcolor="#fdf6f1"] ;
897 -> 898 ;
899 [label="squared_error = 0.0\nsamples = 1\nvalue = 5046.2", fillcolor="#fdf6f1"] ;
897 -> 899 ;
