digraph Tree {
node [shape=box, style="filled, rounded", color="black", fontname="helvetica"] ;
edge [fontname="helvetica"] ;
0 [label="BTC_open <= 27540.2\nsquared_error = 317367574.63\nsamples = 928\nvalue = 22145.5", fillcolor="#f7dac4"] ;
1 [label="BTC_low <= 14410.2\nsquared_error = 28390682.58\nsamples = 595\nvalue = 10000.39", fillcolor="#fcf2ea"] ;
0 -> 1 [labeldistance=2.5, labelangle=45, headlabel="True"] ;
2 [label="BTC_open <= 7579.15\nsquared_error = 6778202.23\nsamples = 494\nvalue = 7948.73", fillcolor="#fdf6f0"] ;
1 -> 2 ;
3 [label="BTC_open <= 5343.75\nsquared_error = 2014560.8\nsamples = 206\nvalue = 5277.53", fillcolor="#fefbf9"] ;
2 -> 3 ;
4 [label="BTC_open <= 4460.15\nsquared_error = 298739.22\nsamples = 110\nvalue = 4034.14", fillcolor="#fffdfc"] ;
3 -> 4 ;
5 [label="BTC_open <= 3767.1\nsquared_error = 59873.08\nsamples = 88\nvalue = 3797.76", fillcolor="#fffefd"] ;
4 -> 5 ;
6 [label="BTC_open <= 3531.45\nsquared_error = 15478.27\nsamples = 40\nvalue = 3563.04", fillcolor="#fffefe"] ;
5 -> 6 ;
7 [label="BTC_open <= 3356.35\nsquared_error = 8132.76\nsamples = 15\nvalue = 3428.03", fillcolor="#fffffe"] ;
6 -> 7 ;
8 [label="LTC <= 23.56\nsquared_error = 1083.25\nsamples = 4\nvalue = 3259.92", fillcolor="#ffffff"] ;
7 -> 8 ;
9 [label="squared_error = 0.0\nsamples = 1\nvalue = 3315.3", fillcolor="#ffffff"] ;
8 -> 9 ;
10 [label="mean_lock_size_ytes <= 1000879.28\nsquared_error = 81.5\nsamples = 3\nvalue = 3241.47", fillcolor="#ffffff"] ;
8 -> 10 ;
11 [label="squared_error = 0.0\nsamples = 2\nvalue = 3247.85", fillcolor="#ffffff"] ;
10 -> 11 ;
12 [label="squared_error = -0.0\nsamples = 1\nvalue = 3228.7", fillcolor="#ffffff"] ;
10 -> 12 ;
13 [label="BTC_open <= 3448.85\nsquared_error = 1577.37\nsamples = 11\nvalue = 3467.59", fillcolor="#fffffe"] ;
7 -> 13 ;
14 [label="BTC_low <= 3404.75\nsquared_error = 265.41\nsamples = 4\nvalue = 3415.56", fillcolor="#fffffe"] ;
13 -> 14 ;
15 [label="squared_error = 64.98\nsamples = 2\nvalue = 3403.4", fillcolor="#fffffe"] ;
14 -> 15 ;
16 [label="squared_error = 11.56\nsamples = 2\nvalue = 3433.8", fillcolor="#fffffe"] ;
14 -> 16 ;
17 [label="SPX <= 2634.93\nsquared_error = 526.17\nsamples = 7\nvalue = 3489.27", fillcolor="#fffefe"] ;
13 -> 17 ;
18 [label="squared_error = 219.27\nsamples = 4\nvalue = 3503.01", fillcolor="#fffefe"] ;
17 -> 18 ;
19 [label="squared_error = 6.28\nsamples = 3\nvalue = 3461.78", fillcolor="#fffffe"] ;
17 -> 19 ;
20 [label="BTC_low <= 3612.5\nsquared_error = 3899.45\nsamples = 25\nvalue = 3637.64", fillcolor="#fffefe"] ;
6 -> 20 ;
21 [label="BTC_open <= 3601.0\nsquared_error = 878.28\nsamples = 16\nvalue = 3599.02", fillcolor="#fffefe"] ;
20 -> 21 ;
22 [label="BTC_open <= 3549.15\nsquared_error = 198.29\nsamples = 9\nvalue = 3573.35", fillcolor="#fffefe"] ;
21 -> 22 ;
23 [label="squared_error = 0.0\nsamples = 1\nvalue = 3536.7", fillcolor="#fffefe"] ;
22 -> 23 ;
24 [label="squared_error = 93.57\nsamples = 8\nvalue = 3576.4", fillcolor="#fffefe"] ;
22 -> 24 ;
25 [label="SILVER <= 7.7\nsquared_error = 127.28\nsamples = 7\nvalue = 3626.83", fillcolor="#fffefe"] ;
21 -> 25 ;
26 [label="squared_error = 30.3\nsamples = 3\nvalue = 3609.03", fillcolor="#fffefe"] ;
25 -> 26 ;
27 [label="squared_error = 18.79\nsamples = 4\nvalue = 3632.77", fillcolor="#fffefe"] ;
25 -> 27 ;
28 [label="BTC_open <= 3735.8\nsquared_error = 1324.3\nsamples = 9\nvalue = 3711.92", fillcolor="#fffefd"] ;
20 -> 28 ;
29 [label="BTC_open <= 3697.7\nsquared_error = 382.14\nsamples = 7\nvalue = 3690.24", fillcolor="#fffefe"] ;
28 -> 29 ;
30 [label="squared_error = 95.26\nsamples = 4\nvalue = 3674.14", fillcolor="#fffefe"] ;
29 -> 30 ;
31 [label="squared_error = 11.3\nsamples = 3\nvalue = 3710.38", fillcolor="#fffefe"] ;
29 -> 31 ;
32 [label="COPPER <= 2.83\nsquared_error = 9.99\nsamples = 2\nvalue = 3760.68", fillcolor="#fffefd"] ;
28 -> 32 ;
33 [label="squared_error = 0.0\nsamples = 1\nvalue = 3762.5", fillcolor="#fffefd"] ;
32 -> 33 ;
34 [label="squared_error = -0.0\nsamples = 1\nvalue = 3755.2", fillcolor="#fffefd"] ;
32 -> 34 ;
35 [label="BTC_open <= 4051.1\nsquared_error = 21148.37\nsamples = 48\nvalue = 3973.07", fillcolor="#fffefd"] ;
5 -> 35 ;
36 [label="BTC_open <= 3917.3\nsquared_error = 5518.76\nsamples = 37\nvalue = 3909.48", fillcolor="#fffefd"] ;
35 -> 36 ;
37 [label="BTC_open <= 3837.05\nsquared_error = 1369.96\nsamples = 21\nvalue = 3850.92", fillcolor="#fffefd"] ;
36 -> 37 ;
38 [label="BTC_low <= 3609.8\nsquared_error = 159.8\nsamples = 9\nvalue = 3810.18", fillcolor="#fffefd"] ;
37 -> 38 ;
39 [label="squared_error = 122.1\nsamples = 2\nvalue = 3782.65", fillcolor="#fffefd"] ;
38 -> 39 ;
40 [label="squared_error = 18.73\nsamples = 7\nvalue = 3814.77", fillcolor="#fffefd"] ;
38 -> 40 ;
41 [label="BTC_open <= 3882.45\nsquared_error = 241.77\nsamples = 12\nvalue = 3879.44", fillcolor="#fffefd"] ;
37 -> 41 ;
42 [label="squared_error = 70.19\nsamples = 8\nvalue = 3867.7", fillcolor="#fffefd"] ;
41 -> 42 ;
43 [label="squared_error = 77.13\nsamples = 4\nvalue = 3893.79", fillcolor="#fffefd"] ;
41 -> 43 ;
44 [label="BTC_open <= 3994.2\nsquared_error = 1337.56\nsamples = 16\nvalue = 3980.58", fillcolor="#fffefd"] ;
36 -> 44 ;
45 [label="BTC_open <= 3951.3\nsquared_error = 394.26\nsamples = 11\nvalue = 3957.18", fillcolor="#fffefd"] ;
44 -> 45 ;
46 [label="squared_error = 95.56\nsamples = 4\nvalue = 3935.09", fillcolor="#fffefd"] ;
45 -> 46 ;
47 [label="squared_error = 75.86\nsamples = 7\nvalue = 3971.25", fillcolor="#fffefd"] ;
45 -> 47 ;
48 [label="addresses_active_count <= 574652.5\nsquared_error = 276.91\nsamples = 5\nvalue = 4022.69", fillcolor="#fffdfd"] ;
44 -> 48 ;
49 [label="squared_error = 2.85\nsamples = 2\nvalue = 4003.48", fillcolor="#fffdfd"] ;
48 -> 49 ;
50 [label="squared_error = 49.38\nsamples = 3\nvalue = 4035.5", fillcolor="#fffdfc"] ;
48 -> 50 ;
51 [label="BTC_open <= 4230.85\nsquared_error = 9612.14\nsamples = 11\nvalue = 4204.99", fillcolor="#fffdfc"] ;
35 -> 51 ;
52 [label="BTC_open <= 4132.8\nsquared_error = 1763.14\nsamples = 7\nvalue = 4140.69", fillcolor="#fffdfc"] ;
51 -> 52 ;
53 [label="xfer_cnt <= 593815.0\nsquared_error = 422.84\nsamples = 4\nvalue = 4101.68", fillcolor="#fffdfc"] ;
52 -> 53 ;
54 [label="squared_error = 0.0\nsamples = 1\nvalue = 4062.2", fillcolor="#fffdfc"] ;
53 -> 54 ;
55 [label="squared_error = 41.47\nsamples = 3\nvalue = 4111.55", fillcolor="#fffdfc"] ;
53 -> 55 ;
56 [label="SPX <= 1395.19\nsquared_error = 555.01\nsamples = 3\nvalue = 4173.2", fillcolor="#fffdfc"] ;
52 -> 56 ;
57 [label="squared_error = 0.0\nsamples = 1\nvalue = 4196.2", fillcolor="#fffdfc"] ;
56 -> 57 ;
58 [label="squared_error = 52.02\nsamples = 2\nvalue = 4150.2", fillcolor="#fffdfc"] ;
56 -> 58 ;
59 [label="DJI <= 24825.5\nsquared_error = 2523.45\nsamples = 4\nvalue = 4322.88", fillcolor="#fffdfc"] ;
51 -> 59 ;
60 [label="BTC_open <= 4379.1\nsquared_error = 392.0\nsamples = 2\nvalue = 4370.0", fillcolor="#fffdfb"] ;
59 -> 60 ;
61 [label="squared_error = 0.0\nsamples = 1\nvalue = 4356.0", fillcolor="#fffdfb"] ;
60 -> 61 ;
62 [label="squared_error = 0.0\nsamples = 1\nvalue = 4398.0", fillcolor="#fffdfb"] ;
60 -> 62 ;
63 [label="xfer_cnt <= 569345.0\nsquared_error = 214.94\nsamples = 2\nvalue = 4275.77", fillcolor="#fffdfc"] ;
59 -> 63 ;
64 [label="squared_error = 0.0\nsamples = 1\nvalue = 4296.5", fillcolor="#fffdfc"] ;
63 -> 64 ;
65 [label="squared_error = 0.0\nsamples = 1\nvalue = 4265.4", fillcolor="#fffdfc"] ;
63 -> 65 ;
66 [label="BTC_open <= 5090.6\nsquared_error = 48826.17\nsamples = 22\nvalue = 5053.49", fillcolor="#fefbf9"] ;
4 -> 66 ;
67 [label="BTC_open <= 4730.8\nsquared_error = 26687.81\nsamples = 11\nvalue = 4867.91", fillcolor="#fefcfa"] ;
66 -> 67 ;
68 [label="mean_hash_rate <= 37538706.0\nsquared_error = 2893.07\nsamples = 2\nvalue = 4562.63", fillcolor="#fefcfb"] ;
67 -> 68 ;
69 [label="squared_error = 0.0\nsamples = 1\nvalue = 4524.6", fillcolor="#fefcfb"] ;
68 -> 69 ;
70 [label="squared_error = -0.0\nsamples = 1\nvalue = 4638.7", fillcolor="#fefcfb"] ;
68 -> 70 ;
71 [label="BTC_open <= 4935.6\nsquared_error = 5709.22\nsamples = 9\nvalue = 4938.36", fillcolor="#fefcfa"] ;
67 -> 71 ;
72 [label="mean_lock_size_ytes <= 1272245.0\nsquared_error = 861.25\nsamples = 4\nvalue = 4863.55", fillcolor="#fefcfa"] ;
71 -> 72 ;
73 [label="XRP <= 0.35\nsquared_error = 234.38\nsamples = 3\nvalue = 4882.33", fillcolor="#fefcfa"] ;
72 -> 73 ;
74 [label="squared_error = 0.0\nsamples = 1\nvalue = 4859.3", fillcolor="#fefcfa"] ;
73 -> 74 ;
75 [label="squared_error = 76.88\nsamples = 2\nvalue = 4890.0", fillcolor="#fefcfa"] ;
73 -> 75 ;
76 [label="squared_error = 0.0\nsamples = 1\nvalue = 4826.0", fillcolor="#fefcfa"] ;
72 -> 76 ;
77 [label="SILVER <= 15.07\nsquared_error = 955.48\nsamples = 5\nvalue = 5002.49", fillcolor="#fefbf9"] ;
71 -> 77 ;
78 [label="BTC_low <= 4981.15\nsquared_error = 173.9\nsamples = 4\nvalue = 5027.83", fillcolor="#fefbf9"] ;
77 -> 78 ;
79 [label="squared_error = 38.44\nsamples = 2\nvalue = 5016.4", fillcolor="#fefbf9"] ;
78 -> 79 ;
80 [label="squared_error = 48.3\nsamples = 2\nvalue = 5039.25", fillcolor="#fefbf9"] ;
78 -> 80 ;
81 [label="squared_error = 0.0\nsamples = 1\nvalue = 4968.7", fillcolor="#fefcfa"] ;
77 -> 81 ;
82 [label="BTC_open <= 5221.85\nsquared_error = 2088.37\nsamples = 11\nvalue = 5239.06", fillcolor="#fefbf9"] ;
66 -> 82 ;
83 [label="BTC_low <= 5042.4\nsquared_error = 721.58\nsamples = 4\nvalue = 5183.0", fillcolor="#fefbf9"] ;
82 -> 83 ;
84 [label="squared_error = 0.0\nsamples = 1\nvalue = 5134.8", fillcolor="#fefbf9"] ;
83 -> 84 ;
85 [label="DOGE <= 0.0\nsquared_error = 175.97\nsamples = 3\nvalue = 5195.05", fillcolor="#fefbf9"] ;
83 -> 85 ;
86 [label="DOGE <= 0.0\nsquared_error = 0.81\nsamples = 2\nvalue = 5181.8", fillcolor="#fefbf9"] ;
85 -> 86 ;
87 [label="squared_error = 0.0\nsamples = 1\nvalue = 5182.7", fillcolor="#fefbf9"] ;
86 -> 87 ;
88 [label="squared_error = 0.0\nsamples = 1\nvalue = 5180.9", fillcolor="#fefbf9"] ;
86 -> 88 ;
89 [label="squared_error = 0.0\nsamples = 1\nvalue = 5208.3", fillcolor="#fefbf9"] ;
85 -> 89 ;
90 [label="BTC_open <= 5284.05\nsquared_error = 631.62\nsamples = 7\nvalue = 5264.55", fillcolor="#fefbf9"] ;
82 -> 90 ;
91 [label="mean_hash_rate <= 46259478.0\nsquared_error = 152.88\nsamples = 5\nvalue = 5254.1", fillcolor="#fefbf9"] ;
90 -> 91 ;
92 [label="SPX <= 2912.02\nsquared_error = 13.21\nsamples = 3\nvalue = 5240.55", fillcolor="#fefbf9"] ;
91 -> 92 ;
93 [label="squared_error = 3.92\nsamples = 2\nvalue = 5242.4", fillcolor="#fefbf9"] ;
92 -> 93 ;
94 [label="squared_error = 0.0\nsamples = 1\nvalue = 5235.0", fillcolor="#fefbf9"] ;
92 -> 94 ;
95 [label="BTC_low <= 5213.25\nsquared_error = 0.23\nsamples = 2\nvalue = 5264.94", fillcolor="#fefbf9"] ;
91 -> 95 ;
96 [label="squared_error = 0.0\nsamples = 1\nvalue = 5264.7", fillcolor="#fefbf9"] ;
95 -> 96 ;
97 [label="squared_error = 0.0\nsamples = 1\nvalue = 5265.9", fillcolor="#fefbf9"] ;
95 -> 97 ;
98 [label="addresses_active_count <= 783929.5\nsquared_error = 85.56\nsamples = 2\nvalue = 5311.55", fillcolor="#fefbf9"] ;
90 -> 98 ;
99 [label="squared_error = 0.0\nsamples = 1\nvalue = 5320.8", fillcolor="#fefbf8"] ;
98 -> 99 ;
100 [label="squared_error = 0.0\nsamples = 1\nvalue = 5302.3", fillcolor="#fefbf9"] ;
98 -> 100 ;
101 [label="BTC_open <= 6722.2\nsquared_error = 318017.32\nsamples = 96\nvalue = 6650.11", fillcolor="#fef8f4"] ;
3 -> 101 ;
102 [label="BTC_open <= 6081.05\nsquared_error = 138248.67\nsamples = 53\nvalue = 6238.66", fillcolor="#fef9f6"] ;
101 -> 102 ;
103 [label="BTC_open <= 5691.95\nsquared_error = 22571.79\nsamples = 15\nvalue = 5718.01", fillcolor="#fefaf7"] ;
102 -> 103 ;
104 [label="BTC_open <= 5550.3\nsquared_error = 9787.21\nsamples = 6\nvalue = 5568.06", fillcolor="#fefaf8"] ;
103 -> 104 ;
105 [label="XRP <= 0.3\nsquared_error = 3639.84\nsamples = 3\nvalue = 5431.17", fillcolor="#fefbf8"] ;
104 -> 105 ;
106 [label="mean_hash_rate <= 71540068.0\nsquared_error = 607.62\nsamples = 2\nvalue = 5390.95", fillcolor="#fefbf8"] ;
105 -> 106 ;
107 [label="squared_error = 0.0\nsamples = 1\nvalue = 5415.6", fillcolor="#fefbf8"] ;
106 -> 107 ;
108 [label="squared_error = -0.0\nsamples = 1\nvalue = 5366.3", fillcolor="#fefbf8"] ;
106 -> 108 ;
109 [label="squared_error = 0.0\nsamples = 1\nvalue = 5511.6", fillcolor="#fefaf8"] ;
105 -> 109 ;
110 [label="GOLD <= 612.65\nsquared_error = 948.46\nsamples = 3\nvalue = 5626.73", fillcolor="#fefaf8"] ;
104 -> 110 ;
111 [label="BTC_low <= 5343.85\nsquared_error = 351.56\nsamples = 2\nvalue = 5603.05", fillcolor="#fefaf8"] ;
110 -> 111 ;
112 [label="squared_error = 0.0\nsamples = 1\nvalue = 5584.3", fillcolor="#fefaf8"] ;
111 -> 112 ;
113 [label="squared_error = 0.0\nsamples = 1\nvalue = 5621.8", fillcolor="#fefaf8"] ;
111 -> 113 ;
114 [label="squared_error = 0.0\nsamples = 1\nvalue = 5658.3", fillcolor="#fefaf7"] ;
110 -> 114 ;
115 [label="BTC_open <= 5835.7\nsquared_error = 7726.53\nsamples = 9\nvalue = 5811.72", fillcolor="#fefaf7"] ;
103 -> 115 ;
116 [label="BTC_open <= 5756.75\nsquared_error = 1111.59\nsamples = 5\nvalue = 5753.43", fillcolor="#fefaf7"] ;
115 -> 116 ;
117 [label="ETH <= 173.17\nsquared_error = 109.83\nsamples = 2\nvalue = 5724.14", fillcolor="#fefaf7"] ;
116 -> 117 ;
118 [label="squared_error = 0.0\nsamples = 1\nvalue = 5745.1", fillcolor="#fefaf7"] ;
117 -> 118 ;
119 [label="squared_error = 0.0\nsamples = 1\nvalue = 5718.9", fillcolor="#fefaf7"] ;
117 -> 119 ;
120 [label="BTC_open <= 5798.55\nsquared_error = 397.54\nsamples = 3\nvalue = 5782.72", fillcolor="#fefaf7"] ;
116 -> 120 ;
121 [label="squared_error = 12.3\nsamples = 2\nvalue = 5772.87", fillcolor="#fefaf7"] ;
120 -> 121 ;
122 [label="squared_error = -0.0\nsamples = 1\nvalue = 5822.1", fillcolor="#fefaf7"] ;
120 -> 122 ;
123 [label="BTC_open <= 5940.45\nsquared_error = 3647.84\nsamples = 4\nvalue = 5908.88", fillcolor="#fefaf7"] ;
115 -> 123 ;
124 [label="SILVER <= 14.23\nsquared_error = 500.25\nsamples = 3\nvalue = 5868.17", fillcolor="#fefaf7"] ;
123 -> 124 ;
125 [label="squared_error = 0.0\nsamples = 1\nvalue = 5890.4", fillcolor="#fefaf7"] ;
124 -> 125 ;
126 [label="squared_error = 12.6\nsamples = 2\nvalue = 5845.95", fillcolor="#fefaf7"] ;
124 -> 126 ;
127 [label="squared_error = 0.0\nsamples = 1\nvalue = 5990.3", fillcolor="#fefaf6"] ;
123 -> 127 ;
128 [label="BTC_open <= 6467.1\nsquared_error = 22766.05\nsamples = 38\nvalue = 6460.57", fillcolor="#fef9f5"] ;
102 -> 128 ;
129 [label="BTC_open <= 6306.45\nsquared_error = 9287.56\nsamples = 17\nvalue = 6342.23", fillcolor="#fef9f5"] ;
128 -> 129 ;
130 [label="xfer_cnt <= 501399.5\nsquared_error = 1707.07\nsamples = 6\nvalue = 6214.9", fillcolor="#fef9f6"] ;
129 -> 130 ;
131 [label="squared_error = 0.0\nsamples = 1\nvalue = 6291.3", fillcolor="#fef9f5"] ;
130 -> 131 ;
132 [label="BTC_open <= 6199.95\nsquared_error = 309.79\nsamples = 5\nvalue = 6195.8", fillcolor="#fef9f6"] ;
130 -> 132 ;
133 [label="squared_error = 42.78\nsamples = 3\nvalue = 6184.42", fillcolor="#fef9f6"] ;
132 -> 133 ;
134 [label="squared_error = 179.24\nsamples = 2\nvalue = 6214.77", fillcolor="#fef9f6"] ;
132 -> 134 ;
135 [label="XRP <= 0.47\nsquared_error = 2014.26\nsamples = 11\nvalue = 6400.1", fillcolor="#fef9f5"] ;
129 -> 135 ;
136 [label="BTC_open <= 6346.9\nsquared_error = 779.72\nsamples = 6\nvalue = 6360.71", fillcolor="#fef9f5"] ;
135 -> 136 ;
137 [label="squared_error = 4.4\nsamples = 3\nvalue = 6325.25", fillcolor="#fef9f5"] ;
136 -> 137 ;
138 [label="squared_error = 93.72\nsamples = 3\nvalue = 6380.97", fillcolor="#fef9f5"] ;
136 -> 138 ;
139 [label="LTC <= 50.65\nsquared_error = 144.8\nsamples = 5\nvalue = 6439.5", fillcolor="#fef9f5"] ;
135 -> 139 ;
140 [label="squared_error = 7.01\nsamples = 3\nvalue = 6429.47", fillcolor="#fef9f5"] ;
139 -> 140 ;
141 [label="squared_error = 44.39\nsamples = 2\nvalue = 6451.54", fillcolor="#fef9f5"] ;
139 -> 141 ;
142 [label="BTC_open <= 6538.5\nsquared_error = 5131.0\nsamples = 21\nvalue = 6591.16", fillcolor="#fef8f5"] ;
128 -> 142 ;
143 [label="DOGE <= 0.0\nsquared_error = 214.89\nsamples = 6\nvalue = 6492.67", fillcolor="#fef9f5"] ;
142 -> 143 ;
144 [label="COPPER <= 2.73\nsquared_error = 3.92\nsamples = 2\nvalue = 6475.4", fillcolor="#fef9f5"] ;
143 -> 144 ;
145 [label="squared_error = 0.0\nsamples = 1\nvalue = 6474.0", fillcolor="#fef9f5"] ;
144 -> 145 ;
146 [label="squared_error = -0.0\nsamples = 1\nvalue = 6478.2", fillcolor="#fef9f5"] ;
144 -> 146 ;
147 [label="DOGE <= 0.0\nsquared_error = 54.98\nsamples = 4\nvalue = 6503.04", fillcolor="#fef9f5"] ;
143 -> 147 ;
148 [label="squared_error = 0.0\nsamples = 1\nvalue = 6494.2", fillcolor="#fef9f5"] ;
147 -> 148 ;
149 [label="squared_error = 4.81\nsamples = 3\nvalue = 6508.93", fillcolor="#fef9f5"] ;
147 -> 149 ;
150 [label="BTC_open <= 6628.4\nsquared_error = 1901.01\nsamples = 15\nvalue = 6628.68", fillcolor="#fef8f4"] ;
142 -> 150 ;
151 [label="BTC_open <= 6590.25\nsquared_error = 338.0\nsamples = 8\nvalue = 6592.48", fillcolor="#fef8f5"] ;
150 -> 151 ;
152 [label="squared_error = 51.31\nsamples = 5\nvalue = 6577.17", fillcolor="#fef8f5"] ;
151 -> 152 ;
153 [label="squared_error = 62.8\nsamples = 3\nvalue = 6610.86", fillcolor="#fef8f4"] ;
151 -> 153 ;
154 [label="BTC_open <= 6660.1\nsquared_error = 593.36\nsamples = 7\nvalue = 6668.5", fillcolor="#fef8f4"] ;
150 -> 154 ;
155 [label="squared_error = 26.61\nsamples = 3\nvalue = 6641.88", fillcolor="#fef8f4"] ;
154 -> 155 ;
156 [label="squared_error = 183.53\nsamples = 4\nvalue = 6686.25", fillcolor="#fef8f4"] ;
154 -> 156 ;
157 [label="BTC_open <= 7099.15\nsquared_error = 46169.93\nsamples = 43\nvalue = 7184.39", fillcolor="#fdf7f3"] ;
101 -> 157 ;
158 [label="DOGE <= 0.0\nsquared_error = 11079.62\nsamples = 12\nvalue = 6900.96", fillcolor="#fef8f4"] ;
157 -> 158 ;
159 [label="total_fees_usd <= 226157.84\nsquared_error = 1560.22\nsamples = 8\nvalue = 6836.83", fillcolor="#fef8f4"] ;
158 -> 159 ;
160 [label="mean_hash_rate <= 124354536.0\nsquared_error = 646.12\nsamples = 7\nvalue = 6845.42", fillcolor="#fef8f4"] ;
159 -> 160 ;
161 [label="mean_tx_size_usd <= 6065.25\nsquared_error = 229.66\nsamples = 6\nvalue = 6839.41", fillcolor="#fef8f4"] ;
160 -> 161 ;
162 [label="squared_error = 100.41\nsamples = 5\nvalue = 6842.95", fillcolor="#fef8f4"] ;
161 -> 162 ;
163 [label="squared_error = 0.0\nsamples = 1\nvalue = 6800.5", fillcolor="#fef8f4"] ;
161 -> 163 ;
164 [label="squared_error = -0.0\nsamples = 1\nvalue = 6917.6", fillcolor="#fdf8f4"] ;
160 -> 164 ;
165 [label="squared_error = -0.0\nsamples = 1\nvalue = 6725.1", fillcolor="#fef8f4"] ;
159 -> 165 ;
166 [label="xfer_cnt <= 720627.5\nsquared_error = 1302.8\nsamples = 4\nvalue = 7050.6", fillcolor="#fdf7f3"] ;
158 -> 166 ;
167 [label="sum_lock_weight <= 451147776.0\nsquared_error = 5.12\nsamples = 2\nvalue = 7082.4", fillcolor="#fdf7f3"] ;
166 -> 167 ;
168 [label="squared_error = 0.0\nsamples = 1\nvalue = 7080.8", fillcolor="#fdf7f3"] ;
167 -> 168 ;
169 [label="squared_error = 0.0\nsamples = 1\nvalue = 7085.6", fillcolor="#fdf7f3"] ;
167 -> 169 ;
170 [label="DOGE <= 0.0\nsquared_error = 578.0\nsamples = 2\nvalue = 7018.8", fillcolor="#fdf8f3"] ;
166 -> 170 ;
171 [label="squared_error = 0.0\nsamples = 1\nvalue = 7035.8", fillcolor="#fdf7f3"] ;
170 -> 171 ;
172 [label="squared_error = -0.0\nsamples = 1\nvalue = 6984.8", fillcolor="#fdf8f3"] ;
170 -> 172 ;
173 [label="BTC_open <= 7346.1\nsquared_error = 12373.19\nsamples = 31\nvalue = 7304.99", fillcolor="#fdf7f2"] ;
157 -> 173 ;
174 [label="BTC_open <= 7246.2\nsquared_error = 3561.16\nsamples = 20\nvalue = 7241.88", fillcolor="#fdf7f3"] ;
173 -> 174 ;
175 [label="BTC_open <= 7176.4\nsquared_error = 1479.76\nsamples = 11\nvalue = 7192.06", fillcolor="#fdf7f3"] ;
174 -> 175 ;
176 [label="GOLD <= 1582.3\nsquared_error = 367.13\nsamples = 3\nvalue = 7130.37", fillcolor="#fdf7f3"] ;
175 -> 176 ;
177 [label="squared_error = 0.0\nsamples = 1\nvalue = 7162.8", fillcolor="#fdf7f3"] ;
176 -> 177 ;
178 [label="squared_error = 22.22\nsamples = 2\nvalue = 7119.57", fillcolor="#fdf7f3"] ;
176 -> 178 ;
179 [label="BTC_open <= 7217.9\nsquared_error = 159.71\nsamples = 8\nvalue = 7212.62", fillcolor="#fdf7f3"] ;
175 -> 179 ;
180 [label="squared_error = 50.35\nsamples = 6\nvalue = 7203.06", fillcolor="#fdf7f3"] ;
179 -> 180 ;
181 [label="squared_error = 5.76\nsamples = 2\nvalue = 7226.0", fillcolor="#fdf7f3"] ;
179 -> 181 ;
182 [label="BTC_open <= 7306.75\nsquared_error = 677.51\nsamples = 9\nvalue = 7291.71", fillcolor="#fdf7f2"] ;
174 -> 182 ;
183 [label="BTC_open <= 7284.15\nsquared_error = 64.4\nsamples = 6\nvalue = 7272.23", fillcolor="#fdf7f2"] ;
182 -> 183 ;
184 [label="squared_error = 24.28\nsamples = 5\nvalue = 7270.06", fillcolor="#fdf7f2"] ;
183 -> 184 ;
185 [label="squared_error = -0.0\nsamples = 1\nvalue = 7291.8", fillcolor="#fdf7f2"] ;
183 -> 185 ;
186 [label="difficulty <= 13430558818304.0\nsquared_error = 13.46\nsamples = 3\nvalue = 7324.17", fillcolor="#fdf7f2"] ;
182 -> 186 ;
187 [label="squared_error = 0.27\nsamples = 2\nvalue = 7322.54", fillcolor="#fdf7f2"] ;
186 -> 187 ;
188 [label="squared_error = -0.0\nsamples = 1\nvalue = 7332.3", fillcolor="#fdf7f2"] ;
186 -> 188 ;
189 [label="BTC_open <= 7451.7\nsquared_error = 4548.69\nsamples = 11\nvalue = 7439.63", fillcolor="#fdf7f2"] ;
173 -> 189 ;
190 [label="BTC_low <= 7385.8\nsquared_error = 693.85\nsamples = 6\nvalue = 7380.22", fillcolor="#fdf7f2"] ;
189 -> 190 ;
191 [label="total_fees_usd <= 165025.66\nsquared_error = 44.68\nsamples = 4\nvalue = 7365.4", fillcolor="#fdf7f2"] ;
190 -> 191 ;
192 [label="squared_error = 4.62\nsamples = 2\nvalue = 7374.65", fillcolor="#fdf7f2"] ;
191 -> 192 ;
193 [label="squared_error = 0.54\nsamples = 2\nvalue = 7360.78", fillcolor="#fdf7f2"] ;
191 -> 193 ;
194 [label="LTC <= 52.78\nsquared_error = 4.0\nsamples = 2\nvalue = 7424.7", fillcolor="#fdf7f2"] ;
190 -> 194 ;
195 [label="squared_error = 0.0\nsamples = 1\nvalue = 7426.7", fillcolor="#fdf7f2"] ;
194 -> 195 ;
196 [label="squared_error = 0.0\nsamples = 1\nvalue = 7422.7", fillcolor="#fdf7f2"] ;
194 -> 196 ;
197 [label="sum_lock_weight <= 428086496.0\nsquared_error = 312.84\nsamples = 5\nvalue = 7507.51", fillcolor="#fdf7f2"] ;
189 -> 197 ;
198 [label="squared_error = 0.0\nsamples = 1\nvalue = 7530.8", fillcolor="#fdf6f2"] ;
197 -> 198 ;
199 [label="mean_tx_size_usd <= 6668.44\nsquared_error = 134.34\nsamples = 4\nvalue = 7498.2", fillcolor="#fdf7f2"] ;
197 -> 199 ;
200 [label="squared_error = 27.47\nsamples = 3\nvalue = 7503.5", fillcolor="#fdf7f2"] ;
199 -> 200 ;
201 [label="squared_error = 0.0\nsamples = 1\nvalue = 7477.0", fillcolor="#fdf7f2"] ;
199 -> 201 ;
202 [label="BTC_open <= 10067.6\nsquared_error = 1698206.19\nsamples = 288\nvalue = 9801.99", fillcolor="#fcf2eb"] ;
2 -> 202 ;
203 [label="BTC_open <= 8874.2\nsquared_error = 445288.93\nsamples = 171\nvalue = 8959.58", fillcolor="#fdf4ed"] ;
202 -> 203 ;
204 [label="BTC_open <= 8311.45\nsquared_error = 146044.04\nsamples = 77\nvalue = 8279.89", fillcolor="#fdf5ef"] ;
203 -> 204 ;
205 [label="BTC_open <= 7946.3\nsquared_error = 37999.7\nsamples = 40\nvalue = 7979.14", fillcolor="#fdf6f0"] ;
204 -> 205 ;
206 [label="BTC_open <= 7754.35\nsquared_error = 10186.48\nsamples = 15\nvalue = 7768.36", fillcolor="#fdf6f1"] ;
205 -> 206 ;
207 [label="COPPER <= 2.64\nsquared_error = 1195.51\nsamples = 6\nvalue = 7662.1", fillcolor="#fdf6f1"] ;
206 -> 207 ;
208 [label="JP225 <= 9865.0\nsquared_error = 560.67\nsamples = 3\nvalue = 7695.62", fillcolor="#fdf6f1"] ;
207 -> 208 ;
209 [label="squared_error = 0.0\nsamples = 1\nvalue = 7742.7", fillcolor="#fdf6f1"] ;
208 -> 209 ;
210 [label="squared_error = 8.17\nsamples = 2\nvalue = 7683.85", fillcolor="#fdf6f1"] ;
208 -> 210 ;
211 [label="SILVER <= 15.86\nsquared_error = 7.95\nsamples = 3\nvalue = 7634.17", fillcolor="#fdf6f1"] ;
207 -> 211 ;
212 [label="squared_error = 0.12\nsamples = 2\nvalue = 7635.42", fillcolor="#fdf6f1"] ;
211 -> 212 ;
213 [label="squared_error = -0.0\nsamples = 1\nvalue = 7627.9", fillcolor="#fdf6f1"] ;
211 -> 213 ;
214 [label="BTC_open <= 7824.45\nsquared_error = 3269.32\nsamples = 9\nvalue = 7841.41", fillcolor="#fdf6f1"] ;
206 -> 214 ;
215 [label="xfer_cnt <= 846279.5\nsquared_error = 240.23\nsamples = 3\nvalue = 7783.04", fillcolor="#fdf6f1"] ;
214 -> 215 ;
216 [label="squared_error = 41.19\nsamples = 2\nvalue = 7773.86", fillcolor="#fdf6f1"] ;
215 -> 216 ;
217 [label="squared_error = 0.0\nsamples = 1\nvalue = 7806.0", fillcolor="#fdf6f1"] ;
215 -> 217 ;
218 [label="sum_lock_weight <= 553075680.0\nsquared_error = 915.35\nsamples = 6\nvalue = 7886.8", fillcolor="#fdf6f1"] ;
214 -> 218 ;
219 [label="squared_error = 401.3\nsamples = 4\nvalue = 7873.69", fillcolor="#fdf6f1"] ;
218 -> 219 ;
220 [label="squared_error = 5.76\nsamples = 2\nvalue = 7932.7", fillcolor="#fdf6f0"] ;
218 -> 220 ;
221 [label="BTC_open <= 8087.5\nsquared_error = 7787.66\nsamples = 25\nvalue = 8117.95", fillcolor="#fdf5f0"] ;
205 -> 221 ;
222 [label="BTC_open <= 8009.05\nsquared_error = 1146.23\nsamples = 10\nvalue = 8010.63", fillcolor="#fdf6f0"] ;
221 -> 222 ;
223 [label="DOGE <= 0.0\nsquared_error = 224.46\nsamples = 4\nvalue = 7980.29", fillcolor="#fdf6f0"] ;
222 -> 223 ;
224 [label="squared_error = 0.0\nsamples = 1\nvalue = 7957.3", fillcolor="#fdf6f0"] ;
223 -> 224 ;
225 [label="squared_error = 18.38\nsamples = 3\nvalue = 7989.48", fillcolor="#fdf6f0"] ;
223 -> 225 ;
226 [label="mean_lock_size_ytes <= 1027111.16\nsquared_error = 226.61\nsamples = 6\nvalue = 8040.97", fillcolor="#fdf5f0"] ;
222 -> 226 ;
227 [label="squared_error = 9.34\nsamples = 3\nvalue = 8028.58", fillcolor="#fdf6f0"] ;
226 -> 227 ;
228 [label="squared_error = 38.22\nsamples = 3\nvalue = 8057.5", fillcolor="#fdf5f0"] ;
226 -> 228 ;
229 [label="BTC_open <= 8198.0\nsquared_error = 2161.79\nsamples = 15\nvalue = 8173.6", fillcolor="#fdf5f0"] ;
221 -> 229 ;
230 [label="BTC_open <= 8151.1\nsquared_error = 640.02\nsamples = 11\nvalue = 8153.67", fillcolor="#fdf5f0"] ;
229 -> 230 ;
231 [label="squared_error = 143.19\nsamples = 5\nvalue = 8127.57", fillcolor="#fdf5f0"] ;
230 -> 231 ;
232 [label="squared_error = 118.22\nsamples = 6\nvalue = 8173.25", fillcolor="#fdf5f0"] ;
230 -> 232 ;
233 [label="BTC_high <= 8309.95\nsquared_error = 1230.58\nsamples = 4\nvalue = 8243.37", fillcolor="#fdf5ef"] ;
229 -> 233 ;
234 [label="squared_error = 0.0\nsamples = 2\nvalue = 8208.43", fillcolor="#fdf5f0"] ;
233 -> 234 ;
235 [label="squared_error = 20.48\nsamples = 2\nvalue = 8278.3", fillcolor="#fdf5ef"] ;
233 -> 235 ;
236 [label="BTC_open <= 8642.35\nsquared_error = 19720.37\nsamples = 37\nvalue = 8665.76", fillcolor="#fdf4ee"] ;
204 -> 236 ;
237 [label="BTC_open <= 8476.1\nsquared_error = 7766.98\nsamples = 15\nvalue = 8515.08", fillcolor="#fdf5ef"] ;
236 -> 237 ;
238 [label="ETH <= 166.23\nsquared_error = 1478.98\nsamples = 6\nvalue = 8389.4", fillcolor="#fdf5ef"] ;
237 -> 238 ;
239 [label="mean_lock_size_ytes <= 994345.59\nsquared_error = 223.62\nsamples = 3\nvalue = 8425.8", fillcolor="#fdf5ef"] ;
238 -> 239 ;
240 [label="squared_error = 14.06\nsamples = 2\nvalue = 8436.15", fillcolor="#fdf5ef"] ;
239 -> 240 ;
241 [label="squared_error = 0.0\nsamples = 1\nvalue = 8405.1", fillcolor="#fdf5ef"] ;
239 -> 241 ;
242 [label="sum_lock_weight <= 408136656.0\nsquared_error = 84.42\nsamples = 3\nvalue = 8353.0", fillcolor="#fdf5ef"] ;
238 -> 242 ;
243 [label="squared_error = 0.0\nsamples = 1\nvalue = 8341.6", fillcolor="#fdf5ef"] ;
242 -> 243 ;
244 [label="squared_error = 29.16\nsamples = 2\nvalue = 8358.7", fillcolor="#fdf5ef"] ;
242 -> 244 ;
245 [label="BTC_high <= 8855.25\nsquared_error = 1437.26\nsamples = 9\nvalue = 8565.35", fillcolor="#fdf4ee"] ;
237 -> 245 ;
246 [label="ETH <= 174.76\nsquared_error = 408.63\nsamples = 6\nvalue = 8542.44", fillcolor="#fdf4ee"] ;
245 -> 246 ;
247 [label="squared_error = 0.0\nsamples = 1\nvalue = 8513.9", fillcolor="#fdf5ef"] ;
246 -> 247 ;
248 [label="squared_error = 85.07\nsamples = 5\nvalue = 8554.67", fillcolor="#fdf4ee"] ;
246 -> 248 ;
249 [label="addresses_active_count <= 919528.5\nsquared_error = 346.21\nsamples = 3\nvalue = 8611.16", fillcolor="#fdf4ee"] ;
245 -> 249 ;
250 [label="squared_error = 125.44\nsamples = 2\nvalue = 8619.0", fillcolor="#fdf4ee"] ;
249 -> 250 ;
251 [label="squared_error = -0.0\nsamples = 1\nvalue = 8579.8", fillcolor="#fdf4ee"] ;
249 -> 251 ;
252 [label="BTC_open <= 8748.5\nsquared_error = 2884.37\nsamples = 22\nvalue = 8764.65", fillcolor="#fdf4ee"] ;
236 -> 252 ;
253 [label="BTC_open <= 8678.95\nsquared_error = 870.26\nsamples = 10\nvalue = 8704.34", fillcolor="#fdf4ee"] ;
252 -> 253 ;
254 [label="XRP <= 0.28\nsquared_error = 4.36\nsamples = 3\nvalue = 8658.53", fillcolor="#fdf4ee"] ;
253 -> 254 ;
255 [label="squared_error = 0.0\nsamples = 1\nvalue = 8661.2", fillcolor="#fdf4ee"] ;
254 -> 255 ;
256 [label="squared_error = 1.21\nsamples = 2\nvalue = 8657.2", fillcolor="#fdf4ee"] ;
254 -> 256 ;
257 [label="BTC_high <= 8817.45\nsquared_error = 226.27\nsamples = 7\nvalue = 8719.61", fillcolor="#fdf4ee"] ;
253 -> 257 ;
258 [label="squared_error = 60.02\nsamples = 3\nvalue = 8704.38", fillcolor="#fdf4ee"] ;
257 -> 258 ;
259 [label="squared_error = 24.99\nsamples = 4\nvalue = 8731.8", fillcolor="#fdf4ee"] ;
257 -> 259 ;
260 [label="BTC_open <= 8791.5\nsquared_error = 600.86\nsamples = 12\nvalue = 8800.84", fillcolor="#fdf4ee"] ;
252 -> 260 ;
261 [label="BTC_open <= 8774.35\nsquared_error = 44.69\nsamples = 4\nvalue = 8773.81", fillcolor="#fdf4ee"] ;
260 -> 261 ;
262 [label="squared_error = 21.87\nsamples = 2\nvalue = 8768.2", fillcolor="#fdf4ee"] ;
261 -> 262 ;
263 [label="squared_error = 4.5\nsamples = 2\nvalue = 8779.43", fillcolor="#fdf4ee"] ;
261 -> 263 ;
264 [label="BTC_open <= 8824.0\nsquared_error = 159.99\nsamples = 8\nvalue = 8818.86", fillcolor="#fdf4ee"] ;
260 -> 264 ;
265 [label="squared_error = 36.24\nsamples = 6\nvalue = 8812.46", fillcolor="#fdf4ee"] ;
264 -> 265 ;
266 [label="squared_error = 39.31\nsamples = 2\nvalue = 8838.07", fillcolor="#fdf4ee"] ;
264 -> 266 ;
267 [label="BTC_open <= 9480.9\nsquared_error = 81211.57\nsamples = 94\nvalue = 9455.02", fillcolor="#fcf3ec"] ;
203 -> 267 ;
268 [label="BTC_open <= 9248.35\nsquared_error = 20355.53\nsamples = 53\nvalue = 9232.64", fillcolor="#fdf3ec"] ;
267 -> 268 ;
269 [label="BTC_open <= 9107.5\nsquared_error = 6098.14\nsamples = 28\nvalue = 9123.7", fillcolor="#fdf3ed"] ;
268 -> 269 ;
270 [label="BTC_open <= 9022.65\nsquared_error = 2298.15\nsamples = 10\nvalue = 9033.08", fillcolor="#fdf4ed"] ;
269 -> 270 ;
271 [label="DOGE <= 0.0\nsquared_error = 1355.53\nsamples = 4\nvalue = 8974.57", fillcolor="#fdf4ed"] ;
270 -> 271 ;
272 [label="squared_error = 11.84\nsamples = 2\nvalue = 9005.87", fillcolor="#fdf4ed"] ;
271 -> 272 ;
273 [label="squared_error = 739.84\nsamples = 2\nvalue = 8943.27", fillcolor="#fdf4ed"] ;
271 -> 273 ;
274 [label="JP225 <= 22990.0\nsquared_error = 201.79\nsamples = 6\nvalue = 9062.33", fillcolor="#fdf3ed"] ;
270 -> 274 ;
275 [label="squared_error = 85.68\nsamples = 5\nvalue = 9067.44", fillcolor="#fdf3ed"] ;
274 -> 275 ;
276 [label="squared_error = -0.0\nsamples = 1\nvalue = 9036.8", fillcolor="#fdf4ed"] ;
274 -> 276 ;
277 [label="BTC_open <= 9186.0\nsquared_error = 1247.72\nsamples = 18\nvalue = 9173.13", fillcolor="#fdf3ed"] ;
269 -> 277 ;
278 [label="BTC_open <= 9144.3\nsquared_error = 201.26\nsamples = 11\nvalue = 9152.09", fillcolor="#fdf3ed"] ;
277 -> 278 ;
279 [label="squared_error = 0.1\nsamples = 3\nvalue = 9135.22", fillcolor="#fdf3ed"] ;
278 -> 279 ;
280 [label="squared_error = 75.91\nsamples = 8\nvalue = 9161.09", fillcolor="#fdf3ed"] ;
278 -> 280 ;
281 [label="BTC_open <= 9219.0\nsquared_error = 293.96\nsamples = 7\nvalue = 9221.53", fillcolor="#fdf3ec"] ;
277 -> 281 ;
282 [label="squared_error = 34.88\nsamples = 4\nvalue = 9201.95", fillcolor="#fdf3ec"] ;
281 -> 282 ;
283 [label="squared_error = 40.71\nsamples = 3\nvalue = 9234.58", fillcolor="#fdf3ec"] ;
281 -> 283 ;
284 [label="BTC_open <= 9367.7\nsquared_error = 4109.43\nsamples = 25\nvalue = 9371.54", fillcolor="#fcf3ec"] ;
268 -> 284 ;
285 [label="BTC_open <= 9322.9\nsquared_error = 1173.29\nsamples = 13\nvalue = 9316.57", fillcolor="#fdf3ec"] ;
284 -> 285 ;
286 [label="BTC_open <= 9270.0\nsquared_error = 443.45\nsamples = 7\nvalue = 9282.76", fillcolor="#fdf3ec"] ;
285 -> 286 ;
287 [label="squared_error = 1.5\nsamples = 2\nvalue = 9255.13", fillcolor="#fdf3ec"] ;
286 -> 287 ;
288 [label="squared_error = 92.19\nsamples = 5\nvalue = 9296.57", fillcolor="#fdf3ec"] ;
286 -> 288 ;
289 [label="GOLD <= 733.2\nsquared_error = 68.98\nsamples = 6\nvalue = 9344.25", fillcolor="#fdf3ec"] ;
285 -> 289 ;
290 [label="squared_error = 23.52\nsamples = 2\nvalue = 9353.95", fillcolor="#fcf3ec"] ;
289 -> 290 ;
291 [label="squared_error = 10.39\nsamples = 4\nvalue = 9338.7", fillcolor="#fdf3ec"] ;
289 -> 291 ;
292 [label="BTC_open <= 9418.05\nsquared_error = 1003.27\nsamples = 12\nvalue = 9426.51", fillcolor="#fcf3ec"] ;
284 -> 292 ;
293 [label="difficulty <= 14578789384192.0\nsquared_error = 107.77\nsamples = 6\nvalue = 9389.4", fillcolor="#fcf3ec"] ;
292 -> 293 ;
294 [label="squared_error = 55.5\nsamples = 2\nvalue = 9403.85", fillcolor="#fcf3ec"] ;
293 -> 294 ;
295 [label="squared_error = 11.75\nsamples = 4\nvalue = 9383.62", fillcolor="#fcf3ec"] ;
293 -> 295 ;
296 [label="BTC_open <= 9442.3\nsquared_error = 344.93\nsamples = 6\nvalue = 9446.48", fillcolor="#fcf3ec"] ;
292 -> 296 ;
297 [label="squared_error = 6.5\nsamples = 3\nvalue = 9427.35", fillcolor="#fcf3ec"] ;
296 -> 297 ;
298 [label="squared_error = 52.19\nsamples = 3\nvalue = 9462.89", fillcolor="#fcf3ec"] ;
296 -> 298 ;
299 [label="BTC_open <= 9736.1\nsquared_error = 22244.1\nsamples = 41\nvalue = 9724.84", fillcolor="#fcf2eb"] ;
267 -> 299 ;
300 [label="BTC_open <= 9618.25\nsquared_error = 5723.11\nsamples = 23\nvalue = 9608.95", fillcolor="#fcf2eb"] ;
299 -> 300 ;
301 [label="BTC_open <= 9538.75\nsquared_error = 1373.87\nsamples = 12\nvalue = 9552.4", fillcolor="#fcf2eb"] ;
300 -> 301 ;
302 [label="BTC_open <= 9510.95\nsquared_error = 85.69\nsamples = 5\nvalue = 9514.74", fillcolor="#fcf3eb"] ;
301 -> 302 ;
303 [label="squared_error = 51.34\nsamples = 2\nvalue = 9502.23", fillcolor="#fcf3eb"] ;
302 -> 303 ;
304 [label="squared_error = 17.97\nsamples = 3\nvalue = 9519.42", fillcolor="#fcf3eb"] ;
302 -> 304 ;
305 [label="XRP <= 0.2\nsquared_error = 247.91\nsamples = 7\nvalue = 9584.27", fillcolor="#fcf2eb"] ;
301 -> 305 ;
306 [label="squared_error = 68.84\nsamples = 2\nvalue = 9560.47", fillcolor="#fcf2eb"] ;
305 -> 306 ;
307 [label="squared_error = 80.67\nsamples = 5\nvalue = 9591.41", fillcolor="#fcf2eb"] ;
305 -> 307 ;
308 [label="BTC_open <= 9673.55\nsquared_error = 973.46\nsamples = 11\nvalue = 9688.79", fillcolor="#fcf2eb"] ;
300 -> 308 ;
309 [label="addresses_active_count <= 757548.5\nsquared_error = 263.87\nsamples = 4\nvalue = 9647.38", fillcolor="#fcf2eb"] ;
308 -> 309 ;
310 [label="squared_error = 10.89\nsamples = 2\nvalue = 9660.37", fillcolor="#fcf2eb"] ;
309 -> 310 ;
311 [label="squared_error = 10.89\nsamples = 2\nvalue = 9627.9", fillcolor="#fcf2eb"] ;
309 -> 311 ;
312 [label="BTC_open <= 9712.9\nsquared_error = 256.71\nsamples = 7\nvalue = 9706.05", fillcolor="#fcf2eb"] ;
308 -> 312 ;
313 [label="squared_error = 40.08\nsamples = 4\nvalue = 9695.38", fillcolor="#fcf2eb"] ;
312 -> 313 ;
314 [label="squared_error = 6.25\nsamples = 3\nvalue = 9727.4", fillcolor="#fcf2eb"] ;
312 -> 314 ;
315 [label="BTC_open <= 9874.7\nsquared_error = 6441.51\nsamples = 18\nvalue = 9864.59", fillcolor="#fcf2ea"] ;
299 -> 315 ;
316 [label="BTC_open <= 9811.65\nsquared_error = 1109.0\nsamples = 11\nvalue = 9808.16", fillcolor="#fcf2eb"] ;
315 -> 316 ;
317 [label="BTC_open <= 9786.3\nsquared_error = 346.92\nsamples = 8\nvalue = 9783.48", fillcolor="#fcf2eb"] ;
316 -> 317 ;
318 [label="squared_error = 129.45\nsamples = 5\nvalue = 9769.74", fillcolor="#fcf2eb"] ;
317 -> 318 ;
319 [label="squared_error = 17.76\nsamples = 3\nvalue = 9802.7", fillcolor="#fcf2eb"] ;
317 -> 319 ;
320 [label="JP225 <= 11919.0\nsquared_error = 229.06\nsamples = 3\nvalue = 9841.08", fillcolor="#fcf2ea"] ;
316 -> 320 ;
321 [label="squared_error = 38.44\nsamples = 2\nvalue = 9824.8", fillcolor="#fcf2ea"] ;
320 -> 321 ;
322 [label="squared_error = 0.0\nsamples = 1\nvalue = 9854.1", fillcolor="#fcf2ea"] ;
320 -> 322 ;
323 [label="BTC_open <= 9962.65\nsquared_error = 1602.54\nsamples = 7\nvalue = 9955.75", fillcolor="#fcf2ea"] ;
315 -> 323 ;
324 [label="GOLD <= 709.65\nsquared_error = 375.92\nsamples = 5\nvalue = 9925.19", fillcolor="#fcf2ea"] ;
323 -> 324 ;
325 [label="squared_error = 0.0\nsamples = 1\nvalue = 9895.5", fillcolor="#fcf2ea"] ;
324 -> 325 ;
326 [label="squared_error = 32.79\nsamples = 4\nvalue = 9937.06", fillcolor="#fcf2ea"] ;
324 -> 326 ;
327 [label="JP225 <= 20257.5\nsquared_error = 672.8\nsamples = 2\nvalue = 9991.4", fillcolor="#fcf2ea"] ;
323 -> 327 ;
328 [label="squared_error = 0.0\nsamples = 1\nvalue = 9979.8", fillcolor="#fcf2ea"] ;
327 -> 328 ;
329 [label="squared_error = -0.0\nsamples = 1\nvalue = 10049.4", fillcolor="#fcf2ea"] ;
327 -> 329 ;
330 [label="BTC_open <= 11256.1\nsquared_error = 760342.07\nsamples = 117\nvalue = 11145.15", fillcolor="#fcefe6"] ;
202 -> 330 ;
331 [label="BTC_open <= 10611.75\nsquared_error = 124413.07\nsamples = 67\nvalue = 10555.17", fillcolor="#fcf1e8"] ;
330 -> 331 ;
332 [label="BTC_open <= 10267.25\nsquared_error = 16878.45\nsamples = 41\nvalue = 10284.5", fillcolor="#fcf1e9"] ;
331 -> 332 ;
333 [label="BTC_open <= 10173.4\nsquared_error = 2052.65\nsamples = 19\nvalue = 10163.32", fillcolor="#fcf1e9"] ;
332 -> 333 ;
334 [label="BTC_open <= 10109.5\nsquared_error = 567.94\nsamples = 9\nvalue = 10130.7", fillcolor="#fcf1ea"] ;
333 -> 334 ;
335 [label="SILVER <= 8.11\nsquared_error = 23.12\nsamples = 2\nvalue = 10088.8", fillcolor="#fcf1ea"] ;
334 -> 335 ;
336 [label="squared_error = 0.0\nsamples = 1\nvalue = 10092.2", fillcolor="#fcf1ea"] ;
335 -> 336 ;
337 [label="squared_error = 0.0\nsamples = 1\nvalue = 10082.0", fillcolor="#fcf1ea"] ;
335 -> 337 ;
338 [label="mean_tx_size_usd <= 8669.29\nsquared_error = 195.04\nsamples = 7\nvalue = 10140.37", fillcolor="#fcf1ea"] ;
334 -> 338 ;
339 [label="squared_error = 35.29\nsamples = 4\nvalue = 10131.97", fillcolor="#fcf1ea"] ;
338 -> 339 ;
340 [label="squared_error = 38.18\nsamples = 3\nvalue = 10159.28", fillcolor="#fcf1e9"] ;
338 -> 340 ;
341 [label="BTC_open <= 10209.6\nsquared_error = 413.6\nsamples = 10\nvalue = 10210.76", fillcolor="#fcf1e9"] ;
333 -> 341 ;
342 [label="COPPER <= 2.58\nsquared_error = 55.28\nsamples = 5\nvalue = 10189.84", fillcolor="#fcf1e9"] ;
341 -> 342 ;
343 [label="squared_error = 16.72\nsamples = 3\nvalue = 10184.47", fillcolor="#fcf1e9"] ;
342 -> 343 ;
344 [label="squared_error = 4.84\nsamples = 2\nvalue = 10197.9", fillcolor="#fcf1e9"] ;
342 -> 344 ;
345 [label="mean_tx_size_usd <= 8113.76\nsquared_error = 43.34\nsamples = 5\nvalue = 10228.2", fillcolor="#fcf1e9"] ;
341 -> 345 ;
346 [label="squared_error = 9.39\nsamples = 2\nvalue = 10222.43", fillcolor="#fcf1e9"] ;
345 -> 346 ;
347 [label="squared_error = 10.78\nsamples = 3\nvalue = 10233.97", fillcolor="#fcf1e9"] ;
345 -> 347 ;
348 [label="BTC_open <= 10427.25\nsquared_error = 7164.48\nsamples = 22\nvalue = 10383.64", fillcolor="#fcf1e9"] ;
332 -> 348 ;
349 [label="BTC_open <= 10360.15\nsquared_error = 1040.14\nsamples = 16\nvalue = 10340.47", fillcolor="#fcf1e9"] ;
348 -> 349 ;
350 [label="BTC_open <= 10322.75\nsquared_error = 300.88\nsamples = 12\nvalue = 10324.8", fillcolor="#fcf1e9"] ;
349 -> 350 ;
351 [label="squared_error = 24.22\nsamples = 6\nvalue = 10308.18", fillcolor="#fcf1e9"] ;
350 -> 351 ;
352 [label="squared_error = 77.4\nsamples = 6\nvalue = 10339.76", fillcolor="#fcf1e9"] ;
350 -> 352 ;
353 [label="COPPER <= 2.62\nsquared_error = 140.42\nsamples = 4\nvalue = 10390.1", fillcolor="#fcf1e9"] ;
349 -> 353 ;
354 [label="squared_error = 48.09\nsamples = 3\nvalue = 10385.62", fillcolor="#fcf1e9"] ;
353 -> 354 ;
355 [label="squared_error = 0.0\nsamples = 1\nvalue = 10412.5", fillcolor="#fcf1e9"] ;
353 -> 355 ;
356 [label="ETH <= 327.43\nsquared_error = 2278.96\nsamples = 6\nvalue = 10518.55", fillcolor="#fcf1e8"] ;
348 -> 356 ;
357 [label="BTC_high <= 10894.9\nsquared_error = 483.98\nsamples = 4\nvalue = 10552.3", fillcolor="#fcf1e8"] ;
356 -> 357 ;
358 [label="squared_error = 32.49\nsamples = 2\nvalue = 10525.8", fillcolor="#fcf1e8"] ;
357 -> 358 ;
359 [label="squared_error = 4.7\nsamples = 2\nvalue = 10569.97", fillcolor="#fcf0e8"] ;
357 -> 359 ;
360 [label="mean_hash_rate <= 131377504.0\nsquared_error = 208.08\nsamples = 2\nvalue = 10462.3", fillcolor="#fcf1e9"] ;
356 -> 360 ;
361 [label="squared_error = 0.0\nsamples = 1\nvalue = 10472.5", fillcolor="#fcf1e8"] ;
360 -> 361 ;
362 [label="squared_error = -0.0\nsamples = 1\nvalue = 10441.9", fillcolor="#fcf1e9"] ;
360 -> 362 ;
363 [label="BTC_open <= 10902.7\nsquared_error = 34915.53\nsamples = 26\nvalue = 10924.26", fillcolor="#fcf0e7"] ;
331 -> 363 ;
364 [label="BTC_open <= 10758.25\nsquared_error = 4125.01\nsamples = 13\nvalue = 10736.19", fillcolor="#fcf0e8"] ;
363 -> 364 ;
365 [label="BTC_open <= 10711.1\nsquared_error = 639.08\nsamples = 7\nvalue = 10693.01", fillcolor="#fcf0e8"] ;
364 -> 365 ;
366 [label="ETH <= 353.76\nsquared_error = 175.81\nsamples = 5\nvalue = 10680.1", fillcolor="#fcf0e8"] ;
365 -> 366 ;
367 [label="squared_error = 82.05\nsamples = 3\nvalue = 10667.02", fillcolor="#fcf0e8"] ;
366 -> 367 ;
368 [label="squared_error = 4.65\nsamples = 2\nvalue = 10690.56", fillcolor="#fcf0e8"] ;
366 -> 368 ;
369 [label="GOLD <= 933.15\nsquared_error = 29.39\nsamples = 2\nvalue = 10731.73", fillcolor="#fcf0e8"] ;
365 -> 369 ;
370 [label="squared_error = 0.0\nsamples = 1\nvalue = 10727.9", fillcolor="#fcf0e8"] ;
369 -> 370 ;
371 [label="squared_error = 0.0\nsamples = 1\nvalue = 10739.4", fillcolor="#fcf0e8"] ;
369 -> 371 ;
372 [label="ETH <= 203.64\nsquared_error = 1424.73\nsamples = 6\nvalue = 10810.21", fillcolor="#fcf0e7"] ;
364 -> 372 ;
373 [label="squared_error = 0.0\nsamples = 1\nvalue = 10892.9", fillcolor="#fcf0e7"] ;
372 -> 373 ;
374 [label="DJI <= 13844.5\nsquared_error = 332.78\nsamples = 5\nvalue = 10796.43", fillcolor="#fcf0e7"] ;
372 -> 374 ;
375 [label="squared_error = 30.25\nsamples = 2\nvalue = 10821.2", fillcolor="#fcf0e7"] ;
374 -> 375 ;
376 [label="squared_error = 24.01\nsamples = 3\nvalue = 10784.05", fillcolor="#fcf0e8"] ;
374 -> 376 ;
377 [label="BTC_open <= 11079.65\nsquared_error = 11002.89\nsamples = 13\nvalue = 11067.2", fillcolor="#fcefe7"] ;
363 -> 377 ;
378 [label="BTC_open <= 10955.6\nsquared_error = 3367.37\nsamples = 9\nvalue = 10998.81", fillcolor="#fcf0e7"] ;
377 -> 378 ;
379 [label="sum_lock_weight <= 537488448.0\nsquared_error = 176.24\nsamples = 6\nvalue = 10934.3", fillcolor="#fcf0e7"] ;
378 -> 379 ;
380 [label="squared_error = 29.16\nsamples = 2\nvalue = 10916.1", fillcolor="#fcf0e7"] ;
379 -> 380 ;
381 [label="squared_error = 49.57\nsamples = 4\nvalue = 10941.58", fillcolor="#fcf0e7"] ;
379 -> 381 ;
382 [label="total_fees_usd <= 1748760.19\nsquared_error = 95.8\nsamples = 3\nvalue = 11048.98", fillcolor="#fcf0e7"] ;
378 -> 382 ;
383 [label="squared_error = 11.41\nsamples = 2\nvalue = 11052.25", fillcolor="#fcf0e7"] ;
382 -> 383 ;
384 [label="squared_error = -0.0\nsamples = 1\nvalue = 11022.8", fillcolor="#fcf0e7"] ;
382 -> 384 ;
385 [label="JP225 <= 22577.5\nsquared_error = 1477.38\nsamples = 4\nvalue = 11188.79", fillcolor="#fcefe6"] ;
377 -> 385 ;
386 [label="XRP <= 0.27\nsquared_error = 833.15\nsamples = 3\nvalue = 11160.3", fillcolor="#fcefe6"] ;
385 -> 386 ;
387 [label="squared_error = 0.0\nsamples = 1\nvalue = 11105.9", fillcolor="#fcefe7"] ;
386 -> 387 ;
388 [label="squared_error = 116.64\nsamples = 2\nvalue = 11173.9", fillcolor="#fcefe6"] ;
386 -> 388 ;
389 [label="squared_error = 0.0\nsamples = 1\nvalue = 11224.4", fillcolor="#fcefe6"] ;
385 -> 389 ;
390 [label="BTC_open <= 12497.75\nsquared_error = 502435.75\nsamples = 50\nvalue = 11952.49", fillcolor="#fbeee4"] ;
330 -> 390 ;
391 [label="BTC_open <= 11617.9\nsquared_error = 50640.04\nsamples = 40\nvalue = 11625.62", fillcolor="#fceee5"] ;
390 -> 391 ;
392 [label="BTC_open <= 11446.25\nsquared_error = 8088.23\nsamples = 18\nvalue = 11414.5", fillcolor="#fcefe6"] ;
391 -> 392 ;
393 [label="BTC_open <= 11352.9\nsquared_error = 1823.74\nsamples = 11\nvalue = 11354.53", fillcolor="#fcefe6"] ;
392 -> 393 ;
394 [label="BTC_open <= 11305.1\nsquared_error = 260.53\nsamples = 5\nvalue = 11312.49", fillcolor="#fcefe6"] ;
393 -> 394 ;
395 [label="squared_error = 24.97\nsamples = 2\nvalue = 11294.87", fillcolor="#fcefe6"] ;
394 -> 395 ;
396 [label="squared_error = 103.79\nsamples = 3\nvalue = 11323.06", fillcolor="#fcefe6"] ;
394 -> 396 ;
397 [label="BTC_open <= 11401.8\nsquared_error = 528.6\nsamples = 6\nvalue = 11388.17", fillcolor="#fcefe6"] ;
393 -> 397 ;
398 [label="squared_error = 112.6\nsamples = 4\nvalue = 11374.4", fillcolor="#fcefe6"] ;
397 -> 398 ;
399 [label="squared_error = 24.5\nsamples = 2\nvalue = 11420.3", fillcolor="#fcefe6"] ;
397 -> 399 ;
400 [label="BTC_open <= 11486.6\nsquared_error = 1238.32\nsamples = 7\nvalue = 11522.45", fillcolor="#fcefe5"] ;
392 -> 400 ;
401 [label="squared_error = 0.0\nsamples = 1\nvalue = 11468.1", fillcolor="#fcefe5"] ;
400 -> 401 ;
402 [label="DOGE <= 0.0\nsquared_error = 624.79\nsamples = 6\nvalue = 11536.04", fillcolor="#fcefe5"] ;
400 -> 402 ;
403 [label="squared_error = 71.22\nsamples = 4\nvalue = 11523.18", fillcolor="#fcefe5"] ;
402 -> 403 ;
404 [label="squared_error = 302.76\nsamples = 2\nvalue = 11574.6", fillcolor="#fceee5"] ;
402 -> 404 ;
405 [label="BTC_open <= 11828.55\nsquared_error = 16841.59\nsamples = 22\nvalue = 11804.75", fillcolor="#fbeee4"] ;
391 -> 405 ;
406 [label="BTC_open <= 11726.05\nsquared_error = 3210.45\nsamples = 12\nvalue = 11720.66", fillcolor="#fceee5"] ;
405 -> 406 ;
407 [label="mean_tx_size_usd <= 8339.41\nsquared_error = 571.48\nsamples = 4\nvalue = 11663.06", fillcolor="#fceee5"] ;
406 -> 407 ;
408 [label="squared_error = 40.61\nsamples = 2\nvalue = 11647.05", fillcolor="#fceee5"] ;
407 -> 408 ;
409 [label="squared_error = 96.14\nsamples = 2\nvalue = 11695.07", fillcolor="#fceee5"] ;
407 -> 409 ;
410 [label="BTC_high <= 12979.6\nsquared_error = 432.48\nsamples = 8\nvalue = 11767.8", fillcolor="#fceee4"] ;
406 -> 410 ;
411 [label="squared_error = 47.19\nsamples = 7\nvalue = 11758.44", fillcolor="#fceee4"] ;
410 -> 411 ;
412 [label="squared_error = 0.0\nsamples = 1\nvalue = 11809.9", fillcolor="#fbeee4"] ;
410 -> 412 ;
413 [label="ETH <= 251.79\nsquared_error = 10203.78\nsamples = 10\nvalue = 11934.1", fillcolor="#fbeee4"] ;
405 -> 413 ;
414 [label="XRP <= 0.3\nsquared_error = 5300.15\nsamples = 3\nvalue = 12098.43", fillcolor="#fbede3"] ;
413 -> 414 ;
415 [label="squared_error = 0.0\nsamples = 1\nvalue = 12191.6", fillcolor="#fbede3"] ;
414 -> 415 ;
416 [label="squared_error = 1440.2\nsamples = 2\nvalue = 12051.85", fillcolor="#fbeee4"] ;
414 -> 416 ;
417 [label="BTC_high <= 11927.15\nsquared_error = 1142.74\nsamples = 7\nvalue = 11884.8", fillcolor="#fbeee4"] ;
413 -> 417 ;
418 [label="squared_error = 25.23\nsamples = 2\nvalue = 11848.2", fillcolor="#fbeee4"] ;
417 -> 418 ;
419 [label="squared_error = 399.35\nsamples = 5\nvalue = 11909.2", fillcolor="#fbeee4"] ;
417 -> 419 ;
420 [label="BTC_open <= 13367.65\nsquared_error = 138186.81\nsamples = 10\nvalue = 13281.79", fillcolor="#fbebe0"] ;
390 -> 420 ;
421 [label="DOGE <= 0.0\nsquared_error = 14441.84\nsamples = 6\nvalue = 13010.09", fillcolor="#fbece1"] ;
420 -> 421 ;
422 [label="squared_error = 0.0\nsamples = 1\nvalue = 13278.9", fillcolor="#fbebe0"] ;
421 -> 422 ;
423 [label="BTC_open <= 12953.15\nsquared_error = 6085.59\nsamples = 5\nvalue = 12976.49", fillcolor="#fbece1"] ;
421 -> 423 ;
424 [label="SILVER <= 12.35\nsquared_error = 3494.48\nsamples = 2\nvalue = 12892.3", fillcolor="#fbece1"] ;
423 -> 424 ;
425 [label="squared_error = 0.0\nsamples = 1\nvalue = 12934.1", fillcolor="#fbece1"] ;
424 -> 425 ;
426 [label="squared_error = 0.0\nsamples = 1\nvalue = 12808.7", fillcolor="#fbece1"] ;
424 -> 426 ;
427 [label="ETH <= 401.31\nsquared_error = 836.22\nsamples = 3\nvalue = 13027.0", fillcolor="#fbece1"] ;
423 -> 427 ;
428 [label="squared_error = 187.23\nsamples = 2\nvalue = 13040.1", fillcolor="#fbece0"] ;
427 -> 428 ;
429 [label="squared_error = 0.0\nsamples = 1\nvalue = 12974.6", fillcolor="#fbece1"] ;
427 -> 429 ;
430 [label="BTC_high <= 14902.65\nsquared_error = 46966.87\nsamples = 4\nvalue = 13689.35", fillcolor="#fbeade"] ;
420 -> 430 ;
431 [label="SPX <= 3270.49\nsquared_error = 6400.86\nsamples = 3\nvalue = 13598.1", fillcolor="#fbeadf"] ;
430 -> 431 ;
432 [label="DOGE <= 0.0\nsquared_error = 2636.82\nsamples = 2\nvalue = 13508.55", fillcolor="#fbebdf"] ;
431 -> 432 ;
433 [label="squared_error = 0.0\nsamples = 1\nvalue = 13559.9", fillcolor="#fbebdf"] ;
432 -> 433 ;
434 [label="squared_error = 0.0\nsamples = 1\nvalue = 13457.2", fillcolor="#fbebdf"] ;
432 -> 434 ;
435 [label="squared_error = 0.0\nsamples = 1\nvalue = 13657.8", fillcolor="#fbeadf"] ;
431 -> 435 ;
436 [label="squared_error = -0.0\nsamples = 1\nvalue = 14145.6", fillcolor="#fbe9dd"] ;
430 -> 436 ;
437 [label="BTC_open <= 20934.2\nsquared_error = 4963773.74\nsamples = 101\nvalue = 20677.1", fillcolor="#f8dcc9"] ;
1 -> 437 ;
438 [label="BTC_open <= 17916.1\nsquared_error = 1646703.25\nsamples = 59\nvalue = 19043.63", fillcolor="#f9e0ce"] ;
437 -> 438 ;
439 [label="ETH <= 479.12\nsquared_error = 681573.87\nsamples = 9\nvalue = 16292.25", fillcolor="#fae5d6"] ;
438 -> 439 ;
440 [label="BTC_open <= 15499.45\nsquared_error = 254854.41\nsamples = 6\nvalue = 15777.31", fillcolor="#fae6d8"] ;
439 -> 440 ;
441 [label="ETH <= 459.0\nsquared_error = 56453.76\nsamples = 2\nvalue = 15066.0", fillcolor="#fae8da"] ;
440 -> 441 ;
442 [label="squared_error = 0.0\nsamples = 1\nvalue = 14828.4", fillcolor="#fae8db"] ;
441 -> 442 ;
443 [label="squared_error = -0.0\nsamples = 1\nvalue = 15303.6", fillcolor="#fae7d9"] ;
441 -> 443 ;
444 [label="JP225 <= 25350.0\nsquared_error = 50872.58\nsamples = 4\nvalue = 16061.84", fillcolor="#fae6d7"] ;
440 -> 444 ;
445 [label="COPPER <= 1.59\nsquared_error = 11120.38\nsamples = 2\nvalue = 16220.13", fillcolor="#fae5d7"] ;
444 -> 445 ;
446 [label="squared_error = 0.0\nsamples = 1\nvalue = 16071.0", fillcolor="#fae6d7"] ;
445 -> 446 ;
447 [label="squared_error = 0.0\nsamples = 1\nvalue = 16294.7", fillcolor="#fae5d6"] ;
445 -> 447 ;
448 [label="BTC_low <= 15677.1\nsquared_error = 16537.96\nsamples = 2\nvalue = 15824.4", fillcolor="#fae6d8"] ;
444 -> 448 ;
449 [label="squared_error = 0.0\nsamples = 1\nvalue = 15695.8", fillcolor="#fae6d8"] ;
448 -> 449 ;
450 [label="squared_error = 0.0\nsamples = 1\nvalue = 15953.0", fillcolor="#fae6d7"] ;
448 -> 450 ;
451 [label="LTC <= 79.44\nsquared_error = 152278.79\nsamples = 3\nvalue = 17193.38", fillcolor="#f9e3d4"] ;
439 -> 451 ;
452 [label="total_fees_usd <= 1302037.88\nsquared_error = 37592.82\nsamples = 2\nvalue = 16990.0", fillcolor="#f9e4d4"] ;
451 -> 452 ;
453 [label="squared_error = 0.0\nsamples = 1\nvalue = 17127.1", fillcolor="#f9e3d4"] ;
452 -> 453 ;
454 [label="squared_error = -0.0\nsamples = 1\nvalue = 16715.8", fillcolor="#f9e4d5"] ;
452 -> 454 ;
455 [label="squared_error = 0.0\nsamples = 1\nvalue = 17803.5", fillcolor="#f9e2d2"] ;
451 -> 455 ;
456 [label="BTC_open <= 19572.35\nsquared_error = 515130.98\nsamples = 50\nvalue = 19447.17", fillcolor="#f8dfcd"] ;
438 -> 456 ;
457 [label="BTC_open <= 18954.25\nsquared_error = 141244.49\nsamples = 27\nvalue = 18942.6", fillcolor="#f9e0ce"] ;
456 -> 457 ;
458 [label="BTC_open <= 18470.35\nsquared_error = 53116.82\nsamples = 14\nvalue = 18641.85", fillcolor="#f9e1cf"] ;
457 -> 458 ;
459 [label="addresses_active_count <= 1007468.0\nsquared_error = 15311.5\nsamples = 5\nvalue = 18232.5", fillcolor="#f9e1d0"] ;
458 -> 459 ;
460 [label="xfer_cnt <= 763527.0\nsquared_error = 6552.9\nsamples = 2\nvalue = 18104.55", fillcolor="#f9e2d1"] ;
459 -> 460 ;
461 [label="squared_error = 0.0\nsamples = 1\nvalue = 18185.5", fillcolor="#f9e1d0"] ;
460 -> 461 ;
462 [label="squared_error = 0.0\nsamples = 1\nvalue = 18023.6", fillcolor="#f9e2d1"] ;
460 -> 462 ;
463 [label="addresses_active_count <= 1068676.5\nsquared_error = 2960.35\nsamples = 3\nvalue = 18317.8", fillcolor="#f9e1d0"] ;
459 -> 463 ;
464 [label="mean_lock_size_ytes <= 1271785.0\nsquared_error = 702.25\nsamples = 2\nvalue = 18353.1", fillcolor="#f9e1d0"] ;
463 -> 464 ;
465 [label="squared_error = 0.0\nsamples = 1\nvalue = 18379.6", fillcolor="#f9e1d0"] ;
464 -> 465 ;
466 [label="squared_error = 0.0\nsamples = 1\nvalue = 18326.6", fillcolor="#f9e1d0"] ;
464 -> 466 ;
467 [label="squared_error = -0.0\nsamples = 1\nvalue = 18247.2", fillcolor="#f9e1d0"] ;
463 -> 467 ;
468 [label="ETH <= 575.25\nsquared_error = 7364.51\nsamples = 9\nvalue = 18749.57", fillcolor="#f9e0cf"] ;
458 -> 468 ;
469 [label="GOLD <= 1812.75\nsquared_error = 2519.8\nsamples = 4\nvalue = 18686.2", fillcolor="#f9e0cf"] ;
468 -> 469 ;
470 [label="xfer_cnt <= 836806.5\nsquared_error = 373.11\nsamples = 3\nvalue = 18701.78", fillcolor="#f9e0cf"] ;
469 -> 470 ;
471 [label="squared_error = 23.04\nsamples = 2\nvalue = 18684.8", fillcolor="#f9e0cf"] ;
470 -> 471 ;
472 [label="squared_error = 0.0\nsamples = 1\nvalue = 18723.0", fillcolor="#f9e0cf"] ;
470 -> 472 ;
473 [label="squared_error = 0.0\nsamples = 1\nvalue = 18546.0", fillcolor="#f9e1cf"] ;
469 -> 473 ;
474 [label="total_fees_usd <= 238947.02\nsquared_error = 3326.74\nsamples = 5\nvalue = 18819.99", fillcolor="#f9e0cf"] ;
468 -> 474 ;
475 [label="squared_error = 0.0\nsamples = 1\nvalue = 18925.2", fillcolor="#f9e0ce"] ;
474 -> 475 ;
476 [label="BTC_open <= 18794.7\nsquared_error = 210.94\nsamples = 4\nvalue = 18789.93", fillcolor="#f9e0cf"] ;
474 -> 476 ;
477 [label="squared_error = 61.62\nsamples = 2\nvalue = 18778.55", fillcolor="#f9e0cf"] ;
476 -> 477 ;
478 [label="squared_error = 7.22\nsamples = 2\nvalue = 18805.1", fillcolor="#f9e0cf"] ;
476 -> 478 ;
479 [label="BTC_open <= 19342.8\nsquared_error = 20450.25\nsamples = 13\nvalue = 19286.31", fillcolor="#f8dfcd"] ;
457 -> 479 ;
480 [label="BTC_low <= 18649.85\nsquared_error = 5902.85\nsamples = 8\nvalue = 19208.57", fillcolor="#f8dfcd"] ;
479 -> 480 ;
481 [label="ETH <= 1232.88\nsquared_error = 2232.56\nsamples = 2\nvalue = 19033.75", fillcolor="#f9e0ce"] ;
480 -> 481 ;
482 [label="squared_error = 0.0\nsamples = 1\nvalue = 18986.5", fillcolor="#f9e0ce"] ;
481 -> 482 ;
483 [label="squared_error = 0.0\nsamples = 1\nvalue = 19081.0", fillcolor="#f9e0ce"] ;
481 -> 483 ;
484 [label="total_fees_usd <= 317806.53\nsquared_error = 1042.51\nsamples = 6\nvalue = 19235.46", fillcolor="#f8dfcd"] ;
480 -> 484 ;
485 [label="BTC_high <= 19535.55\nsquared_error = 255.38\nsamples = 3\nvalue = 19259.77", fillcolor="#f8dfcd"] ;
484 -> 485 ;
486 [label="squared_error = 86.49\nsamples = 2\nvalue = 19272.2", fillcolor="#f8dfcd"] ;
485 -> 486 ;
487 [label="squared_error = 0.0\nsamples = 1\nvalue = 19243.2", fillcolor="#f8dfcd"] ;
485 -> 487 ;
488 [label="BTC_low <= 18945.35\nsquared_error = 466.98\nsamples = 3\nvalue = 19207.1", fillcolor="#f8dfcd"] ;
484 -> 488 ;
489 [label="squared_error = 11.9\nsamples = 2\nvalue = 19222.25", fillcolor="#f8dfcd"] ;
488 -> 489 ;
490 [label="squared_error = -0.0\nsamples = 1\nvalue = 19176.8", fillcolor="#f8dfcd"] ;
488 -> 490 ;
491 [label="mean_lock_size_ytes <= 1267074.69\nsquared_error = 3927.66\nsamples = 5\nvalue = 19480.68", fillcolor="#f8dfcc"] ;
479 -> 491 ;
492 [label="LTC <= 54.05\nsquared_error = 28.38\nsamples = 2\nvalue = 19542.67", fillcolor="#f8dfcc"] ;
491 -> 492 ;
493 [label="squared_error = 0.0\nsamples = 1\nvalue = 19538.9", fillcolor="#f8dfcc"] ;
492 -> 493 ;
494 [label="squared_error = 0.0\nsamples = 1\nvalue = 19550.2", fillcolor="#f8dfcc"] ;
492 -> 494 ;
495 [label="SPX <= 3696.18\nsquared_error = 143.09\nsamples = 3\nvalue = 19418.7", fillcolor="#f8dfcd"] ;
491 -> 495 ;
496 [label="squared_error = 0.0\nsamples = 1\nvalue = 19404.0", fillcolor="#f8dfcd"] ;
495 -> 496 ;
497 [label="BTC_low <= 18444.3\nsquared_error = 52.56\nsamples = 2\nvalue = 19426.05", fillcolor="#f8dfcd"] ;
495 -> 497 ;
498 [label="squared_error = 0.0\nsamples = 1\nvalue = 19418.8", fillcolor="#f8dfcd"] ;
497 -> 498 ;
499 [label="squared_error = -0.0\nsamples = 1\nvalue = 19433.3", fillcolor="#f8dfcd"] ;
497 -> 499 ;
500 [label="BTC_low <= 20045.6\nsquared_error = 121262.55\nsamples = 23\nvalue = 20204.01", fillcolor="#f8ddca"] ;
456 -> 500 ;
501 [label="BTC_open <= 19897.7\nsquared_error = 41114.46\nsamples = 17\nvalue = 20012.16", fillcolor="#f8decb"] ;
500 -> 501 ;
502 [label="total_fees_usd <= 329377.25\nsquared_error = 6019.73\nsamples = 6\nvalue = 19759.51", fillcolor="#f8decc"] ;
501 -> 502 ;
503 [label="xfer_cnt <= 706444.5\nsquared_error = 200.79\nsamples = 4\nvalue = 19804.38", fillcolor="#f8decb"] ;
502 -> 503 ;
504 [label="squared_error = 0.0\nsamples = 1\nvalue = 19831.4", fillcolor="#f8decb"] ;
503 -> 504 ;
505 [label="xfer_cnt <= 768670.0\nsquared_error = 22.83\nsamples = 3\nvalue = 19797.62", fillcolor="#f8decb"] ;
503 -> 505 ;
506 [label="squared_error = 0.0\nsamples = 1\nvalue = 19802.4", fillcolor="#f8decb"] ;
505 -> 506 ;
507 [label="squared_error = 0.06\nsamples = 2\nvalue = 19792.85", fillcolor="#f8decb"] ;
505 -> 507 ;
508 [label="addresses_active_count <= 969356.0\nsquared_error = 2953.92\nsamples = 2\nvalue = 19647.35", fillcolor="#f8dfcc"] ;
502 -> 508 ;
509 [label="squared_error = 0.0\nsamples = 1\nvalue = 19701.7", fillcolor="#f8decc"] ;
508 -> 509 ;
510 [label="squared_error = 0.0\nsamples = 1\nvalue = 19593.0", fillcolor="#f8dfcc"] ;
508 -> 510 ;
511 [label="BTC_high <= 20262.05\nsquared_error = 10790.52\nsamples = 11\nvalue = 20138.48", fillcolor="#f8deca"] ;
501 -> 511 ;
512 [label="mean_hash_rate <= 240460368.0\nsquared_error = 2562.09\nsamples = 6\nvalue = 20044.23", fillcolor="#f8decb"] ;
511 -> 512 ;
513 [label="BTC_open <= 20017.05\nsquared_error = 983.93\nsamples = 4\nvalue = 20016.96", fillcolor="#f8decb"] ;
512 -> 513 ;
514 [label="squared_error = 336.72\nsamples = 2\nvalue = 19981.55", fillcolor="#f8decb"] ;
513 -> 514 ;
515 [label="squared_error = 22.22\nsamples = 2\nvalue = 20040.57", fillcolor="#f8decb"] ;
513 -> 515 ;
516 [label="BTC_open <= 20112.6\nsquared_error = 1.21\nsamples = 2\nvalue = 20112.4", fillcolor="#f8decb"] ;
512 -> 516 ;
517 [label="squared_error = 0.0\nsamples = 1\nvalue = 20111.3", fillcolor="#f8decb"] ;
516 -> 517 ;
518 [label="squared_error = -0.0\nsamples = 1\nvalue = 20113.5", fillcolor="#f8deca"] ;
516 -> 518 ;
519 [label="total_fees_usd <= 300390.61\nsquared_error = 1252.82\nsamples = 5\nvalue = 20232.73", fillcolor="#f8ddca"] ;
511 -> 519 ;
520 [label="COPPER <= 3.68\nsquared_error = 79.21\nsamples = 2\nvalue = 20286.9", fillcolor="#f8ddca"] ;
519 -> 520 ;
521 [label="squared_error = 0.0\nsamples = 1\nvalue = 20295.8", fillcolor="#f8ddca"] ;
520 -> 521 ;
522 [label="squared_error = -0.0\nsamples = 1\nvalue = 20278.0", fillcolor="#f8ddca"] ;
520 -> 522 ;
523 [label="XRP <= 0.33\nsquared_error = 78.93\nsamples = 3\nvalue = 20211.06", fillcolor="#f8ddca"] ;
519 -> 523 ;
524 [label="squared_error = 9.98\nsamples = 2\nvalue = 20218.03", fillcolor="#f8ddca"] ;
523 -> 524 ;
525 [label="squared_error = -0.0\nsamples = 1\nvalue = 20200.6", fillcolor="#f8ddca"] ;
523 -> 525 ;
526 [label="xfer_cnt <= 779685.5\nsquared_error = 21984.11\nsamples = 6\nvalue = 20651.68", fillcolor="#f8ddc9"] ;
500 -> 526 ;
527 [label="BTC_low <= 20347.45\nsquared_error = 1769.38\nsamples = 3\nvalue = 20802.92", fillcolor="#f8dcc8"] ;
526 -> 527 ;
528 [label="squared_error = 0.0\nsamples = 1\nvalue = 20730.2", fillcolor="#f8dcc9"] ;
527 -> 528 ;
529 [label="BTC_low <= 20634.6\nsquared_error = 8.54\nsamples = 2\nvalue = 20827.17", fillcolor="#f8dcc8"] ;
527 -> 529 ;
530 [label="squared_error = 0.0\nsamples = 1\nvalue = 20825.1", fillcolor="#f8dcc8"] ;
529 -> 530 ;
531 [label="squared_error = -0.0\nsamples = 1\nvalue = 20831.3", fillcolor="#f8dcc8"] ;
529 -> 531 ;
532 [label="COPPER <= 3.81\nsquared_error = 5214.85\nsamples = 3\nvalue = 20530.68", fillcolor="#f8ddc9"] ;
526 -> 532 ;
533 [label="LTC <= 52.81\nsquared_error = 31.36\nsamples = 2\nvalue = 20566.7", fillcolor="#f8ddc9"] ;
532 -> 533 ;
534 [label="squared_error = 0.0\nsamples = 1\nvalue = 20561.1", fillcolor="#f8ddc9"] ;
533 -> 534 ;
535 [label="squared_error = 0.0\nsamples = 1\nvalue = 20572.3", fillcolor="#f8ddc9"] ;
533 -> 535 ;
536 [label="squared_error = -0.0\nsamples = 1\nvalue = 20386.6", fillcolor="#f8ddca"] ;
532 -> 536 ;
537 [label="BTC_open <= 22648.45\nsquared_error = 1278872.2\nsamples = 42\nvalue = 22805.57", fillcolor="#f7d8c2"] ;
437 -> 537 ;
538 [label="BTC_open <= 21987.05\nsquared_error = 255917.8\nsamples = 17\nvalue = 21672.67", fillcolor="#f7dbc6"] ;
537 -> 538 ;
539 [label="BTC_open <= 21453.2\nsquared_error = 46017.51\nsamples = 12\nvalue = 21370.31", fillcolor="#f8dbc7"] ;
538 -> 539 ;
540 [label="BTC_open <= 21274.8\nsquared_error = 12710.49\nsamples = 7\nvalue = 21252.02", fillcolor="#f8dbc7"] ;
539 -> 540 ;
541 [label="XRP <= 0.36\nsquared_error = 4679.53\nsamples = 4\nvalue = 21176.43", fillcolor="#f8dbc7"] ;
540 -> 541 ;
542 [label="BTC_open <= 21088.3\nsquared_error = 1706.47\nsamples = 2\nvalue = 21115.05", fillcolor="#f8dcc7"] ;
541 -> 542 ;
543 [label="squared_error = 0.0\nsamples = 1\nvalue = 21043.5", fillcolor="#f8dcc8"] ;
542 -> 543 ;
544 [label="squared_error = -0.0\nsamples = 1\nvalue = 21138.9", fillcolor="#f8dcc7"] ;
542 -> 544 ;
545 [label="DOGE <= 0.07\nsquared_error = 118.81\nsamples = 2\nvalue = 21237.8", fillcolor="#f8dbc7"] ;
541 -> 545 ;
546 [label="squared_error = 0.0\nsamples = 1\nvalue = 21248.7", fillcolor="#f8dbc7"] ;
545 -> 546 ;
547 [label="squared_error = -0.0\nsamples = 1\nvalue = 21226.9", fillcolor="#f8dbc7"] ;
545 -> 547 ;
548 [label="LTC <= 55.5\nsquared_error = 1785.33\nsamples = 3\nvalue = 21372.98", fillcolor="#f8dbc7"] ;
540 -> 548 ;
549 [label="squared_error = 0.0\nsamples = 1\nvalue = 21301.9", fillcolor="#f8dbc7"] ;
548 -> 549 ;
550 [label="SPX <= 2064.36\nsquared_error = 652.8\nsamples = 2\nvalue = 21390.75", fillcolor="#f8dbc7"] ;
548 -> 550 ;
551 [label="squared_error = 0.0\nsamples = 1\nvalue = 21365.2", fillcolor="#f8dbc7"] ;
550 -> 551 ;
552 [label="squared_error = 0.0\nsamples = 1\nvalue = 21416.3", fillcolor="#f8dbc6"] ;
550 -> 552 ;
553 [label="ETH <= 1686.53\nsquared_error = 22191.14\nsamples = 5\nvalue = 21626.58", fillcolor="#f7dbc6"] ;
539 -> 553 ;
554 [label="LTC <= 54.52\nsquared_error = 739.83\nsamples = 4\nvalue = 21522.43", fillcolor="#f8dbc6"] ;
553 -> 554 ;
555 [label="squared_error = 0.0\nsamples = 1\nvalue = 21565.4", fillcolor="#f8dbc6"] ;
554 -> 555 ;
556 [label="BTC_high <= 21834.85\nsquared_error = 165.62\nsamples = 3\nvalue = 21508.1", fillcolor="#f8dbc6"] ;
554 -> 556 ;
557 [label="squared_error = 0.0\nsamples = 2\nvalue = 21517.2", fillcolor="#f8dbc6"] ;
556 -> 557 ;
558 [label="squared_error = -0.0\nsamples = 1\nvalue = 21489.9", fillcolor="#f8dbc6"] ;
556 -> 558 ;
559 [label="squared_error = 0.0\nsamples = 1\nvalue = 21834.9", fillcolor="#f7dac5"] ;
553 -> 559 ;
560 [label="mean_tx_size_usd <= 223348.6\nsquared_error = 21587.27\nsamples = 5\nvalue = 22390.8", fillcolor="#f7d9c3"] ;
538 -> 560 ;
561 [label="SPX <= 4038.94\nsquared_error = 4550.91\nsamples = 4\nvalue = 22468.63", fillcolor="#f7d9c3"] ;
560 -> 561 ;
562 [label="difficulty <= 31164326739968.0\nsquared_error = 521.25\nsamples = 3\nvalue = 22439.94", fillcolor="#f7d9c3"] ;
561 -> 562 ;
563 [label="sum_lock_weight <= 460649664.0\nsquared_error = 28.83\nsamples = 2\nvalue = 22451.1", fillcolor="#f7d9c3"] ;
562 -> 563 ;
564 [label="squared_error = 0.0\nsamples = 1\nvalue = 22460.4", fillcolor="#f7d9c3"] ;
563 -> 564 ;
565 [label="squared_error = 0.0\nsamples = 1\nvalue = 22448.0", fillcolor="#f7d9c3"] ;
563 -> 565 ;
566 [label="squared_error = -0.0\nsamples = 1\nvalue = 22395.3", fillcolor="#f7d9c3"] ;
562 -> 566 ;
567 [label="squared_error = -0.0\nsamples = 1\nvalue = 22612.1", fillcolor="#f7d9c3"] ;
561 -> 567 ;
568 [label="squared_error = -0.0\nsamples = 1\nvalue = 22157.3", fillcolor="#f7dac4"] ;
560 -> 568 ;
569 [label="BTC_open <= 23554.15\nsquared_error = 483393.56\nsamples = 25\nvalue = 23589.87", fillcolor="#f7d7c0"] ;
537 -> 569 ;
570 [label="BTC_open <= 23042.65\nsquared_error = 72943.73\nsamples = 13\nvalue = 23062.04", fillcolor="#f7d8c1"] ;
569 -> 570 ;
571 [label="BTC_low <= 22525.15\nsquared_error = 13088.54\nsamples = 5\nvalue = 22801.94", fillcolor="#f7d8c2"] ;
570 -> 571 ;
572 [label="DJI <= 31296.5\nsquared_error = 2361.16\nsamples = 3\nvalue = 22726.12", fillcolor="#f7d8c2"] ;
571 -> 572 ;
573 [label="SILVER <= 12.77\nsquared_error = 681.81\nsamples = 2\nvalue = 22707.18", fillcolor="#f7d8c2"] ;
572 -> 573 ;
574 [label="squared_error = 0.0\nsamples = 1\nvalue = 22675.2", fillcolor="#f7d9c3"] ;
573 -> 574 ;
575 [label="squared_error = 0.0\nsamples = 1\nvalue = 22728.5", fillcolor="#f7d8c2"] ;
573 -> 575 ;
576 [label="squared_error = -0.0\nsamples = 1\nvalue = 22820.8", fillcolor="#f7d8c2"] ;
572 -> 576 ;
577 [label="xfer_cnt <= 730805.0\nsquared_error = 44.18\nsamples = 2\nvalue = 22953.6", fillcolor="#f7d8c2"] ;
571 -> 577 ;
578 [label="squared_error = 0.0\nsamples = 1\nvalue = 22944.2", fillcolor="#f7d8c2"] ;
577 -> 578 ;
579 [label="squared_error = -0.0\nsamples = 1\nvalue = 22958.3", fillcolor="#f7d8c2"] ;
577 -> 579 ;
580 [label="BTC_open <= 23280.7\nsquared_error = 11130.54\nsamples = 8\nvalue = 23296.13", fillcolor="#f7d7c1"] ;
570 -> 580 ;
581 [label="SILVER <= 9.36\nsquared_error = 1789.49\nsamples = 4\nvalue = 23203.96", fillcolor="#f7d7c1"] ;
580 -> 581 ;
582 [label="squared_error = 0.0\nsamples = 1\nvalue = 23127.9", fillcolor="#f7d8c1"] ;
581 -> 582 ;
583 [label="DOGE <= 0.04\nsquared_error = 429.01\nsamples = 3\nvalue = 23222.98", fillcolor="#f7d7c1"] ;
581 -> 583 ;
584 [label="squared_error = 0.0\nsamples = 1\nvalue = 23257.9", fillcolor="#f7d7c1"] ;
583 -> 584 ;
585 [label="mean_lock_size_ytes <= 1199879.38\nsquared_error = 29.9\nsamples = 2\nvalue = 23211.33", fillcolor="#f7d7c1"] ;
583 -> 585 ;
586 [label="squared_error = 0.0\nsamples = 1\nvalue = 23203.6", fillcolor="#f7d7c1"] ;
585 -> 586 ;
587 [label="squared_error = -0.0\nsamples = 1\nvalue = 23215.2", fillcolor="#f7d7c1"] ;
585 -> 587 ;
588 [label="mean_hash_rate <= 192522872.0\nsquared_error = 3480.98\nsamples = 4\nvalue = 23388.3", fillcolor="#f7d7c0"] ;
580 -> 588 ;
589 [label="DOGE <= 0.04\nsquared_error = 930.24\nsamples = 2\nvalue = 23431.77", fillcolor="#f7d7c0"] ;
588 -> 589 ;
590 [label="squared_error = 0.0\nsamples = 1\nvalue = 23474.9", fillcolor="#f7d7c0"] ;
589 -> 590 ;
591 [label="squared_error = -0.0\nsamples = 1\nvalue = 23410.2", fillcolor="#f7d7c0"] ;
589 -> 591 ;
592 [label="BTC_high <= 23461.2\nsquared_error = 222.01\nsamples = 2\nvalue = 23323.1", fillcolor="#f7d7c1"] ;
588 -> 592 ;
593 [label="squared_error = 0.0\nsamples = 1\nvalue = 23308.2", fillcolor="#f7d7c1"] ;
592 -> 593 ;
594 [label="squared_error = 0.0\nsamples = 1\nvalue = 23338.0", fillcolor="#f7d7c0"] ;
592 -> 594 ;
595 [label="BTC_high <= 27593.15\nsquared_error = 357201.64\nsamples = 12\nvalue = 24091.32", fillcolor="#f6d6be"] ;
569 -> 595 ;
596 [label="BTC_low <= 23739.15\nsquared_error = 66629.39\nsamples = 11\nvalue = 23966.94", fillcolor="#f7d6bf"] ;
595 -> 596 ;
597 [label="JP225 <= 28687.5\nsquared_error = 16105.11\nsamples = 8\nvalue = 23871.06", fillcolor="#f7d6bf"] ;
596 -> 597 ;
598 [label="BTC_open <= 23751.45\nsquared_error = 4713.42\nsamples = 7\nvalue = 23817.84", fillcolor="#f7d6bf"] ;
597 -> 598 ;
599 [label="sum_lock_weight <= 473793312.0\nsquared_error = 2616.32\nsamples = 2\nvalue = 23685.35", fillcolor="#f7d7bf"] ;
598 -> 599 ;
600 [label="squared_error = 0.0\nsamples = 1\nvalue = 23634.2", fillcolor="#f7d7c0"] ;
599 -> 600 ;
601 [label="squared_error = 0.0\nsamples = 1\nvalue = 23736.5", fillcolor="#f7d6bf"] ;
599 -> 601 ;
602 [label="COPPER <= 3.64\nsquared_error = 1322.95\nsamples = 5\nvalue = 23841.93", fillcolor="#f7d6bf"] ;
598 -> 602 ;
603 [label="squared_error = 496.21\nsamples = 4\nvalue = 23832.59", fillcolor="#f7d6bf"] ;
602 -> 603 ;
604 [label="squared_error = 0.0\nsamples = 1\nvalue = 23935.3", fillcolor="#f7d6bf"] ;
602 -> 604 ;
605 [label="squared_error = 0.0\nsamples = 1\nvalue = 24101.7", fillcolor="#f6d6be"] ;
597 -> 605 ;
606 [label="XRP <= 0.33\nsquared_error = 25576.53\nsamples = 3\nvalue = 24478.3", fillcolor="#f6d5bd"] ;
596 -> 606 ;
607 [label="squared_error = 0.0\nsamples = 1\nvalue = 24689.6", fillcolor="#f6d5bc"] ;
606 -> 607 ;
608 [label="total_fees_usd <= 222600.55\nsquared_error = 4879.02\nsamples = 2\nvalue = 24372.65", fillcolor="#f6d5bd"] ;
606 -> 608 ;
609 [label="squared_error = 0.0\nsamples = 1\nvalue = 24442.5", fillcolor="#f6d5bd"] ;
608 -> 609 ;
610 [label="squared_error = -0.0\nsamples = 1\nvalue = 24302.8", fillcolor="#f6d5bd"] ;
608 -> 610 ;
611 [label="squared_error = -0.0\nsamples = 1\nvalue = 26454.4", fillcolor="#f6d1b7"] ;
595 -> 611 ;
612 [label="BTC_open <= 45345.8\nsquared_error = 84679609.28\nsamples = 333\nvalue = 44297.99", fillcolor="#eeae7f"] ;
0 -> 612 [labeldistance=2.5, labelangle=-45, headlabel="False"] ;
613 [label="BTC_open <= 36404.3\nsquared_error = 18857141.33\nsamples = 186\nvalue = 37518.37", fillcolor="#f1bb94"] ;
612 -> 613 ;
614 [label="BTC_open <= 32315.0\nsquared_error = 5910553.96\nsamples = 66\nvalue = 32570.84", fillcolor="#f3c5a4"] ;
613 -> 614 ;
615 [label="BTC_open <= 30645.55\nsquared_error = 947452.51\nsamples = 30\nvalue = 30184.98", fillcolor="#f4caab"] ;
614 -> 615 ;
616 [label="BTC_open <= 29556.95\nsquared_error = 350097.6\nsamples = 20\nvalue = 29693.94", fillcolor="#f4cbad"] ;
615 -> 616 ;
617 [label="BTC_high <= 29310.5\nsquared_error = 53587.7\nsamples = 8\nvalue = 29054.68", fillcolor="#f4ccaf"] ;
616 -> 617 ;
618 [label="squared_error = 0.0\nsamples = 1\nvalue = 28601.2", fillcolor="#f5cdb0"] ;
617 -> 618 ;
619 [label="BTC_low <= 29107.0\nsquared_error = 22532.88\nsamples = 7\nvalue = 29130.26", fillcolor="#f4ccae"] ;
617 -> 619 ;
620 [label="BTC_open <= 29136.0\nsquared_error = 2471.65\nsamples = 5\nvalue = 29066.33", fillcolor="#f4ccaf"] ;
619 -> 620 ;
621 [label="BTC_low <= 28458.4\nsquared_error = 1190.16\nsamples = 4\nvalue = 29053.86", fillcolor="#f4ccaf"] ;
620 -> 621 ;
622 [label="squared_error = 57.0\nsamples = 2\nvalue = 29075.75", fillcolor="#f4ccaf"] ;
621 -> 622 ;
623 [label="squared_error = 580.27\nsamples = 2\nvalue = 29010.07", fillcolor="#f4ccaf"] ;
621 -> 623 ;
624 [label="squared_error = 0.0\nsamples = 1\nvalue = 29178.6", fillcolor="#f4ccae"] ;
620 -> 624 ;
625 [label="BTC_high <= 31323.8\nsquared_error = 234.09\nsamples = 2\nvalue = 29449.9", fillcolor="#f4cbad"] ;
619 -> 625 ;
626 [label="squared_error = 0.0\nsamples = 1\nvalue = 29434.6", fillcolor="#f4cbae"] ;
625 -> 626 ;
627 [label="squared_error = -0.0\nsamples = 1\nvalue = 29465.2", fillcolor="#f4cbad"] ;
625 -> 627 ;
628 [label="BTC_open <= 30004.3\nsquared_error = 71353.09\nsamples = 12\nvalue = 30141.42", fillcolor="#f4caab"] ;
616 -> 628 ;
629 [label="BTC_open <= 29778.8\nsquared_error = 9884.68\nsamples = 5\nvalue = 29779.47", fillcolor="#f4caac"] ;
628 -> 629 ;
630 [label="BTC_low <= 29421.5\nsquared_error = 605.52\nsamples = 2\nvalue = 29683.5", fillcolor="#f4cbad"] ;
629 -> 630 ;
631 [label="squared_error = 0.0\nsamples = 1\nvalue = 29648.7", fillcolor="#f4cbad"] ;
630 -> 631 ;
632 [label="squared_error = 0.0\nsamples = 1\nvalue = 29700.9", fillcolor="#f4cbad"] ;
630 -> 632 ;
633 [label="BTC_open <= 29888.15\nsquared_error = 744.64\nsamples = 3\nvalue = 29875.43", fillcolor="#f4caac"] ;
629 -> 633 ;
634 [label="SILVER <= 10.88\nsquared_error = 58.52\nsamples = 2\nvalue = 29856.65", fillcolor="#f4caac"] ;
633 -> 634 ;
635 [label="squared_error = 0.0\nsamples = 1\nvalue = 29864.3", fillcolor="#f4caac"] ;
634 -> 635 ;
636 [label="squared_error = -0.0\nsamples = 1\nvalue = 29849.0", fillcolor="#f4caac"] ;
634 -> 636 ;
637 [label="squared_error = -0.0\nsamples = 1\nvalue = 29913.0", fillcolor="#f4caac"] ;
633 -> 637 ;
638 [label="GOLD <= 1851.5\nsquared_error = 17484.14\nsamples = 7\nvalue = 30296.55", fillcolor="#f4c9ab"] ;
628 -> 638 ;
639 [label="BTC_open <= 30357.4\nsquared_error = 4396.89\nsamples = 5\nvalue = 30383.9", fillcolor="#f4c9ab"] ;
638 -> 639 ;
640 [label="BTC_open <= 30296.6\nsquared_error = 82.78\nsamples = 2\nvalue = 30293.03", fillcolor="#f4c9ab"] ;
639 -> 640 ;
641 [label="squared_error = 0.0\nsamples = 1\nvalue = 30286.6", fillcolor="#f4c9ab"] ;
640 -> 641 ;
642 [label="squared_error = -0.0\nsamples = 1\nvalue = 30305.9", fillcolor="#f4c9ab"] ;
640 -> 642 ;
643 [label="SILVER <= 23.92\nsquared_error = 361.39\nsamples = 3\nvalue = 30429.33", fillcolor="#f4c9aa"] ;
639 -> 643 ;
644 [label="squared_error = 60.75\nsamples = 2\nvalue = 30442.0", fillcolor="#f4c9aa"] ;
643 -> 644 ;
645 [label="squared_error = 0.0\nsamples = 1\nvalue = 30404.0", fillcolor="#f4c9aa"] ;
643 -> 645 ;
646 [label="GOLD <= 1864.15\nsquared_error = 2585.87\nsamples = 2\nvalue = 30139.32", fillcolor="#f4caab"] ;
638 -> 646 ;
647 [label="squared_error = 0.0\nsamples = 1\nvalue = 30201.6", fillcolor="#f4caab"] ;
646 -> 647 ;
648 [label="squared_error = 0.0\nsamples = 1\nvalue = 30097.8", fillcolor="#f4caab"] ;
646 -> 648 ;
649 [label="BTC_open <= 31359.65\nsquared_error = 229826.31\nsamples = 10\nvalue = 31469.24", fillcolor="#f3c7a7"] ;
615 -> 649 ;
650 [label="COPPER <= 4.36\nsquared_error = 13494.42\nsamples = 3\nvalue = 30896.5", fillcolor="#f4c8a9"] ;
649 -> 650 ;
651 [label="mean_hash_rate <= 113679992.0\nsquared_error = 4.5\nsamples = 2\nvalue = 30838.43", fillcolor="#f4c8a9"] ;
650 -> 651 ;
652 [label="squared_error = 0.0\nsamples = 1\nvalue = 30837.2", fillcolor="#f4c8a9"] ;
651 -> 652 ;
653 [label="squared_error = -0.0\nsamples = 1\nvalue = 30842.1", fillcolor="#f4c8a9"] ;
651 -> 653 ;
654 [label="squared_error = 0.0\nsamples = 1\nvalue = 31128.8", fillcolor="#f4c8a8"] ;
650 -> 654 ;
655 [label="mean_tx_size_usd <= 16132.24\nsquared_error = 31878.93\nsamples = 7\nvalue = 31827.2", fillcolor="#f3c6a6"] ;
649 -> 655 ;
656 [label="mean_lock_size_ytes <= 1118511.81\nsquared_error = 451.56\nsamples = 2\nvalue = 32110.15", fillcolor="#f3c6a5"] ;
655 -> 656 ;
657 [label="squared_error = 0.0\nsamples = 1\nvalue = 32131.4", fillcolor="#f3c6a5"] ;
656 -> 657 ;
658 [label="squared_error = 0.0\nsamples = 1\nvalue = 32088.9", fillcolor="#f3c6a5"] ;
656 -> 658 ;
659 [label="sum_lock_weight <= 378868640.0\nsquared_error = 6772.18\nsamples = 5\nvalue = 31732.88", fillcolor="#f3c7a6"] ;
655 -> 659 ;
660 [label="total_fees_usd <= 1246622.72\nsquared_error = 2134.22\nsamples = 2\nvalue = 31659.33", fillcolor="#f3c7a7"] ;
659 -> 660 ;
661 [label="squared_error = 0.0\nsamples = 1\nvalue = 31594.0", fillcolor="#f3c7a7"] ;
660 -> 661 ;
662 [label="squared_error = 0.0\nsamples = 1\nvalue = 31692.0", fillcolor="#f3c7a6"] ;
660 -> 662 ;
663 [label="SILVER <= 25.47\nsquared_error = 590.94\nsamples = 3\nvalue = 31806.43", fillcolor="#f3c6a6"] ;
659 -> 663 ;
664 [label="BTC_open <= 31788.0\nsquared_error = 16.0\nsamples = 2\nvalue = 31789.4", fillcolor="#f3c6a6"] ;
663 -> 664 ;
665 [label="squared_error = 0.0\nsamples = 1\nvalue = 31785.4", fillcolor="#f3c6a6"] ;
664 -> 665 ;
666 [label="squared_error = 0.0\nsamples = 1\nvalue = 31793.4", fillcolor="#f3c6a6"] ;
664 -> 666 ;
667 [label="squared_error = 0.0\nsamples = 1\nvalue = 31840.5", fillcolor="#f3c6a6"] ;
663 -> 667 ;
668 [label="BTC_open <= 34579.75\nsquared_error = 1130598.43\nsamples = 36\nvalue = 34609.66", fillcolor="#f2c19d"] ;
614 -> 668 ;
669 [label="BTC_open <= 33189.8\nsquared_error = 333064.07\nsamples = 18\nvalue = 33589.89", fillcolor="#f3c3a1"] ;
668 -> 669 ;
670 [label="LTC <= 130.01\nsquared_error = 35962.99\nsamples = 5\nvalue = 32743.28", fillcolor="#f3c5a3"] ;
669 -> 670 ;
671 [label="DOGE <= 0.12\nsquared_error = 8.12\nsamples = 2\nvalue = 32499.25", fillcolor="#f3c5a4"] ;
670 -> 671 ;
672 [label="squared_error = 0.0\nsamples = 1\nvalue = 32502.1", fillcolor="#f3c5a4"] ;
671 -> 672 ;
673 [label="squared_error = 0.0\nsamples = 1\nvalue = 32496.4", fillcolor="#f3c5a4"] ;
671 -> 673 ;
674 [label="SILVER <= 26.25\nsquared_error = 9276.22\nsamples = 3\nvalue = 32865.3", fillcolor="#f3c4a3"] ;
670 -> 674 ;
675 [label="LTC <= 136.09\nsquared_error = 4002.14\nsamples = 2\nvalue = 32911.03", fillcolor="#f3c4a3"] ;
674 -> 675 ;
676 [label="squared_error = 0.0\nsamples = 1\nvalue = 32866.3", fillcolor="#f3c4a3"] ;
675 -> 676 ;
677 [label="squared_error = 0.0\nsamples = 1\nvalue = 33000.5", fillcolor="#f3c4a2"] ;
675 -> 677 ;
678 [label="squared_error = -0.0\nsamples = 1\nvalue = 32728.1", fillcolor="#f3c5a3"] ;
674 -> 678 ;
679 [label="BTC_open <= 33906.75\nsquared_error = 129068.47\nsamples = 13\nvalue = 33857.24", fillcolor="#f2c2a0"] ;
669 -> 679 ;
680 [label="BTC_open <= 33644.5\nsquared_error = 15026.7\nsamples = 8\nvalue = 33556.18", fillcolor="#f3c3a1"] ;
679 -> 680 ;
681 [label="BTC_open <= 33448.15\nsquared_error = 5985.18\nsamples = 6\nvalue = 33507.58", fillcolor="#f3c3a1"] ;
680 -> 681 ;
682 [label="squared_error = 0.0\nsamples = 1\nvalue = 33382.9", fillcolor="#f3c3a1"] ;
681 -> 682 ;
683 [label="BTC_open <= 33558.4\nsquared_error = 1071.86\nsamples = 5\nvalue = 33549.13", fillcolor="#f3c3a1"] ;
681 -> 683 ;
684 [label="squared_error = 235.05\nsamples = 3\nvalue = 33528.38", fillcolor="#f3c3a1"] ;
683 -> 684 ;
685 [label="squared_error = 160.02\nsamples = 2\nvalue = 33590.65", fillcolor="#f3c3a1"] ;
683 -> 685 ;
686 [label="DOGE <= 0.24\nsquared_error = 3943.84\nsamples = 2\nvalue = 33750.6", fillcolor="#f3c3a0"] ;
680 -> 686 ;
687 [label="squared_error = 0.0\nsamples = 1\nvalue = 33687.8", fillcolor="#f3c3a0"] ;
686 -> 687 ;
688 [label="squared_error = -0.0\nsamples = 1\nvalue = 33813.4", fillcolor="#f3c2a0"] ;
686 -> 688 ;
689 [label="mean_lock_size_ytes <= 1296987.31\nsquared_error = 43172.99\nsamples = 5\nvalue = 34191.76", fillcolor="#f2c29f"] ;
679 -> 689 ;
690 [label="BTC_high <= 34994.55\nsquared_error = 24369.6\nsamples = 3\nvalue = 34081.82", fillcolor="#f2c29f"] ;
689 -> 690 ;
691 [label="squared_error = 0.0\nsamples = 1\nvalue = 34227.7", fillcolor="#f2c29f"] ;
690 -> 691 ;
692 [label="LTC <= 148.18\nsquared_error = 6175.31\nsamples = 2\nvalue = 33935.93", fillcolor="#f2c2a0"] ;
690 -> 692 ;
693 [label="squared_error = 0.0\nsamples = 1\nvalue = 33824.8", fillcolor="#f3c2a0"] ;
692 -> 693 ;
694 [label="squared_error = 0.0\nsamples = 1\nvalue = 33991.5", fillcolor="#f2c29f"] ;
692 -> 694 ;
695 [label="addresses_active_count <= 928274.0\nsquared_error = 8260.41\nsamples = 2\nvalue = 34411.63", fillcolor="#f2c19e"] ;
689 -> 695 ;
696 [label="squared_error = 0.0\nsamples = 1\nvalue = 34475.9", fillcolor="#f2c19e"] ;
695 -> 696 ;
697 [label="squared_error = 0.0\nsamples = 1\nvalue = 34283.1", fillcolor="#f2c29e"] ;
695 -> 697 ;
698 [label="BTC_open <= 35184.95\nsquared_error = 206422.04\nsamples = 18\nvalue = 35459.47", fillcolor="#f2bf9b"] ;
668 -> 698 ;
699 [label="mean_hash_rate <= 171812280.0\nsquared_error = 18712.63\nsamples = 4\nvalue = 34744.53", fillcolor="#f2c19d"] ;
698 -> 699 ;
700 [label="JP225 <= 14172.5\nsquared_error = 570.15\nsamples = 3\nvalue = 34689.42", fillcolor="#f2c19d"] ;
699 -> 700 ;
701 [label="squared_error = 0.0\nsamples = 1\nvalue = 34742.8", fillcolor="#f2c19d"] ;
700 -> 701 ;
702 [label="BTC_low <= 34209.75\nsquared_error = 0.23\nsamples = 2\nvalue = 34678.74", fillcolor="#f2c19d"] ;
700 -> 702 ;
703 [label="squared_error = 0.0\nsamples = 1\nvalue = 34678.5", fillcolor="#f2c19d"] ;
702 -> 703 ;
704 [label="squared_error = -0.0\nsamples = 1\nvalue = 34679.7", fillcolor="#f2c19d"] ;
702 -> 704 ;
705 [label="squared_error = -0.0\nsamples = 1\nvalue = 35075.2", fillcolor="#f2c09c"] ;
699 -> 705 ;
706 [label="BTC_open <= 35801.3\nsquared_error = 60638.58\nsamples = 14\nvalue = 35677.07", fillcolor="#f2bf9a"] ;
698 -> 706 ;
707 [label="BTC_open <= 35581.35\nsquared_error = 17932.8\nsamples = 10\nvalue = 35553.61", fillcolor="#f2bf9a"] ;
706 -> 707 ;
708 [label="difficulty <= 17147908063232.0\nsquared_error = 4574.38\nsamples = 7\nvalue = 35453.25", fillcolor="#f2bf9b"] ;
707 -> 708 ;
709 [label="LTC <= 134.42\nsquared_error = 1917.87\nsamples = 2\nvalue = 35360.13", fillcolor="#f2bf9b"] ;
708 -> 709 ;
710 [label="squared_error = 0.0\nsamples = 1\nvalue = 35391.1", fillcolor="#f2bf9b"] ;
709 -> 710 ;
711 [label="squared_error = 0.0\nsamples = 1\nvalue = 35298.2", fillcolor="#f2c09b"] ;
709 -> 711 ;
712 [label="BTC_open <= 35498.9\nsquared_error = 404.29\nsamples = 5\nvalue = 35493.16", fillcolor="#f2bf9b"] ;
708 -> 712 ;
713 [label="squared_error = 39.16\nsamples = 3\nvalue = 35476.32", fillcolor="#f2bf9b"] ;
712 -> 713 ;
714 [label="squared_error = 9.68\nsamples = 2\nvalue = 35515.6", fillcolor="#f2bf9b"] ;
712 -> 714 ;
715 [label="sum_lock_weight <= 411509472.0\nsquared_error = 2075.01\nsamples = 3\nvalue = 35696.97", fillcolor="#f2bf9a"] ;
707 -> 715 ;
716 [label="squared_error = 0.0\nsamples = 1\nvalue = 35749.4", fillcolor="#f2bf9a"] ;
715 -> 716 ;
717 [label="COPPER <= 2.34\nsquared_error = 23.52\nsamples = 2\nvalue = 35657.65", fillcolor="#f2bf9a"] ;
715 -> 717 ;
718 [label="squared_error = 0.0\nsamples = 1\nvalue = 35662.5", fillcolor="#f2bf9a"] ;
717 -> 718 ;
719 [label="squared_error = 0.0\nsamples = 1\nvalue = 35652.8", fillcolor="#f2bf9a"] ;
717 -> 719 ;
720 [label="BTC_open <= 36144.35\nsquared_error = 16090.99\nsamples = 4\nvalue = 36026.87", fillcolor="#f2be99"] ;
706 -> 720 ;
721 [label="XRP <= 0.64\nsquared_error = 5180.16\nsamples = 3\nvalue = 35978.34", fillcolor="#f2be99"] ;
720 -> 721 ;
722 [label="DOGE <= 0.07\nsquared_error = 27.56\nsamples = 2\nvalue = 36014.25", fillcolor="#f2be99"] ;
721 -> 722 ;
723 [label="squared_error = 0.0\nsamples = 1\nvalue = 36019.5", fillcolor="#f2be99"] ;
722 -> 723 ;
724 [label="squared_error = 0.0\nsamples = 1\nvalue = 36009.0", fillcolor="#f2be99"] ;
722 -> 724 ;
725 [label="squared_error = -0.0\nsamples = 1\nvalue = 35834.7", fillcolor="#f2be9a"] ;
721 -> 725 ;
726 [label="squared_error = 0.0\nsamples = 1\nvalue = 36269.5", fillcolor="#f2be98"] ;
720 -> 726 ;
727 [label="BTC_open <= 40546.75\nsquared_error = 5718077.04\nsamples = 120\nvalue = 40160.51", fillcolor="#f0b68c"] ;
613 -> 727 ;
728 [label="BTC_open <= 38426.4\nsquared_error = 1495074.39\nsamples = 64\nvalue = 38442.54", fillcolor="#f1b992"] ;
727 -> 728 ;
729 [label="BTC_open <= 37501.25\nsquared_error = 394728.55\nsamples = 28\nvalue = 37317.1", fillcolor="#f1bc95"] ;
728 -> 729 ;
730 [label="BTC_open <= 36997.35\nsquared_error = 71743.03\nsamples = 17\nvalue = 36878.66", fillcolor="#f1bc96"] ;
729 -> 730 ;
731 [label="BTC_open <= 36752.65\nsquared_error = 17650.13\nsamples = 11\nvalue = 36738.54", fillcolor="#f1bd97"] ;
730 -> 731 ;
732 [label="BTC_open <= 36671.0\nsquared_error = 3117.88\nsamples = 6\nvalue = 36640.09", fillcolor="#f1bd97"] ;
731 -> 732 ;
733 [label="GOLD <= 1881.2\nsquared_error = 1176.26\nsamples = 3\nvalue = 36606.6", fillcolor="#f1bd97"] ;
732 -> 733 ;
734 [label="squared_error = 245.71\nsamples = 2\nvalue = 36622.25", fillcolor="#f1bd97"] ;
733 -> 734 ;
735 [label="squared_error = 0.0\nsamples = 1\nvalue = 36544.0", fillcolor="#f1bd97"] ;
733 -> 735 ;
736 [label="BTC_open <= 36699.05\nsquared_error = 270.31\nsamples = 3\nvalue = 36707.08", fillcolor="#f1bd97"] ;
732 -> 736 ;
737 [label="squared_error = 0.42\nsamples = 2\nvalue = 36686.95", fillcolor="#f1bd97"] ;
736 -> 737 ;
738 [label="squared_error = 0.0\nsamples = 1\nvalue = 36720.5", fillcolor="#f1bd97"] ;
736 -> 738 ;
739 [label="BTC_open <= 36926.25\nsquared_error = 3104.46\nsamples = 5\nvalue = 36886.21", fillcolor="#f1bc96"] ;
731 -> 739 ;
740 [label="DOGE <= 0.07\nsquared_error = 906.66\nsamples = 3\nvalue = 36854.11", fillcolor="#f1bc96"] ;
739 -> 740 ;
741 [label="squared_error = 0.0\nsamples = 1\nvalue = 36793.2", fillcolor="#f1bd97"] ;
740 -> 741 ;
742 [label="squared_error = 336.27\nsamples = 2\nvalue = 36864.27", fillcolor="#f1bc96"] ;
740 -> 742 ;
743 [label="xfer_cnt <= 899457.5\nsquared_error = 220.5\nsamples = 2\nvalue = 36961.1", fillcolor="#f1bc96"] ;
739 -> 743 ;
744 [label="squared_error = 0.0\nsamples = 1\nvalue = 36950.6", fillcolor="#f1bc96"] ;
743 -> 744 ;
745 [label="squared_error = 0.0\nsamples = 1\nvalue = 36982.1", fillcolor="#f1bc96"] ;
743 -> 745 ;
746 [label="BTC_open <= 37244.95\nsquared_error = 15981.44\nsamples = 6\nvalue = 37267.87", fillcolor="#f1bc95"] ;
730 -> 746 ;
747 [label="mean_hash_rate <= 207641232.0\nsquared_error = 4775.9\nsamples = 2\nvalue = 37115.43", fillcolor="#f1bc96"] ;
746 -> 747 ;
748 [label="squared_error = 0.0\nsamples = 1\nvalue = 37164.3", fillcolor="#f1bc95"] ;
747 -> 748 ;
749 [label="squared_error = 0.0\nsamples = 1\nvalue = 37017.7", fillcolor="#f1bc96"] ;
747 -> 749 ;
750 [label="DJI <= 32729.5\nsquared_error = 4157.27\nsamples = 4\nvalue = 37344.08", fillcolor="#f1bb95"] ;
746 -> 750 ;
751 [label="GOLD <= 925.7\nsquared_error = 970.94\nsamples = 2\nvalue = 37404.23", fillcolor="#f1bb95"] ;
750 -> 751 ;
752 [label="squared_error = 0.0\nsamples = 1\nvalue = 37448.3", fillcolor="#f1bb95"] ;
751 -> 752 ;
753 [label="squared_error = 0.0\nsamples = 1\nvalue = 37382.2", fillcolor="#f1bb95"] ;
751 -> 753 ;
754 [label="JP225 <= 28345.0\nsquared_error = 107.56\nsamples = 2\nvalue = 37283.93", fillcolor="#f1bc95"] ;
750 -> 754 ;
755 [label="squared_error = 0.0\nsamples = 1\nvalue = 37276.6", fillcolor="#f1bc95"] ;
754 -> 755 ;
756 [label="squared_error = 0.0\nsamples = 1\nvalue = 37298.6", fillcolor="#f1bc95"] ;
754 -> 756 ;
757 [label="BTC_open <= 38045.65\nsquared_error = 61460.79\nsamples = 11\nvalue = 38062.45", fillcolor="#f1ba93"] ;
729 -> 757 ;
758 [label="sum_lock_weight <= 564154144.0\nsquared_error = 15370.39\nsamples = 5\nvalue = 37745.79", fillcolor="#f1bb94"] ;
757 -> 758 ;
759 [label="difficulty <= 23845458149376.0\nsquared_error = 4968.01\nsamples = 4\nvalue = 37677.02", fillcolor="#f1bb94"] ;
758 -> 759 ;
760 [label="squared_error = 0.0\nsamples = 1\nvalue = 37555.8", fillcolor="#f1bb94"] ;
759 -> 760 ;
761 [label="difficulty <= 27305169649664.0\nsquared_error = 1618.05\nsamples = 3\nvalue = 37707.32", fillcolor="#f1bb94"] ;
759 -> 761 ;
762 [label="squared_error = 0.0\nsamples = 1\nvalue = 37745.1", fillcolor="#f1bb94"] ;
761 -> 762 ;
763 [label="squared_error = 382.2\nsamples = 2\nvalue = 37669.55", fillcolor="#f1bb94"] ;
761 -> 763 ;
764 [label="squared_error = -0.0\nsamples = 1\nvalue = 37917.7", fillcolor="#f1ba93"] ;
758 -> 764 ;
765 [label="BTC_open <= 38221.75\nsquared_error = 3209.6\nsamples = 6\nvalue = 38232.96", fillcolor="#f1ba92"] ;
757 -> 765 ;
766 [label="difficulty <= 17551930687488.0\nsquared_error = 511.02\nsamples = 3\nvalue = 38171.26", fillcolor="#f1ba92"] ;
765 -> 766 ;
767 [label="squared_error = 0.0\nsamples = 1\nvalue = 38130.3", fillcolor="#f1ba92"] ;
766 -> 767 ;
768 [label="mean_lock_size_ytes <= 1199699.88\nsquared_error = 114.49\nsamples = 2\nvalue = 38181.5", fillcolor="#f1ba92"] ;
766 -> 768 ;
769 [label="squared_error = 0.0\nsamples = 1\nvalue = 38170.8", fillcolor="#f1ba92"] ;
768 -> 769 ;
770 [label="squared_error = -0.0\nsamples = 1\nvalue = 38192.2", fillcolor="#f1ba92"] ;
768 -> 770 ;
771 [label="mean_lock_size_ytes <= 1105102.28\nsquared_error = 1029.64\nsamples = 3\nvalue = 38271.52", fillcolor="#f1ba92"] ;
765 -> 771 ;
772 [label="squared_error = 0.0\nsamples = 1\nvalue = 38248.2", fillcolor="#f1ba92"] ;
771 -> 772 ;
773 [label="mean_hash_rate <= 148992740.0\nsquared_error = 327.68\nsamples = 2\nvalue = 38310.4", fillcolor="#f1ba92"] ;
771 -> 773 ;
774 [label="squared_error = 0.0\nsamples = 1\nvalue = 38336.0", fillcolor="#f1ba92"] ;
773 -> 774 ;
775 [label="squared_error = 0.0\nsamples = 1\nvalue = 38297.6", fillcolor="#f1ba92"] ;
773 -> 775 ;
776 [label="BTC_open <= 39590.0\nsquared_error = 281861.27\nsamples = 36\nvalue = 39472.6", fillcolor="#f0b78e"] ;
728 -> 776 ;
777 [label="BTC_open <= 38985.1\nsquared_error = 93183.78\nsamples = 22\nvalue = 39073.53", fillcolor="#f0b890"] ;
776 -> 777 ;
778 [label="BTC_high <= 39058.2\nsquared_error = 20407.8\nsamples = 7\nvalue = 38710.55", fillcolor="#f1b991"] ;
777 -> 778 ;
779 [label="mean_tx_size_usd <= 95506.89\nsquared_error = 4495.27\nsamples = 3\nvalue = 38523.32", fillcolor="#f1b991"] ;
778 -> 779 ;
780 [label="BTC_low <= 37554.5\nsquared_error = 997.56\nsamples = 2\nvalue = 38558.67", fillcolor="#f1b991"] ;
779 -> 780 ;
781 [label="squared_error = 0.0\nsamples = 1\nvalue = 38514.0", fillcolor="#f1b991"] ;
780 -> 781 ;
782 [label="squared_error = 0.0\nsamples = 1\nvalue = 38581.0", fillcolor="#f1b991"] ;
780 -> 782 ;
783 [label="squared_error = -0.0\nsamples = 1\nvalue = 38417.3", fillcolor="#f1b992"] ;
779 -> 783 ;
784 [label="DOGE <= 0.12\nsquared_error = 2074.17\nsamples = 4\nvalue = 38804.16", fillcolor="#f0b990"] ;
778 -> 784 ;
785 [label="xfer_cnt <= 827668.5\nsquared_error = 357.59\nsamples = 2\nvalue = 38837.46", fillcolor="#f0b990"] ;
784 -> 785 ;
786 [label="squared_error = 0.0\nsamples = 1\nvalue = 38814.3", fillcolor="#f0b990"] ;
785 -> 786 ;
787 [label="squared_error = 0.0\nsamples = 1\nvalue = 38852.9", fillcolor="#f0b990"] ;
785 -> 787 ;
788 [label="addresses_active_count <= 964787.5\nsquared_error = 7.48\nsamples = 2\nvalue = 38748.67", fillcolor="#f0b991"] ;
784 -> 788 ;
789 [label="squared_error = 0.0\nsamples = 1\nvalue = 38744.8", fillcolor="#f0b991"] ;
788 -> 789 ;
790 [label="squared_error = 0.0\nsamples = 1\nvalue = 38750.6", fillcolor="#f0b991"] ;
788 -> 790 ;
791 [label="BTC_open <= 39322.65\nsquared_error = 16461.68\nsamples = 15\nvalue = 39280.94", fillcolor="#f0b88f"] ;
777 -> 791 ;
792 [label="BTC_open <= 39206.5\nsquared_error = 1453.6\nsamples = 9\nvalue = 39194.11", fillcolor="#f0b88f"] ;
791 -> 792 ;
793 [label="addresses_active_count <= 811105.5\nsquared_error = 578.81\nsamples = 5\nvalue = 39167.49", fillcolor="#f0b88f"] ;
792 -> 793 ;
794 [label="squared_error = 184.96\nsamples = 2\nvalue = 39129.1", fillcolor="#f0b88f"] ;
793 -> 794 ;
795 [label="squared_error = 55.15\nsamples = 3\nvalue = 39180.28", fillcolor="#f0b88f"] ;
793 -> 795 ;
796 [label="BTC_open <= 39225.25\nsquared_error = 415.45\nsamples = 4\nvalue = 39229.6", fillcolor="#f0b88f"] ;
792 -> 796 ;
797 [label="squared_error = 0.0\nsamples = 1\nvalue = 39209.6", fillcolor="#f0b88f"] ;
796 -> 797 ;
798 [label="squared_error = 30.91\nsamples = 3\nvalue = 39249.6", fillcolor="#f0b88f"] ;
796 -> 798 ;
799 [label="BTC_open <= 39436.45\nsquared_error = 1235.19\nsamples = 6\nvalue = 39454.61", fillcolor="#f0b78e"] ;
791 -> 799 ;
800 [label="mean_tx_size_usd <= 23647.0\nsquared_error = 105.06\nsamples = 2\nvalue = 39406.05", fillcolor="#f0b78f"] ;
799 -> 800 ;
801 [label="squared_error = 0.0\nsamples = 1\nvalue = 39395.8", fillcolor="#f0b78f"] ;
800 -> 801 ;
802 [label="squared_error = 0.0\nsamples = 1\nvalue = 39416.3", fillcolor="#f0b78e"] ;
800 -> 802 ;
803 [label="total_fees_usd <= 471044.61\nsquared_error = 366.49\nsamples = 4\nvalue = 39474.04", fillcolor="#f0b78e"] ;
799 -> 803 ;
804 [label="squared_error = 0.0\nsamples = 1\nvalue = 39497.0", fillcolor="#f0b78e"] ;
803 -> 804 ;
805 [label="squared_error = 25.08\nsamples = 3\nvalue = 39458.73", fillcolor="#f0b78e"] ;
803 -> 805 ;
806 [label="BTC_open <= 39934.95\nsquared_error = 62634.44\nsamples = 14\nvalue = 39979.12", fillcolor="#f0b68d"] ;
776 -> 806 ;
807 [label="mean_hash_rate <= 109174248.0\nsquared_error = 5201.07\nsamples = 6\nvalue = 39736.25", fillcolor="#f0b78d"] ;
806 -> 807 ;
808 [label="squared_error = 0.0\nsamples = 1\nvalue = 39878.3", fillcolor="#f0b68d"] ;
807 -> 808 ;
809 [label="BTC_open <= 39717.2\nsquared_error = 876.01\nsamples = 5\nvalue = 39704.68", fillcolor="#f0b78e"] ;
807 -> 809 ;
810 [label="BTC_open <= 39679.5\nsquared_error = 122.89\nsamples = 3\nvalue = 39684.87", fillcolor="#f0b78e"] ;
809 -> 810 ;
811 [label="squared_error = 0.0\nsamples = 1\nvalue = 39671.1", fillcolor="#f0b78e"] ;
810 -> 811 ;
812 [label="squared_error = 42.19\nsamples = 2\nvalue = 39691.75", fillcolor="#f0b78e"] ;
810 -> 812 ;
813 [label="BTC_low <= 37770.2\nsquared_error = 27.38\nsamples = 2\nvalue = 39744.3", fillcolor="#f0b78d"] ;
809 -> 813 ;
814 [label="squared_error = 0.0\nsamples = 1\nvalue = 39736.9", fillcolor="#f0b78d"] ;
813 -> 814 ;
815 [label="squared_error = 0.0\nsamples = 1\nvalue = 39748.0", fillcolor="#f0b78d"] ;
813 -> 815 ;
816 [label="BTC_open <= 40265.05\nsquared_error = 29769.99\nsamples = 8\nvalue = 40157.23", fillcolor="#f0b68c"] ;
806 -> 816 ;
817 [label="BTC_open <= 40036.55\nsquared_error = 2357.06\nsamples = 5\nvalue = 40058.01", fillcolor="#f0b68c"] ;
816 -> 817 ;
818 [label="mean_tx_size_usd <= 31155.79\nsquared_error = 0.32\nsamples = 2\nvalue = 40000.42", fillcolor="#f0b68d"] ;
817 -> 818 ;
819 [label="squared_error = 0.0\nsamples = 1\nvalue = 40001.4", fillcolor="#f0b68d"] ;
818 -> 819 ;
820 [label="squared_error = 0.0\nsamples = 1\nvalue = 40000.1", fillcolor="#f0b68d"] ;
818 -> 820 ;
821 [label="DOGE <= 0.22\nsquared_error = 726.21\nsamples = 3\nvalue = 40090.91", fillcolor="#f0b68c"] ;
817 -> 821 ;
822 [label="squared_error = 21.01\nsamples = 2\nvalue = 40080.05", fillcolor="#f0b68c"] ;
821 -> 822 ;
823 [label="squared_error = -0.0\nsamples = 1\nvalue = 40156.1", fillcolor="#f0b68c"] ;
821 -> 823 ;
824 [label="difficulty <= 24079358754816.0\nsquared_error = 3624.33\nsamples = 3\nvalue = 40430.1", fillcolor="#f0b58b"] ;
816 -> 824 ;
825 [label="squared_error = 0.0\nsamples = 1\nvalue = 40529.4", fillcolor="#f0b58b"] ;
824 -> 825 ;
826 [label="mean_tx_size_usd <= 94257.96\nsquared_error = 450.0\nsamples = 2\nvalue = 40397.0", fillcolor="#f0b58b"] ;
824 -> 826 ;
827 [label="squared_error = 0.0\nsamples = 1\nvalue = 40382.0", fillcolor="#f0b58b"] ;
826 -> 827 ;
828 [label="squared_error = 0.0\nsamples = 1\nvalue = 40427.0", fillcolor="#f0b58b"] ;
826 -> 828 ;
829 [label="BTC_open <= 42648.6\nsquared_error = 1365853.04\nsamples = 56\nvalue = 42649.36", fillcolor="#efb184"] ;
727 -> 829 ;
830 [label="BTC_open <= 41725.8\nsquared_error = 376688.78\nsamples = 31\nvalue = 41715.78", fillcolor="#efb387"] ;
829 -> 830 ;
831 [label="BTC_open <= 41207.5\nsquared_error = 154409.54\nsamples = 17\nvalue = 41206.82", fillcolor="#efb489"] ;
830 -> 831 ;
832 [label="BTC_open <= 40838.7\nsquared_error = 33827.83\nsamples = 9\nvalue = 40807.39", fillcolor="#f0b58a"] ;
831 -> 832 ;
833 [label="BTC_open <= 40679.45\nsquared_error = 7431.99\nsamples = 5\nvalue = 40665.9", fillcolor="#f0b58b"] ;
832 -> 833 ;
834 [label="SILVER <= 11.45\nsquared_error = 1398.24\nsamples = 3\nvalue = 40603.53", fillcolor="#f0b58b"] ;
833 -> 834 ;
835 [label="squared_error = 386.12\nsamples = 2\nvalue = 40579.65", fillcolor="#f0b58b"] ;
834 -> 835 ;
836 [label="squared_error = -0.0\nsamples = 1\nvalue = 40651.3", fillcolor="#f0b58b"] ;
834 -> 836 ;
837 [label="BTC_low <= 38044.45\nsquared_error = 1896.6\nsamples = 2\nvalue = 40759.45", fillcolor="#f0b58a"] ;
833 -> 837 ;
838 [label="squared_error = 0.0\nsamples = 1\nvalue = 40715.9", fillcolor="#f0b58a"] ;
837 -> 838 ;
839 [label="squared_error = 0.0\nsamples = 1\nvalue = 40803.0", fillcolor="#f0b58a"] ;
837 -> 839 ;
840 [label="total_fees_usd <= 458269.89\nsquared_error = 10518.91\nsamples = 4\nvalue = 40984.25", fillcolor="#f0b48a"] ;
832 -> 840 ;
841 [label="addresses_active_count <= 915476.5\nsquared_error = 3080.25\nsamples = 2\nvalue = 41077.5", fillcolor="#f0b489"] ;
840 -> 841 ;
842 [label="squared_error = 0.0\nsamples = 1\nvalue = 41133.0", fillcolor="#f0b489"] ;
841 -> 842 ;
843 [label="squared_error = 0.0\nsamples = 1\nvalue = 41022.0", fillcolor="#f0b489"] ;
841 -> 843 ;
844 [label="addresses_active_count <= 949578.0\nsquared_error = 566.44\nsamples = 2\nvalue = 40891.0", fillcolor="#f0b48a"] ;
840 -> 844 ;
845 [label="squared_error = 0.0\nsamples = 1\nvalue = 40867.2", fillcolor="#f0b58a"] ;
844 -> 845 ;
846 [label="squared_error = 0.0\nsamples = 1\nvalue = 40914.8", fillcolor="#f0b48a"] ;
844 -> 846 ;
847 [label="BTC_open <= 41473.2\nsquared_error = 15721.37\nsamples = 8\nvalue = 41533.64", fillcolor="#efb388"] ;
831 -> 847 ;
848 [label="SILVER <= 24.97\nsquared_error = 3214.67\nsamples = 3\nvalue = 41352.03", fillcolor="#efb488"] ;
847 -> 848 ;
849 [label="addresses_active_count <= 930915.0\nsquared_error = 486.2\nsamples = 2\nvalue = 41390.05", fillcolor="#efb388"] ;
848 -> 849 ;
850 [label="squared_error = 0.0\nsamples = 1\nvalue = 41412.1", fillcolor="#efb388"] ;
849 -> 850 ;
851 [label="squared_error = -0.0\nsamples = 1\nvalue = 41368.0", fillcolor="#efb488"] ;
849 -> 851 ;
852 [label="squared_error = 0.0\nsamples = 1\nvalue = 41276.0", fillcolor="#efb489"] ;
848 -> 852 ;
853 [label="BTC_open <= 41623.85\nsquared_error = 3406.24\nsamples = 5\nvalue = 41601.74", fillcolor="#efb388"] ;
847 -> 853 ;
854 [label="LTC <= 125.6\nsquared_error = 170.17\nsamples = 3\nvalue = 41557.26", fillcolor="#efb388"] ;
853 -> 854 ;
855 [label="squared_error = 0.0\nsamples = 1\nvalue = 41567.6", fillcolor="#efb388"] ;
854 -> 855 ;
856 [label="squared_error = 24.5\nsamples = 2\nvalue = 41541.75", fillcolor="#efb388"] ;
854 -> 856 ;
857 [label="DJI <= 17308.0\nsquared_error = 7.48\nsamples = 2\nvalue = 41675.87", fillcolor="#efb387"] ;
853 -> 857 ;
858 [label="squared_error = 0.0\nsamples = 1\nvalue = 41672.0", fillcolor="#efb387"] ;
857 -> 858 ;
859 [label="squared_error = 0.0\nsamples = 1\nvalue = 41677.8", fillcolor="#efb387"] ;
857 -> 859 ;
860 [label="BTC_open <= 42131.25\nsquared_error = 80907.82\nsamples = 14\nvalue = 42224.72", fillcolor="#efb286"] ;
830 -> 860 ;
861 [label="SILVER <= 23.33\nsquared_error = 7732.17\nsamples = 5\nvalue = 41874.13", fillcolor="#efb387"] ;
860 -> 861 ;
862 [label="xfer_cnt <= 775004.0\nsquared_error = 891.68\nsamples = 3\nvalue = 41825.76", fillcolor="#efb387"] ;
861 -> 862 ;
863 [label="squared_error = 0.0\nsamples = 1\nvalue = 41767.8", fillcolor="#efb387"] ;
862 -> 863 ;
864 [label="sum_lock_weight <= 475960688.0\nsquared_error = 64.8\nsamples = 2\nvalue = 41840.25", fillcolor="#efb387"] ;
862 -> 864 ;
865 [label="squared_error = 0.0\nsamples = 1\nvalue = 41832.2", fillcolor="#efb387"] ;
864 -> 865 ;
866 [label="squared_error = 0.0\nsamples = 1\nvalue = 41848.3", fillcolor="#efb387"] ;
864 -> 866 ;
867 [label="sum_lock_weight <= 456237040.0\nsquared_error = 4362.6\nsamples = 2\nvalue = 41995.05", fillcolor="#efb286"] ;
861 -> 867 ;
868 [label="squared_error = 0.0\nsamples = 1\nvalue = 42061.1", fillcolor="#efb286"] ;
867 -> 868 ;
869 [label="squared_error = -0.0\nsamples = 1\nvalue = 41929.0", fillcolor="#efb287"] ;
867 -> 869 ;
870 [label="BTC_open <= 42425.7\nsquared_error = 18484.65\nsamples = 9\nvalue = 42413.51", fillcolor="#efb185"] ;
860 -> 870 ;
871 [label="ETH <= 2893.68\nsquared_error = 7568.13\nsamples = 6\nvalue = 42304.57", fillcolor="#efb285"] ;
870 -> 871 ;
872 [label="mean_hash_rate <= 161151980.0\nsquared_error = 0.72\nsamples = 2\nvalue = 42204.6", fillcolor="#efb286"] ;
871 -> 872 ;
873 [label="squared_error = 0.0\nsamples = 1\nvalue = 42203.4", fillcolor="#efb286"] ;
872 -> 873 ;
874 [label="squared_error = -0.0\nsamples = 1\nvalue = 42205.2", fillcolor="#efb286"] ;
872 -> 874 ;
875 [label="SILVER <= 23.65\nsquared_error = 126.19\nsamples = 4\nvalue = 42379.55", fillcolor="#efb285"] ;
871 -> 875 ;
876 [label="squared_error = 3.61\nsamples = 2\nvalue = 42390.3", fillcolor="#efb285"] ;
875 -> 876 ;
877 [label="squared_error = 17.64\nsamples = 2\nvalue = 42368.8", fillcolor="#efb285"] ;
875 -> 877 ;
878 [label="mean_tx_size_usd <= 42150.32\nsquared_error = 1223.17\nsamples = 3\nvalue = 42540.6", fillcolor="#efb185"] ;
870 -> 878 ;
879 [label="COPPER <= 4.48\nsquared_error = 22.58\nsamples = 2\nvalue = 42556.12", fillcolor="#efb185"] ;
878 -> 879 ;
880 [label="squared_error = 0.0\nsamples = 1\nvalue = 42560.0", fillcolor="#efb185"] ;
879 -> 880 ;
881 [label="squared_error = 0.0\nsamples = 1\nvalue = 42550.3", fillcolor="#efb185"] ;
879 -> 881 ;
882 [label="squared_error = 0.0\nsamples = 1\nvalue = 42463.0", fillcolor="#efb185"] ;
878 -> 882 ;
