digraph Tree {
node [shape=box, style="filled, rounded", color="black", fontname="helvetica"] ;
edge [fontname="helvetica"] ;
0 [label="BTC_low <= 26759.4\nsquared_error = 306821248.52\nsamples = 1126\nvalue = 18767.75", fillcolor="#f9e0ce"] ;
1 [label="BTC_open <= 13197.65\nsquared_error = 14905040.76\nsamples = 820\nvalue = 8722.24", fillcolor="#fdf4ee"] ;
0 -> 1 [labeldistance=2.5, labelangle=45, headlabel="True"] ;
2 [label="BTC_open <= 7587.2\nsquared_error = 6585689.07\nsamples = 757\nvalue = 7910.72", fillcolor="#fdf6f0"] ;
1 -> 2 ;
3 [label="BTC_open <= 5400.1\nsquared_error = 2112870.78\nsamples = 317\nvalue = 5329.04", fillcolor="#fefbf8"] ;
2 -> 3 ;
4 [label="BTC_open <= 4460.15\nsquared_error = 371258.78\nsamples = 168\nvalue = 4071.89", fillcolor="#fffdfc"] ;
3 -> 4 ;
5 [label="BTC_open <= 3735.8\nsquared_error = 58866.07\nsamples = 131\nvalue = 3772.86", fillcolor="#fffefd"] ;
4 -> 5 ;
6 [label="BTC_open <= 3517.45\nsquared_error = 13538.29\nsamples = 57\nvalue = 3538.32", fillcolor="#fffefe"] ;
5 -> 6 ;
7 [label="BTC_low <= 3247.45\nsquared_error = 6418.12\nsamples = 22\nvalue = 3415.59", fillcolor="#fffffe"] ;
6 -> 7 ;
8 [label="LTC <= 23.56\nsquared_error = 1083.25\nsamples = 4\nvalue = 3259.92", fillcolor="#ffffff"] ;
7 -> 8 ;
9 [label="squared_error = 0.0\nsamples = 1\nvalue = 3315.3", fillcolor="#ffffff"] ;
8 -> 9 ;
10 [label="mean_lock_size_ytes <= 1000879.28\nsquared_error = 81.5\nsamples = 3\nvalue = 3241.47", fillcolor="#ffffff"] ;
8 -> 10 ;
11 [label="DJI <= 11836.0\nsquared_error = 0.0\nsamples = 2\nvalue = 3247.85", fillcolor="#ffffff"] ;
10 -> 11 ;
12 [label="squared_error = 0.0\nsamples = 1\nvalue = 3247.8", fillcolor="#ffffff"] ;
11 -> 12 ;
13 [label="squared_error = -0.0\nsamples = 1\nvalue = 3247.9", fillcolor="#ffffff"] ;
11 -> 13 ;
14 [label="squared_error = -0.0\nsamples = 1\nvalue = 3228.7", fillcolor="#ffffff"] ;
10 -> 14 ;
15 [label="BTC_open <= 3450.9\nsquared_error = 1022.53\nsamples = 18\nvalue = 3450.18", fillcolor="#fffffe"] ;
7 -> 15 ;
16 [label="BTC_open <= 3418.45\nsquared_error = 231.22\nsamples = 8\nvalue = 3419.64", fillcolor="#fffffe"] ;
15 -> 16 ;
17 [label="DJI <= 25024.5\nsquared_error = 38.01\nsamples = 4\nvalue = 3406.12", fillcolor="#fffffe"] ;
16 -> 17 ;
18 [label="sum_lock_weight <= 467871104.0\nsquared_error = 12.6\nsamples = 2\nvalue = 3411.25", fillcolor="#fffffe"] ;
17 -> 18 ;
19 [label="squared_error = 0.0\nsamples = 1\nvalue = 3407.7", fillcolor="#fffffe"] ;
18 -> 19 ;
20 [label="squared_error = -0.0\nsamples = 1\nvalue = 3414.8", fillcolor="#fffffe"] ;
18 -> 20 ;
21 [label="ETH <= 111.89\nsquared_error = 10.89\nsamples = 2\nvalue = 3401.0", fillcolor="#fffffe"] ;
17 -> 21 ;
22 [label="squared_error = 0.0\nsamples = 1\nvalue = 3404.3", fillcolor="#fffffe"] ;
21 -> 22 ;
23 [label="squared_error = 0.0\nsamples = 1\nvalue = 3397.7", fillcolor="#fffffe"] ;
21 -> 23 ;
24 [label="GOLD <= 654.45\nsquared_error = 59.25\nsamples = 4\nvalue = 3433.15", fillcolor="#fffffe"] ;
16 -> 24 ;
25 [label="LTC <= 24.93\nsquared_error = 16.81\nsamples = 2\nvalue = 3426.3", fillcolor="#fffffe"] ;
24 -> 25 ;
26 [label="squared_error = 0.0\nsamples = 1\nvalue = 3422.2", fillcolor="#fffffe"] ;
25 -> 26 ;
27 [label="squared_error = -0.0\nsamples = 1\nvalue = 3430.4", fillcolor="#fffffe"] ;
25 -> 27 ;
28 [label="BTC_high <= 3467.9\nsquared_error = 7.84\nsamples = 2\nvalue = 3440.0", fillcolor="#fffffe"] ;
24 -> 28 ;
29 [label="squared_error = 0.0\nsamples = 1\nvalue = 3442.8", fillcolor="#fffffe"] ;
28 -> 29 ;
30 [label="squared_error = 0.0\nsamples = 1\nvalue = 3437.2", fillcolor="#fffffe"] ;
28 -> 30 ;
31 [label="BTC_open <= 3479.45\nsquared_error = 312.48\nsamples = 10\nvalue = 3474.61", fillcolor="#fffffe"] ;
15 -> 31 ;
32 [label="BTC_open <= 3464.6\nsquared_error = 13.03\nsamples = 7\nvalue = 3463.54", fillcolor="#fffffe"] ;
31 -> 32 ;
33 [label="DOGE <= 0.0\nsquared_error = 1.87\nsamples = 4\nvalue = 3460.6", fillcolor="#fffffe"] ;
32 -> 33 ;
34 [label="squared_error = 0.0\nsamples = 1\nvalue = 3462.8", fillcolor="#fffffe"] ;
33 -> 34 ;
35 [label="COPPER <= 2.79\nsquared_error = 0.34\nsamples = 3\nvalue = 3459.87", fillcolor="#fffffe"] ;
33 -> 35 ;
36 [label="BTC_high <= 3485.3\nsquared_error = 0.06\nsamples = 2\nvalue = 3460.25", fillcolor="#fffffe"] ;
35 -> 36 ;
37 [label="squared_error = 0.0\nsamples = 1\nvalue = 3460.0", fillcolor="#fffffe"] ;
36 -> 37 ;
38 [label="squared_error = 0.0\nsamples = 1\nvalue = 3460.5", fillcolor="#fffffe"] ;
36 -> 38 ;
39 [label="squared_error = 0.0\nsamples = 1\nvalue = 3459.1", fillcolor="#fffffe"] ;
35 -> 39 ;
40 [label="DOGE <= 0.0\nsquared_error = 0.98\nsamples = 3\nvalue = 3467.47", fillcolor="#fffffe"] ;
32 -> 40 ;
41 [label="SILVER <= 7.87\nsquared_error = 0.06\nsamples = 2\nvalue = 3468.15", fillcolor="#fffffe"] ;
40 -> 41 ;
42 [label="squared_error = 0.0\nsamples = 1\nvalue = 3467.9", fillcolor="#fffffe"] ;
41 -> 42 ;
43 [label="squared_error = -0.0\nsamples = 1\nvalue = 3468.4", fillcolor="#fffffe"] ;
41 -> 43 ;
44 [label="squared_error = -0.0\nsamples = 1\nvalue = 3466.1", fillcolor="#fffffe"] ;
40 -> 44 ;
45 [label="BTC_high <= 3649.3\nsquared_error = 58.56\nsamples = 3\nvalue = 3500.43", fillcolor="#fffefe"] ;
31 -> 45 ;
46 [label="SPX <= 1316.54\nsquared_error = 9.3\nsamples = 2\nvalue = 3505.55", fillcolor="#fffefe"] ;
45 -> 46 ;
47 [label="squared_error = 0.0\nsamples = 1\nvalue = 3502.5", fillcolor="#fffefe"] ;
46 -> 47 ;
48 [label="squared_error = -0.0\nsamples = 1\nvalue = 3508.6", fillcolor="#fffefe"] ;
46 -> 48 ;
49 [label="squared_error = 0.0\nsamples = 1\nvalue = 3490.2", fillcolor="#fffefe"] ;
45 -> 49 ;
50 [label="BTC_open <= 3621.55\nsquared_error = 2593.42\nsamples = 35\nvalue = 3615.47", fillcolor="#fffefe"] ;
6 -> 50 ;
51 [label="BTC_open <= 3577.2\nsquared_error = 648.68\nsamples = 21\nvalue = 3580.09", fillcolor="#fffefe"] ;
50 -> 51 ;
52 [label="BTC_open <= 3549.25\nsquared_error = 263.07\nsamples = 10\nvalue = 3557.82", fillcolor="#fffefe"] ;
51 -> 52 ;
53 [label="XRP <= 0.34\nsquared_error = 45.13\nsamples = 3\nvalue = 3535.03", fillcolor="#fffefe"] ;
52 -> 53 ;
54 [label="LTC <= 31.17\nsquared_error = 7.84\nsamples = 2\nvalue = 3539.5", fillcolor="#fffefe"] ;
53 -> 54 ;
55 [label="squared_error = 0.0\nsamples = 1\nvalue = 3542.3", fillcolor="#fffefe"] ;
54 -> 55 ;
56 [label="squared_error = 0.0\nsamples = 1\nvalue = 3536.7", fillcolor="#fffefe"] ;
54 -> 56 ;
57 [label="squared_error = -0.0\nsamples = 1\nvalue = 3526.1", fillcolor="#fffefe"] ;
53 -> 57 ;
58 [label="BTC_open <= 3564.15\nsquared_error = 38.58\nsamples = 7\nvalue = 3567.59", fillcolor="#fffefe"] ;
52 -> 58 ;
59 [label="BTC_low <= 3467.7\nsquared_error = 8.7\nsamples = 2\nvalue = 3558.55", fillcolor="#fffefe"] ;
58 -> 59 ;
60 [label="squared_error = 0.0\nsamples = 1\nvalue = 3555.6", fillcolor="#fffefe"] ;
59 -> 60 ;
61 [label="squared_error = -0.0\nsamples = 1\nvalue = 3561.5", fillcolor="#fffefe"] ;
59 -> 61 ;
62 [label="JP225 <= 20972.5\nsquared_error = 4.81\nsamples = 5\nvalue = 3571.2", fillcolor="#fffefe"] ;
58 -> 62 ;
63 [label="BTC_high <= 3582.9\nsquared_error = 1.73\nsamples = 4\nvalue = 3572.12", fillcolor="#fffefe"] ;
62 -> 63 ;
64 [label="squared_error = 0.0\nsamples = 1\nvalue = 3574.3", fillcolor="#fffefe"] ;
63 -> 64 ;
65 [label="LTC <= 32.61\nsquared_error = 0.21\nsamples = 3\nvalue = 3571.4", fillcolor="#fffefe"] ;
63 -> 65 ;
66 [label="ETH <= 117.11\nsquared_error = 0.04\nsamples = 2\nvalue = 3571.1", fillcolor="#fffefe"] ;
65 -> 66 ;
67 [label="squared_error = 0.0\nsamples = 1\nvalue = 3570.9", fillcolor="#fffefe"] ;
66 -> 67 ;
68 [label="squared_error = -0.0\nsamples = 1\nvalue = 3571.3", fillcolor="#fffefe"] ;
66 -> 68 ;
69 [label="squared_error = 0.0\nsamples = 1\nvalue = 3572.0", fillcolor="#fffefe"] ;
65 -> 69 ;
70 [label="squared_error = 0.0\nsamples = 1\nvalue = 3567.5", fillcolor="#fffefe"] ;
62 -> 70 ;
71 [label="BTC_open <= 3600.3\nsquared_error = 138.81\nsamples = 11\nvalue = 3600.33", fillcolor="#fffefe"] ;
51 -> 71 ;
72 [label="sum_lock_weight <= 455043792.0\nsquared_error = 32.96\nsamples = 5\nvalue = 3588.96", fillcolor="#fffefe"] ;
71 -> 72 ;
73 [label="addresses_active_count <= 549591.5\nsquared_error = 5.29\nsamples = 2\nvalue = 3594.9", fillcolor="#fffefe"] ;
72 -> 73 ;
74 [label="squared_error = 0.0\nsamples = 1\nvalue = 3597.2", fillcolor="#fffefe"] ;
73 -> 74 ;
75 [label="squared_error = 0.0\nsamples = 1\nvalue = 3592.6", fillcolor="#fffefe"] ;
73 -> 75 ;
76 [label="XRP <= 0.32\nsquared_error = 12.21\nsamples = 3\nvalue = 3585.0", fillcolor="#fffefe"] ;
72 -> 76 ;
77 [label="squared_error = 0.0\nsamples = 1\nvalue = 3580.1", fillcolor="#fffefe"] ;
76 -> 77 ;
78 [label="BTC_high <= 3768.5\nsquared_error = 0.3\nsamples = 2\nvalue = 3587.45", fillcolor="#fffefe"] ;
76 -> 78 ;
79 [label="squared_error = 0.0\nsamples = 1\nvalue = 3588.0", fillcolor="#fffefe"] ;
78 -> 79 ;
80 [label="squared_error = 0.0\nsamples = 1\nvalue = 3586.9", fillcolor="#fffefe"] ;
78 -> 80 ;
81 [label="BTC_open <= 3608.65\nsquared_error = 29.61\nsamples = 6\nvalue = 3609.8", fillcolor="#fffefe"] ;
71 -> 81 ;
82 [label="DJI <= 11975.0\nsquared_error = 0.6\nsamples = 3\nvalue = 3604.67", fillcolor="#fffefe"] ;
81 -> 82 ;
83 [label="DOGE <= 0.0\nsquared_error = 0.2\nsamples = 2\nvalue = 3605.15", fillcolor="#fffefe"] ;
82 -> 83 ;
84 [label="squared_error = 0.0\nsamples = 1\nvalue = 3604.7", fillcolor="#fffefe"] ;
83 -> 84 ;
85 [label="squared_error = 0.0\nsamples = 1\nvalue = 3605.6", fillcolor="#fffefe"] ;
83 -> 85 ;
86 [label="squared_error = -0.0\nsamples = 1\nvalue = 3603.7", fillcolor="#fffefe"] ;
82 -> 86 ;
87 [label="BTC_open <= 3614.05\nsquared_error = 5.91\nsamples = 3\nvalue = 3614.93", fillcolor="#fffefe"] ;
81 -> 87 ;
88 [label="squared_error = 0.0\nsamples = 1\nvalue = 3611.5", fillcolor="#fffefe"] ;
87 -> 88 ;
89 [label="LTC <= 37.87\nsquared_error = 0.02\nsamples = 2\nvalue = 3616.65", fillcolor="#fffefe"] ;
87 -> 89 ;
90 [label="squared_error = 0.0\nsamples = 1\nvalue = 3616.5", fillcolor="#fffefe"] ;
89 -> 90 ;
91 [label="squared_error = 0.0\nsamples = 1\nvalue = 3616.8", fillcolor="#fffefe"] ;
89 -> 91 ;
92 [label="BTC_open <= 3672.15\nsquared_error = 815.73\nsamples = 14\nvalue = 3668.54", fillcolor="#fffefe"] ;
50 -> 92 ;
93 [label="BTC_high <= 3669.4\nsquared_error = 264.08\nsamples = 8\nvalue = 3647.95", fillcolor="#fffefe"] ;
92 -> 93 ;
94 [label="mean_tx_size_usd <= 4892.84\nsquared_error = 17.15\nsamples = 4\nvalue = 3632.08", fillcolor="#fffefe"] ;
93 -> 94 ;
95 [label="difficulty <= 5972753645568.0\nsquared_error = 6.73\nsamples = 3\nvalue = 3630.07", fillcolor="#fffefe"] ;
94 -> 95 ;
96 [label="squared_error = 0.0\nsamples = 1\nvalue = 3626.4", fillcolor="#fffefe"] ;
95 -> 96 ;
97 [label="DOGE <= 0.0\nsquared_error = 0.01\nsamples = 2\nvalue = 3631.9", fillcolor="#fffefe"] ;
95 -> 97 ;
98 [label="squared_error = 0.0\nsamples = 1\nvalue = 3631.8", fillcolor="#fffefe"] ;
97 -> 98 ;
99 [label="squared_error = 0.0\nsamples = 1\nvalue = 3632.0", fillcolor="#fffefe"] ;
97 -> 99 ;
100 [label="squared_error = -0.0\nsamples = 1\nvalue = 3638.1", fillcolor="#fffefe"] ;
94 -> 100 ;
101 [label="DOGE <= 0.0\nsquared_error = 6.99\nsamples = 4\nvalue = 3663.82", fillcolor="#fffefe"] ;
93 -> 101 ;
102 [label="BTC_low <= 3644.15\nsquared_error = 1.58\nsamples = 3\nvalue = 3662.43", fillcolor="#fffefe"] ;
101 -> 102 ;
103 [label="ETH <= 122.18\nsquared_error = 0.02\nsamples = 2\nvalue = 3661.55", fillcolor="#fffefe"] ;
102 -> 103 ;
104 [label="squared_error = 0.0\nsamples = 1\nvalue = 3661.7", fillcolor="#fffefe"] ;
103 -> 104 ;
105 [label="squared_error = -0.0\nsamples = 1\nvalue = 3661.4", fillcolor="#fffefe"] ;
103 -> 105 ;
106 [label="squared_error = 0.0\nsamples = 1\nvalue = 3664.2", fillcolor="#fffefe"] ;
102 -> 106 ;
107 [label="squared_error = 0.0\nsamples = 1\nvalue = 3668.0", fillcolor="#fffefe"] ;
101 -> 107 ;
108 [label="ETH <= 129.06\nsquared_error = 231.94\nsamples = 6\nvalue = 3696.0", fillcolor="#fffefe"] ;
92 -> 108 ;
109 [label="DOGE <= 0.0\nsquared_error = 17.06\nsamples = 3\nvalue = 3681.3", fillcolor="#fffefe"] ;
108 -> 109 ;
110 [label="mean_lock_size_ytes <= 959202.72\nsquared_error = 0.36\nsamples = 2\nvalue = 3678.4", fillcolor="#fffefe"] ;
109 -> 110 ;
111 [label="squared_error = 0.0\nsamples = 1\nvalue = 3677.8", fillcolor="#fffefe"] ;
110 -> 111 ;
112 [label="squared_error = 0.0\nsamples = 1\nvalue = 3679.0", fillcolor="#fffefe"] ;
110 -> 112 ;
113 [label="squared_error = -0.0\nsamples = 1\nvalue = 3687.1", fillcolor="#fffefe"] ;
109 -> 113 ;
114 [label="DOGE <= 0.0\nsquared_error = 14.65\nsamples = 3\nvalue = 3710.7", fillcolor="#fffefd"] ;
108 -> 114 ;
115 [label="squared_error = 0.0\nsamples = 1\nvalue = 3715.9", fillcolor="#fffefd"] ;
114 -> 115 ;
116 [label="xfer_cnt <= 482437.0\nsquared_error = 1.69\nsamples = 2\nvalue = 3708.1", fillcolor="#fffefd"] ;
114 -> 116 ;
117 [label="squared_error = 0.0\nsamples = 1\nvalue = 3709.4", fillcolor="#fffefd"] ;
116 -> 117 ;
118 [label="squared_error = -0.0\nsamples = 1\nvalue = 3706.8", fillcolor="#fffefd"] ;
116 -> 118 ;
119 [label="BTC_open <= 4011.7\nsquared_error = 18768.7\nsamples = 74\nvalue = 3953.53", fillcolor="#fffefd"] ;
5 -> 119 ;
120 [label="BTC_open <= 3891.15\nsquared_error = 5385.83\nsamples = 55\nvalue = 3890.49", fillcolor="#fffefd"] ;
119 -> 120 ;
121 [label="BTC_open <= 3828.35\nsquared_error = 1392.38\nsamples = 29\nvalue = 3829.54", fillcolor="#fffefd"] ;
120 -> 121 ;
122 [label="BTC_open <= 3789.55\nsquared_error = 455.59\nsamples = 15\nvalue = 3798.11", fillcolor="#fffefd"] ;
121 -> 122 ;
123 [label="BTC_open <= 3767.1\nsquared_error = 122.48\nsamples = 5\nvalue = 3770.96", fillcolor="#fffefd"] ;
122 -> 123 ;
124 [label="SILVER <= 15.48\nsquared_error = 13.32\nsamples = 2\nvalue = 3758.85", fillcolor="#fffefd"] ;
123 -> 124 ;
125 [label="squared_error = 0.0\nsamples = 1\nvalue = 3762.5", fillcolor="#fffefd"] ;
124 -> 125 ;
126 [label="squared_error = 0.0\nsamples = 1\nvalue = 3755.2", fillcolor="#fffefd"] ;
124 -> 126 ;
127 [label="total_fees_usd <= 87699.05\nsquared_error = 32.31\nsamples = 3\nvalue = 3779.03", fillcolor="#fffefd"] ;
123 -> 127 ;
128 [label="LTC <= 35.24\nsquared_error = 7.02\nsamples = 2\nvalue = 3782.75", fillcolor="#fffefd"] ;
127 -> 128 ;
129 [label="squared_error = 0.0\nsamples = 1\nvalue = 3780.1", fillcolor="#fffefd"] ;
128 -> 129 ;
130 [label="squared_error = 0.0\nsamples = 1\nvalue = 3785.4", fillcolor="#fffefd"] ;
128 -> 130 ;
131 [label="squared_error = 0.0\nsamples = 1\nvalue = 3771.6", fillcolor="#fffefd"] ;
127 -> 131 ;
132 [label="mean_lock_size_ytes <= 893449.03\nsquared_error = 69.44\nsamples = 10\nvalue = 3811.68", fillcolor="#fffefd"] ;
122 -> 132 ;
133 [label="addresses_active_count <= 571847.5\nsquared_error = 20.25\nsamples = 2\nvalue = 3798.2", fillcolor="#fffefd"] ;
132 -> 133 ;
134 [label="squared_error = 0.0\nsamples = 1\nvalue = 3802.7", fillcolor="#fffefd"] ;
133 -> 134 ;
135 [label="squared_error = -0.0\nsamples = 1\nvalue = 3793.7", fillcolor="#fffefd"] ;
133 -> 135 ;
136 [label="LTC <= 47.58\nsquared_error = 24.95\nsamples = 8\nvalue = 3815.05", fillcolor="#fffefd"] ;
132 -> 136 ;
137 [label="BTC_open <= 3812.45\nsquared_error = 8.48\nsamples = 6\nvalue = 3812.57", fillcolor="#fffefd"] ;
136 -> 137 ;
138 [label="mean_tx_size_usd <= 4530.29\nsquared_error = 0.16\nsamples = 3\nvalue = 3809.73", fillcolor="#fffefd"] ;
137 -> 138 ;
139 [label="squared_error = 0.0\nsamples = 1\nvalue = 3810.3", fillcolor="#fffefd"] ;
138 -> 139 ;
140 [label="BTC_high <= 3861.6\nsquared_error = 0.0\nsamples = 2\nvalue = 3809.45", fillcolor="#fffefd"] ;
138 -> 140 ;
141 [label="squared_error = 0.0\nsamples = 1\nvalue = 3809.5", fillcolor="#fffefd"] ;
140 -> 141 ;
142 [label="squared_error = 0.0\nsamples = 1\nvalue = 3809.4", fillcolor="#fffefd"] ;
140 -> 142 ;
143 [label="sum_lock_weight <= 560463168.0\nsquared_error = 0.75\nsamples = 3\nvalue = 3815.4", fillcolor="#fffefd"] ;
137 -> 143 ;
144 [label="SILVER <= 15.59\nsquared_error = 0.04\nsamples = 2\nvalue = 3814.8", fillcolor="#fffefd"] ;
143 -> 144 ;
145 [label="squared_error = 0.0\nsamples = 1\nvalue = 3815.0", fillcolor="#fffefd"] ;
144 -> 145 ;
146 [label="squared_error = -0.0\nsamples = 1\nvalue = 3814.6", fillcolor="#fffefd"] ;
144 -> 146 ;
147 [label="squared_error = -0.0\nsamples = 1\nvalue = 3816.6", fillcolor="#fffefd"] ;
143 -> 147 ;
148 [label="XRP <= 0.31\nsquared_error = 0.36\nsamples = 2\nvalue = 3822.5", fillcolor="#fffefd"] ;
136 -> 148 ;
149 [label="squared_error = 0.0\nsamples = 1\nvalue = 3823.1", fillcolor="#fffefd"] ;
148 -> 149 ;
150 [label="squared_error = -0.0\nsamples = 1\nvalue = 3821.9", fillcolor="#fffefd"] ;
148 -> 150 ;
151 [label="BTC_open <= 3854.05\nsquared_error = 203.02\nsamples = 14\nvalue = 3863.22", fillcolor="#fffefd"] ;
121 -> 151 ;
152 [label="LTC <= 31.55\nsquared_error = 55.55\nsamples = 3\nvalue = 3840.53", fillcolor="#fffefd"] ;
151 -> 152 ;
153 [label="squared_error = 0.0\nsamples = 1\nvalue = 3850.9", fillcolor="#fffefd"] ;
152 -> 153 ;
154 [label="total_fees_usd <= 136133.59\nsquared_error = 2.72\nsamples = 2\nvalue = 3835.35", fillcolor="#fffefd"] ;
152 -> 154 ;
155 [label="squared_error = 0.0\nsamples = 1\nvalue = 3833.7", fillcolor="#fffefd"] ;
154 -> 155 ;
156 [label="squared_error = -0.0\nsamples = 1\nvalue = 3837.0", fillcolor="#fffefd"] ;
154 -> 156 ;
157 [label="BTC_open <= 3872.2\nsquared_error = 64.56\nsamples = 11\nvalue = 3869.41", fillcolor="#fffefd"] ;
151 -> 157 ;
158 [label="BTC_open <= 3864.1\nsquared_error = 14.77\nsamples = 7\nvalue = 3864.23", fillcolor="#fffefd"] ;
157 -> 158 ;
159 [label="DJI <= 25566.5\nsquared_error = 6.11\nsamples = 3\nvalue = 3860.6", fillcolor="#fffefd"] ;
158 -> 159 ;
160 [label="difficulty <= 5589134475264.0\nsquared_error = 0.49\nsamples = 2\nvalue = 3862.3", fillcolor="#fffefd"] ;
159 -> 160 ;
161 [label="squared_error = 0.0\nsamples = 1\nvalue = 3861.6", fillcolor="#fffefd"] ;
160 -> 161 ;
162 [label="squared_error = -0.0\nsamples = 1\nvalue = 3863.0", fillcolor="#fffefd"] ;
160 -> 162 ;
163 [label="squared_error = -0.0\nsamples = 1\nvalue = 3857.2", fillcolor="#fffefd"] ;
159 -> 163 ;
164 [label="BTC_open <= 3868.35\nsquared_error = 3.99\nsamples = 4\nvalue = 3866.95", fillcolor="#fffefd"] ;
158 -> 164 ;
165 [label="SILVER <= 14.77\nsquared_error = 0.33\nsamples = 3\nvalue = 3865.83", fillcolor="#fffefd"] ;
164 -> 165 ;
166 [label="BTC_low <= 3863.05\nsquared_error = 0.09\nsamples = 2\nvalue = 3866.2", fillcolor="#fffefd"] ;
165 -> 166 ;
167 [label="squared_error = 0.0\nsamples = 1\nvalue = 3865.9", fillcolor="#fffefd"] ;
166 -> 167 ;
168 [label="squared_error = 0.0\nsamples = 1\nvalue = 3866.5", fillcolor="#fffefd"] ;
166 -> 168 ;
169 [label="squared_error = -0.0\nsamples = 1\nvalue = 3865.1", fillcolor="#fffefd"] ;
165 -> 169 ;
170 [label="squared_error = -0.0\nsamples = 1\nvalue = 3870.3", fillcolor="#fffefd"] ;
164 -> 170 ;
171 [label="mean_lock_size_ytes <= 1076454.34\nsquared_error = 22.54\nsamples = 4\nvalue = 3878.48", fillcolor="#fffefd"] ;
157 -> 171 ;
172 [label="SILVER <= 15.34\nsquared_error = 4.88\nsamples = 3\nvalue = 3875.97", fillcolor="#fffefd"] ;
171 -> 172 ;
173 [label="squared_error = 0.0\nsamples = 1\nvalue = 3879.0", fillcolor="#fffefd"] ;
172 -> 173 ;
174 [label="addresses_active_count <= 648611.0\nsquared_error = 0.42\nsamples = 2\nvalue = 3874.45", fillcolor="#fffefd"] ;
172 -> 174 ;
175 [label="squared_error = 0.0\nsamples = 1\nvalue = 3873.8", fillcolor="#fffefd"] ;
174 -> 175 ;
176 [label="squared_error = 0.0\nsamples = 1\nvalue = 3875.1", fillcolor="#fffefd"] ;
174 -> 176 ;
177 [label="squared_error = 0.0\nsamples = 1\nvalue = 3886.0", fillcolor="#fffefd"] ;
171 -> 177 ;
178 [label="BTC_open <= 3951.3\nsquared_error = 1073.96\nsamples = 26\nvalue = 3958.48", fillcolor="#fffefd"] ;
120 -> 178 ;
179 [label="BTC_open <= 3930.75\nsquared_error = 286.99\nsamples = 11\nvalue = 3924.83", fillcolor="#fffefd"] ;
178 -> 179 ;
180 [label="BTC_open <= 3907.1\nsquared_error = 115.39\nsamples = 6\nvalue = 3911.33", fillcolor="#fffefd"] ;
179 -> 180 ;
181 [label="DOGE <= 0.0\nsquared_error = 0.81\nsamples = 2\nvalue = 3896.9", fillcolor="#fffefd"] ;
180 -> 181 ;
182 [label="squared_error = 0.0\nsamples = 1\nvalue = 3896.0", fillcolor="#fffefd"] ;
181 -> 182 ;
183 [label="squared_error = 0.0\nsamples = 1\nvalue = 3897.8", fillcolor="#fffefd"] ;
181 -> 183 ;
184 [label="BTC_open <= 3917.75\nsquared_error = 16.44\nsamples = 4\nvalue = 3918.55", fillcolor="#fffefd"] ;
180 -> 184 ;
185 [label="SPX <= 2784.0\nsquared_error = 0.2\nsamples = 2\nvalue = 3914.75", fillcolor="#fffefd"] ;
184 -> 185 ;
186 [label="squared_error = 0.0\nsamples = 1\nvalue = 3915.2", fillcolor="#fffefd"] ;
185 -> 186 ;
187 [label="squared_error = 0.0\nsamples = 1\nvalue = 3914.3", fillcolor="#fffefd"] ;
185 -> 187 ;
188 [label="XRP <= 0.35\nsquared_error = 3.8\nsamples = 2\nvalue = 3922.35", fillcolor="#fffefd"] ;
184 -> 188 ;
189 [label="squared_error = 0.0\nsamples = 1\nvalue = 3924.3", fillcolor="#fffefd"] ;
188 -> 189 ;
190 [label="squared_error = -0.0\nsamples = 1\nvalue = 3920.4", fillcolor="#fffefd"] ;
188 -> 190 ;
191 [label="BTC_open <= 3940.1\nsquared_error = 12.21\nsamples = 5\nvalue = 3941.02", fillcolor="#fffefd"] ;
179 -> 191 ;
192 [label="BTC_open <= 3937.25\nsquared_error = 0.04\nsamples = 2\nvalue = 3936.8", fillcolor="#fffefd"] ;
191 -> 192 ;
193 [label="squared_error = 0.0\nsamples = 1\nvalue = 3937.0", fillcolor="#fffefd"] ;
192 -> 193 ;
194 [label="squared_error = -0.0\nsamples = 1\nvalue = 3936.6", fillcolor="#fffefd"] ;
192 -> 194 ;
195 [label="SILVER <= 15.03\nsquared_error = 0.54\nsamples = 3\nvalue = 3943.83", fillcolor="#fffefd"] ;
191 -> 195 ;
196 [label="total_fees_usd <= 84795.66\nsquared_error = 0.0\nsamples = 2\nvalue = 3944.35", fillcolor="#fffefd"] ;
195 -> 196 ;
197 [label="squared_error = 0.0\nsamples = 1\nvalue = 3944.3", fillcolor="#fffefd"] ;
196 -> 197 ;
198 [label="squared_error = -0.0\nsamples = 1\nvalue = 3944.4", fillcolor="#fffefd"] ;
196 -> 198 ;
199 [label="squared_error = 0.0\nsamples = 1\nvalue = 3942.8", fillcolor="#fffefd"] ;
195 -> 199 ;
200 [label="BTC_open <= 3984.0\nsquared_error = 211.46\nsamples = 15\nvalue = 3983.16", fillcolor="#fffdfd"] ;
178 -> 200 ;
201 [label="SPX <= 1292.48\nsquared_error = 64.59\nsamples = 8\nvalue = 3971.65", fillcolor="#fffefd"] ;
200 -> 201 ;
202 [label="LTC <= 31.19\nsquared_error = 8.93\nsamples = 3\nvalue = 3962.7", fillcolor="#fffefd"] ;
201 -> 202 ;
203 [label="squared_error = 0.0\nsamples = 1\nvalue = 3958.5", fillcolor="#fffefd"] ;
202 -> 203 ;
204 [label="BTC_high <= 4094.85\nsquared_error = 0.16\nsamples = 2\nvalue = 3964.8", fillcolor="#fffefd"] ;
202 -> 204 ;
205 [label="squared_error = 0.0\nsamples = 1\nvalue = 3964.4", fillcolor="#fffefd"] ;
204 -> 205 ;
206 [label="squared_error = -0.0\nsamples = 1\nvalue = 3965.2", fillcolor="#fffefd"] ;
204 -> 206 ;
207 [label="xfer_cnt <= 645383.0\nsquared_error = 21.09\nsamples = 5\nvalue = 3977.02", fillcolor="#fffdfd"] ;
201 -> 207 ;
208 [label="mean_tx_size_usd <= 4590.72\nsquared_error = 0.49\nsamples = 2\nvalue = 3971.7", fillcolor="#fffefd"] ;
207 -> 208 ;
209 [label="squared_error = 0.0\nsamples = 1\nvalue = 3972.4", fillcolor="#fffefd"] ;
208 -> 209 ;
210 [label="squared_error = 0.0\nsamples = 1\nvalue = 3971.0", fillcolor="#fffefd"] ;
208 -> 210 ;
211 [label="BTC_open <= 3980.2\nsquared_error = 3.38\nsamples = 3\nvalue = 3980.57", fillcolor="#fffdfd"] ;
207 -> 211 ;
212 [label="squared_error = 0.0\nsamples = 1\nvalue = 3978.0", fillcolor="#fffdfd"] ;
211 -> 212 ;
213 [label="JP225 <= 21375.0\nsquared_error = 0.12\nsamples = 2\nvalue = 3981.85", fillcolor="#fffdfd"] ;
211 -> 213 ;
214 [label="squared_error = 0.0\nsamples = 1\nvalue = 3982.2", fillcolor="#fffdfd"] ;
213 -> 214 ;
215 [label="squared_error = -0.0\nsamples = 1\nvalue = 3981.5", fillcolor="#fffdfd"] ;
213 -> 215 ;
216 [label="BTC_open <= 3998.7\nsquared_error = 54.86\nsamples = 7\nvalue = 3996.31", fillcolor="#fffdfd"] ;
200 -> 216 ;
217 [label="ETH <= 135.89\nsquared_error = 9.69\nsamples = 4\nvalue = 3990.3", fillcolor="#fffdfd"] ;
216 -> 217 ;
218 [label="squared_error = 0.0\nsamples = 1\nvalue = 3994.7", fillcolor="#fffdfd"] ;
217 -> 218 ;
219 [label="XRP <= 0.34\nsquared_error = 4.31\nsamples = 3\nvalue = 3988.83", fillcolor="#fffdfd"] ;
217 -> 219 ;
220 [label="xfer_cnt <= 613508.5\nsquared_error = 0.01\nsamples = 2\nvalue = 3990.3", fillcolor="#fffdfd"] ;
219 -> 220 ;
221 [label="squared_error = 0.0\nsamples = 1\nvalue = 3990.4", fillcolor="#fffdfd"] ;
220 -> 221 ;
222 [label="squared_error = -0.0\nsamples = 1\nvalue = 3990.2", fillcolor="#fffdfd"] ;
220 -> 222 ;
223 [label="squared_error = 0.0\nsamples = 1\nvalue = 3985.9", fillcolor="#fffdfd"] ;
219 -> 223 ;
224 [label="addresses_active_count <= 559114.5\nsquared_error = 2.56\nsamples = 3\nvalue = 4004.33", fillcolor="#fffdfd"] ;
216 -> 224 ;
225 [label="squared_error = 0.0\nsamples = 1\nvalue = 4006.4", fillcolor="#fffdfd"] ;
224 -> 225 ;
226 [label="COPPER <= 1.32\nsquared_error = 0.64\nsamples = 2\nvalue = 4003.3", fillcolor="#fffdfd"] ;
224 -> 226 ;
227 [label="squared_error = 0.0\nsamples = 1\nvalue = 4002.5", fillcolor="#fffdfd"] ;
226 -> 227 ;
228 [label="squared_error = -0.0\nsamples = 1\nvalue = 4004.1", fillcolor="#fffdfd"] ;
226 -> 228 ;
229 [label="BTC_open <= 4230.85\nsquared_error = 12714.99\nsamples = 19\nvalue = 4135.99", fillcolor="#fffdfc"] ;
119 -> 229 ;
230 [label="BTC_open <= 4088.75\nsquared_error = 2819.57\nsamples = 15\nvalue = 4084.53", fillcolor="#fffdfc"] ;
229 -> 230 ;
231 [label="mean_hash_rate <= 38536342.0\nsquared_error = 338.94\nsamples = 8\nvalue = 4041.19", fillcolor="#fffdfc"] ;
230 -> 231 ;
232 [label="SILVER <= 14.45\nsquared_error = 47.61\nsamples = 2\nvalue = 4069.1", fillcolor="#fffdfc"] ;
231 -> 232 ;
233 [label="squared_error = 0.0\nsamples = 1\nvalue = 4062.2", fillcolor="#fffdfc"] ;
232 -> 233 ;
234 [label="squared_error = -0.0\nsamples = 1\nvalue = 4076.0", fillcolor="#fffdfc"] ;
232 -> 234 ;
235 [label="BTC_open <= 4032.2\nsquared_error = 89.78\nsamples = 6\nvalue = 4031.88", fillcolor="#fffdfc"] ;
231 -> 235 ;
236 [label="mean_tx_size_usd <= 4554.24\nsquared_error = 17.45\nsamples = 3\nvalue = 4022.9", fillcolor="#fffdfc"] ;
235 -> 236 ;
237 [label="difficulty <= 5742844182528.0\nsquared_error = 0.06\nsamples = 2\nvalue = 4025.85", fillcolor="#fffdfc"] ;
236 -> 237 ;
238 [label="squared_error = 0.0\nsamples = 1\nvalue = 4026.1", fillcolor="#fffdfc"] ;
237 -> 238 ;
239 [label="squared_error = 0.0\nsamples = 1\nvalue = 4025.6", fillcolor="#fffdfc"] ;
237 -> 239 ;
240 [label="squared_error = 0.0\nsamples = 1\nvalue = 4017.0", fillcolor="#fffdfd"] ;
236 -> 240 ;
241 [label="difficulty <= 6516284325888.0\nsquared_error = 0.72\nsamples = 3\nvalue = 4040.87", fillcolor="#fffdfc"] ;
235 -> 241 ;
242 [label="DOGE <= 0.0\nsquared_error = 0.06\nsamples = 2\nvalue = 4041.45", fillcolor="#fffdfc"] ;
241 -> 242 ;
243 [label="squared_error = 0.0\nsamples = 1\nvalue = 4041.2", fillcolor="#fffdfc"] ;
242 -> 243 ;
244 [label="squared_error = 0.0\nsamples = 1\nvalue = 4041.7", fillcolor="#fffdfc"] ;
242 -> 244 ;
245 [label="squared_error = -0.0\nsamples = 1\nvalue = 4039.7", fillcolor="#fffdfc"] ;
241 -> 245 ;
246 [label="XRP <= 0.33\nsquared_error = 1054.7\nsamples = 7\nvalue = 4134.06", fillcolor="#fffdfc"] ;
230 -> 246 ;
247 [label="XRP <= 0.31\nsquared_error = 57.2\nsamples = 4\nvalue = 4109.18", fillcolor="#fffdfc"] ;
246 -> 247 ;
248 [label="total_fees_usd <= 145068.15\nsquared_error = 18.49\nsamples = 2\nvalue = 4116.1", fillcolor="#fffdfc"] ;
247 -> 248 ;
249 [label="squared_error = 0.0\nsamples = 1\nvalue = 4120.4", fillcolor="#fffdfc"] ;
248 -> 249 ;
250 [label="squared_error = -0.0\nsamples = 1\nvalue = 4111.8", fillcolor="#fffdfc"] ;
248 -> 250 ;
251 [label="XRP <= 0.31\nsquared_error = 0.0\nsamples = 2\nvalue = 4102.25", fillcolor="#fffdfc"] ;
247 -> 251 ;
252 [label="squared_error = 0.0\nsamples = 1\nvalue = 4102.2", fillcolor="#fffdfc"] ;
251 -> 252 ;
253 [label="squared_error = 0.0\nsamples = 1\nvalue = 4102.3", fillcolor="#fffdfc"] ;
251 -> 253 ;
254 [label="BTC_open <= 4178.25\nsquared_error = 458.55\nsamples = 3\nvalue = 4167.23", fillcolor="#fffdfc"] ;
246 -> 254 ;
255 [label="BTC_open <= 4152.7\nsquared_error = 58.52\nsamples = 2\nvalue = 4152.75", fillcolor="#fffdfc"] ;
254 -> 255 ;
256 [label="squared_error = 0.0\nsamples = 1\nvalue = 4145.1", fillcolor="#fffdfc"] ;
255 -> 256 ;
257 [label="squared_error = 0.0\nsamples = 1\nvalue = 4160.4", fillcolor="#fffdfc"] ;
255 -> 257 ;
258 [label="squared_error = -0.0\nsamples = 1\nvalue = 4196.2", fillcolor="#fffdfc"] ;
254 -> 258 ;
259 [label="total_fees_usd <= 157651.53\nsquared_error = 2647.8\nsamples = 4\nvalue = 4328.98", fillcolor="#fffdfc"] ;
229 -> 259 ;
260 [label="SPX <= 1316.28\nsquared_error = 441.0\nsamples = 2\nvalue = 4377.0", fillcolor="#fffdfb"] ;
259 -> 260 ;
261 [label="squared_error = 0.0\nsamples = 1\nvalue = 4398.0", fillcolor="#fffdfb"] ;
260 -> 261 ;
262 [label="squared_error = 0.0\nsamples = 1\nvalue = 4356.0", fillcolor="#fffdfb"] ;
260 -> 262 ;
263 [label="JP225 <= 22300.0\nsquared_error = 241.8\nsamples = 2\nvalue = 4280.95", fillcolor="#fffdfc"] ;
259 -> 263 ;
264 [label="squared_error = 0.0\nsamples = 1\nvalue = 4265.4", fillcolor="#fffdfc"] ;
263 -> 264 ;
265 [label="squared_error = 0.0\nsamples = 1\nvalue = 4296.5", fillcolor="#fffdfc"] ;
263 -> 265 ;
266 [label="BTC_open <= 5094.65\nsquared_error = 39804.16\nsamples = 37\nvalue = 5130.62", fillcolor="#fefbf9"] ;
4 -> 266 ;
267 [label="xfer_cnt <= 615572.0\nsquared_error = 24757.41\nsamples = 14\nvalue = 4917.91", fillcolor="#fefcfa"] ;
266 -> 267 ;
268 [label="SPX <= 1324.96\nsquared_error = 3254.7\nsamples = 2\nvalue = 4581.65", fillcolor="#fefcfb"] ;
267 -> 268 ;
269 [label="squared_error = 0.0\nsamples = 1\nvalue = 4638.7", fillcolor="#fefcfb"] ;
268 -> 269 ;
270 [label="squared_error = 0.0\nsamples = 1\nvalue = 4524.6", fillcolor="#fefcfb"] ;
268 -> 270 ;
271 [label="BTC_open <= 4935.6\nsquared_error = 6354.65\nsamples = 12\nvalue = 4973.96", fillcolor="#fefbf9"] ;
267 -> 271 ;
272 [label="XRP <= 0.35\nsquared_error = 818.16\nsamples = 4\nvalue = 4867.88", fillcolor="#fefcfa"] ;
271 -> 272 ;
273 [label="SPX <= 2792.21\nsquared_error = 277.22\nsamples = 2\nvalue = 4842.65", fillcolor="#fefcfa"] ;
272 -> 273 ;
274 [label="squared_error = 0.0\nsamples = 1\nvalue = 4826.0", fillcolor="#fefcfa"] ;
273 -> 274 ;
275 [label="squared_error = 0.0\nsamples = 1\nvalue = 4859.3", fillcolor="#fefcfa"] ;
273 -> 275 ;
276 [label="difficulty <= 6516284325888.0\nsquared_error = 86.49\nsamples = 2\nvalue = 4893.1", fillcolor="#fefcfa"] ;
272 -> 276 ;
277 [label="squared_error = 0.0\nsamples = 1\nvalue = 4902.4", fillcolor="#fefcfa"] ;
276 -> 277 ;
278 [label="squared_error = -0.0\nsamples = 1\nvalue = 4883.8", fillcolor="#fefcfa"] ;
276 -> 278 ;
279 [label="BTC_open <= 4989.35\nsquared_error = 682.64\nsamples = 8\nvalue = 5027.0", fillcolor="#fefbf9"] ;
271 -> 279 ;
280 [label="squared_error = 0.0\nsamples = 1\nvalue = 4968.7", fillcolor="#fefcfa"] ;
279 -> 280 ;
281 [label="addresses_active_count <= 650503.0\nsquared_error = 225.24\nsamples = 7\nvalue = 5035.33", fillcolor="#fefbf9"] ;
279 -> 281 ;
282 [label="LTC <= 87.44\nsquared_error = 11.24\nsamples = 3\nvalue = 5050.73", fillcolor="#fefbf9"] ;
281 -> 282 ;
283 [label="BTC_high <= 5123.45\nsquared_error = 1.44\nsamples = 2\nvalue = 5053.0", fillcolor="#fefbf9"] ;
282 -> 283 ;
284 [label="squared_error = 0.0\nsamples = 1\nvalue = 5054.2", fillcolor="#fefbf9"] ;
283 -> 284 ;
285 [label="squared_error = -0.0\nsamples = 1\nvalue = 5051.8", fillcolor="#fefbf9"] ;
283 -> 285 ;
286 [label="squared_error = -0.0\nsamples = 1\nvalue = 5046.2", fillcolor="#fefbf9"] ;
282 -> 286 ;
287 [label="DOGE <= 0.0\nsquared_error = 74.27\nsamples = 4\nvalue = 5023.77", fillcolor="#fefbf9"] ;
281 -> 287 ;
288 [label="SPX <= 2907.23\nsquared_error = 17.13\nsamples = 3\nvalue = 5028.3", fillcolor="#fefbf9"] ;
287 -> 288 ;
289 [label="ETH <= 140.85\nsquared_error = 1.32\nsamples = 2\nvalue = 5031.15", fillcolor="#fefbf9"] ;
288 -> 289 ;
290 [label="squared_error = 0.0\nsamples = 1\nvalue = 5030.0", fillcolor="#fefbf9"] ;
289 -> 290 ;
291 [label="squared_error = 0.0\nsamples = 1\nvalue = 5032.3", fillcolor="#fefbf9"] ;
289 -> 291 ;
292 [label="squared_error = 0.0\nsamples = 1\nvalue = 5022.6", fillcolor="#fefbf9"] ;
288 -> 292 ;
293 [label="squared_error = -0.0\nsamples = 1\nvalue = 5010.2", fillcolor="#fefbf9"] ;
287 -> 293 ;
294 [label="BTC_open <= 5277.95\nsquared_error = 4659.45\nsamples = 23\nvalue = 5260.1", fillcolor="#fefbf9"] ;
266 -> 294 ;
295 [label="BTC_open <= 5222.3\nsquared_error = 1687.1\nsamples = 14\nvalue = 5214.59", fillcolor="#fefbf9"] ;
294 -> 295 ;
296 [label="BTC_open <= 5165.95\nsquared_error = 597.87\nsamples = 7\nvalue = 5178.26", fillcolor="#fefbf9"] ;
295 -> 296 ;
297 [label="GOLD <= 1302.6\nsquared_error = 139.24\nsamples = 2\nvalue = 5146.6", fillcolor="#fefbf9"] ;
296 -> 297 ;
298 [label="squared_error = 0.0\nsamples = 1\nvalue = 5134.8", fillcolor="#fefbf9"] ;
297 -> 298 ;
299 [label="squared_error = -0.0\nsamples = 1\nvalue = 5158.4", fillcolor="#fefbf9"] ;
297 -> 299 ;
300 [label="xfer_cnt <= 788863.0\nsquared_error = 220.11\nsamples = 5\nvalue = 5190.92", fillcolor="#fefbf9"] ;
296 -> 300 ;
301 [label="addresses_active_count <= 756920.0\nsquared_error = 15.48\nsamples = 3\nvalue = 5179.07", fillcolor="#fefbf9"] ;
300 -> 301 ;
302 [label="XRP <= 0.24\nsquared_error = 0.81\nsamples = 2\nvalue = 5181.8", fillcolor="#fefbf9"] ;
301 -> 302 ;
303 [label="squared_error = 0.0\nsamples = 1\nvalue = 5182.7", fillcolor="#fefbf9"] ;
302 -> 303 ;
304 [label="squared_error = 0.0\nsamples = 1\nvalue = 5180.9", fillcolor="#fefbf9"] ;
302 -> 304 ;
305 [label="squared_error = 0.0\nsamples = 1\nvalue = 5173.6", fillcolor="#fefbf9"] ;
301 -> 305 ;
306 [label="DJI <= 26541.5\nsquared_error = 0.16\nsamples = 2\nvalue = 5208.7", fillcolor="#fefbf9"] ;
300 -> 306 ;
307 [label="squared_error = 0.0\nsamples = 1\nvalue = 5209.1", fillcolor="#fefbf9"] ;
306 -> 307 ;
308 [label="squared_error = -0.0\nsamples = 1\nvalue = 5208.3", fillcolor="#fefbf9"] ;
306 -> 308 ;
309 [label="mean_hash_rate <= 46259478.0\nsquared_error = 136.79\nsamples = 7\nvalue = 5250.91", fillcolor="#fefbf9"] ;
295 -> 309 ;
310 [label="mean_lock_size_ytes <= 1274552.44\nsquared_error = 14.94\nsamples = 4\nvalue = 5241.18", fillcolor="#fefbf9"] ;
309 -> 310 ;
311 [label="total_fees_usd <= 348690.91\nsquared_error = 2.98\nsamples = 3\nvalue = 5243.23", fillcolor="#fefbf9"] ;
310 -> 311 ;
312 [label="squared_error = 0.0\nsamples = 1\nvalue = 5241.0", fillcolor="#fefbf9"] ;
311 -> 312 ;
313 [label="ETH <= 172.98\nsquared_error = 0.72\nsamples = 2\nvalue = 5244.35", fillcolor="#fefbf9"] ;
311 -> 313 ;
314 [label="squared_error = 0.0\nsamples = 1\nvalue = 5243.5", fillcolor="#fefbf9"] ;
313 -> 314 ;
315 [label="squared_error = -0.0\nsamples = 1\nvalue = 5245.2", fillcolor="#fefbf9"] ;
313 -> 315 ;
316 [label="squared_error = 0.0\nsamples = 1\nvalue = 5235.0", fillcolor="#fefbf9"] ;
310 -> 316 ;
317 [label="DJI <= 9990.5\nsquared_error = 4.16\nsamples = 3\nvalue = 5263.9", fillcolor="#fefbf9"] ;
309 -> 317 ;
318 [label="BTC_low <= 5213.25\nsquared_error = 0.36\nsamples = 2\nvalue = 5265.3", fillcolor="#fefbf9"] ;
317 -> 318 ;
319 [label="squared_error = 0.0\nsamples = 1\nvalue = 5264.7", fillcolor="#fefbf9"] ;
318 -> 319 ;
320 [label="squared_error = 0.0\nsamples = 1\nvalue = 5265.9", fillcolor="#fefbf9"] ;
318 -> 320 ;
321 [label="squared_error = 0.0\nsamples = 1\nvalue = 5261.1", fillcolor="#fefbf9"] ;
317 -> 321 ;
322 [label="BTC_open <= 5333.8\nsquared_error = 1049.64\nsamples = 9\nvalue = 5330.89", fillcolor="#fefbf8"] ;
294 -> 322 ;
323 [label="GOLD <= 1282.85\nsquared_error = 104.49\nsamples = 5\nvalue = 5303.88", fillcolor="#fefbf8"] ;
322 -> 323 ;
324 [label="DOGE <= 0.0\nsquared_error = 25.34\nsamples = 3\nvalue = 5296.93", fillcolor="#fefbf8"] ;
323 -> 324 ;
325 [label="DJI <= 13274.0\nsquared_error = 4.0\nsamples = 2\nvalue = 5300.3", fillcolor="#fefbf8"] ;
324 -> 325 ;
326 [label="squared_error = 0.0\nsamples = 1\nvalue = 5298.3", fillcolor="#fefbf8"] ;
325 -> 326 ;
327 [label="squared_error = 0.0\nsamples = 1\nvalue = 5302.3", fillcolor="#fefbf8"] ;
325 -> 327 ;
328 [label="squared_error = -0.0\nsamples = 1\nvalue = 5290.2", fillcolor="#fefbf8"] ;
324 -> 328 ;
329 [label="mean_lock_size_ytes <= 1163616.19\nsquared_error = 42.25\nsamples = 2\nvalue = 5314.3", fillcolor="#fefbf8"] ;
323 -> 329 ;
330 [label="squared_error = 0.0\nsamples = 1\nvalue = 5320.8", fillcolor="#fefbf8"] ;
329 -> 330 ;
331 [label="squared_error = 0.0\nsamples = 1\nvalue = 5307.8", fillcolor="#fefbf8"] ;
329 -> 331 ;
332 [label="sum_lock_weight <= 567894160.0\nsquared_error = 179.42\nsamples = 4\nvalue = 5364.65", fillcolor="#fefbf8"] ;
322 -> 332 ;
333 [label="BTC_low <= 5273.7\nsquared_error = 69.36\nsamples = 3\nvalue = 5358.13", fillcolor="#fefbf8"] ;
332 -> 333 ;
334 [label="SPX <= 2397.76\nsquared_error = 6.0\nsamples = 2\nvalue = 5363.85", fillcolor="#fefbf8"] ;
333 -> 334 ;
335 [label="squared_error = 0.0\nsamples = 1\nvalue = 5366.3", fillcolor="#fefbf8"] ;
334 -> 335 ;
336 [label="squared_error = -0.0\nsamples = 1\nvalue = 5361.4", fillcolor="#fefbf8"] ;
334 -> 336 ;
337 [label="squared_error = -0.0\nsamples = 1\nvalue = 5346.7", fillcolor="#fefbf8"] ;
333 -> 337 ;
338 [label="squared_error = -0.0\nsamples = 1\nvalue = 5384.2", fillcolor="#fefbf8"] ;
332 -> 338 ;
339 [label="BTC_open <= 6758.8\nsquared_error = 285438.48\nsamples = 149\nvalue = 6746.5", fillcolor="#fef8f4"] ;
3 -> 339 ;
340 [label="BTC_open <= 6081.05\nsquared_error = 124035.09\nsamples = 78\nvalue = 6320.07", fillcolor="#fef9f5"] ;
339 -> 340 ;
341 [label="BTC_open <= 5691.95\nsquared_error = 22829.77\nsamples = 17\nvalue = 5714.88", fillcolor="#fefaf7"] ;
340 -> 341 ;
342 [label="total_fees_usd <= 368004.69\nsquared_error = 6779.29\nsamples = 7\nvalue = 5560.23", fillcolor="#fefaf8"] ;
341 -> 342 ;
343 [label="DOGE <= 0.0\nsquared_error = 725.24\nsamples = 4\nvalue = 5625.15", fillcolor="#fefaf7"] ;
342 -> 343 ;
344 [label="squared_error = 0.0\nsamples = 1\nvalue = 5584.3", fillcolor="#fefaf8"] ;
343 -> 344 ;
345 [label="DOGE <= 0.0\nsquared_error = 225.34\nsamples = 3\nvalue = 5638.77", fillcolor="#fefaf7"] ;
343 -> 345 ;
346 [label="squared_error = 0.0\nsamples = 1\nvalue = 5658.3", fillcolor="#fefaf7"] ;
345 -> 346 ;
347 [label="BTC_open <= 5628.6\nsquared_error = 51.84\nsamples = 2\nvalue = 5629.0", fillcolor="#fefaf7"] ;
345 -> 347 ;
348 [label="squared_error = 0.0\nsamples = 1\nvalue = 5621.8", fillcolor="#fefaf7"] ;
347 -> 348 ;
349 [label="squared_error = 0.0\nsamples = 1\nvalue = 5636.2", fillcolor="#fefaf7"] ;
347 -> 349 ;
350 [label="addresses_active_count <= 777664.5\nsquared_error = 1738.68\nsamples = 3\nvalue = 5473.67", fillcolor="#fefaf8"] ;
342 -> 350 ;
351 [label="squared_error = 0.0\nsamples = 1\nvalue = 5415.6", fillcolor="#fefbf8"] ;
350 -> 351 ;
352 [label="LTC <= 76.02\nsquared_error = 79.21\nsamples = 2\nvalue = 5502.7", fillcolor="#fefaf8"] ;
350 -> 352 ;
353 [label="squared_error = 0.0\nsamples = 1\nvalue = 5511.6", fillcolor="#fefaf8"] ;
352 -> 353 ;
354 [label="squared_error = -0.0\nsamples = 1\nvalue = 5493.8", fillcolor="#fefaf8"] ;
352 -> 354 ;
355 [label="BTC_low <= 5835.8\nsquared_error = 5605.1\nsamples = 10\nvalue = 5823.13", fillcolor="#fefaf7"] ;
341 -> 355 ;
356 [label="BTC_open <= 5798.55\nsquared_error = 2088.71\nsamples = 8\nvalue = 5793.82", fillcolor="#fefaf7"] ;
355 -> 356 ;
357 [label="mean_tx_size_usd <= 5644.12\nsquared_error = 471.34\nsamples = 4\nvalue = 5751.42", fillcolor="#fefaf7"] ;
356 -> 357 ;
358 [label="BTC_low <= 5617.75\nsquared_error = 16.4\nsamples = 2\nvalue = 5770.85", fillcolor="#fefaf7"] ;
357 -> 358 ;
359 [label="squared_error = 0.0\nsamples = 1\nvalue = 5766.8", fillcolor="#fefaf7"] ;
358 -> 359 ;
360 [label="squared_error = -0.0\nsamples = 1\nvalue = 5774.9", fillcolor="#fefaf7"] ;
358 -> 360 ;
361 [label="LTC <= 58.76\nsquared_error = 171.61\nsamples = 2\nvalue = 5732.0", fillcolor="#fefaf7"] ;
357 -> 361 ;
362 [label="squared_error = 0.0\nsamples = 1\nvalue = 5718.9", fillcolor="#fefaf7"] ;
361 -> 362 ;
363 [label="squared_error = -0.0\nsamples = 1\nvalue = 5745.1", fillcolor="#fefaf7"] ;
361 -> 363 ;
364 [label="BTC_open <= 5840.1\nsquared_error = 110.56\nsamples = 4\nvalue = 5836.22", fillcolor="#fefaf7"] ;
356 -> 364 ;
365 [label="xfer_cnt <= 673743.5\nsquared_error = 19.36\nsamples = 2\nvalue = 5826.5", fillcolor="#fefaf7"] ;
364 -> 365 ;
366 [label="squared_error = 0.0\nsamples = 1\nvalue = 5822.1", fillcolor="#fefaf7"] ;
365 -> 366 ;
367 [label="squared_error = 0.0\nsamples = 1\nvalue = 5830.9", fillcolor="#fefaf7"] ;
365 -> 367 ;
368 [label="GOLD <= 1248.2\nsquared_error = 12.6\nsamples = 2\nvalue = 5845.95", fillcolor="#fefaf7"] ;
364 -> 368 ;
369 [label="squared_error = 0.0\nsamples = 1\nvalue = 5842.4", fillcolor="#fefaf7"] ;
368 -> 369 ;
370 [label="squared_error = -0.0\nsamples = 1\nvalue = 5849.5", fillcolor="#fefaf7"] ;
368 -> 370 ;
371 [label="xfer_cnt <= 748742.0\nsquared_error = 2495.0\nsamples = 2\nvalue = 5940.35", fillcolor="#fefaf6"] ;
355 -> 371 ;
372 [label="squared_error = 0.0\nsamples = 1\nvalue = 5890.4", fillcolor="#fefaf7"] ;
371 -> 372 ;
373 [label="squared_error = -0.0\nsamples = 1\nvalue = 5990.3", fillcolor="#fef9f6"] ;
371 -> 373 ;
374 [label="BTC_open <= 6464.6\nsquared_error = 21721.03\nsamples = 61\nvalue = 6488.73", fillcolor="#fef8f5"] ;
340 -> 374 ;
375 [label="BTC_open <= 6306.45\nsquared_error = 7859.62\nsamples = 25\nvalue = 6343.1", fillcolor="#fef9f5"] ;
374 -> 375 ;
376 [label="total_fees_usd <= 166485.31\nsquared_error = 1435.51\nsamples = 7\nvalue = 6217.01", fillcolor="#fef9f6"] ;
375 -> 376 ;
377 [label="addresses_active_count <= 572315.5\nsquared_error = 674.64\nsamples = 3\nvalue = 6254.7", fillcolor="#fef9f5"] ;
376 -> 377 ;
378 [label="squared_error = 0.0\nsamples = 1\nvalue = 6291.3", fillcolor="#fef9f5"] ;
377 -> 378 ;
379 [label="LTC <= 45.5\nsquared_error = 7.29\nsamples = 2\nvalue = 6236.4", fillcolor="#fef9f6"] ;
377 -> 379 ;
380 [label="squared_error = 0.0\nsamples = 1\nvalue = 6233.7", fillcolor="#fef9f6"] ;
379 -> 380 ;
381 [label="squared_error = 0.0\nsamples = 1\nvalue = 6239.1", fillcolor="#fef9f6"] ;
379 -> 381 ;
382 [label="BTC_high <= 6662.35\nsquared_error = 142.13\nsamples = 4\nvalue = 6188.75", fillcolor="#fef9f6"] ;
376 -> 382 ;
383 [label="mean_tx_size_usd <= 5277.99\nsquared_error = 64.82\nsamples = 3\nvalue = 6194.33", fillcolor="#fef9f6"] ;
382 -> 383 ;
384 [label="squared_error = 0.0\nsamples = 1\nvalue = 6205.3", fillcolor="#fef9f6"] ;
383 -> 384 ;
385 [label="XRP <= 0.22\nsquared_error = 7.02\nsamples = 2\nvalue = 6188.85", fillcolor="#fef9f6"] ;
383 -> 385 ;
386 [label="squared_error = 0.0\nsamples = 1\nvalue = 6186.2", fillcolor="#fef9f6"] ;
385 -> 386 ;
387 [label="squared_error = -0.0\nsamples = 1\nvalue = 6191.5", fillcolor="#fef9f6"] ;
385 -> 387 ;
388 [label="squared_error = 0.0\nsamples = 1\nvalue = 6172.0", fillcolor="#fef9f6"] ;
382 -> 388 ;
389 [label="BTC_open <= 6379.8\nsquared_error = 1770.67\nsamples = 18\nvalue = 6392.14", fillcolor="#fef9f5"] ;
375 -> 389 ;
390 [label="DOGE <= 0.0\nsquared_error = 418.82\nsamples = 6\nvalue = 6341.42", fillcolor="#fef9f5"] ;
389 -> 390 ;
391 [label="SPX <= 1370.19\nsquared_error = 14.06\nsamples = 2\nvalue = 6369.65", fillcolor="#fef9f5"] ;
390 -> 391 ;
392 [label="squared_error = 0.0\nsamples = 1\nvalue = 6373.4", fillcolor="#fef9f5"] ;
391 -> 392 ;
393 [label="squared_error = 0.0\nsamples = 1\nvalue = 6365.9", fillcolor="#fef9f5"] ;
391 -> 393 ;
394 [label="BTC_low <= 6308.35\nsquared_error = 23.37\nsamples = 4\nvalue = 6327.3", fillcolor="#fef9f5"] ;
390 -> 394 ;
395 [label="BTC_open <= 6324.2\nsquared_error = 4.8\nsamples = 3\nvalue = 6324.73", fillcolor="#fef9f5"] ;
394 -> 395 ;
396 [label="squared_error = 0.0\nsamples = 1\nvalue = 6321.7", fillcolor="#fef9f5"] ;
395 -> 396 ;
397 [label="ETH <= 206.42\nsquared_error = 0.3\nsamples = 2\nvalue = 6326.25", fillcolor="#fef9f5"] ;
395 -> 397 ;
398 [label="squared_error = 0.0\nsamples = 1\nvalue = 6325.7", fillcolor="#fef9f5"] ;
397 -> 398 ;
399 [label="squared_error = -0.0\nsamples = 1\nvalue = 6326.8", fillcolor="#fef9f5"] ;
397 -> 399 ;
400 [label="squared_error = 0.0\nsamples = 1\nvalue = 6335.0", fillcolor="#fef9f5"] ;
394 -> 400 ;
401 [label="BTC_open <= 6418.45\nsquared_error = 517.03\nsamples = 12\nvalue = 6417.5", fillcolor="#fef9f5"] ;
389 -> 401 ;
402 [label="BTC_open <= 6395.8\nsquared_error = 124.12\nsamples = 6\nvalue = 6398.03", fillcolor="#fef9f5"] ;
401 -> 402 ;
403 [label="SPX <= 1292.3\nsquared_error = 5.34\nsamples = 3\nvalue = 6387.73", fillcolor="#fef9f5"] ;
402 -> 403 ;
404 [label="DOGE <= 0.0\nsquared_error = 0.01\nsamples = 2\nvalue = 6386.1", fillcolor="#fef9f5"] ;
403 -> 404 ;
405 [label="squared_error = 0.0\nsamples = 1\nvalue = 6386.0", fillcolor="#fef9f5"] ;
404 -> 405 ;
406 [label="squared_error = -0.0\nsamples = 1\nvalue = 6386.2", fillcolor="#fef9f5"] ;
404 -> 406 ;
407 [label="squared_error = 0.0\nsamples = 1\nvalue = 6391.0", fillcolor="#fef9f5"] ;
403 -> 407 ;
408 [label="BTC_high <= 6453.0\nsquared_error = 30.72\nsamples = 3\nvalue = 6408.33", fillcolor="#fef9f5"] ;
402 -> 408 ;
409 [label="squared_error = 0.0\nsamples = 1\nvalue = 6400.5", fillcolor="#fef9f5"] ;
408 -> 409 ;
410 [label="difficulty <= 10548464582656.0\nsquared_error = 0.06\nsamples = 2\nvalue = 6412.25", fillcolor="#fef9f5"] ;
408 -> 410 ;
411 [label="squared_error = 0.0\nsamples = 1\nvalue = 6412.0", fillcolor="#fef9f5"] ;
410 -> 411 ;
412 [label="squared_error = 0.0\nsamples = 1\nvalue = 6412.5", fillcolor="#fef9f5"] ;
410 -> 412 ;
413 [label="DJI <= 25355.5\nsquared_error = 152.04\nsamples = 6\nvalue = 6436.97", fillcolor="#fef9f5"] ;
401 -> 413 ;
414 [label="BTC_low <= 6372.85\nsquared_error = 14.53\nsamples = 4\nvalue = 6429.0", fillcolor="#fef9f5"] ;
413 -> 414 ;
415 [label="mean_hash_rate <= 54820792.0\nsquared_error = 3.38\nsamples = 3\nvalue = 6427.0", fillcolor="#fef9f5"] ;
414 -> 415 ;
416 [label="XRP <= 0.49\nsquared_error = 1.1\nsamples = 2\nvalue = 6428.15", fillcolor="#fef9f5"] ;
415 -> 416 ;
417 [label="squared_error = 0.0\nsamples = 1\nvalue = 6429.2", fillcolor="#fef9f5"] ;
416 -> 417 ;
418 [label="squared_error = 0.0\nsamples = 1\nvalue = 6427.1", fillcolor="#fef9f5"] ;
416 -> 418 ;
419 [label="squared_error = -0.0\nsamples = 1\nvalue = 6424.7", fillcolor="#fef9f5"] ;
415 -> 419 ;
420 [label="squared_error = -0.0\nsamples = 1\nvalue = 6435.0", fillcolor="#fef9f5"] ;
414 -> 420 ;
421 [label="BTC_high <= 6492.75\nsquared_error = 46.24\nsamples = 2\nvalue = 6452.9", fillcolor="#fef9f5"] ;
413 -> 421 ;
422 [label="squared_error = 0.0\nsamples = 1\nvalue = 6446.1", fillcolor="#fef9f5"] ;
421 -> 422 ;
423 [label="squared_error = 0.0\nsamples = 1\nvalue = 6459.7", fillcolor="#fef9f5"] ;
421 -> 423 ;
424 [label="BTC_open <= 6590.25\nsquared_error = 6392.47\nsamples = 36\nvalue = 6589.86", fillcolor="#fef8f4"] ;
374 -> 424 ;
425 [label="BTC_open <= 6541.2\nsquared_error = 1402.53\nsamples = 19\nvalue = 6525.52", fillcolor="#fef8f5"] ;
424 -> 425 ;
426 [label="BTC_open <= 6498.85\nsquared_error = 372.76\nsamples = 12\nvalue = 6500.03", fillcolor="#fef8f5"] ;
425 -> 426 ;
427 [label="mean_lock_size_ytes <= 1016540.41\nsquared_error = 80.18\nsamples = 5\nvalue = 6480.28", fillcolor="#fef8f5"] ;
426 -> 427 ;
428 [label="addresses_active_count <= 628245.0\nsquared_error = 16.4\nsamples = 2\nvalue = 6490.15", fillcolor="#fef8f5"] ;
427 -> 428 ;
429 [label="squared_error = 0.0\nsamples = 1\nvalue = 6494.2", fillcolor="#fef8f5"] ;
428 -> 429 ;
430 [label="squared_error = 0.0\nsamples = 1\nvalue = 6486.1", fillcolor="#fef8f5"] ;
428 -> 430 ;
431 [label="BTC_high <= 6655.15\nsquared_error = 14.46\nsamples = 3\nvalue = 6473.7", fillcolor="#fef8f5"] ;
427 -> 431 ;
432 [label="addresses_active_count <= 702688.5\nsquared_error = 4.41\nsamples = 2\nvalue = 6476.1", fillcolor="#fef8f5"] ;
431 -> 432 ;
433 [label="squared_error = 0.0\nsamples = 1\nvalue = 6474.0", fillcolor="#fef8f5"] ;
432 -> 433 ;
434 [label="squared_error = -0.0\nsamples = 1\nvalue = 6478.2", fillcolor="#fef8f5"] ;
432 -> 434 ;
435 [label="squared_error = 0.0\nsamples = 1\nvalue = 6468.9", fillcolor="#fef8f5"] ;
431 -> 435 ;
436 [label="BTC_open <= 6521.45\nsquared_error = 103.96\nsamples = 7\nvalue = 6514.14", fillcolor="#fef8f5"] ;
426 -> 436 ;
437 [label="DOGE <= 0.0\nsquared_error = 9.61\nsamples = 5\nvalue = 6507.92", fillcolor="#fef8f5"] ;
436 -> 437 ;
438 [label="squared_error = 0.0\nsamples = 1\nvalue = 6502.8", fillcolor="#fef8f5"] ;
437 -> 438 ;
439 [label="SILVER <= 7.3\nsquared_error = 3.82\nsamples = 4\nvalue = 6509.2", fillcolor="#fef8f5"] ;
437 -> 439 ;
440 [label="ETH <= 206.2\nsquared_error = 1.0\nsamples = 2\nvalue = 6511.0", fillcolor="#fef8f5"] ;
439 -> 440 ;
441 [label="squared_error = 0.0\nsamples = 1\nvalue = 6510.0", fillcolor="#fef8f5"] ;
440 -> 441 ;
442 [label="squared_error = 0.0\nsamples = 1\nvalue = 6512.0", fillcolor="#fef8f5"] ;
440 -> 442 ;
443 [label="mean_tx_size_usd <= 6479.86\nsquared_error = 0.16\nsamples = 2\nvalue = 6507.4", fillcolor="#fef8f5"] ;
439 -> 443 ;
444 [label="squared_error = 0.0\nsamples = 1\nvalue = 6507.8", fillcolor="#fef8f5"] ;
443 -> 444 ;
445 [label="squared_error = 0.0\nsamples = 1\nvalue = 6507.0", fillcolor="#fef8f5"] ;
443 -> 445 ;
446 [label="mean_hash_rate <= 44632690.0\nsquared_error = 1.0\nsamples = 2\nvalue = 6529.7", fillcolor="#fef8f5"] ;
436 -> 446 ;
447 [label="squared_error = 0.0\nsamples = 1\nvalue = 6528.7", fillcolor="#fef8f5"] ;
446 -> 447 ;
448 [label="squared_error = 0.0\nsamples = 1\nvalue = 6530.7", fillcolor="#fef8f5"] ;
446 -> 448 ;
449 [label="addresses_active_count <= 688376.0\nsquared_error = 145.1\nsamples = 7\nvalue = 6569.21", fillcolor="#fef8f4"] ;
425 -> 449 ;
450 [label="JP225 <= 22590.0\nsquared_error = 27.93\nsamples = 4\nvalue = 6578.38", fillcolor="#fef8f4"] ;
449 -> 450 ;
451 [label="BTC_open <= 6576.15\nsquared_error = 0.9\nsamples = 2\nvalue = 6573.15", fillcolor="#fef8f4"] ;
450 -> 451 ;
452 [label="squared_error = 0.0\nsamples = 1\nvalue = 6572.2", fillcolor="#fef8f4"] ;
451 -> 452 ;
453 [label="squared_error = 0.0\nsamples = 1\nvalue = 6574.1", fillcolor="#fef8f4"] ;
451 -> 453 ;
454 [label="sum_lock_weight <= 443112448.0\nsquared_error = 0.36\nsamples = 2\nvalue = 6583.6", fillcolor="#fef8f4"] ;
450 -> 454 ;
455 [label="squared_error = 0.0\nsamples = 1\nvalue = 6584.2", fillcolor="#fef8f4"] ;
454 -> 455 ;
456 [label="squared_error = -0.0\nsamples = 1\nvalue = 6583.0", fillcolor="#fef8f4"] ;
454 -> 456 ;
457 [label="mean_hash_rate <= 47384944.0\nsquared_error = 40.25\nsamples = 3\nvalue = 6557.0", fillcolor="#fef8f4"] ;
449 -> 457 ;
458 [label="squared_error = 0.0\nsamples = 1\nvalue = 6565.3", fillcolor="#fef8f4"] ;
457 -> 458 ;
459 [label="xfer_cnt <= 619676.0\nsquared_error = 8.7\nsamples = 2\nvalue = 6552.85", fillcolor="#fef8f5"] ;
457 -> 459 ;
460 [label="squared_error = 0.0\nsamples = 1\nvalue = 6555.8", fillcolor="#fef8f5"] ;
459 -> 460 ;
461 [label="squared_error = 0.0\nsamples = 1\nvalue = 6549.9", fillcolor="#fef8f5"] ;
459 -> 461 ;
462 [label="BTC_open <= 6660.1\nsquared_error = 2171.83\nsamples = 17\nvalue = 6661.77", fillcolor="#fef8f4"] ;
424 -> 462 ;
463 [label="BTC_open <= 6623.55\nsquared_error = 278.19\nsamples = 9\nvalue = 6622.7", fillcolor="#fef8f4"] ;
462 -> 463 ;
464 [label="xfer_cnt <= 545440.0\nsquared_error = 52.95\nsamples = 5\nvalue = 6609.36", fillcolor="#fef8f4"] ;
463 -> 464 ;
465 [label="squared_error = 0.0\nsamples = 1\nvalue = 6596.3", fillcolor="#fef8f4"] ;
464 -> 465 ;
466 [label="mean_tx_size_usd <= 7906.63\nsquared_error = 12.89\nsamples = 4\nvalue = 6612.62", fillcolor="#fef8f4"] ;
464 -> 466 ;
467 [label="DOGE <= 0.01\nsquared_error = 4.35\nsamples = 3\nvalue = 6610.83", fillcolor="#fef8f4"] ;
466 -> 467 ;
468 [label="addresses_active_count <= 697400.0\nsquared_error = 1.32\nsamples = 2\nvalue = 6612.15", fillcolor="#fef8f4"] ;
467 -> 468 ;
469 [label="squared_error = 0.0\nsamples = 1\nvalue = 6611.0", fillcolor="#fef8f4"] ;
468 -> 469 ;
470 [label="squared_error = 0.0\nsamples = 1\nvalue = 6613.3", fillcolor="#fef8f4"] ;
468 -> 470 ;
471 [label="squared_error = -0.0\nsamples = 1\nvalue = 6608.2", fillcolor="#fef8f4"] ;
467 -> 471 ;
472 [label="squared_error = 0.0\nsamples = 1\nvalue = 6618.0", fillcolor="#fef8f4"] ;
466 -> 472 ;
473 [label="BTC_open <= 6644.85\nsquared_error = 59.24\nsamples = 4\nvalue = 6639.38", fillcolor="#fef8f4"] ;
463 -> 473 ;
474 [label="difficulty <= 14313869279232.0\nsquared_error = 20.97\nsamples = 3\nvalue = 6635.57", fillcolor="#fef8f4"] ;
473 -> 474 ;
475 [label="XRP <= 0.33\nsquared_error = 0.09\nsamples = 2\nvalue = 6638.8", fillcolor="#fef8f4"] ;
474 -> 475 ;
476 [label="squared_error = 0.0\nsamples = 1\nvalue = 6638.5", fillcolor="#fef8f4"] ;
475 -> 476 ;
477 [label="squared_error = 0.0\nsamples = 1\nvalue = 6639.1", fillcolor="#fef8f4"] ;
475 -> 477 ;
478 [label="squared_error = 0.0\nsamples = 1\nvalue = 6629.1", fillcolor="#fef8f4"] ;
474 -> 478 ;
479 [label="squared_error = -0.0\nsamples = 1\nvalue = 6650.8", fillcolor="#fef8f4"] ;
473 -> 479 ;
480 [label="BTC_open <= 6722.2\nsquared_error = 652.85\nsamples = 8\nvalue = 6705.72", fillcolor="#fef8f4"] ;
462 -> 480 ;
481 [label="BTC_open <= 6701.25\nsquared_error = 172.37\nsamples = 5\nvalue = 6688.04", fillcolor="#fef8f4"] ;
480 -> 481 ;
482 [label="XRP <= 0.47\nsquared_error = 48.31\nsamples = 3\nvalue = 6678.37", fillcolor="#fef8f4"] ;
481 -> 482 ;
483 [label="BTC_open <= 6684.0\nsquared_error = 14.82\nsamples = 2\nvalue = 6682.75", fillcolor="#fef8f4"] ;
482 -> 483 ;
484 [label="squared_error = 0.0\nsamples = 1\nvalue = 6678.9", fillcolor="#fef8f4"] ;
483 -> 484 ;
485 [label="squared_error = 0.0\nsamples = 1\nvalue = 6686.6", fillcolor="#fef8f4"] ;
483 -> 485 ;
486 [label="squared_error = 0.0\nsamples = 1\nvalue = 6669.6", fillcolor="#fef8f4"] ;
482 -> 486 ;
487 [label="mean_tx_size_usd <= 7288.85\nsquared_error = 7.56\nsamples = 2\nvalue = 6702.55", fillcolor="#fef8f4"] ;
481 -> 487 ;
488 [label="squared_error = 0.0\nsamples = 1\nvalue = 6699.8", fillcolor="#fef8f4"] ;
487 -> 488 ;
489 [label="squared_error = -0.0\nsamples = 1\nvalue = 6705.3", fillcolor="#fef8f4"] ;
487 -> 489 ;
490 [label="mean_tx_size_usd <= 6255.54\nsquared_error = 63.62\nsamples = 3\nvalue = 6735.2", fillcolor="#fef8f4"] ;
480 -> 490 ;
491 [label="squared_error = 0.0\nsamples = 1\nvalue = 6725.1", fillcolor="#fef8f4"] ;
490 -> 491 ;
492 [label="SILVER <= 7.44\nsquared_error = 18.92\nsamples = 2\nvalue = 6740.25", fillcolor="#fef8f4"] ;
490 -> 492 ;
493 [label="squared_error = 0.0\nsamples = 1\nvalue = 6735.9", fillcolor="#fef8f4"] ;
492 -> 493 ;
494 [label="squared_error = 0.0\nsamples = 1\nvalue = 6744.6", fillcolor="#fef8f4"] ;
492 -> 494 ;
495 [label="BTC_open <= 7142.4\nsquared_error = 43524.1\nsamples = 71\nvalue = 7214.97", fillcolor="#fdf7f2"] ;
339 -> 495 ;
496 [label="BTC_open <= 6975.9\nsquared_error = 13680.07\nsamples = 21\nvalue = 6948.07", fillcolor="#fdf8f3"] ;
495 -> 496 ;
497 [label="BTC_open <= 6885.7\nsquared_error = 2555.72\nsamples = 13\nvalue = 6864.81", fillcolor="#fdf8f4"] ;
496 -> 497 ;
498 [label="BTC_open <= 6816.65\nsquared_error = 862.86\nsamples = 9\nvalue = 6836.63", fillcolor="#fef8f4"] ;
497 -> 498 ;
499 [label="sum_lock_weight <= 470401776.0\nsquared_error = 193.21\nsamples = 2\nvalue = 6786.6", fillcolor="#fef8f4"] ;
498 -> 499 ;
500 [label="squared_error = 0.0\nsamples = 1\nvalue = 6772.7", fillcolor="#fef8f4"] ;
499 -> 500 ;
501 [label="squared_error = -0.0\nsamples = 1\nvalue = 6800.5", fillcolor="#fef8f4"] ;
499 -> 501 ;
502 [label="COPPER <= 1.12\nsquared_error = 134.6\nsamples = 7\nvalue = 6850.93", fillcolor="#fdf8f4"] ;
498 -> 502 ;
503 [label="ETH <= 150.38\nsquared_error = 18.08\nsamples = 3\nvalue = 6862.77", fillcolor="#fdf8f4"] ;
502 -> 503 ;
504 [label="squared_error = 0.0\nsamples = 1\nvalue = 6857.4", fillcolor="#fdf8f4"] ;
503 -> 504 ;
505 [label="ETH <= 158.45\nsquared_error = 5.52\nsamples = 2\nvalue = 6865.45", fillcolor="#fdf8f4"] ;
503 -> 505 ;
506 [label="squared_error = 0.0\nsamples = 1\nvalue = 6863.1", fillcolor="#fdf8f4"] ;
505 -> 506 ;
507 [label="squared_error = -0.0\nsamples = 1\nvalue = 6867.8", fillcolor="#fdf8f4"] ;
505 -> 507 ;
508 [label="XRP <= 0.18\nsquared_error = 38.05\nsamples = 4\nvalue = 6842.05", fillcolor="#fef8f4"] ;
502 -> 508 ;
509 [label="squared_error = 0.0\nsamples = 1\nvalue = 6850.9", fillcolor="#fdf8f4"] ;
508 -> 509 ;
510 [label="SPX <= 2767.94\nsquared_error = 15.92\nsamples = 3\nvalue = 6839.1", fillcolor="#fef8f4"] ;
508 -> 510 ;
511 [label="squared_error = 0.0\nsamples = 1\nvalue = 6833.5", fillcolor="#fef8f4"] ;
510 -> 511 ;
512 [label="GOLD <= 1753.6\nsquared_error = 0.36\nsamples = 2\nvalue = 6841.9", fillcolor="#fef8f4"] ;
510 -> 512 ;
513 [label="squared_error = 0.0\nsamples = 1\nvalue = 6842.5", fillcolor="#fef8f4"] ;
512 -> 513 ;
514 [label="squared_error = 0.0\nsamples = 1\nvalue = 6841.3", fillcolor="#fef8f4"] ;
512 -> 514 ;
515 [label="SPX <= 3213.69\nsquared_error = 560.03\nsamples = 4\nvalue = 6928.2", fillcolor="#fdf8f3"] ;
497 -> 515 ;
516 [label="mean_lock_size_ytes <= 1202491.56\nsquared_error = 77.63\nsamples = 3\nvalue = 6915.27", fillcolor="#fdf8f3"] ;
515 -> 516 ;
517 [label="BTC_high <= 7136.55\nsquared_error = 12.6\nsamples = 2\nvalue = 6921.15", fillcolor="#fdf8f3"] ;
516 -> 517 ;
518 [label="squared_error = 0.0\nsamples = 1\nvalue = 6917.6", fillcolor="#fdf8f3"] ;
517 -> 518 ;
519 [label="squared_error = 0.0\nsamples = 1\nvalue = 6924.7", fillcolor="#fdf8f3"] ;
517 -> 519 ;
520 [label="squared_error = 0.0\nsamples = 1\nvalue = 6903.5", fillcolor="#fdf8f3"] ;
516 -> 520 ;
521 [label="squared_error = 0.0\nsamples = 1\nvalue = 6967.0", fillcolor="#fdf7f3"] ;
515 -> 521 ;
522 [label="BTC_open <= 7058.35\nsquared_error = 2187.58\nsamples = 8\nvalue = 7083.36", fillcolor="#fdf7f3"] ;
496 -> 522 ;
523 [label="GOLD <= 650.9\nsquared_error = 650.25\nsamples = 2\nvalue = 7010.3", fillcolor="#fdf7f3"] ;
522 -> 523 ;
524 [label="squared_error = 0.0\nsamples = 1\nvalue = 7035.8", fillcolor="#fdf7f3"] ;
523 -> 524 ;
525 [label="squared_error = 0.0\nsamples = 1\nvalue = 6984.8", fillcolor="#fdf7f3"] ;
523 -> 525 ;
526 [label="SILVER <= 15.33\nsquared_error = 327.52\nsamples = 6\nvalue = 7107.72", fillcolor="#fdf7f3"] ;
522 -> 526 ;
527 [label="xfer_cnt <= 627693.5\nsquared_error = 5.76\nsamples = 2\nvalue = 7083.2", fillcolor="#fdf7f3"] ;
526 -> 527 ;
528 [label="squared_error = 0.0\nsamples = 1\nvalue = 7080.8", fillcolor="#fdf7f3"] ;
527 -> 528 ;
529 [label="squared_error = -0.0\nsamples = 1\nvalue = 7085.6", fillcolor="#fdf7f3"] ;
527 -> 529 ;
530 [label="BTC_high <= 7268.5\nsquared_error = 37.61\nsamples = 4\nvalue = 7119.98", fillcolor="#fdf7f3"] ;
526 -> 530 ;
531 [label="COPPER <= 2.57\nsquared_error = 7.84\nsamples = 2\nvalue = 7125.7", fillcolor="#fdf7f3"] ;
530 -> 531 ;
532 [label="squared_error = 0.0\nsamples = 1\nvalue = 7122.9", fillcolor="#fdf7f3"] ;
531 -> 532 ;
533 [label="squared_error = 0.0\nsamples = 1\nvalue = 7128.5", fillcolor="#fdf7f3"] ;
531 -> 533 ;
534 [label="BTC_low <= 7040.8\nsquared_error = 1.82\nsamples = 2\nvalue = 7114.25", fillcolor="#fdf7f3"] ;
530 -> 534 ;
535 [label="squared_error = 0.0\nsamples = 1\nvalue = 7112.9", fillcolor="#fdf7f3"] ;
534 -> 535 ;
536 [label="squared_error = 0.0\nsamples = 1\nvalue = 7115.6", fillcolor="#fdf7f3"] ;
534 -> 536 ;
537 [label="BTC_open <= 7350.65\nsquared_error = 13573.83\nsamples = 50\nvalue = 7327.06", fillcolor="#fdf7f2"] ;
495 -> 537 ;
538 [label="BTC_open <= 7245.5\nsquared_error = 2871.34\nsamples = 30\nvalue = 7245.2", fillcolor="#fdf7f2"] ;
537 -> 538 ;
539 [label="BTC_open <= 7187.8\nsquared_error = 526.33\nsamples = 15\nvalue = 7198.35", fillcolor="#fdf7f2"] ;
538 -> 539 ;
540 [label="ETH <= 162.85\nsquared_error = 116.76\nsamples = 4\nvalue = 7167.42", fillcolor="#fdf7f3"] ;
539 -> 540 ;
541 [label="SPX <= 1576.81\nsquared_error = 15.26\nsamples = 3\nvalue = 7161.5", fillcolor="#fdf7f3"] ;
540 -> 541 ;
542 [label="squared_error = 0.0\nsamples = 1\nvalue = 7156.2", fillcolor="#fdf7f3"] ;
541 -> 542 ;
543 [label="JP225 <= 23612.5\nsquared_error = 1.82\nsamples = 2\nvalue = 7164.15", fillcolor="#fdf7f3"] ;
541 -> 543 ;
544 [label="squared_error = 0.0\nsamples = 1\nvalue = 7162.8", fillcolor="#fdf7f3"] ;
543 -> 544 ;
545 [label="squared_error = 0.0\nsamples = 1\nvalue = 7165.5", fillcolor="#fdf7f3"] ;
543 -> 545 ;
546 [label="squared_error = -0.0\nsamples = 1\nvalue = 7185.2", fillcolor="#fdf7f3"] ;
540 -> 546 ;
547 [label="BTC_open <= 7217.9\nsquared_error = 201.14\nsamples = 11\nvalue = 7209.59", fillcolor="#fdf7f2"] ;
539 -> 547 ;
548 [label="BTC_open <= 7202.15\nsquared_error = 45.13\nsamples = 8\nvalue = 7201.78", fillcolor="#fdf7f2"] ;
547 -> 548 ;
549 [label="BTC_open <= 7193.2\nsquared_error = 11.74\nsamples = 4\nvalue = 7195.72", fillcolor="#fdf7f2"] ;
548 -> 549 ;
550 [label="squared_error = 0.0\nsamples = 1\nvalue = 7190.3", fillcolor="#fdf7f2"] ;
549 -> 550 ;
551 [label="COPPER <= 1.41\nsquared_error = 2.57\nsamples = 3\nvalue = 7197.53", fillcolor="#fdf7f2"] ;
549 -> 551 ;
552 [label="squared_error = 0.0\nsamples = 2\nvalue = 7196.4", fillcolor="#fdf7f2"] ;
551 -> 552 ;
553 [label="squared_error = 0.0\nsamples = 1\nvalue = 7199.8", fillcolor="#fdf7f2"] ;
551 -> 553 ;
554 [label="BTC_high <= 7385.05\nsquared_error = 5.31\nsamples = 4\nvalue = 7207.82", fillcolor="#fdf7f2"] ;
548 -> 554 ;
555 [label="DOGE <= 0.0\nsquared_error = 1.87\nsamples = 3\nvalue = 7208.97", fillcolor="#fdf7f2"] ;
554 -> 555 ;
556 [label="squared_error = 0.0\nsamples = 1\nvalue = 7210.9", fillcolor="#fdf7f2"] ;
555 -> 556 ;
557 [label="squared_error = -0.0\nsamples = 2\nvalue = 7208.0", fillcolor="#fdf7f2"] ;
555 -> 557 ;
558 [label="squared_error = 0.0\nsamples = 1\nvalue = 7204.4", fillcolor="#fdf7f2"] ;
554 -> 558 ;
559 [label="SPX <= 3190.77\nsquared_error = 19.87\nsamples = 3\nvalue = 7230.43", fillcolor="#fdf7f2"] ;
547 -> 559 ;
560 [label="mean_lock_size_ytes <= 1076540.03\nsquared_error = 6.0\nsamples = 2\nvalue = 7233.25", fillcolor="#fdf7f2"] ;
559 -> 560 ;
561 [label="squared_error = 0.0\nsamples = 1\nvalue = 7230.8", fillcolor="#fdf7f2"] ;
560 -> 561 ;
562 [label="squared_error = 0.0\nsamples = 1\nvalue = 7235.7", fillcolor="#fdf7f2"] ;
560 -> 562 ;
563 [label="squared_error = 0.0\nsamples = 1\nvalue = 7224.8", fillcolor="#fdf7f2"] ;
559 -> 563 ;
564 [label="BTC_open <= 7309.85\nsquared_error = 825.25\nsamples = 15\nvalue = 7292.06", fillcolor="#fdf7f2"] ;
538 -> 564 ;
565 [label="BTC_open <= 7282.7\nsquared_error = 194.89\nsamples = 10\nvalue = 7273.71", fillcolor="#fdf7f2"] ;
564 -> 565 ;
566 [label="BTC_open <= 7265.1\nsquared_error = 44.24\nsamples = 7\nvalue = 7265.44", fillcolor="#fdf7f2"] ;
565 -> 566 ;
567 [label="mean_hash_rate <= 96282420.0\nsquared_error = 8.88\nsamples = 4\nvalue = 7260.32", fillcolor="#fdf7f2"] ;
566 -> 567 ;
568 [label="DOGE <= 0.0\nsquared_error = 0.16\nsamples = 3\nvalue = 7262.03", fillcolor="#fdf7f2"] ;
567 -> 568 ;
569 [label="DJI <= 14254.0\nsquared_error = 0.0\nsamples = 2\nvalue = 7261.75", fillcolor="#fdf7f2"] ;
568 -> 569 ;
570 [label="squared_error = 0.0\nsamples = 1\nvalue = 7261.7", fillcolor="#fdf7f2"] ;
569 -> 570 ;
571 [label="squared_error = -0.0\nsamples = 1\nvalue = 7261.8", fillcolor="#fdf7f2"] ;
569 -> 571 ;
572 [label="squared_error = 0.0\nsamples = 1\nvalue = 7262.6", fillcolor="#fdf7f2"] ;
568 -> 572 ;
573 [label="squared_error = -0.0\nsamples = 1\nvalue = 7255.2", fillcolor="#fdf7f2"] ;
567 -> 573 ;
574 [label="DOGE <= 0.0\nsquared_error = 9.91\nsamples = 3\nvalue = 7272.27", fillcolor="#fdf7f2"] ;
566 -> 574 ;
575 [label="squared_error = 0.0\nsamples = 1\nvalue = 7268.3", fillcolor="#fdf7f2"] ;
574 -> 575 ;
576 [label="LTC <= 43.91\nsquared_error = 3.06\nsamples = 2\nvalue = 7274.25", fillcolor="#fdf7f2"] ;
574 -> 576 ;
577 [label="squared_error = 0.0\nsamples = 1\nvalue = 7276.0", fillcolor="#fdf7f2"] ;
576 -> 577 ;
578 [label="squared_error = 0.0\nsamples = 1\nvalue = 7272.5", fillcolor="#fdf7f2"] ;
576 -> 578 ;
579 [label="GOLD <= 1482.3\nsquared_error = 14.83\nsamples = 3\nvalue = 7293.0", fillcolor="#fdf7f2"] ;
565 -> 579 ;
580 [label="total_fees_usd <= 176254.25\nsquared_error = 1.96\nsamples = 2\nvalue = 7290.4", fillcolor="#fdf7f2"] ;
579 -> 580 ;
581 [label="squared_error = 0.0\nsamples = 1\nvalue = 7289.0", fillcolor="#fdf7f2"] ;
580 -> 581 ;
582 [label="squared_error = 0.0\nsamples = 1\nvalue = 7291.8", fillcolor="#fdf7f2"] ;
580 -> 582 ;
583 [label="squared_error = -0.0\nsamples = 1\nvalue = 7298.2", fillcolor="#fdf7f2"] ;
579 -> 583 ;
584 [label="difficulty <= 13386010066944.0\nsquared_error = 65.62\nsamples = 5\nvalue = 7328.76", fillcolor="#fdf7f2"] ;
564 -> 584 ;
585 [label="BTC_high <= 7388.65\nsquared_error = 1.13\nsamples = 3\nvalue = 7322.8", fillcolor="#fdf7f2"] ;
584 -> 585 ;
586 [label="squared_error = 0.0\nsamples = 1\nvalue = 7324.1", fillcolor="#fdf7f2"] ;
585 -> 586 ;
587 [label="BTC_open <= 7322.0\nsquared_error = 0.42\nsamples = 2\nvalue = 7322.15", fillcolor="#fdf7f2"] ;
585 -> 587 ;
588 [label="squared_error = 0.0\nsamples = 1\nvalue = 7321.5", fillcolor="#fdf7f2"] ;
587 -> 588 ;
589 [label="squared_error = 0.0\nsamples = 1\nvalue = 7322.8", fillcolor="#fdf7f2"] ;
587 -> 589 ;
590 [label="GOLD <= 841.85\nsquared_error = 29.16\nsamples = 2\nvalue = 7337.7", fillcolor="#fdf7f2"] ;
584 -> 590 ;
591 [label="squared_error = 0.0\nsamples = 1\nvalue = 7343.1", fillcolor="#fdf7f2"] ;
590 -> 591 ;
592 [label="squared_error = -0.0\nsamples = 1\nvalue = 7332.3", fillcolor="#fdf7f2"] ;
590 -> 592 ;
593 [label="BTC_open <= 7451.7\nsquared_error = 4498.18\nsamples = 20\nvalue = 7449.86", fillcolor="#fdf7f2"] ;
537 -> 593 ;
594 [label="BTC_open <= 7386.35\nsquared_error = 590.74\nsamples = 10\nvalue = 7386.83", fillcolor="#fdf7f2"] ;
593 -> 594 ;
595 [label="xfer_cnt <= 690127.0\nsquared_error = 64.94\nsamples = 5\nvalue = 7365.16", fillcolor="#fdf7f2"] ;
594 -> 595 ;
596 [label="total_fees_usd <= 123361.87\nsquared_error = 4.62\nsamples = 2\nvalue = 7374.65", fillcolor="#fdf7f2"] ;
595 -> 596 ;
597 [label="squared_error = 0.0\nsamples = 1\nvalue = 7376.8", fillcolor="#fdf7f2"] ;
596 -> 597 ;
598 [label="squared_error = 0.0\nsamples = 1\nvalue = 7372.5", fillcolor="#fdf7f2"] ;
596 -> 598 ;
599 [label="sum_lock_weight <= 518429664.0\nsquared_error = 5.08\nsamples = 3\nvalue = 7358.83", fillcolor="#fdf7f2"] ;
595 -> 599 ;
600 [label="squared_error = 0.0\nsamples = 1\nvalue = 7355.8", fillcolor="#fdf7f2"] ;
599 -> 600 ;
601 [label="BTC_high <= 7409.8\nsquared_error = 0.72\nsamples = 2\nvalue = 7360.35", fillcolor="#fdf7f2"] ;
599 -> 601 ;
602 [label="squared_error = 0.0\nsamples = 1\nvalue = 7361.2", fillcolor="#fdf7f2"] ;
601 -> 602 ;
603 [label="squared_error = -0.0\nsamples = 1\nvalue = 7359.5", fillcolor="#fdf7f2"] ;
601 -> 603 ;
604 [label="mean_lock_size_ytes <= 1057353.12\nsquared_error = 177.36\nsamples = 5\nvalue = 7408.5", fillcolor="#fdf7f2"] ;
594 -> 604 ;
605 [label="GOLD <= 1467.15\nsquared_error = 1.33\nsamples = 3\nvalue = 7397.7", fillcolor="#fdf7f2"] ;
604 -> 605 ;
606 [label="squared_error = 0.0\nsamples = 1\nvalue = 7399.2", fillcolor="#fdf7f2"] ;
605 -> 606 ;
607 [label="xfer_cnt <= 703762.5\nsquared_error = 0.3\nsamples = 2\nvalue = 7396.95", fillcolor="#fdf7f2"] ;
605 -> 607 ;
608 [label="squared_error = 0.0\nsamples = 1\nvalue = 7396.4", fillcolor="#fdf7f2"] ;
607 -> 608 ;
609 [label="squared_error = 0.0\nsamples = 1\nvalue = 7397.5", fillcolor="#fdf7f2"] ;
607 -> 609 ;
610 [label="SILVER <= 17.49\nsquared_error = 4.0\nsamples = 2\nvalue = 7424.7", fillcolor="#fdf7f2"] ;
604 -> 610 ;
611 [label="squared_error = 0.0\nsamples = 1\nvalue = 7426.7", fillcolor="#fdf7f2"] ;
610 -> 611 ;
612 [label="squared_error = 0.0\nsamples = 1\nvalue = 7422.7", fillcolor="#fdf7f2"] ;
610 -> 612 ;
613 [label="BTC_open <= 7517.8\nsquared_error = 461.33\nsamples = 10\nvalue = 7512.88", fillcolor="#fdf6f1"] ;
593 -> 613 ;
614 [label="DJI <= 11829.0\nsquared_error = 149.1\nsamples = 6\nvalue = 7497.77", fillcolor="#fdf6f2"] ;
613 -> 614 ;
615 [label="BTC_low <= 7433.85\nsquared_error = 10.75\nsamples = 3\nvalue = 7508.43", fillcolor="#fdf6f1"] ;
614 -> 615 ;
616 [label="LTC <= 46.24\nsquared_error = 0.02\nsamples = 2\nvalue = 7510.75", fillcolor="#fdf6f1"] ;
615 -> 616 ;
617 [label="squared_error = 0.0\nsamples = 1\nvalue = 7510.9", fillcolor="#fdf6f1"] ;
616 -> 617 ;
618 [label="squared_error = 0.0\nsamples = 1\nvalue = 7510.6", fillcolor="#fdf6f1"] ;
616 -> 618 ;
619 [label="squared_error = 0.0\nsamples = 1\nvalue = 7503.8", fillcolor="#fdf6f2"] ;
615 -> 619 ;
620 [label="xfer_cnt <= 676870.0\nsquared_error = 59.89\nsamples = 3\nvalue = 7487.1", fillcolor="#fdf6f2"] ;
614 -> 620 ;
621 [label="squared_error = 0.0\nsamples = 1\nvalue = 7477.0", fillcolor="#fdf6f2"] ;
620 -> 621 ;
622 [label="mean_tx_size_usd <= 7271.55\nsquared_error = 13.32\nsamples = 2\nvalue = 7492.15", fillcolor="#fdf6f2"] ;
620 -> 622 ;
623 [label="squared_error = 0.0\nsamples = 1\nvalue = 7495.8", fillcolor="#fdf6f2"] ;
622 -> 623 ;
624 [label="squared_error = 0.0\nsamples = 1\nvalue = 7488.5", fillcolor="#fdf6f2"] ;
622 -> 624 ;
625 [label="difficulty <= 12925039280128.0\nsquared_error = 73.13\nsamples = 4\nvalue = 7535.55", fillcolor="#fdf6f1"] ;
613 -> 625 ;
626 [label="total_fees_usd <= 149177.76\nsquared_error = 10.24\nsamples = 2\nvalue = 7527.6", fillcolor="#fdf6f1"] ;
625 -> 626 ;
627 [label="squared_error = 0.0\nsamples = 1\nvalue = 7530.8", fillcolor="#fdf6f1"] ;
626 -> 627 ;
628 [label="squared_error = -0.0\nsamples = 1\nvalue = 7524.4", fillcolor="#fdf6f1"] ;
626 -> 628 ;
629 [label="mean_hash_rate <= 99162424.0\nsquared_error = 9.61\nsamples = 2\nvalue = 7543.5", fillcolor="#fdf6f1"] ;
625 -> 629 ;
630 [label="squared_error = 0.0\nsamples = 1\nvalue = 7546.6", fillcolor="#fdf6f1"] ;
629 -> 630 ;
631 [label="squared_error = 0.0\nsamples = 1\nvalue = 7540.4", fillcolor="#fdf6f1"] ;
629 -> 631 ;
632 [label="BTC_open <= 9962.65\nsquared_error = 1546759.81\nsamples = 440\nvalue = 9770.7", fillcolor="#fcf2ea"] ;
2 -> 632 ;
633 [label="BTC_open <= 8854.45\nsquared_error = 405175.51\nsamples = 261\nvalue = 8908.65", fillcolor="#fdf4ed"] ;
632 -> 633 ;
634 [label="BTC_open <= 8322.95\nsquared_error = 127082.91\nsamples = 117\nvalue = 8295.45", fillcolor="#fdf5ef"] ;
633 -> 634 ;
635 [label="BTC_open <= 8011.85\nsquared_error = 34480.29\nsamples = 66\nvalue = 8018.63", fillcolor="#fdf5f0"] ;
634 -> 635 ;
636 [label="BTC_open <= 7824.45\nsquared_error = 13455.88\nsamples = 30\nvalue = 7846.14", fillcolor="#fdf6f0"] ;
635 -> 636 ;
637 [label="BTC_open <= 7714.15\nsquared_error = 3806.08\nsamples = 12\nvalue = 7720.64", fillcolor="#fdf6f1"] ;
636 -> 637 ;
638 [label="BTC_open <= 7658.3\nsquared_error = 595.91\nsamples = 5\nvalue = 7652.6", fillcolor="#fdf6f1"] ;
637 -> 638 ;
639 [label="COPPER <= 2.66\nsquared_error = 12.42\nsamples = 3\nvalue = 7632.87", fillcolor="#fdf6f1"] ;
638 -> 639 ;
640 [label="squared_error = 0.0\nsamples = 1\nvalue = 7627.9", fillcolor="#fdf6f1"] ;
639 -> 640 ;
641 [label="XRP <= 0.39\nsquared_error = 0.12\nsamples = 2\nvalue = 7635.35", fillcolor="#fdf6f1"] ;
639 -> 641 ;
642 [label="squared_error = 0.0\nsamples = 1\nvalue = 7635.7", fillcolor="#fdf6f1"] ;
641 -> 642 ;
643 [label="squared_error = -0.0\nsamples = 1\nvalue = 7635.0", fillcolor="#fdf6f1"] ;
641 -> 643 ;
644 [label="LTC <= 74.06\nsquared_error = 10.89\nsamples = 2\nvalue = 7682.2", fillcolor="#fdf6f1"] ;
638 -> 644 ;
645 [label="squared_error = 0.0\nsamples = 1\nvalue = 7678.9", fillcolor="#fdf6f1"] ;
644 -> 645 ;
646 [label="squared_error = 0.0\nsamples = 1\nvalue = 7685.5", fillcolor="#fdf6f1"] ;
644 -> 646 ;
647 [label="BTC_open <= 7772.8\nsquared_error = 430.07\nsamples = 7\nvalue = 7769.24", fillcolor="#fdf6f1"] ;
637 -> 647 ;
648 [label="XRP <= 0.22\nsquared_error = 86.92\nsamples = 4\nvalue = 7753.67", fillcolor="#fdf6f1"] ;
647 -> 648 ;
649 [label="mean_lock_size_ytes <= 1082980.25\nsquared_error = 11.9\nsamples = 2\nvalue = 7762.55", fillcolor="#fdf6f1"] ;
648 -> 649 ;
650 [label="squared_error = 0.0\nsamples = 1\nvalue = 7759.1", fillcolor="#fdf6f1"] ;
649 -> 650 ;
651 [label="squared_error = 0.0\nsamples = 1\nvalue = 7766.0", fillcolor="#fdf6f1"] ;
649 -> 651 ;
652 [label="XRP <= 0.23\nsquared_error = 4.41\nsamples = 2\nvalue = 7744.8", fillcolor="#fdf6f1"] ;
648 -> 652 ;
653 [label="squared_error = 0.0\nsamples = 1\nvalue = 7742.7", fillcolor="#fdf6f1"] ;
652 -> 653 ;
654 [label="squared_error = 0.0\nsamples = 1\nvalue = 7746.9", fillcolor="#fdf6f1"] ;
652 -> 654 ;
655 [label="mean_lock_size_ytes <= 1207487.44\nsquared_error = 133.61\nsamples = 3\nvalue = 7790.0", fillcolor="#fdf6f1"] ;
647 -> 655 ;
656 [label="mean_lock_size_ytes <= 1172879.25\nsquared_error = 8.41\nsamples = 2\nvalue = 7782.0", fillcolor="#fdf6f1"] ;
655 -> 656 ;
657 [label="squared_error = 0.0\nsamples = 1\nvalue = 7779.1", fillcolor="#fdf6f1"] ;
656 -> 657 ;
658 [label="squared_error = -0.0\nsamples = 1\nvalue = 7784.9", fillcolor="#fdf6f1"] ;
656 -> 658 ;
659 [label="squared_error = 0.0\nsamples = 1\nvalue = 7806.0", fillcolor="#fdf6f1"] ;
655 -> 659 ;
660 [label="BTC_open <= 7915.15\nsquared_error = 2390.2\nsamples = 18\nvalue = 7929.8", fillcolor="#fdf6f0"] ;
636 -> 660 ;
661 [label="BTC_open <= 7862.35\nsquared_error = 395.91\nsamples = 7\nvalue = 7875.54", fillcolor="#fdf6f0"] ;
660 -> 661 ;
662 [label="xfer_cnt <= 827071.0\nsquared_error = 23.52\nsamples = 2\nvalue = 7847.25", fillcolor="#fdf6f0"] ;
661 -> 662 ;
663 [label="squared_error = 0.0\nsamples = 1\nvalue = 7842.4", fillcolor="#fdf6f0"] ;
662 -> 663 ;
664 [label="squared_error = 0.0\nsamples = 1\nvalue = 7852.1", fillcolor="#fdf6f0"] ;
662 -> 664 ;
665 [label="BTC_open <= 7885.3\nsquared_error = 96.59\nsamples = 5\nvalue = 7886.86", fillcolor="#fdf6f0"] ;
661 -> 665 ;
666 [label="BTC_low <= 7397.8\nsquared_error = 25.5\nsamples = 2\nvalue = 7876.85", fillcolor="#fdf6f0"] ;
665 -> 666 ;
667 [label="squared_error = 0.0\nsamples = 1\nvalue = 7871.8", fillcolor="#fdf6f0"] ;
666 -> 667 ;
668 [label="squared_error = -0.0\nsamples = 1\nvalue = 7881.9", fillcolor="#fdf6f0"] ;
666 -> 668 ;
669 [label="SPX <= 1370.69\nsquared_error = 32.65\nsamples = 3\nvalue = 7893.53", fillcolor="#fdf6f0"] ;
665 -> 669 ;
670 [label="squared_error = 0.0\nsamples = 1\nvalue = 7901.4", fillcolor="#fdf6f0"] ;
669 -> 670 ;
671 [label="difficulty <= 12006302154752.0\nsquared_error = 2.56\nsamples = 2\nvalue = 7889.6", fillcolor="#fdf6f0"] ;
669 -> 671 ;
672 [label="squared_error = 0.0\nsamples = 1\nvalue = 7888.0", fillcolor="#fdf6f0"] ;
671 -> 672 ;
673 [label="squared_error = -0.0\nsamples = 1\nvalue = 7891.2", fillcolor="#fdf6f0"] ;
671 -> 673 ;
674 [label="BTC_open <= 7961.2\nsquared_error = 593.81\nsamples = 11\nvalue = 7964.33", fillcolor="#fdf5f0"] ;
660 -> 674 ;
675 [label="DJI <= 10542.5\nsquared_error = 107.02\nsamples = 5\nvalue = 7940.84", fillcolor="#fdf6f0"] ;
674 -> 675 ;
676 [label="addresses_active_count <= 594929.0\nsquared_error = 19.36\nsamples = 2\nvalue = 7952.9", fillcolor="#fdf6f0"] ;
675 -> 676 ;
677 [label="squared_error = 0.0\nsamples = 1\nvalue = 7957.3", fillcolor="#fdf6f0"] ;
676 -> 677 ;
678 [label="squared_error = 0.0\nsamples = 1\nvalue = 7948.5", fillcolor="#fdf6f0"] ;
676 -> 678 ;
679 [label="XRP <= 0.29\nsquared_error = 3.86\nsamples = 3\nvalue = 7932.8", fillcolor="#fdf6f0"] ;
675 -> 679 ;
680 [label="XRP <= 0.17\nsquared_error = 1.1\nsamples = 2\nvalue = 7934.05", fillcolor="#fdf6f0"] ;
679 -> 680 ;
681 [label="squared_error = 0.0\nsamples = 1\nvalue = 7935.1", fillcolor="#fdf6f0"] ;
680 -> 681 ;
682 [label="squared_error = 0.0\nsamples = 1\nvalue = 7933.0", fillcolor="#fdf6f0"] ;
680 -> 682 ;
683 [label="squared_error = 0.0\nsamples = 1\nvalue = 7930.3", fillcolor="#fdf6f0"] ;
679 -> 683 ;
684 [label="BTC_open <= 7978.35\nsquared_error = 156.67\nsamples = 6\nvalue = 7983.9", fillcolor="#fdf5f0"] ;
674 -> 684 ;
685 [label="GOLD <= 636.6\nsquared_error = 5.76\nsamples = 2\nvalue = 7967.7", fillcolor="#fdf5f0"] ;
684 -> 685 ;
686 [label="squared_error = 0.0\nsamples = 1\nvalue = 7970.1", fillcolor="#fdf5f0"] ;
685 -> 686 ;
687 [label="squared_error = -0.0\nsamples = 1\nvalue = 7965.3", fillcolor="#fdf5f0"] ;
685 -> 687 ;
688 [label="LTC <= 109.82\nsquared_error = 35.3\nsamples = 4\nvalue = 7992.0", fillcolor="#fdf5f0"] ;
684 -> 688 ;
689 [label="ETH <= 212.73\nsquared_error = 8.41\nsamples = 2\nvalue = 7997.5", fillcolor="#fdf5f0"] ;
688 -> 689 ;
690 [label="squared_error = 0.0\nsamples = 1\nvalue = 8000.4", fillcolor="#fdf5f0"] ;
689 -> 690 ;
691 [label="squared_error = -0.0\nsamples = 1\nvalue = 7994.6", fillcolor="#fdf5f0"] ;
689 -> 691 ;
692 [label="SPX <= 1442.86\nsquared_error = 1.69\nsamples = 2\nvalue = 7986.5", fillcolor="#fdf5f0"] ;
688 -> 692 ;
693 [label="squared_error = 0.0\nsamples = 1\nvalue = 7985.2", fillcolor="#fdf5f0"] ;
692 -> 693 ;
694 [label="squared_error = -0.0\nsamples = 1\nvalue = 7987.8", fillcolor="#fdf5f0"] ;
692 -> 694 ;
695 [label="BTC_open <= 8151.1\nsquared_error = 6544.64\nsamples = 36\nvalue = 8162.37", fillcolor="#fdf5ef"] ;
635 -> 695 ;
696 [label="BTC_open <= 8086.35\nsquared_error = 1948.76\nsamples = 15\nvalue = 8083.5", fillcolor="#fdf5f0"] ;
695 -> 696 ;
697 [label="BTC_open <= 8042.35\nsquared_error = 304.21\nsamples = 8\nvalue = 8045.35", fillcolor="#fdf5f0"] ;
696 -> 697 ;
698 [label="mean_hash_rate <= 106445680.0\nsquared_error = 14.52\nsamples = 4\nvalue = 8029.25", fillcolor="#fdf5f0"] ;
697 -> 698 ;
699 [label="BTC_high <= 8454.25\nsquared_error = 2.72\nsamples = 2\nvalue = 8025.75", fillcolor="#fdf5f0"] ;
698 -> 699 ;
700 [label="squared_error = 0.0\nsamples = 1\nvalue = 8024.1", fillcolor="#fdf5f0"] ;
699 -> 700 ;
701 [label="squared_error = 0.0\nsamples = 1\nvalue = 8027.4", fillcolor="#fdf5f0"] ;
699 -> 701 ;
702 [label="BTC_open <= 8033.4\nsquared_error = 1.82\nsamples = 2\nvalue = 8032.75", fillcolor="#fdf5f0"] ;
698 -> 702 ;
703 [label="squared_error = 0.0\nsamples = 1\nvalue = 8031.4", fillcolor="#fdf5f0"] ;
702 -> 703 ;
704 [label="squared_error = 0.0\nsamples = 1\nvalue = 8034.1", fillcolor="#fdf5f0"] ;
702 -> 704 ;
705 [label="JP225 <= 21777.5\nsquared_error = 75.47\nsamples = 4\nvalue = 8061.45", fillcolor="#fdf5f0"] ;
697 -> 705 ;
706 [label="squared_error = 0.0\nsamples = 1\nvalue = 8049.1", fillcolor="#fdf5f0"] ;
705 -> 706 ;
707 [label="mean_tx_size_usd <= 6636.25\nsquared_error = 32.84\nsamples = 3\nvalue = 8065.57", fillcolor="#fdf5f0"] ;
705 -> 707 ;
708 [label="squared_error = 0.0\nsamples = 1\nvalue = 8073.3", fillcolor="#fdf5f0"] ;
707 -> 708 ;
709 [label="COPPER <= 2.7\nsquared_error = 4.41\nsamples = 2\nvalue = 8061.7", fillcolor="#fdf5f0"] ;
707 -> 709 ;
710 [label="squared_error = 0.0\nsamples = 1\nvalue = 8063.8", fillcolor="#fdf5f0"] ;
709 -> 710 ;
711 [label="squared_error = -0.0\nsamples = 1\nvalue = 8059.6", fillcolor="#fdf5f0"] ;
709 -> 711 ;
712 [label="ETH <= 168.31\nsquared_error = 263.95\nsamples = 7\nvalue = 8127.1", fillcolor="#fdf5f0"] ;
696 -> 712 ;
713 [label="DOGE <= 0.0\nsquared_error = 36.6\nsamples = 2\nvalue = 8105.35", fillcolor="#fdf5f0"] ;
712 -> 713 ;
714 [label="squared_error = 0.0\nsamples = 1\nvalue = 8111.4", fillcolor="#fdf5f0"] ;
713 -> 714 ;
715 [label="squared_error = -0.0\nsamples = 1\nvalue = 8099.3", fillcolor="#fdf5f0"] ;
713 -> 715 ;
716 [label="mean_tx_size_usd <= 5135.34\nsquared_error = 89.97\nsamples = 5\nvalue = 8135.8", fillcolor="#fdf5f0"] ;
712 -> 716 ;
717 [label="DJI <= 13900.0\nsquared_error = 1.44\nsamples = 2\nvalue = 8146.9", fillcolor="#fdf5ef"] ;
716 -> 717 ;
718 [label="squared_error = 0.0\nsamples = 1\nvalue = 8148.1", fillcolor="#fdf5ef"] ;
717 -> 718 ;
719 [label="squared_error = 0.0\nsamples = 1\nvalue = 8145.7", fillcolor="#fdf5ef"] ;
717 -> 719 ;
720 [label="SPX <= 2847.45\nsquared_error = 12.09\nsamples = 3\nvalue = 8128.4", fillcolor="#fdf5f0"] ;
716 -> 720 ;
721 [label="mean_hash_rate <= 75808258.0\nsquared_error = 1.56\nsamples = 2\nvalue = 8126.05", fillcolor="#fdf5f0"] ;
720 -> 721 ;
722 [label="squared_error = 0.0\nsamples = 1\nvalue = 8124.8", fillcolor="#fdf5f0"] ;
721 -> 722 ;
723 [label="squared_error = 0.0\nsamples = 1\nvalue = 8127.3", fillcolor="#fdf5f0"] ;
721 -> 723 ;
724 [label="squared_error = -0.0\nsamples = 1\nvalue = 8133.1", fillcolor="#fdf5f0"] ;
720 -> 724 ;
725 [label="BTC_open <= 8247.6\nsquared_error = 2210.61\nsamples = 21\nvalue = 8218.7", fillcolor="#fdf5ef"] ;
695 -> 725 ;
726 [label="BTC_open <= 8193.4\nsquared_error = 523.42\nsamples = 15\nvalue = 8192.01", fillcolor="#fdf5ef"] ;
725 -> 726 ;
727 [label="addresses_active_count <= 719331.5\nsquared_error = 162.93\nsamples = 8\nvalue = 8173.4", fillcolor="#fdf5ef"] ;
726 -> 727 ;
728 [label="BTC_high <= 8280.05\nsquared_error = 3.51\nsamples = 4\nvalue = 8185.62", fillcolor="#fdf5ef"] ;
727 -> 728 ;
729 [label="SILVER <= 9.0\nsquared_error = 0.06\nsamples = 2\nvalue = 8187.35", fillcolor="#fdf5ef"] ;
728 -> 729 ;
730 [label="squared_error = 0.0\nsamples = 1\nvalue = 8187.1", fillcolor="#fdf5ef"] ;
729 -> 730 ;
731 [label="squared_error = 0.0\nsamples = 1\nvalue = 8187.6", fillcolor="#fdf5ef"] ;
729 -> 731 ;
732 [label="COPPER <= 1.28\nsquared_error = 1.0\nsamples = 2\nvalue = 8183.9", fillcolor="#fdf5ef"] ;
728 -> 732 ;
733 [label="squared_error = 0.0\nsamples = 1\nvalue = 8184.9", fillcolor="#fdf5ef"] ;
732 -> 733 ;
734 [label="squared_error = 0.0\nsamples = 1\nvalue = 8182.9", fillcolor="#fdf5ef"] ;
732 -> 734 ;
735 [label="mean_tx_size_usd <= 7618.68\nsquared_error = 23.45\nsamples = 4\nvalue = 8161.18", fillcolor="#fdf5ef"] ;
727 -> 735 ;
736 [label="ETH <= 195.76\nsquared_error = 0.56\nsamples = 2\nvalue = 8156.45", fillcolor="#fdf5ef"] ;
735 -> 736 ;
737 [label="squared_error = 0.0\nsamples = 1\nvalue = 8155.7", fillcolor="#fdf5ef"] ;
736 -> 737 ;
738 [label="squared_error = -0.0\nsamples = 1\nvalue = 8157.2", fillcolor="#fdf5ef"] ;
736 -> 738 ;
739 [label="COPPER <= 2.67\nsquared_error = 1.69\nsamples = 2\nvalue = 8165.9", fillcolor="#fdf5ef"] ;
735 -> 739 ;
740 [label="squared_error = 0.0\nsamples = 1\nvalue = 8167.2", fillcolor="#fdf5ef"] ;
739 -> 740 ;
741 [label="squared_error = 0.0\nsamples = 1\nvalue = 8164.6", fillcolor="#fdf5ef"] ;
739 -> 741 ;
742 [label="BTC_open <= 8213.3\nsquared_error = 86.94\nsamples = 7\nvalue = 8213.29", fillcolor="#fdf5ef"] ;
726 -> 742 ;
743 [label="BTC_open <= 8202.95\nsquared_error = 17.9\nsamples = 4\nvalue = 8205.92", fillcolor="#fdf5ef"] ;
742 -> 743 ;
744 [label="squared_error = 0.0\nsamples = 1\nvalue = 8198.6", fillcolor="#fdf5ef"] ;
743 -> 744 ;
745 [label="mean_tx_size_usd <= 5409.46\nsquared_error = 0.02\nsamples = 3\nvalue = 8208.37", fillcolor="#fdf5ef"] ;
743 -> 745 ;
746 [label="squared_error = 0.0\nsamples = 1\nvalue = 8208.2", fillcolor="#fdf5ef"] ;
745 -> 746 ;
747 [label="ETH <= 172.69\nsquared_error = 0.0\nsamples = 2\nvalue = 8208.45", fillcolor="#fdf5ef"] ;
745 -> 747 ;
748 [label="squared_error = 0.0\nsamples = 1\nvalue = 8208.5", fillcolor="#fdf5ef"] ;
747 -> 748 ;
749 [label="squared_error = -0.0\nsamples = 1\nvalue = 8208.4", fillcolor="#fdf5ef"] ;
747 -> 749 ;
750 [label="LTC <= 94.31\nsquared_error = 10.45\nsamples = 3\nvalue = 8223.1", fillcolor="#fdf5ef"] ;
742 -> 750 ;
751 [label="BTC_low <= 8098.55\nsquared_error = 3.06\nsamples = 2\nvalue = 8225.15", fillcolor="#fdf5ef"] ;
750 -> 751 ;
752 [label="squared_error = 0.0\nsamples = 1\nvalue = 8226.9", fillcolor="#fdf5ef"] ;
751 -> 752 ;
753 [label="squared_error = 0.0\nsamples = 1\nvalue = 8223.4", fillcolor="#fdf5ef"] ;
751 -> 753 ;
754 [label="squared_error = 0.0\nsamples = 1\nvalue = 8219.0", fillcolor="#fdf5ef"] ;
750 -> 754 ;
755 [label="mean_hash_rate <= 91263160.0\nsquared_error = 194.79\nsamples = 6\nvalue = 8285.43", fillcolor="#fdf5ef"] ;
725 -> 755 ;
756 [label="GOLD <= 1400.05\nsquared_error = 45.66\nsamples = 4\nvalue = 8276.38", fillcolor="#fdf5ef"] ;
755 -> 756 ;
757 [label="total_fees_usd <= 970351.16\nsquared_error = 4.2\nsamples = 2\nvalue = 8269.85", fillcolor="#fdf5ef"] ;
756 -> 757 ;
758 [label="squared_error = 0.0\nsamples = 1\nvalue = 8267.8", fillcolor="#fdf5ef"] ;
757 -> 758 ;
759 [label="squared_error = 0.0\nsamples = 1\nvalue = 8271.9", fillcolor="#fdf5ef"] ;
757 -> 759 ;
760 [label="addresses_active_count <= 722364.5\nsquared_error = 1.96\nsamples = 2\nvalue = 8282.9", fillcolor="#fdf5ef"] ;
756 -> 760 ;
761 [label="squared_error = 0.0\nsamples = 1\nvalue = 8281.5", fillcolor="#fdf5ef"] ;
760 -> 761 ;
762 [label="squared_error = 0.0\nsamples = 1\nvalue = 8284.3", fillcolor="#fdf5ef"] ;
760 -> 762 ;
763 [label="BTC_high <= 8412.1\nsquared_error = 0.72\nsamples = 2\nvalue = 8303.55", fillcolor="#fdf5ef"] ;
755 -> 763 ;
764 [label="squared_error = 0.0\nsamples = 1\nvalue = 8302.7", fillcolor="#fdf5ef"] ;
763 -> 764 ;
765 [label="squared_error = 0.0\nsamples = 1\nvalue = 8304.4", fillcolor="#fdf5ef"] ;
763 -> 765 ;
766 [label="BTC_open <= 8618.35\nsquared_error = 19412.04\nsamples = 51\nvalue = 8653.7", fillcolor="#fdf4ee"] ;
634 -> 766 ;
767 [label="BTC_open <= 8458.05\nsquared_error = 6499.13\nsamples = 18\nvalue = 8491.0", fillcolor="#fdf4ee"] ;
766 -> 767 ;
768 [label="BTC_open <= 8384.25\nsquared_error = 1478.98\nsamples = 6\nvalue = 8389.4", fillcolor="#fdf5ef"] ;
767 -> 768 ;
769 [label="addresses_active_count <= 626935.5\nsquared_error = 84.42\nsamples = 3\nvalue = 8353.0", fillcolor="#fdf5ef"] ;
768 -> 769 ;
770 [label="squared_error = 0.0\nsamples = 1\nvalue = 8341.6", fillcolor="#fdf5ef"] ;
769 -> 770 ;
771 [label="sum_lock_weight <= 474830304.0\nsquared_error = 29.16\nsamples = 2\nvalue = 8358.7", fillcolor="#fdf5ef"] ;
769 -> 771 ;
772 [label="squared_error = 0.0\nsamples = 1\nvalue = 8364.1", fillcolor="#fdf5ef"] ;
771 -> 772 ;
773 [label="squared_error = -0.0\nsamples = 1\nvalue = 8353.3", fillcolor="#fdf5ef"] ;
771 -> 773 ;
774 [label="GOLD <= 1543.55\nsquared_error = 223.62\nsamples = 3\nvalue = 8425.8", fillcolor="#fdf5ef"] ;
768 -> 774 ;
775 [label="JP225 <= 10930.0\nsquared_error = 14.06\nsamples = 2\nvalue = 8436.15", fillcolor="#fdf5ef"] ;
774 -> 775 ;
776 [label="squared_error = 0.0\nsamples = 1\nvalue = 8439.9", fillcolor="#fdf5ef"] ;
775 -> 776 ;
777 [label="squared_error = 0.0\nsamples = 1\nvalue = 8432.4", fillcolor="#fdf5ef"] ;
775 -> 777 ;
778 [label="squared_error = 0.0\nsamples = 1\nvalue = 8405.1", fillcolor="#fdf5ef"] ;
774 -> 778 ;
779 [label="BTC_open <= 8524.9\nsquared_error = 1267.29\nsamples = 12\nvalue = 8541.8", fillcolor="#fdf4ee"] ;
767 -> 779 ;
780 [label="mean_lock_size_ytes <= 1138926.19\nsquared_error = 214.1\nsamples = 4\nvalue = 8499.32", fillcolor="#fdf4ee"] ;
779 -> 780 ;
781 [label="SPX <= 1492.44\nsquared_error = 49.85\nsamples = 3\nvalue = 8507.0", fillcolor="#fdf4ee"] ;
780 -> 781 ;
782 [label="squared_error = 0.0\nsamples = 1\nvalue = 8497.3", fillcolor="#fdf4ee"] ;
781 -> 782 ;
783 [label="mean_hash_rate <= 90366648.0\nsquared_error = 4.2\nsamples = 2\nvalue = 8511.85", fillcolor="#fdf4ee"] ;
781 -> 783 ;
784 [label="squared_error = 0.0\nsamples = 1\nvalue = 8509.8", fillcolor="#fdf4ee"] ;
783 -> 784 ;
785 [label="squared_error = 0.0\nsamples = 1\nvalue = 8513.9", fillcolor="#fdf4ee"] ;
783 -> 785 ;
786 [label="squared_error = -0.0\nsamples = 1\nvalue = 8476.3", fillcolor="#fdf4ee"] ;
780 -> 786 ;
787 [label="BTC_open <= 8568.3\nsquared_error = 440.79\nsamples = 8\nvalue = 8563.04", fillcolor="#fdf4ee"] ;
779 -> 787 ;
788 [label="BTC_open <= 8551.35\nsquared_error = 101.79\nsamples = 6\nvalue = 8552.78", fillcolor="#fdf4ee"] ;
787 -> 788 ;
789 [label="JP225 <= 10585.0\nsquared_error = 5.58\nsamples = 3\nvalue = 8543.13", fillcolor="#fdf4ee"] ;
788 -> 789 ;
790 [label="sum_lock_weight <= 478805040.0\nsquared_error = 1.0\nsamples = 2\nvalue = 8544.7", fillcolor="#fdf4ee"] ;
789 -> 790 ;
791 [label="squared_error = 0.0\nsamples = 1\nvalue = 8543.7", fillcolor="#fdf4ee"] ;
790 -> 791 ;
792 [label="squared_error = -0.0\nsamples = 1\nvalue = 8545.7", fillcolor="#fdf4ee"] ;
790 -> 792 ;
793 [label="squared_error = 0.0\nsamples = 1\nvalue = 8540.0", fillcolor="#fdf4ee"] ;
789 -> 793 ;
794 [label="sum_lock_weight <= 496036960.0\nsquared_error = 11.77\nsamples = 3\nvalue = 8562.43", fillcolor="#fdf4ee"] ;
788 -> 794 ;
795 [label="squared_error = 0.0\nsamples = 1\nvalue = 8566.7", fillcolor="#fdf4ee"] ;
794 -> 795 ;
796 [label="DOGE <= 0.0\nsquared_error = 4.0\nsamples = 2\nvalue = 8560.3", fillcolor="#fdf4ee"] ;
794 -> 796 ;
797 [label="squared_error = 0.0\nsamples = 1\nvalue = 8562.3", fillcolor="#fdf4ee"] ;
796 -> 797 ;
798 [label="squared_error = 0.0\nsamples = 1\nvalue = 8558.3", fillcolor="#fdf4ee"] ;
796 -> 798 ;
799 [label="DOGE <= 0.0\nsquared_error = 196.0\nsamples = 2\nvalue = 8593.8", fillcolor="#fdf4ee"] ;
787 -> 799 ;
800 [label="squared_error = 0.0\nsamples = 1\nvalue = 8607.8", fillcolor="#fdf4ee"] ;
799 -> 800 ;
801 [label="squared_error = 0.0\nsamples = 1\nvalue = 8579.8", fillcolor="#fdf4ee"] ;
799 -> 801 ;
802 [label="BTC_open <= 8747.75\nsquared_error = 4141.88\nsamples = 33\nvalue = 8742.44", fillcolor="#fdf4ee"] ;
766 -> 802 ;
803 [label="BTC_open <= 8687.8\nsquared_error = 1541.83\nsamples = 17\nvalue = 8689.12", fillcolor="#fdf4ee"] ;
802 -> 803 ;
804 [label="BTC_open <= 8651.8\nsquared_error = 243.27\nsamples = 8\nvalue = 8650.38", fillcolor="#fdf4ee"] ;
803 -> 804 ;
805 [label="BTC_open <= 8635.45\nsquared_error = 62.67\nsamples = 4\nvalue = 8637.22", fillcolor="#fdf4ee"] ;
804 -> 805 ;
806 [label="ETH <= 241.49\nsquared_error = 0.36\nsamples = 2\nvalue = 8629.6", fillcolor="#fdf4ee"] ;
805 -> 806 ;
807 [label="squared_error = 0.0\nsamples = 1\nvalue = 8629.0", fillcolor="#fdf4ee"] ;
806 -> 807 ;
808 [label="squared_error = 0.0\nsamples = 1\nvalue = 8630.2", fillcolor="#fdf4ee"] ;
806 -> 808 ;
809 [label="COPPER <= 2.73\nsquared_error = 8.7\nsamples = 2\nvalue = 8644.85", fillcolor="#fdf4ee"] ;
805 -> 809 ;
810 [label="squared_error = 0.0\nsamples = 1\nvalue = 8647.8", fillcolor="#fdf4ee"] ;
809 -> 810 ;
811 [label="squared_error = 0.0\nsamples = 1\nvalue = 8641.9", fillcolor="#fdf4ee"] ;
809 -> 811 ;
812 [label="COPPER <= 2.68\nsquared_error = 78.02\nsamples = 4\nvalue = 8663.52", fillcolor="#fdf4ee"] ;
804 -> 812 ;
813 [label="sum_lock_weight <= 584143168.0\nsquared_error = 4.36\nsamples = 3\nvalue = 8658.53", fillcolor="#fdf4ee"] ;
812 -> 813 ;
814 [label="BTC_low <= 8322.05\nsquared_error = 1.21\nsamples = 2\nvalue = 8657.2", fillcolor="#fdf4ee"] ;
813 -> 814 ;
815 [label="squared_error = 0.0\nsamples = 1\nvalue = 8658.3", fillcolor="#fdf4ee"] ;
814 -> 815 ;
816 [label="squared_error = -0.0\nsamples = 1\nvalue = 8656.1", fillcolor="#fdf4ee"] ;
814 -> 816 ;
817 [label="squared_error = -0.0\nsamples = 1\nvalue = 8661.2", fillcolor="#fdf4ee"] ;
813 -> 817 ;
818 [label="squared_error = 0.0\nsamples = 1\nvalue = 8678.5", fillcolor="#fdf4ee"] ;
812 -> 818 ;
819 [label="BTC_open <= 8721.15\nsquared_error = 175.91\nsamples = 9\nvalue = 8723.56", fillcolor="#fdf4ee"] ;
803 -> 819 ;
820 [label="XRP <= 0.34\nsquared_error = 59.02\nsamples = 3\nvalue = 8706.67", fillcolor="#fdf4ee"] ;
819 -> 820 ;
821 [label="XRP <= 0.23\nsquared_error = 18.92\nsamples = 2\nvalue = 8701.85", fillcolor="#fdf4ee"] ;
820 -> 821 ;
822 [label="squared_error = 0.0\nsamples = 1\nvalue = 8697.5", fillcolor="#fdf4ee"] ;
821 -> 822 ;
823 [label="squared_error = -0.0\nsamples = 1\nvalue = 8706.2", fillcolor="#fdf4ee"] ;
821 -> 823 ;
824 [label="squared_error = 0.0\nsamples = 1\nvalue = 8716.3", fillcolor="#fdf4ee"] ;
820 -> 824 ;
825 [label="BTC_open <= 8735.2\nsquared_error = 20.44\nsamples = 6\nvalue = 8732.0", fillcolor="#fdf4ee"] ;
819 -> 825 ;
826 [label="mean_tx_size_usd <= 8359.29\nsquared_error = 4.54\nsamples = 4\nvalue = 8729.08", fillcolor="#fdf4ee"] ;
825 -> 826 ;
827 [label="squared_error = 0.0\nsamples = 1\nvalue = 8732.6", fillcolor="#fdf4ee"] ;
826 -> 827 ;
828 [label="SILVER <= 17.83\nsquared_error = 0.53\nsamples = 3\nvalue = 8727.9", fillcolor="#fdf4ee"] ;
826 -> 828 ;
829 [label="mean_hash_rate <= 69096218.0\nsquared_error = 0.04\nsamples = 2\nvalue = 8728.4", fillcolor="#fdf4ee"] ;
828 -> 829 ;
830 [label="squared_error = 0.0\nsamples = 1\nvalue = 8728.6", fillcolor="#fdf4ee"] ;
829 -> 830 ;
831 [label="squared_error = -0.0\nsamples = 1\nvalue = 8728.2", fillcolor="#fdf4ee"] ;
829 -> 831 ;
832 [label="squared_error = -0.0\nsamples = 1\nvalue = 8726.9", fillcolor="#fdf4ee"] ;
828 -> 832 ;
833 [label="BTC_high <= 8985.4\nsquared_error = 0.9\nsamples = 2\nvalue = 8737.85", fillcolor="#fdf4ee"] ;
825 -> 833 ;
834 [label="squared_error = 0.0\nsamples = 1\nvalue = 8736.9", fillcolor="#fdf4ee"] ;
833 -> 834 ;
835 [label="squared_error = 0.0\nsamples = 1\nvalue = 8738.8", fillcolor="#fdf4ee"] ;
833 -> 835 ;
836 [label="BTC_open <= 8791.5\nsquared_error = 673.81\nsamples = 16\nvalue = 8799.09", fillcolor="#fdf4ed"] ;
802 -> 836 ;
837 [label="ETH <= 215.3\nsquared_error = 91.05\nsamples = 6\nvalue = 8768.6", fillcolor="#fdf4ee"] ;
836 -> 837 ;
838 [label="sum_lock_weight <= 524502992.0\nsquared_error = 25.13\nsamples = 3\nvalue = 8777.4", fillcolor="#fdf4ed"] ;
837 -> 838 ;
839 [label="SILVER <= 8.54\nsquared_error = 6.0\nsamples = 2\nvalue = 8780.65", fillcolor="#fdf4ed"] ;
838 -> 839 ;
840 [label="squared_error = 0.0\nsamples = 1\nvalue = 8778.2", fillcolor="#fdf4ed"] ;
839 -> 840 ;
841 [label="squared_error = -0.0\nsamples = 1\nvalue = 8783.1", fillcolor="#fdf4ed"] ;
839 -> 841 ;
842 [label="squared_error = 0.0\nsamples = 1\nvalue = 8770.9", fillcolor="#fdf4ee"] ;
838 -> 842 ;
843 [label="JP225 <= 21300.0\nsquared_error = 2.09\nsamples = 3\nvalue = 8759.8", fillcolor="#fdf4ee"] ;
837 -> 843 ;
844 [label="JP225 <= 21180.0\nsquared_error = 0.42\nsamples = 2\nvalue = 8760.75", fillcolor="#fdf4ee"] ;
843 -> 844 ;
845 [label="squared_error = 0.0\nsamples = 1\nvalue = 8761.4", fillcolor="#fdf4ee"] ;
844 -> 845 ;
846 [label="squared_error = 0.0\nsamples = 1\nvalue = 8760.1", fillcolor="#fdf4ee"] ;
844 -> 846 ;
847 [label="squared_error = -0.0\nsamples = 1\nvalue = 8757.9", fillcolor="#fdf4ee"] ;
843 -> 847 ;
848 [label="BTC_open <= 8824.75\nsquared_error = 130.8\nsamples = 10\nvalue = 8817.39", fillcolor="#fdf4ed"] ;
836 -> 848 ;
849 [label="BTC_open <= 8808.45\nsquared_error = 45.95\nsamples = 8\nvalue = 8812.78", fillcolor="#fdf4ed"] ;
848 -> 849 ;
850 [label="mean_hash_rate <= 109066748.0\nsquared_error = 4.41\nsamples = 2\nvalue = 8802.4", fillcolor="#fdf4ed"] ;
849 -> 850 ;
851 [label="squared_error = 0.0\nsamples = 1\nvalue = 8804.5", fillcolor="#fdf4ed"] ;
850 -> 851 ;
852 [label="squared_error = -0.0\nsamples = 1\nvalue = 8800.3", fillcolor="#fdf4ed"] ;
850 -> 852 ;
853 [label="BTC_open <= 8816.0\nsquared_error = 11.96\nsamples = 6\nvalue = 8816.23", fillcolor="#fdf4ed"] ;
849 -> 853 ;
854 [label="mean_hash_rate <= 90315428.0\nsquared_error = 0.35\nsamples = 3\nvalue = 8812.97", fillcolor="#fdf4ed"] ;
853 -> 854 ;
855 [label="DJI <= 13880.5\nsquared_error = 0.0\nsamples = 2\nvalue = 8812.55", fillcolor="#fdf4ed"] ;
854 -> 855 ;
856 [label="squared_error = 0.0\nsamples = 1\nvalue = 8812.5", fillcolor="#fdf4ed"] ;
855 -> 856 ;
857 [label="squared_error = 0.0\nsamples = 1\nvalue = 8812.6", fillcolor="#fdf4ed"] ;
855 -> 857 ;
858 [label="squared_error = 0.0\nsamples = 1\nvalue = 8813.8", fillcolor="#fdf4ed"] ;
854 -> 858 ;
859 [label="SPX <= 1477.11\nsquared_error = 2.22\nsamples = 3\nvalue = 8819.5", fillcolor="#fdf4ed"] ;
853 -> 859 ;
860 [label="squared_error = 0.0\nsamples = 1\nvalue = 8821.6", fillcolor="#fdf4ed"] ;
859 -> 860 ;
861 [label="SILVER <= 17.2\nsquared_error = 0.02\nsamples = 2\nvalue = 8818.45", fillcolor="#fdf4ed"] ;
859 -> 861 ;
862 [label="squared_error = 0.0\nsamples = 1\nvalue = 8818.6", fillcolor="#fdf4ed"] ;
861 -> 862 ;
863 [label="squared_error = -0.0\nsamples = 1\nvalue = 8818.3", fillcolor="#fdf4ed"] ;
861 -> 863 ;
864 [label="XRP <= 0.22\nsquared_error = 44.22\nsamples = 2\nvalue = 8835.85", fillcolor="#fdf4ed"] ;
848 -> 864 ;
865 [label="squared_error = 0.0\nsamples = 1\nvalue = 8842.5", fillcolor="#fdf4ed"] ;
864 -> 865 ;
866 [label="squared_error = 0.0\nsamples = 1\nvalue = 8829.2", fillcolor="#fdf4ed"] ;
864 -> 866 ;
867 [label="BTC_open <= 9442.3\nsquared_error = 77382.62\nsamples = 144\nvalue = 9406.88", fillcolor="#fcf3ec"] ;
633 -> 867 ;
868 [label="BTC_open <= 9144.3\nsquared_error = 22599.24\nsamples = 82\nvalue = 9200.48", fillcolor="#fdf3ec"] ;
867 -> 868 ;
869 [label="BTC_open <= 8983.4\nsquared_error = 8971.51\nsamples = 24\nvalue = 9009.12", fillcolor="#fdf3ed"] ;
868 -> 869 ;
870 [label="BTC_open <= 8938.65\nsquared_error = 1030.57\nsamples = 10\nvalue = 8907.58", fillcolor="#fdf4ed"] ;
869 -> 870 ;
871 [label="BTC_open <= 8892.75\nsquared_error = 278.4\nsamples = 8\nvalue = 8893.38", fillcolor="#fdf4ed"] ;
870 -> 871 ;
872 [label="SPX <= 2855.59\nsquared_error = 72.86\nsamples = 4\nvalue = 8878.65", fillcolor="#fdf4ed"] ;
871 -> 872 ;
873 [label="ETH <= 202.89\nsquared_error = 1.32\nsamples = 2\nvalue = 8886.65", fillcolor="#fdf4ed"] ;
872 -> 873 ;
874 [label="squared_error = 0.0\nsamples = 1\nvalue = 8887.8", fillcolor="#fdf4ed"] ;
873 -> 874 ;
875 [label="squared_error = -0.0\nsamples = 1\nvalue = 8885.5", fillcolor="#fdf4ed"] ;
873 -> 875 ;
876 [label="SILVER <= 16.28\nsquared_error = 16.4\nsamples = 2\nvalue = 8870.65", fillcolor="#fdf4ed"] ;
872 -> 876 ;
877 [label="squared_error = 0.0\nsamples = 1\nvalue = 8874.7", fillcolor="#fdf4ed"] ;
876 -> 877 ;
878 [label="squared_error = -0.0\nsamples = 1\nvalue = 8866.6", fillcolor="#fdf4ed"] ;
876 -> 878 ;
879 [label="DJI <= 12501.0\nsquared_error = 50.29\nsamples = 4\nvalue = 8908.1", fillcolor="#fdf4ed"] ;
871 -> 879 ;
880 [label="ETH <= 170.56\nsquared_error = 2.56\nsamples = 2\nvalue = 8914.7", fillcolor="#fdf4ed"] ;
879 -> 880 ;
881 [label="squared_error = 0.0\nsamples = 1\nvalue = 8916.3", fillcolor="#fdf4ed"] ;
880 -> 881 ;
882 [label="squared_error = -0.0\nsamples = 1\nvalue = 8913.1", fillcolor="#fdf4ed"] ;
880 -> 882 ;
883 [label="difficulty <= 15312478535680.0\nsquared_error = 10.89\nsamples = 2\nvalue = 8901.5", fillcolor="#fdf4ed"] ;
879 -> 883 ;
884 [label="squared_error = 0.0\nsamples = 1\nvalue = 8898.2", fillcolor="#fdf4ed"] ;
883 -> 884 ;
885 [label="squared_error = 0.0\nsamples = 1\nvalue = 8904.8", fillcolor="#fdf4ed"] ;
883 -> 885 ;
886 [label="LTC <= 90.92\nsquared_error = 3.61\nsamples = 2\nvalue = 8964.4", fillcolor="#fdf3ed"] ;
870 -> 886 ;
887 [label="squared_error = 0.0\nsamples = 1\nvalue = 8966.3", fillcolor="#fdf3ed"] ;
886 -> 887 ;
888 [label="squared_error = 0.0\nsamples = 1\nvalue = 8962.5", fillcolor="#fdf3ed"] ;
886 -> 888 ;
889 [label="BTC_open <= 9103.9\nsquared_error = 2018.47\nsamples = 14\nvalue = 9081.65", fillcolor="#fdf3ed"] ;
869 -> 889 ;
890 [label="BTC_low <= 8951.15\nsquared_error = 869.81\nsamples = 9\nvalue = 9053.24", fillcolor="#fdf3ed"] ;
889 -> 890 ;
891 [label="COPPER <= 2.51\nsquared_error = 238.58\nsamples = 3\nvalue = 9015.37", fillcolor="#fdf3ed"] ;
890 -> 891 ;
892 [label="BTC_low <= 8936.9\nsquared_error = 13.32\nsamples = 2\nvalue = 9004.65", fillcolor="#fdf3ed"] ;
891 -> 892 ;
893 [label="squared_error = 0.0\nsamples = 1\nvalue = 9001.0", fillcolor="#fdf3ed"] ;
892 -> 893 ;
894 [label="squared_error = 0.0\nsamples = 1\nvalue = 9008.3", fillcolor="#fdf3ed"] ;
892 -> 894 ;
895 [label="squared_error = 0.0\nsamples = 1\nvalue = 9036.8", fillcolor="#fdf3ed"] ;
891 -> 895 ;
896 [label="xfer_cnt <= 784639.5\nsquared_error = 109.38\nsamples = 6\nvalue = 9072.18", fillcolor="#fdf3ed"] ;
890 -> 896 ;
897 [label="COPPER <= 1.19\nsquared_error = 12.62\nsamples = 3\nvalue = 9062.13", fillcolor="#fdf3ed"] ;
896 -> 897 ;
898 [label="squared_error = 0.0\nsamples = 1\nvalue = 9067.1", fillcolor="#fdf3ed"] ;
897 -> 898 ;
899 [label="total_fees_usd <= 842573.43\nsquared_error = 0.42\nsamples = 2\nvalue = 9059.65", fillcolor="#fdf3ed"] ;
897 -> 899 ;
900 [label="squared_error = 0.0\nsamples = 1\nvalue = 9060.3", fillcolor="#fdf3ed"] ;
899 -> 900 ;
