digraph Tree {
node [shape=box, style="filled, rounded", color="black", fontname="helvetica"] ;
edge [fontname="helvetica"] ;
0 [label="BTC_open <= 23983.95\nsquared_error = 154549780.66\nsamples = 1227\nvalue = 9765.84", fillcolor="#fbece2"] ;
1 [label="BTC_high <= 6004.55\nsquared_error = 19528991.04\nsamples = 1117\nvalue = 6264.55", fillcolor="#fdf3ed"] ;
0 -> 1 [labeldistance=2.5, labelangle=45, headlabel="True"] ;
2 [label="BTC_high <= 2424.75\nsquared_error = 2809870.8\nsamples = 503\nvalue = 2245.47", fillcolor="#fefbf9"] ;
1 -> 2 ;
3 [label="BTC_low <= 889.95\nsquared_error = 136382.6\nsamples = 282\nvalue = 800.03", fillcolor="#fffefe"] ;
2 -> 3 ;
4 [label="BTC_low <= 530.3\nsquared_error = 18098.34\nsamples = 202\nvalue = 606.24", fillcolor="#fffffe"] ;
3 -> 4 ;
5 [label="BTC_high <= 505.5\nsquared_error = 1328.47\nsamples = 64\nvalue = 446.02", fillcolor="#ffffff"] ;
4 -> 5 ;
6 [label="BTC_high <= 439.5\nsquared_error = 328.55\nsamples = 57\nvalue = 434.38", fillcolor="#ffffff"] ;
5 -> 6 ;
7 [label="BTC_open <= 422.85\nsquared_error = 29.68\nsamples = 30\nvalue = 418.46", fillcolor="#ffffff"] ;
6 -> 7 ;
8 [label="BTC_low <= 409.95\nsquared_error = 11.38\nsamples = 24\nvalue = 416.43", fillcolor="#ffffff"] ;
7 -> 8 ;
9 [label="Mean_Block_Size(in_bytes) <= 796141.81\nsquared_error = 3.18\nsamples = 6\nvalue = 411.35", fillcolor="#ffffff"] ;
8 -> 9 ;
10 [label="BTC_low <= 404.75\nsquared_error = 1.46\nsamples = 5\nvalue = 410.83", fillcolor="#ffffff"] ;
9 -> 10 ;
11 [label="squared_error = 0.0\nsamples = 1\nvalue = 408.2", fillcolor="#ffffff"] ;
10 -> 11 ;
12 [label="XRP <= 0.01\nsquared_error = 0.36\nsamples = 4\nvalue = 411.27", fillcolor="#ffffff"] ;
10 -> 12 ;
13 [label="Mean_Tx_size(native_units) <= 4.06\nsquared_error = 0.13\nsamples = 3\nvalue = 411.04", fillcolor="#ffffff"] ;
12 -> 13 ;
14 [label="SILVER <= 15.83\nsquared_error = 0.03\nsamples = 2\nvalue = 411.2", fillcolor="#ffffff"] ;
13 -> 14 ;
15 [label="squared_error = 0.0\nsamples = 1\nvalue = 411.5", fillcolor="#ffffff"] ;
14 -> 15 ;
16 [label="squared_error = -0.0\nsamples = 1\nvalue = 411.1", fillcolor="#ffffff"] ;
14 -> 16 ;
17 [label="squared_error = -0.0\nsamples = 1\nvalue = 410.4", fillcolor="#ffffff"] ;
13 -> 17 ;
18 [label="squared_error = -0.0\nsamples = 1\nvalue = 412.4", fillcolor="#ffffff"] ;
12 -> 18 ;
19 [label="squared_error = 0.0\nsamples = 1\nvalue = 415.0", fillcolor="#ffffff"] ;
9 -> 19 ;
20 [label="BTC_low <= 414.65\nsquared_error = 3.91\nsamples = 18\nvalue = 417.93", fillcolor="#ffffff"] ;
8 -> 20 ;
21 [label="BTC_high <= 418.4\nsquared_error = 0.77\nsamples = 9\nvalue = 416.02", fillcolor="#ffffff"] ;
20 -> 21 ;
22 [label="JP225 <= 17082.81\nsquared_error = 0.36\nsamples = 7\nvalue = 415.73", fillcolor="#ffffff"] ;
21 -> 22 ;
23 [label="BTC_high <= 417.6\nsquared_error = 0.07\nsamples = 5\nvalue = 415.99", fillcolor="#ffffff"] ;
22 -> 23 ;
24 [label="COPPER <= 4854.25\nsquared_error = 0.01\nsamples = 3\nvalue = 415.8", fillcolor="#ffffff"] ;
23 -> 24 ;
25 [label="squared_error = 0.0\nsamples = 1\nvalue = 415.6", fillcolor="#ffffff"] ;
24 -> 25 ;
26 [label="Active_Addr_Cnt <= 447261.5\nsquared_error = 0.0\nsamples = 2\nvalue = 415.85", fillcolor="#ffffff"] ;
24 -> 26 ;
27 [label="squared_error = 0.0\nsamples = 1\nvalue = 415.8", fillcolor="#ffffff"] ;
26 -> 27 ;
28 [label="squared_error = -0.0\nsamples = 1\nvalue = 415.9", fillcolor="#ffffff"] ;
26 -> 28 ;
29 [label="BTC_low <= 412.35\nsquared_error = 0.02\nsamples = 2\nvalue = 416.3", fillcolor="#ffffff"] ;
23 -> 29 ;
30 [label="squared_error = 0.0\nsamples = 1\nvalue = 416.2", fillcolor="#ffffff"] ;
29 -> 30 ;
31 [label="squared_error = -0.0\nsamples = 1\nvalue = 416.5", fillcolor="#ffffff"] ;
29 -> 31 ;
32 [label="BTC_open <= 413.35\nsquared_error = 0.16\nsamples = 2\nvalue = 414.7", fillcolor="#ffffff"] ;
22 -> 32 ;
33 [label="squared_error = 0.0\nsamples = 1\nvalue = 414.3", fillcolor="#ffffff"] ;
32 -> 33 ;
34 [label="squared_error = -0.0\nsamples = 1\nvalue = 415.1", fillcolor="#ffffff"] ;
32 -> 34 ;
35 [label="Difficulty <= 166174498816.0\nsquared_error = 0.25\nsamples = 2\nvalue = 417.5", fillcolor="#ffffff"] ;
21 -> 35 ;
36 [label="squared_error = 0.0\nsamples = 1\nvalue = 417.0", fillcolor="#ffffff"] ;
35 -> 36 ;
37 [label="squared_error = 0.0\nsamples = 1\nvalue = 418.0", fillcolor="#ffffff"] ;
35 -> 37 ;
38 [label="BTC_low <= 416.1\nsquared_error = 1.2\nsamples = 9\nvalue = 419.45", fillcolor="#ffffff"] ;
20 -> 38 ;
39 [label="Sum_Block_Weight <= 402052256.0\nsquared_error = 0.22\nsamples = 4\nvalue = 418.47", fillcolor="#ffffff"] ;
38 -> 39 ;
40 [label="squared_error = 0.0\nsamples = 1\nvalue = 419.1", fillcolor="#ffffff"] ;
39 -> 40 ;
41 [label="XRP <= 0.01\nsquared_error = 0.09\nsamples = 3\nvalue = 418.22", fillcolor="#ffffff"] ;
39 -> 41 ;
42 [label="squared_error = 0.0\nsamples = 1\nvalue = 417.7", fillcolor="#ffffff"] ;
41 -> 42 ;
43 [label="Xfer_Cnt <= 477266.0\nsquared_error = 0.02\nsamples = 2\nvalue = 418.35", fillcolor="#ffffff"] ;
41 -> 43 ;
44 [label="squared_error = 0.0\nsamples = 1\nvalue = 418.5", fillcolor="#ffffff"] ;
43 -> 44 ;
45 [label="squared_error = -0.0\nsamples = 1\nvalue = 418.2", fillcolor="#ffffff"] ;
43 -> 45 ;
46 [label="BTC_high <= 422.2\nsquared_error = 0.48\nsamples = 5\nvalue = 420.31", fillcolor="#ffffff"] ;
38 -> 46 ;
47 [label="SILVER <= 15.12\nsquared_error = 0.16\nsamples = 3\nvalue = 419.97", fillcolor="#ffffff"] ;
46 -> 47 ;
48 [label="squared_error = 0.0\nsamples = 1\nvalue = 419.1", fillcolor="#ffffff"] ;
47 -> 48 ;
49 [label="Mean_Tx_size(native_units) <= 3.56\nsquared_error = 0.01\nsamples = 2\nvalue = 420.14", fillcolor="#ffffff"] ;
47 -> 49 ;
50 [label="squared_error = 0.0\nsamples = 1\nvalue = 420.3", fillcolor="#ffffff"] ;
49 -> 50 ;
51 [label="squared_error = -0.0\nsamples = 1\nvalue = 420.1", fillcolor="#ffffff"] ;
49 -> 51 ;
52 [label="COPPER <= 4720.75\nsquared_error = 0.0\nsamples = 2\nvalue = 421.35", fillcolor="#ffffff"] ;
46 -> 52 ;
53 [label="squared_error = 0.0\nsamples = 1\nvalue = 421.4", fillcolor="#ffffff"] ;
52 -> 53 ;
54 [label="squared_error = -0.0\nsamples = 1\nvalue = 421.3", fillcolor="#ffffff"] ;
52 -> 54 ;
55 [label="BTC_high <= 433.35\nsquared_error = 12.59\nsamples = 6\nvalue = 427.35", fillcolor="#ffffff"] ;
7 -> 55 ;
56 [label="Sum_Block_Weight <= 455732688.0\nsquared_error = 5.08\nsamples = 5\nvalue = 426.27", fillcolor="#ffffff"] ;
55 -> 56 ;
57 [label="BTC_volume <= 29.09\nsquared_error = 1.16\nsamples = 3\nvalue = 427.54", fillcolor="#ffffff"] ;
56 -> 57 ;
58 [label="squared_error = 0.0\nsamples = 1\nvalue = 426.3", fillcolor="#ffffff"] ;
57 -> 58 ;
59 [label="Active_Addr_Cnt <= 456626.0\nsquared_error = 0.22\nsamples = 2\nvalue = 428.37", fillcolor="#ffffff"] ;
57 -> 59 ;
60 [label="squared_error = 0.0\nsamples = 1\nvalue = 428.7", fillcolor="#ffffff"] ;
59 -> 60 ;
61 [label="squared_error = -0.0\nsamples = 1\nvalue = 427.7", fillcolor="#ffffff"] ;
59 -> 61 ;
62 [label="Difficulty <= 170176495616.0\nsquared_error = 0.81\nsamples = 2\nvalue = 423.1", fillcolor="#ffffff"] ;
56 -> 62 ;
63 [label="squared_error = 0.0\nsamples = 1\nvalue = 422.2", fillcolor="#ffffff"] ;
62 -> 63 ;
64 [label="squared_error = -0.0\nsamples = 1\nvalue = 424.0", fillcolor="#ffffff"] ;
62 -> 64 ;
65 [label="squared_error = -0.0\nsamples = 1\nvalue = 434.9", fillcolor="#ffffff"] ;
55 -> 65 ;
66 [label="BTC_low <= 444.8\nsquared_error = 55.54\nsamples = 27\nvalue = 452.39", fillcolor="#ffffff"] ;
6 -> 66 ;
67 [label="BTC_low <= 441.5\nsquared_error = 11.41\nsamples = 10\nvalue = 444.3", fillcolor="#ffffff"] ;
66 -> 67 ;
68 [label="BTC_high <= 444.6\nsquared_error = 2.62\nsamples = 6\nvalue = 442.02", fillcolor="#ffffff"] ;
67 -> 68 ;
69 [label="Mean_Block_Size(in_bytes) <= 644886.53\nsquared_error = 0.57\nsamples = 2\nvalue = 440.13", fillcolor="#ffffff"] ;
68 -> 69 ;
70 [label="squared_error = 0.0\nsamples = 1\nvalue = 439.6", fillcolor="#ffffff"] ;
69 -> 70 ;
71 [label="squared_error = -0.0\nsamples = 1\nvalue = 441.2", fillcolor="#ffffff"] ;
69 -> 71 ;
72 [label="XRP <= 0.01\nsquared_error = 0.42\nsamples = 4\nvalue = 443.16", fillcolor="#ffffff"] ;
68 -> 72 ;
73 [label="BTC_open <= 440.85\nsquared_error = 0.0\nsamples = 2\nvalue = 443.67", fillcolor="#ffffff"] ;
72 -> 73 ;
74 [label="squared_error = 0.0\nsamples = 1\nvalue = 443.7", fillcolor="#ffffff"] ;
73 -> 74 ;
75 [label="squared_error = 0.0\nsamples = 1\nvalue = 443.6", fillcolor="#ffffff"] ;
73 -> 75 ;
76 [label="Mean_Block_Size(in_bytes) <= 866493.28\nsquared_error = 0.09\nsamples = 2\nvalue = 442.4", fillcolor="#ffffff"] ;
72 -> 76 ;
77 [label="squared_error = 0.0\nsamples = 1\nvalue = 442.1", fillcolor="#ffffff"] ;
76 -> 77 ;
78 [label="squared_error = 0.0\nsamples = 1\nvalue = 442.7", fillcolor="#ffffff"] ;
76 -> 78 ;
79 [label="Sum_Block_Weight <= 437330240.0\nsquared_error = 3.94\nsamples = 4\nvalue = 447.94", fillcolor="#ffffff"] ;
67 -> 79 ;
80 [label="Mean_Hashrate <= 1327807.56\nsquared_error = 0.89\nsamples = 2\nvalue = 449.43", fillcolor="#ffffff"] ;
79 -> 80 ;
81 [label="squared_error = 0.0\nsamples = 1\nvalue = 450.1", fillcolor="#ffffff"] ;
80 -> 81 ;
82 [label="squared_error = -0.0\nsamples = 1\nvalue = 448.1", fillcolor="#ffffff"] ;
80 -> 82 ;
83 [label="Xfer_Cnt <= 503659.0\nsquared_error = 0.16\nsamples = 2\nvalue = 445.7", fillcolor="#ffffff"] ;
79 -> 83 ;
84 [label="squared_error = 0.0\nsamples = 1\nvalue = 445.3", fillcolor="#ffffff"] ;
83 -> 84 ;
85 [label="squared_error = -0.0\nsamples = 1\nvalue = 446.1", fillcolor="#ffffff"] ;
83 -> 85 ;
86 [label="BTC_high <= 467.55\nsquared_error = 26.76\nsamples = 17\nvalue = 456.6", fillcolor="#ffffff"] ;
66 -> 86 ;
87 [label="BTC_high <= 457.45\nsquared_error = 10.72\nsamples = 15\nvalue = 455.43", fillcolor="#ffffff"] ;
86 -> 87 ;
88 [label="BTC_open <= 454.95\nsquared_error = 4.55\nsamples = 9\nvalue = 452.82", fillcolor="#ffffff"] ;
87 -> 88 ;
89 [label="Mean_Hashrate <= 1389907.81\nsquared_error = 0.96\nsamples = 8\nvalue = 453.69", fillcolor="#ffffff"] ;
88 -> 89 ;
90 [label="Difficulty <= 192671997952.0\nsquared_error = 0.42\nsamples = 5\nvalue = 453.19", fillcolor="#ffffff"] ;
89 -> 90 ;
91 [label="Total_Fees(USD) <= 18146.18\nsquared_error = 0.02\nsamples = 2\nvalue = 452.35", fillcolor="#ffffff"] ;
90 -> 91 ;
92 [label="squared_error = 0.0\nsamples = 1\nvalue = 452.2", fillcolor="#ffffff"] ;
91 -> 92 ;
93 [label="squared_error = -0.0\nsamples = 1\nvalue = 452.5", fillcolor="#ffffff"] ;
91 -> 93 ;
94 [label="XRP <= 0.01\nsquared_error = 0.19\nsamples = 3\nvalue = 453.52", fillcolor="#ffffff"] ;
90 -> 94 ;
95 [label="DJI <= 17679.13\nsquared_error = 0.0\nsamples = 2\nvalue = 453.3", fillcolor="#ffffff"] ;
94 -> 95 ;
96 [label="squared_error = 0.0\nsamples = 1\nvalue = 453.3", fillcolor="#ffffff"] ;
95 -> 96 ;
97 [label="squared_error = 0.0\nsamples = 1\nvalue = 453.3", fillcolor="#ffffff"] ;
95 -> 97 ;
98 [label="squared_error = -0.0\nsamples = 1\nvalue = 454.4", fillcolor="#ffffff"] ;
94 -> 98 ;
99 [label="BTC_low <= 451.95\nsquared_error = 0.25\nsamples = 3\nvalue = 454.87", fillcolor="#ffffff"] ;
89 -> 99 ;
100 [label="S&P500 <= 2055.96\nsquared_error = 0.04\nsamples = 2\nvalue = 455.2", fillcolor="#ffffff"] ;
99 -> 100 ;
101 [label="squared_error = 0.0\nsamples = 1\nvalue = 455.4", fillcolor="#ffffff"] ;
100 -> 101 ;
102 [label="squared_error = 0.0\nsamples = 1\nvalue = 455.0", fillcolor="#ffffff"] ;
100 -> 102 ;
103 [label="squared_error = 0.0\nsamples = 1\nvalue = 454.2", fillcolor="#ffffff"] ;
99 -> 103 ;
104 [label="squared_error = 0.0\nsamples = 1\nvalue = 448.5", fillcolor="#ffffff"] ;
88 -> 104 ;
105 [label="Mean_Tx_size(native_units) <= 4.05\nsquared_error = 1.97\nsamples = 6\nvalue = 458.27", fillcolor="#ffffff"] ;
87 -> 105 ;
106 [label="Total_Fees(USD) <= 21731.85\nsquared_error = 0.62\nsamples = 4\nvalue = 457.74", fillcolor="#ffffff"] ;
105 -> 106 ;
107 [label="XRP <= 0.01\nsquared_error = 0.14\nsamples = 3\nvalue = 458.13", fillcolor="#ffffff"] ;
106 -> 107 ;
108 [label="Xfer_Cnt <= 467481.5\nsquared_error = 0.04\nsamples = 2\nvalue = 458.34", fillcolor="#ffffff"] ;
107 -> 108 ;
109 [label="squared_error = 0.0\nsamples = 1\nvalue = 458.5", fillcolor="#ffffff"] ;
108 -> 109 ;
110 [label="squared_error = 0.0\nsamples = 1\nvalue = 458.1", fillcolor="#ffffff"] ;
108 -> 110 ;
111 [label="squared_error = -0.0\nsamples = 1\nvalue = 457.6", fillcolor="#ffffff"] ;
107 -> 111 ;
112 [label="squared_error = -0.0\nsamples = 1\nvalue = 456.4", fillcolor="#ffffff"] ;
106 -> 112 ;
113 [label="BTC_volume <= 75.05\nsquared_error = 1.1\nsamples = 2\nvalue = 460.65", fillcolor="#ffffff"] ;
105 -> 113 ;
114 [label="squared_error = 0.0\nsamples = 1\nvalue = 459.6", fillcolor="#ffffff"] ;
113 -> 114 ;
115 [label="squared_error = 0.0\nsamples = 1\nvalue = 461.7", fillcolor="#ffffff"] ;
113 -> 115 ;
116 [label="Difficulty <= 188995002368.0\nsquared_error = 16.0\nsamples = 2\nvalue = 470.0", fillcolor="#ffffff"] ;
86 -> 116 ;
117 [label="squared_error = 0.0\nsamples = 1\nvalue = 466.0", fillcolor="#ffffff"] ;
116 -> 117 ;
118 [label="squared_error = 0.0\nsamples = 1\nvalue = 474.0", fillcolor="#ffffff"] ;
116 -> 118 ;
119 [label="S&P500 <= 2160.41\nsquared_error = 344.43\nsamples = 7\nvalue = 531.75", fillcolor="#ffffff"] ;
5 -> 119 ;
120 [label="Mean_Hashrate <= 1441593.12\nsquared_error = 94.79\nsamples = 6\nvalue = 524.04", fillcolor="#ffffff"] ;
119 -> 120 ;
121 [label="SILVER <= 16.01\nsquared_error = 25.77\nsamples = 4\nvalue = 532.04", fillcolor="#ffffff"] ;
120 -> 121 ;
122 [label="Sum_Block_Weight <= 490197424.0\nsquared_error = 5.78\nsamples = 2\nvalue = 535.7", fillcolor="#ffffff"] ;
121 -> 122 ;
123 [label="squared_error = 0.0\nsamples = 1\nvalue = 537.4", fillcolor="#ffffff"] ;
122 -> 123 ;
124 [label="squared_error = -0.0\nsamples = 1\nvalue = 532.3", fillcolor="#ffffff"] ;
122 -> 124 ;
125 [label="Mean_Block_Size(in_bytes) <= 858758.38\nsquared_error = 5.52\nsamples = 2\nvalue = 526.55", fillcolor="#ffffff"] ;
121 -> 125 ;
126 [label="squared_error = 0.0\nsamples = 1\nvalue = 524.2", fillcolor="#ffffff"] ;
125 -> 126 ;
127 [label="squared_error = 0.0\nsamples = 1\nvalue = 528.9", fillcolor="#ffffff"] ;
125 -> 127 ;
128 [label="BTC_high <= 580.9\nsquared_error = 1.27\nsamples = 2\nvalue = 514.05", fillcolor="#ffffff"] ;
120 -> 128 ;
129 [label="squared_error = 0.0\nsamples = 1\nvalue = 516.0", fillcolor="#ffffff"] ;
128 -> 129 ;
130 [label="squared_error = -0.0\nsamples = 1\nvalue = 513.4", fillcolor="#ffffff"] ;
128 -> 130 ;
131 [label="squared_error = -0.0\nsamples = 1\nvalue = 566.4", fillcolor="#ffffff"] ;
119 -> 131 ;
132 [label="BTC_high <= 719.2\nsquared_error = 8791.82\nsamples = 138\nvalue = 678.85", fillcolor="#fffefe"] ;
4 -> 132 ;
133 [label="BTC_low <= 621.6\nsquared_error = 1456.01\nsamples = 94\nvalue = 624.07", fillcolor="#fffffe"] ;
132 -> 133 ;
134 [label="BTC_open <= 589.9\nsquared_error = 355.97\nsamples = 55\nvalue = 596.87", fillcolor="#fffffe"] ;
133 -> 134 ;
135 [label="BTC_low <= 571.25\nsquared_error = 47.34\nsamples = 25\nvalue = 580.24", fillcolor="#fffffe"] ;
134 -> 135 ;
136 [label="Mean_Tx_size(native_units) <= 3.12\nsquared_error = 10.51\nsamples = 12\nvalue = 574.78", fillcolor="#fffffe"] ;
135 -> 136 ;
137 [label="COPPER <= 4622.12\nsquared_error = 2.88\nsamples = 7\nvalue = 572.61", fillcolor="#fffffe"] ;
136 -> 137 ;
138 [label="Mean_Hashrate <= 1625307.25\nsquared_error = 0.06\nsamples = 3\nvalue = 575.0", fillcolor="#fffffe"] ;
137 -> 138 ;
139 [label="squared_error = 0.0\nsamples = 1\nvalue = 574.7", fillcolor="#fffffe"] ;
138 -> 139 ;
140 [label="XRP <= 0.01\nsquared_error = 0.02\nsamples = 2\nvalue = 575.15", fillcolor="#fffffe"] ;
138 -> 140 ;
141 [label="squared_error = 0.0\nsamples = 1\nvalue = 575.3", fillcolor="#fffffe"] ;
140 -> 141 ;
142 [label="squared_error = 0.0\nsamples = 1\nvalue = 575.0", fillcolor="#fffffe"] ;
140 -> 142 ;
143 [label="Xfer_Cnt <= 457651.0\nsquared_error = 0.99\nsamples = 4\nvalue = 571.71", fillcolor="#fffffe"] ;
137 -> 143 ;
144 [label="squared_error = 0.0\nsamples = 1\nvalue = 569.1", fillcolor="#fffffe"] ;
143 -> 144 ;
145 [label="Xfer_Cnt <= 482661.0\nsquared_error = 0.02\nsamples = 3\nvalue = 572.09", fillcolor="#fffffe"] ;
143 -> 145 ;
146 [label="squared_error = 0.0\nsamples = 2\nvalue = 572.0", fillcolor="#fffffe"] ;
145 -> 146 ;
147 [label="squared_error = 0.0\nsamples = 1\nvalue = 572.3", fillcolor="#fffffe"] ;
145 -> 147 ;
148 [label="BTC_open <= 575.9\nsquared_error = 5.56\nsamples = 5\nvalue = 577.78", fillcolor="#fffffe"] ;
136 -> 148 ;
149 [label="BTC_volume <= 43.64\nsquared_error = 0.02\nsamples = 2\nvalue = 580.4", fillcolor="#fffffe"] ;
148 -> 149 ;
150 [label="squared_error = 0.0\nsamples = 1\nvalue = 580.2", fillcolor="#fffffe"] ;
149 -> 150 ;
151 [label="squared_error = 0.0\nsamples = 1\nvalue = 580.5", fillcolor="#fffffe"] ;
149 -> 151 ;
152 [label="Mean_Tx_size(native_units) <= 3.52\nsquared_error = 2.27\nsamples = 3\nvalue = 576.2", fillcolor="#fffffe"] ;
148 -> 152 ;
153 [label="GOLD <= 1295.7\nsquared_error = 0.18\nsamples = 2\nvalue = 575.0", fillcolor="#fffffe"] ;
152 -> 153 ;
154 [label="squared_error = 0.0\nsamples = 1\nvalue = 575.6", fillcolor="#fffffe"] ;
153 -> 154 ;
155 [label="squared_error = -0.0\nsamples = 1\nvalue = 574.7", fillcolor="#fffffe"] ;
153 -> 155 ;
156 [label="squared_error = 0.0\nsamples = 1\nvalue = 578.0", fillcolor="#fffffe"] ;
152 -> 156 ;
157 [label="BTC_high <= 591.55\nsquared_error = 27.28\nsamples = 13\nvalue = 585.42", fillcolor="#fffffe"] ;
135 -> 157 ;
158 [label="BTC_high <= 586.0\nsquared_error = 7.23\nsamples = 8\nvalue = 582.28", fillcolor="#fffffe"] ;
157 -> 158 ;
159 [label="LTC <= 1.9\nsquared_error = 2.26\nsamples = 5\nvalue = 580.16", fillcolor="#fffffe"] ;
158 -> 159 ;
160 [label="Total_Fees(USD) <= 33109.44\nsquared_error = 0.68\nsamples = 2\nvalue = 581.18", fillcolor="#fffffe"] ;
159 -> 160 ;
161 [label="squared_error = 0.0\nsamples = 1\nvalue = 580.7", fillcolor="#fffffe"] ;
160 -> 161 ;
162 [label="squared_error = -0.0\nsamples = 1\nvalue = 582.6", fillcolor="#fffffe"] ;
160 -> 162 ;
163 [label="JP225 <= 16661.33\nsquared_error = 1.14\nsamples = 3\nvalue = 578.8", fillcolor="#fffffe"] ;
159 -> 163 ;
164 [label="DJI <= 18438.44\nsquared_error = 0.02\nsamples = 2\nvalue = 579.55", fillcolor="#fffffe"] ;
163 -> 164 ;
165 [label="squared_error = 0.0\nsamples = 1\nvalue = 579.4", fillcolor="#fffffe"] ;
164 -> 165 ;
166 [label="squared_error = 0.0\nsamples = 1\nvalue = 579.7", fillcolor="#fffffe"] ;
164 -> 166 ;
167 [label="squared_error = 0.0\nsamples = 1\nvalue = 577.3", fillcolor="#fffffe"] ;
163 -> 167 ;
168 [label="Mean_Block_Size(in_bytes) <= 764574.12\nsquared_error = 1.68\nsamples = 3\nvalue = 584.75", fillcolor="#fffffe"] ;
158 -> 168 ;
169 [label="squared_error = 0.0\nsamples = 1\nvalue = 583.6", fillcolor="#fffffe"] ;
168 -> 169 ;
170 [label="BTC_open <= 588.5\nsquared_error = 0.72\nsamples = 2\nvalue = 585.9", fillcolor="#fffffe"] ;
168 -> 170 ;
171 [label="squared_error = 0.0\nsamples = 1\nvalue = 587.1", fillcolor="#fffffe"] ;
170 -> 171 ;
172 [label="squared_error = 0.0\nsamples = 1\nvalue = 585.3", fillcolor="#fffffe"] ;
170 -> 172 ;
173 [label="BTC_high <= 602.75\nsquared_error = 12.24\nsamples = 5\nvalue = 591.24", fillcolor="#fffffe"] ;
157 -> 173 ;
174 [label="XRP <= 0.01\nsquared_error = 3.18\nsamples = 4\nvalue = 589.98", fillcolor="#fffffe"] ;
173 -> 174 ;
175 [label="squared_error = 0.0\nsamples = 1\nvalue = 587.5", fillcolor="#fffffe"] ;
174 -> 175 ;
176 [label="Sum_Block_Weight <= 441997168.0\nsquared_error = 0.14\nsamples = 3\nvalue = 591.22", fillcolor="#fffffe"] ;
174 -> 176 ;
177 [label="squared_error = 0.0\nsamples = 1\nvalue = 591.6", fillcolor="#fffffe"] ;
176 -> 177 ;
178 [label="BTC_open <= 585.9\nsquared_error = 0.0\nsamples = 2\nvalue = 590.85", fillcolor="#fffffe"] ;
176 -> 178 ;
179 [label="squared_error = 0.0\nsamples = 1\nvalue = 590.9", fillcolor="#fffffe"] ;
178 -> 179 ;
180 [label="squared_error = 0.0\nsamples = 1\nvalue = 590.8", fillcolor="#fffffe"] ;
178 -> 180 ;
181 [label="squared_error = -0.0\nsamples = 1\nvalue = 598.8", fillcolor="#fffffe"] ;
173 -> 181 ;
182 [label="BTC_high <= 674.5\nsquared_error = 147.03\nsamples = 30\nvalue = 612.32", fillcolor="#fffffe"] ;
134 -> 182 ;
183 [label="BTC_low <= 608.8\nsquared_error = 77.26\nsamples = 29\nvalue = 611.0", fillcolor="#fffffe"] ;
182 -> 183 ;
184 [label="BTC_high <= 607.2\nsquared_error = 38.11\nsamples = 21\nvalue = 606.62", fillcolor="#fffffe"] ;
183 -> 184 ;
185 [label="GOLD <= 1343.2\nsquared_error = 26.42\nsamples = 5\nvalue = 598.21", fillcolor="#fffffe"] ;
184 -> 185 ;
186 [label="Mean_Block_Size(in_bytes) <= 598700.56\nsquared_error = 0.4\nsamples = 3\nvalue = 602.12", fillcolor="#fffffe"] ;
185 -> 186 ;
187 [label="squared_error = 0.0\nsamples = 1\nvalue = 601.5", fillcolor="#fffffe"] ;
186 -> 187 ;
188 [label="ETH <= 13.11\nsquared_error = 0.02\nsamples = 2\nvalue = 602.75", fillcolor="#fffffe"] ;
186 -> 188 ;
189 [label="squared_error = 0.0\nsamples = 1\nvalue = 602.6", fillcolor="#fffffe"] ;
188 -> 189 ;
190 [label="squared_error = -0.0\nsamples = 1\nvalue = 602.9", fillcolor="#fffffe"] ;
188 -> 190 ;
191 [label="Mean_Hashrate <= 1544160.44\nsquared_error = 13.52\nsamples = 2\nvalue = 593.0", fillcolor="#fffffe"] ;
185 -> 191 ;
192 [label="squared_error = 0.0\nsamples = 1\nvalue = 587.8", fillcolor="#fffffe"] ;
191 -> 192 ;
193 [label="squared_error = 0.0\nsamples = 1\nvalue = 595.6", fillcolor="#fffffe"] ;
191 -> 193 ;
194 [label="Mean_Tx_size(native_units) <= 4.03\nsquared_error = 12.18\nsamples = 16\nvalue = 609.3", fillcolor="#fffffe"] ;
184 -> 194 ;
195 [label="BTC_low <= 606.05\nsquared_error = 6.16\nsamples = 15\nvalue = 608.75", fillcolor="#fffffe"] ;
194 -> 195 ;
196 [label="BTC_low <= 602.0\nsquared_error = 3.01\nsamples = 11\nvalue = 607.5", fillcolor="#fffffe"] ;
195 -> 196 ;
197 [label="Xfer_Cnt <= 438799.5\nsquared_error = 1.57\nsamples = 5\nvalue = 606.34", fillcolor="#fffffe"] ;
196 -> 197 ;
198 [label="squared_error = 0.0\nsamples = 1\nvalue = 609.5", fillcolor="#fffffe"] ;
197 -> 198 ;
199 [label="BTC_high <= 608.75\nsquared_error = 0.16\nsamples = 4\nvalue = 605.89", fillcolor="#fffffe"] ;
197 -> 199 ;
200 [label="squared_error = 0.0\nsamples = 1\nvalue = 606.5", fillcolor="#fffffe"] ;
199 -> 200 ;
201 [label="Xfer_Cnt <= 540928.0\nsquared_error = 0.02\nsamples = 3\nvalue = 605.64", fillcolor="#fffffe"] ;
199 -> 201 ;
202 [label="ETH <= 12.38\nsquared_error = 0.0\nsamples = 2\nvalue = 605.53", fillcolor="#fffffe"] ;
201 -> 202 ;
203 [label="squared_error = 0.0\nsamples = 1\nvalue = 605.6", fillcolor="#fffffe"] ;
202 -> 203 ;
204 [label="squared_error = 0.0\nsamples = 1\nvalue = 605.5", fillcolor="#fffffe"] ;
202 -> 204 ;
205 [label="squared_error = -0.0\nsamples = 1\nvalue = 605.8", fillcolor="#fffffe"] ;
201 -> 205 ;
206 [label="LTC <= 3.92\nsquared_error = 1.33\nsamples = 6\nvalue = 608.83", fillcolor="#fffffe"] ;
196 -> 206 ;
207 [label="Active_Addr_Cnt <= 506606.5\nsquared_error = 0.29\nsamples = 4\nvalue = 607.95", fillcolor="#fffffe"] ;
206 -> 207 ;
208 [label="squared_error = 0.0\nsamples = 1\nvalue = 607.1", fillcolor="#fffffe"] ;
207 -> 208 ;
209 [label="BTC_high <= 611.3\nsquared_error = 0.07\nsamples = 3\nvalue = 608.23", fillcolor="#fffffe"] ;
207 -> 209 ;
210 [label="COPPER <= 4764.5\nsquared_error = 0.0\nsamples = 2\nvalue = 608.05", fillcolor="#fffffe"] ;
209 -> 210 ;
211 [label="squared_error = 0.0\nsamples = 1\nvalue = 608.0", fillcolor="#fffffe"] ;
210 -> 211 ;
212 [label="squared_error = 0.0\nsamples = 1\nvalue = 608.1", fillcolor="#fffffe"] ;
210 -> 212 ;
213 [label="squared_error = -0.0\nsamples = 1\nvalue = 608.6", fillcolor="#fffffe"] ;
209 -> 213 ;
214 [label="Sum_Block_Weight <= 464823152.0\nsquared_error = 0.32\nsamples = 2\nvalue = 610.0", fillcolor="#fffffe"] ;
206 -> 214 ;
215 [label="squared_error = 0.0\nsamples = 1\nvalue = 610.4", fillcolor="#fffffe"] ;
214 -> 215 ;
216 [label="squared_error = -0.0\nsamples = 1\nvalue = 609.2", fillcolor="#fffffe"] ;
214 -> 216 ;
217 [label="LTC <= 3.92\nsquared_error = 0.44\nsamples = 4\nvalue = 611.87", fillcolor="#fffffe"] ;
195 -> 217 ;
218 [label="COPPER <= 4779.0\nsquared_error = 0.1\nsamples = 3\nvalue = 611.6", fillcolor="#fffffe"] ;
217 -> 218 ;
219 [label="squared_error = 0.0\nsamples = 1\nvalue = 611.0", fillcolor="#fffffe"] ;
218 -> 219 ;
220 [label="ETH <= 13.27\nsquared_error = 0.01\nsamples = 2\nvalue = 611.75", fillcolor="#fffffe"] ;
218 -> 220 ;
221 [label="squared_error = 0.0\nsamples = 1\nvalue = 611.8", fillcolor="#fffffe"] ;
220 -> 221 ;
222 [label="squared_error = -0.0\nsamples = 1\nvalue = 611.6", fillcolor="#fffffe"] ;
220 -> 222 ;
223 [label="squared_error = 0.0\nsamples = 1\nvalue = 613.2", fillcolor="#fffffe"] ;
217 -> 223 ;
224 [label="squared_error = 0.0\nsamples = 1\nvalue = 620.8", fillcolor="#fffffe"] ;
194 -> 224 ;
225 [label="Mean_Tx_size(native_units) <= 3.02\nsquared_error = 13.89\nsamples = 8\nvalue = 621.57", fillcolor="#fffffe"] ;
183 -> 225 ;
226 [label="Xfer_Cnt <= 430140.0\nsquared_error = 2.74\nsamples = 4\nvalue = 624.0", fillcolor="#fffffe"] ;
225 -> 226 ;
227 [label="squared_error = -0.0\nsamples = 1\nvalue = 621.9", fillcolor="#fffffe"] ;
226 -> 227 ;
228 [label="Mean_Tx_size(native_units) <= 2.37\nsquared_error = 0.15\nsamples = 3\nvalue = 625.26", fillcolor="#fffffe"] ;
226 -> 228 ;
229 [label="squared_error = 0.0\nsamples = 1\nvalue = 624.5", fillcolor="#fffffe"] ;
228 -> 229 ;
230 [label="BTC_open <= 638.35\nsquared_error = 0.01\nsamples = 2\nvalue = 625.45", fillcolor="#fffffe"] ;
228 -> 230 ;
231 [label="squared_error = 0.0\nsamples = 1\nvalue = 625.6", fillcolor="#fffffe"] ;
230 -> 231 ;
232 [label="squared_error = -0.0\nsamples = 1\nvalue = 625.4", fillcolor="#fffffe"] ;
230 -> 232 ;
233 [label="BTC_low <= 613.95\nsquared_error = 0.66\nsamples = 4\nvalue = 616.7", fillcolor="#fffffe"] ;
225 -> 233 ;
234 [label="DJI <= 18284.76\nsquared_error = 0.44\nsamples = 3\nvalue = 616.37", fillcolor="#fffffe"] ;
233 -> 234 ;
235 [label="LTC <= 3.81\nsquared_error = 0.01\nsamples = 2\nvalue = 615.9", fillcolor="#fffffe"] ;
234 -> 235 ;
236 [label="squared_error = 0.0\nsamples = 1\nvalue = 615.8", fillcolor="#fffffe"] ;
235 -> 236 ;
237 [label="squared_error = -0.0\nsamples = 1\nvalue = 616.0", fillcolor="#fffffe"] ;
235 -> 237 ;
238 [label="squared_error = -0.0\nsamples = 1\nvalue = 617.3", fillcolor="#fffffe"] ;
234 -> 238 ;
239 [label="squared_error = 0.0\nsamples = 1\nvalue = 617.7", fillcolor="#fffffe"] ;
233 -> 239 ;
240 [label="squared_error = 0.0\nsamples = 1\nvalue = 666.5", fillcolor="#fffefe"] ;
182 -> 240 ;
241 [label="BTC_high <= 680.05\nsquared_error = 474.39\nsamples = 39\nvalue = 662.72", fillcolor="#fffefe"] ;
133 -> 241 ;
242 [label="BTC_high <= 654.7\nsquared_error = 146.32\nsamples = 29\nvalue = 652.17", fillcolor="#fffffe"] ;
241 -> 242 ;
243 [label="GOLD <= 1342.65\nsquared_error = 26.8\nsamples = 9\nvalue = 636.95", fillcolor="#fffffe"] ;
242 -> 243 ;
244 [label="XRP <= 0.01\nsquared_error = 9.55\nsamples = 8\nvalue = 635.11", fillcolor="#fffffe"] ;
243 -> 244 ;
245 [label="Xfer_Cnt <= 526671.0\nsquared_error = 0.48\nsamples = 6\nvalue = 636.53", fillcolor="#fffffe"] ;
244 -> 245 ;
246 [label="Total_Fees(USD) <= 39729.82\nsquared_error = 0.07\nsamples = 3\nvalue = 636.98", fillcolor="#fffffe"] ;
245 -> 246 ;
247 [label="squared_error = 0.0\nsamples = 1\nvalue = 636.5", fillcolor="#fffffe"] ;
246 -> 247 ;
248 [label="BTC_open <= 639.0\nsquared_error = 0.03\nsamples = 2\nvalue = 637.08", fillcolor="#fffffe"] ;
246 -> 248 ;
249 [label="squared_error = 0.0\nsamples = 1\nvalue = 637.0", fillcolor="#fffffe"] ;
248 -> 249 ;
250 [label="squared_error = -0.0\nsamples = 1\nvalue = 637.4", fillcolor="#fffffe"] ;
248 -> 250 ;
251 [label="ETH <= 11.89\nsquared_error = 0.08\nsamples = 3\nvalue = 635.63", fillcolor="#fffffe"] ;
245 -> 251 ;
252 [label="squared_error = 0.0\nsamples = 1\nvalue = 636.0", fillcolor="#fffffe"] ;
251 -> 252 ;
253 [label="SILVER <= 17.55\nsquared_error = 0.02\nsamples = 2\nvalue = 635.45", fillcolor="#fffffe"] ;
251 -> 253 ;
254 [label="squared_error = 0.0\nsamples = 1\nvalue = 635.6", fillcolor="#fffffe"] ;
253 -> 254 ;
255 [label="squared_error = -0.0\nsamples = 1\nvalue = 635.3", fillcolor="#fffffe"] ;
253 -> 255 ;
256 [label="Total_Fees(USD) <= 48013.56\nsquared_error = 0.16\nsamples = 2\nvalue = 628.7", fillcolor="#fffffe"] ;
244 -> 256 ;
257 [label="squared_error = 0.0\nsamples = 1\nvalue = 629.1", fillcolor="#fffffe"] ;
256 -> 257 ;
258 [label="squared_error = -0.0\nsamples = 1\nvalue = 628.3", fillcolor="#fffffe"] ;
256 -> 258 ;
259 [label="squared_error = 0.0\nsamples = 1\nvalue = 647.1", fillcolor="#fffffe"] ;
243 -> 259 ;
260 [label="BTC_high <= 672.15\nsquared_error = 54.26\nsamples = 20\nvalue = 658.77", fillcolor="#fffefe"] ;
242 -> 260 ;
261 [label="Active_Addr_Cnt <= 469861.5\nsquared_error = 29.33\nsamples = 15\nvalue = 655.83", fillcolor="#fffffe"] ;
260 -> 261 ;
262 [label="BTC_high <= 660.8\nsquared_error = 11.53\nsamples = 7\nvalue = 660.33", fillcolor="#fffefe"] ;
261 -> 262 ;
263 [label="Sum_Block_Weight <= 426267984.0\nsquared_error = 0.09\nsamples = 3\nvalue = 655.1", fillcolor="#fffffe"] ;
262 -> 263 ;
264 [label="squared_error = 0.0\nsamples = 1\nvalue = 654.7", fillcolor="#fffffe"] ;
263 -> 264 ;
265 [label="BTC_volume <= 28.47\nsquared_error = 0.01\nsamples = 2\nvalue = 655.3", fillcolor="#fffffe"] ;
263 -> 265 ;
266 [label="squared_error = 0.0\nsamples = 1\nvalue = 655.4", fillcolor="#fffffe"] ;
265 -> 266 ;
267 [label="squared_error = 0.0\nsamples = 1\nvalue = 655.2", fillcolor="#fffffe"] ;
265 -> 267 ;
268 [label="BTC_open <= 660.75\nsquared_error = 1.74\nsamples = 4\nvalue = 662.29", fillcolor="#fffefe"] ;
262 -> 268 ;
269 [label="JP225 <= 15802.42\nsquared_error = 0.49\nsamples = 2\nvalue = 663.5", fillcolor="#fffefe"] ;
268 -> 269 ;
270 [label="squared_error = 0.0\nsamples = 1\nvalue = 662.8", fillcolor="#fffefe"] ;
269 -> 270 ;
271 [label="squared_error = -0.0\nsamples = 1\nvalue = 664.2", fillcolor="#fffefe"] ;
269 -> 271 ;
272 [label="Sum_Block_Weight <= 430362448.0\nsquared_error = 0.05\nsamples = 2\nvalue = 661.08", fillcolor="#fffefe"] ;
268 -> 272 ;
273 [label="squared_error = -0.0\nsamples = 1\nvalue = 661.2", fillcolor="#fffefe"] ;
272 -> 273 ;
274 [label="squared_error = -0.0\nsamples = 1\nvalue = 660.7", fillcolor="#fffefe"] ;
272 -> 274 ;
275 [label="Total_Fees(USD) <= 40537.83\nsquared_error = 10.04\nsamples = 8\nvalue = 651.7", fillcolor="#fffffe"] ;
261 -> 275 ;
276 [label="DJI <= 17818.33\nsquared_error = 0.81\nsamples = 2\nvalue = 645.8", fillcolor="#fffffe"] ;
275 -> 276 ;
277 [label="squared_error = 0.0\nsamples = 1\nvalue = 644.9", fillcolor="#fffffe"] ;
276 -> 277 ;
278 [label="squared_error = 0.0\nsamples = 1\nvalue = 646.7", fillcolor="#fffffe"] ;
276 -> 278 ;
279 [label="BTC_high <= 661.2\nsquared_error = 3.54\nsamples = 6\nvalue = 652.88", fillcolor="#fffffe"] ;
275 -> 279 ;
280 [label="LTC <= 1.92\nsquared_error = 0.4\nsamples = 3\nvalue = 654.88", fillcolor="#fffffe"] ;
279 -> 280 ;
281 [label="Mean_Tx_size(native_units) <= 3.24\nsquared_error = 0.02\nsamples = 2\nvalue = 654.25", fillcolor="#fffffe"] ;
280 -> 281 ;
282 [label="squared_error = 0.0\nsamples = 1\nvalue = 654.1", fillcolor="#fffffe"] ;
281 -> 282 ;
283 [label="squared_error = 0.0\nsamples = 1\nvalue = 654.4", fillcolor="#fffffe"] ;
281 -> 283 ;
284 [label="squared_error = -0.0\nsamples = 1\nvalue = 655.5", fillcolor="#fffffe"] ;
280 -> 284 ;
285 [label="BTC_volume <= 35.56\nsquared_error = 1.2\nsamples = 3\nvalue = 651.55", fillcolor="#fffffe"] ;
279 -> 285 ;
286 [label="squared_error = 0.0\nsamples = 1\nvalue = 654.0", fillcolor="#fffffe"] ;
285 -> 286 ;
287 [label="Difficulty <= 233555501056.0\nsquared_error = 0.0\nsamples = 2\nvalue = 651.06", fillcolor="#fffffe"] ;
285 -> 287 ;
288 [label="squared_error = 0.0\nsamples = 1\nvalue = 651.1", fillcolor="#fffffe"] ;
287 -> 288 ;
289 [label="squared_error = -0.0\nsamples = 1\nvalue = 651.0", fillcolor="#fffffe"] ;
287 -> 289 ;
290 [label="Mean_Tx_size(native_units) <= 3.11\nsquared_error = 14.42\nsamples = 5\nvalue = 668.43", fillcolor="#fffefe"] ;
260 -> 290 ;
291 [label="DJI <= 17924.3\nsquared_error = 1.31\nsamples = 3\nvalue = 671.62", fillcolor="#fffefe"] ;
290 -> 291 ;
292 [label="squared_error = 0.0\nsamples = 1\nvalue = 672.7", fillcolor="#fffefe"] ;
291 -> 292 ;
293 [label="Mean_Block_Size(in_bytes) <= 838596.09\nsquared_error = 0.3\nsamples = 2\nvalue = 670.55", fillcolor="#fffefe"] ;
291 -> 293 ;
294 [label="squared_error = 0.0\nsamples = 1\nvalue = 670.0", fillcolor="#fffefe"] ;
293 -> 294 ;
295 [label="squared_error = 0.0\nsamples = 1\nvalue = 671.1", fillcolor="#fffefe"] ;
293 -> 295 ;
296 [label="COPPER <= 4890.62\nsquared_error = 0.11\nsamples = 2\nvalue = 664.17", fillcolor="#fffefe"] ;
290 -> 296 ;
297 [label="squared_error = 0.0\nsamples = 1\nvalue = 663.7", fillcolor="#fffefe"] ;
296 -> 297 ;
298 [label="squared_error = 0.0\nsamples = 1\nvalue = 664.4", fillcolor="#fffefe"] ;
296 -> 298 ;
299 [label="BTC_high <= 704.45\nsquared_error = 91.86\nsamples = 10\nvalue = 695.1", fillcolor="#fffefe"] ;
241 -> 299 ;
300 [label="XRP <= 0.01\nsquared_error = 14.01\nsamples = 4\nvalue = 683.22", fillcolor="#fffefe"] ;
299 -> 300 ;
301 [label="squared_error = 0.0\nsamples = 1\nvalue = 676.3", fillcolor="#fffefe"] ;
300 -> 301 ;
302 [label="Sum_Block_Weight <= 567033552.0\nsquared_error = 2.54\nsamples = 3\nvalue = 684.95", fillcolor="#fffefe"] ;
300 -> 302 ;
303 [label="BTC_open <= 691.2\nsquared_error = 0.27\nsamples = 2\nvalue = 685.83", fillcolor="#fffefe"] ;
302 -> 303 ;
304 [label="squared_error = 0.0\nsamples = 1\nvalue = 686.2", fillcolor="#fffefe"] ;
303 -> 304 ;
305 [label="squared_error = 0.0\nsamples = 1\nvalue = 685.1", fillcolor="#fffefe"] ;
303 -> 305 ;
306 [label="squared_error = -0.0\nsamples = 1\nvalue = 682.3", fillcolor="#fffefe"] ;
302 -> 306 ;
307 [label="Difficulty <= 254309998592.0\nsquared_error = 13.15\nsamples = 6\nvalue = 701.7", fillcolor="#fffefe"] ;
299 -> 307 ;
308 [label="Mean_Hashrate <= 1987065.06\nsquared_error = 3.95\nsamples = 4\nvalue = 700.16", fillcolor="#fffefe"] ;
307 -> 308 ;
309 [label="BTC_open <= 675.7\nsquared_error = 0.96\nsamples = 3\nvalue = 701.3", fillcolor="#fffefe"] ;
308 -> 309 ;
310 [label="squared_error = 0.0\nsamples = 1\nvalue = 700.1", fillcolor="#fffefe"] ;
309 -> 310 ;
311 [label="squared_error = -0.0\nsamples = 2\nvalue = 702.1", fillcolor="#fffefe"] ;
309 -> 311 ;
312 [label="squared_error = 0.0\nsamples = 1\nvalue = 697.3", fillcolor="#fffefe"] ;
308 -> 312 ;
313 [label="BTC_low <= 699.35\nsquared_error = 7.84\nsamples = 2\nvalue = 707.1", fillcolor="#fffefe"] ;
307 -> 313 ;
314 [label="squared_error = 0.0\nsamples = 1\nvalue = 709.9", fillcolor="#fffefe"] ;
313 -> 314 ;
315 [label="squared_error = 0.0\nsamples = 1\nvalue = 704.3", fillcolor="#fffefe"] ;
313 -> 315 ;
316 [label="BTC_low <= 791.55\nsquared_error = 4465.6\nsamples = 44\nvalue = 795.16", fillcolor="#fffefe"] ;
132 -> 316 ;
317 [label="Difficulty <= 284074999808.0\nsquared_error = 574.01\nsamples = 31\nvalue = 752.45", fillcolor="#fffefe"] ;
316 -> 317 ;
318 [label="BTC_high <= 729.4\nsquared_error = 107.41\nsamples = 16\nvalue = 734.03", fillcolor="#fffefe"] ;
317 -> 318 ;
319 [label="BTC_low <= 696.25\nsquared_error = 0.04\nsamples = 2\nvalue = 714.8", fillcolor="#fffefe"] ;
318 -> 319 ;
320 [label="squared_error = 0.0\nsamples = 1\nvalue = 715.0", fillcolor="#fffefe"] ;
319 -> 320 ;
321 [label="squared_error = 0.0\nsamples = 1\nvalue = 714.6", fillcolor="#fffefe"] ;
319 -> 321 ;
322 [label="BTC_low <= 729.2\nsquared_error = 44.03\nsamples = 14\nvalue = 737.69", fillcolor="#fffefe"] ;
318 -> 322 ;
323 [label="DJI <= 17740.01\nsquared_error = 10.98\nsamples = 10\nvalue = 734.07", fillcolor="#fffefe"] ;
322 -> 323 ;
324 [label="squared_error = 0.0\nsamples = 1\nvalue = 743.9", fillcolor="#fffefe"] ;
323 -> 324 ;
325 [label="Sum_Block_Weight <= 479033056.0\nsquared_error = 4.37\nsamples = 9\nvalue = 733.37", fillcolor="#fffefe"] ;
323 -> 325 ;
326 [label="SILVER <= 16.58\nsquared_error = 0.2\nsamples = 2\nvalue = 728.95", fillcolor="#fffefe"] ;
325 -> 326 ;
327 [label="squared_error = 0.0\nsamples = 1\nvalue = 729.4", fillcolor="#fffefe"] ;
326 -> 327 ;
328 [label="squared_error = -0.0\nsamples = 1\nvalue = 728.5", fillcolor="#fffefe"] ;
326 -> 328 ;
329 [label="Xfer_Cnt <= 655634.5\nsquared_error = 1.26\nsamples = 7\nvalue = 734.11", fillcolor="#fffefe"] ;
325 -> 329 ;
330 [label="BTC_high <= 739.55\nsquared_error = 0.2\nsamples = 5\nvalue = 733.51", fillcolor="#fffefe"] ;
329 -> 330 ;
331 [label="S&P500 <= 2203.19\nsquared_error = 0.09\nsamples = 3\nvalue = 733.25", fillcolor="#fffefe"] ;
330 -> 331 ;
332 [label="BTC_high <= 736.95\nsquared_error = 0.01\nsamples = 2\nvalue = 733.38", fillcolor="#fffefe"] ;
331 -> 332 ;
333 [label="squared_error = 0.0\nsamples = 1\nvalue = 733.5", fillcolor="#fffefe"] ;
332 -> 333 ;
334 [label="squared_error = 0.0\nsamples = 1\nvalue = 733.3", fillcolor="#fffefe"] ;
332 -> 334 ;
335 [label="squared_error = -0.0\nsamples = 1\nvalue = 732.6", fillcolor="#fffefe"] ;
331 -> 335 ;
336 [label="GOLD <= 1235.85\nsquared_error = 0.0\nsamples = 2\nvalue = 734.03", fillcolor="#fffefe"] ;
330 -> 336 ;
337 [label="squared_error = 0.0\nsamples = 1\nvalue = 734.1", fillcolor="#fffefe"] ;
336 -> 337 ;
338 [label="squared_error = 0.0\nsamples = 1\nvalue = 734.0", fillcolor="#fffefe"] ;
336 -> 338 ;
339 [label="BTC_open <= 734.8\nsquared_error = 0.18\nsamples = 2\nvalue = 735.9", fillcolor="#fffefe"] ;
329 -> 339 ;
340 [label="squared_error = 0.0\nsamples = 1\nvalue = 736.2", fillcolor="#fffefe"] ;
339 -> 340 ;
341 [label="squared_error = 0.0\nsamples = 1\nvalue = 735.3", fillcolor="#fffefe"] ;
339 -> 341 ;
342 [label="SILVER <= 16.47\nsquared_error = 12.18\nsamples = 4\nvalue = 746.73", fillcolor="#fffefe"] ;
322 -> 342 ;
343 [label="squared_error = 0.0\nsamples = 1\nvalue = 742.5", fillcolor="#fffefe"] ;
342 -> 343 ;
344 [label="Mean_Tx_size(native_units) <= 2.15\nsquared_error = 4.82\nsamples = 3\nvalue = 748.85", fillcolor="#fffefe"] ;
342 -> 344 ;
345 [label="Total_Fees(USD) <= 58356.08\nsquared_error = 0.18\nsamples = 2\nvalue = 747.6", fillcolor="#fffefe"] ;
344 -> 345 ;
346 [label="squared_error = 0.0\nsamples = 1\nvalue = 747.9", fillcolor="#fffefe"] ;
345 -> 346 ;
347 [label="squared_error = -0.0\nsamples = 1\nvalue = 747.0", fillcolor="#fffefe"] ;
345 -> 347 ;
348 [label="squared_error = 0.0\nsamples = 1\nvalue = 752.6", fillcolor="#fffefe"] ;
344 -> 348 ;
349 [label="Difficulty <= 309693497344.0\nsquared_error = 153.86\nsamples = 15\nvalue = 776.69", fillcolor="#fffefe"] ;
317 -> 349 ;
350 [label="BTC_high <= 772.85\nsquared_error = 26.01\nsamples = 10\nvalue = 769.7", fillcolor="#fffefe"] ;
349 -> 350 ;
351 [label="GOLD <= 1173.8\nsquared_error = 10.3\nsamples = 3\nvalue = 762.67", fillcolor="#fffefe"] ;
350 -> 351 ;
352 [label="squared_error = 0.0\nsamples = 1\nvalue = 758.2", fillcolor="#fffefe"] ;
351 -> 352 ;
353 [label="BTC_low <= 755.05\nsquared_error = 0.49\nsamples = 2\nvalue = 764.9", fillcolor="#fffefe"] ;
351 -> 353 ;
354 [label="squared_error = 0.0\nsamples = 1\nvalue = 765.6", fillcolor="#fffefe"] ;
353 -> 354 ;
355 [label="squared_error = -0.0\nsamples = 1\nvalue = 764.2", fillcolor="#fffefe"] ;
353 -> 355 ;
356 [label="BTC_low <= 766.4\nsquared_error = 11.43\nsamples = 7\nvalue = 771.81", fillcolor="#fffefe"] ;
350 -> 356 ;
357 [label="LTC <= 3.7\nsquared_error = 1.66\nsamples = 4\nvalue = 769.37", fillcolor="#fffefe"] ;
356 -> 357 ;
358 [label="BTC_volume <= 22.96\nsquared_error = 0.08\nsamples = 2\nvalue = 768.1", fillcolor="#fffefe"] ;
357 -> 358 ;
359 [label="squared_error = 0.0\nsamples = 1\nvalue = 767.9", fillcolor="#fffefe"] ;
358 -> 359 ;
360 [label="squared_error = -0.0\nsamples = 1\nvalue = 768.5", fillcolor="#fffefe"] ;
358 -> 360 ;
361 [label="XRP <= 0.01\nsquared_error = 0.04\nsamples = 2\nvalue = 770.63", fillcolor="#fffefe"] ;
357 -> 361 ;
362 [label="squared_error = 0.0\nsamples = 1\nvalue = 770.9", fillcolor="#fffefe"] ;
361 -> 362 ;
363 [label="squared_error = 0.0\nsamples = 1\nvalue = 770.5", fillcolor="#fffefe"] ;
361 -> 363 ;
364 [label="BTC_volume <= 29.66\nsquared_error = 3.71\nsamples = 3\nvalue = 775.48", fillcolor="#fffefe"] ;
356 -> 364 ;
365 [label="Mean_Hashrate <= 1916969.19\nsquared_error = 0.32\nsamples = 2\nvalue = 774.4", fillcolor="#fffefe"] ;
364 -> 365 ;
366 [label="squared_error = 0.0\nsamples = 1\nvalue = 774.0", fillcolor="#fffefe"] ;
365 -> 366 ;
367 [label="squared_error = 0.0\nsamples = 1\nvalue = 775.2", fillcolor="#fffefe"] ;
365 -> 367 ;
368 [label="squared_error = -0.0\nsamples = 1\nvalue = 778.7", fillcolor="#fffefe"] ;
364 -> 368 ;
369 [label="ETH <= 9.81\nsquared_error = 95.66\nsamples = 5\nvalue = 791.83", fillcolor="#fffefe"] ;
349 -> 369 ;
370 [label="GOLD <= 1135.5\nsquared_error = 34.71\nsamples = 4\nvalue = 788.18", fillcolor="#fffefe"] ;
369 -> 370 ;
371 [label="squared_error = 0.0\nsamples = 1\nvalue = 799.1", fillcolor="#fffefe"] ;
370 -> 371 ;
372 [label="Xfer_Cnt <= 570360.0\nsquared_error = 6.13\nsamples = 3\nvalue = 785.45", fillcolor="#fffefe"] ;
370 -> 372 ;
373 [label="squared_error = 0.0\nsamples = 1\nvalue = 789.0", fillcolor="#fffefe"] ;
372 -> 373 ;
374 [label="BTC_volume <= 111.03\nsquared_error = 2.57\nsamples = 2\nvalue = 784.27", fillcolor="#fffefe"] ;
372 -> 374 ;
375 [label="squared_error = 0.0\nsamples = 1\nvalue = 782.0", fillcolor="#fffefe"] ;
374 -> 375 ;
376 [label="squared_error = -0.0\nsamples = 1\nvalue = 785.4", fillcolor="#fffefe"] ;
374 -> 376 ;
377 [label="squared_error = -0.0\nsamples = 1\nvalue = 810.1", fillcolor="#fffefe"] ;
369 -> 377 ;
378 [label="BTC_high <= 887.8\nsquared_error = 786.81\nsamples = 13\nvalue = 884.66", fillcolor="#fffefe"] ;
316 -> 378 ;
379 [label="BTC_high <= 856.8\nsquared_error = 293.0\nsamples = 3\nvalue = 839.68", fillcolor="#fffefe"] ;
378 -> 379 ;
380 [label="Mean_Tx_size(native_units) <= 2.59\nsquared_error = 20.48\nsamples = 2\nvalue = 826.0", fillcolor="#fffefe"] ;
379 -> 380 ;
381 [label="squared_error = 0.0\nsamples = 1\nvalue = 819.6", fillcolor="#fffefe"] ;
380 -> 381 ;
382 [label="squared_error = 0.0\nsamples = 1\nvalue = 829.2", fillcolor="#fffefe"] ;
380 -> 382 ;
383 [label="squared_error = 0.0\nsamples = 1\nvalue = 860.2", fillcolor="#fffefe"] ;
379 -> 383 ;
384 [label="Total_Fees(USD) <= 92280.2\nsquared_error = 111.23\nsamples = 10\nvalue = 898.72", fillcolor="#fffefd"] ;
378 -> 384 ;
385 [label="S&P500 <= 2274.15\nsquared_error = 78.9\nsamples = 4\nvalue = 909.75", fillcolor="#fffefd"] ;
384 -> 385 ;
386 [label="Active_Addr_Cnt <= 643120.5\nsquared_error = 1.15\nsamples = 3\nvalue = 918.6", fillcolor="#fffefd"] ;
385 -> 386 ;
387 [label="Difficulty <= 338994495488.0\nsquared_error = 0.25\nsamples = 2\nvalue = 919.3", fillcolor="#fffefd"] ;
386 -> 387 ;
388 [label="squared_error = 0.0\nsamples = 1\nvalue = 919.8", fillcolor="#fffefd"] ;
387 -> 388 ;
389 [label="squared_error = 0.0\nsamples = 1\nvalue = 918.8", fillcolor="#fffefd"] ;
387 -> 389 ;
390 [label="squared_error = -0.0\nsamples = 1\nvalue = 917.2", fillcolor="#fffefd"] ;
386 -> 390 ;
391 [label="squared_error = 0.0\nsamples = 1\nvalue = 900.9", fillcolor="#fffefd"] ;
385 -> 391 ;
392 [label="Difficulty <= 327293992960.0\nsquared_error = 13.8\nsamples = 6\nvalue = 892.1", fillcolor="#fffefd"] ;
384 -> 392 ;
393 [label="Mean_Tx_size(native_units) <= 2.28\nsquared_error = 1.37\nsamples = 2\nvalue = 888.22", fillcolor="#fffefd"] ;
392 -> 393 ;
394 [label="squared_error = 0.0\nsamples = 1\nvalue = 888.9", fillcolor="#fffefd"] ;
393 -> 394 ;
395 [label="squared_error = 0.0\nsamples = 1\nvalue = 886.2", fillcolor="#fffefe"] ;
393 -> 395 ;
396 [label="ETH <= 10.3\nsquared_error = 5.41\nsamples = 4\nvalue = 894.68", fillcolor="#fffefd"] ;
392 -> 396 ;
397 [label="squared_error = 0.0\nsamples = 1\nvalue = 899.7", fillcolor="#fffefd"] ;
396 -> 397 ;
398 [label="ETH <= 10.56\nsquared_error = 0.45\nsamples = 3\nvalue = 893.68", fillcolor="#fffefd"] ;
396 -> 398 ;
399 [label="BTC_open <= 907.65\nsquared_error = 0.08\nsamples = 2\nvalue = 894.2", fillcolor="#fffefd"] ;
398 -> 399 ;
400 [label="squared_error = 0.0\nsamples = 1\nvalue = 894.4", fillcolor="#fffefd"] ;
399 -> 400 ;
401 [label="squared_error = 0.0\nsamples = 1\nvalue = 893.8", fillcolor="#fffefd"] ;
399 -> 401 ;
402 [label="squared_error = -0.0\nsamples = 1\nvalue = 892.9", fillcolor="#fffefd"] ;
398 -> 402 ;
403 [label="BTC_low <= 1549.25\nsquared_error = 119541.27\nsamples = 80\nvalue = 1253.74", fillcolor="#fffdfc"] ;
3 -> 403 ;
404 [label="BTC_low <= 1083.3\nsquared_error = 16582.35\nsamples = 66\nvalue = 1125.66", fillcolor="#fffefd"] ;
403 -> 404 ;
405 [label="BTC_high <= 1037.0\nsquared_error = 2321.6\nsamples = 34\nvalue = 1024.79", fillcolor="#fffefd"] ;
404 -> 405 ;
406 [label="BTC_high <= 1004.95\nsquared_error = 817.66\nsamples = 17\nvalue = 987.25", fillcolor="#fffefd"] ;
405 -> 406 ;
407 [label="JP225 <= 19315.69\nsquared_error = 547.67\nsamples = 7\nvalue = 955.22", fillcolor="#fffefd"] ;
406 -> 407 ;
408 [label="BTC_volume <= 53.18\nsquared_error = 28.08\nsamples = 4\nvalue = 970.17", fillcolor="#fffefd"] ;
407 -> 408 ;
409 [label="squared_error = 0.0\nsamples = 1\nvalue = 982.4", fillcolor="#fffefd"] ;
408 -> 409 ;
410 [label="JP225 <= 19203.83\nsquared_error = 3.68\nsamples = 3\nvalue = 968.13", fillcolor="#fffefd"] ;
408 -> 410 ;
411 [label="GOLD <= 1203.3\nsquared_error = 0.64\nsamples = 2\nvalue = 969.97", fillcolor="#fffefd"] ;
410 -> 411 ;
412 [label="squared_error = 0.0\nsamples = 1\nvalue = 971.1", fillcolor="#fffefd"] ;
411 -> 412 ;
413 [label="squared_error = -0.0\nsamples = 1\nvalue = 969.4", fillcolor="#fffefd"] ;
411 -> 413 ;
414 [label="squared_error = -0.0\nsamples = 1\nvalue = 966.3", fillcolor="#fffefd"] ;
410 -> 414 ;
415 [label="Mean_Tx_size(native_units) <= 1.56\nsquared_error = 21.35\nsamples = 3\nvalue = 920.33", fillcolor="#fffefd"] ;
407 -> 415 ;
416 [label="squared_error = 0.0\nsamples = 1\nvalue = 914.5", fillcolor="#fffefd"] ;
415 -> 416 ;
417 [label="GOLD <= 1167.4\nsquared_error = 6.5\nsamples = 2\nvalue = 923.25", fillcolor="#fffefd"] ;
415 -> 417 ;
418 [label="squared_error = 0.0\nsamples = 1\nvalue = 925.8", fillcolor="#fffefd"] ;
417 -> 418 ;
419 [label="squared_error = -0.0\nsamples = 1\nvalue = 920.7", fillcolor="#fffefd"] ;
417 -> 419 ;
420 [label="BTC_high <= 1010.0\nsquared_error = 80.86\nsamples = 10\nvalue = 1005.05", fillcolor="#fffefd"] ;
406 -> 420 ;
421 [label="SILVER <= 17.66\nsquared_error = 6.42\nsamples = 4\nvalue = 997.21", fillcolor="#fffefd"] ;
420 -> 421 ;
422 [label="squared_error = 0.0\nsamples = 1\nvalue = 1004.0", fillcolor="#fffefd"] ;
421 -> 422 ;
423 [label="Active_Addr_Cnt <= 667147.5\nsquared_error = 0.74\nsamples = 3\nvalue = 996.36", fillcolor="#fffefd"] ;
421 -> 423 ;
424 [label="BTC_low <= 969.75\nsquared_error = 0.29\nsamples = 2\nvalue = 996.94", fillcolor="#fffefd"] ;
423 -> 424 ;
425 [label="squared_error = 0.0\nsamples = 1\nvalue = 997.6", fillcolor="#fffefd"] ;
424 -> 425 ;
426 [label="squared_error = -0.0\nsamples = 1\nvalue = 996.5", fillcolor="#fffefd"] ;
424 -> 426 ;
427 [label="squared_error = 0.0\nsamples = 1\nvalue = 995.4", fillcolor="#fffefd"] ;
423 -> 427 ;
428 [label="DJI <= 20170.42\nsquared_error = 32.41\nsamples = 6\nvalue = 1012.89", fillcolor="#fffefd"] ;
420 -> 428 ;
429 [label="GOLD <= 1226.45\nsquared_error = 12.13\nsamples = 3\nvalue = 1018.7", fillcolor="#fffefd"] ;
428 -> 429 ;
430 [label="Sum_Block_Weight <= 602823456.0\nsquared_error = 0.18\nsamples = 2\nvalue = 1016.7", fillcolor="#fffefd"] ;
429 -> 430 ;
431 [label="squared_error = 0.0\nsamples = 1\nvalue = 1017.0", fillcolor="#fffefd"] ;
430 -> 431 ;
432 [label="squared_error = 0.0\nsamples = 1\nvalue = 1016.1", fillcolor="#fffefd"] ;
430 -> 432 ;
433 [label="squared_error = 0.0\nsamples = 1\nvalue = 1024.7", fillcolor="#fffefd"] ;
429 -> 433 ;
434 [label="XRP <= 0.01\nsquared_error = 0.0\nsamples = 3\nvalue = 1008.24", fillcolor="#fffefd"] ;
428 -> 434 ;
435 [label="squared_error = -0.0\nsamples = 1\nvalue = 1008.2", fillcolor="#fffefd"] ;
434 -> 435 ;
436 [label="squared_error = -0.0\nsamples = 2\nvalue = 1008.3", fillcolor="#fffefd"] ;
434 -> 436 ;
437 [label="BTC_high <= 1075.5\nsquared_error = 904.07\nsamples = 17\nvalue = 1063.73", fillcolor="#fffefd"] ;
405 -> 437 ;
438 [label="Mean_Block_Size(in_bytes) <= 964369.97\nsquared_error = 55.59\nsamples = 9\nvalue = 1043.57", fillcolor="#fffefd"] ;
437 -> 438 ;
439 [label="Mean_Block_Size(in_bytes) <= 953415.59\nsquared_error = 11.35\nsamples = 5\nvalue = 1049.71", fillcolor="#fffefd"] ;
438 -> 439 ;
440 [label="Total_Fees(USD) <= 194269.48\nsquared_error = 3.97\nsamples = 3\nvalue = 1047.52", fillcolor="#fffefd"] ;
439 -> 440 ;
441 [label="JP225 <= 19072.7\nsquared_error = 0.11\nsamples = 2\nvalue = 1049.13", fillcolor="#fffefd"] ;
440 -> 441 ;
442 [label="squared_error = 0.0\nsamples = 1\nvalue = 1049.6", fillcolor="#fffefd"] ;
441 -> 442 ;
443 [label="squared_error = -0.0\nsamples = 1\nvalue = 1048.9", fillcolor="#fffefd"] ;
441 -> 443 ;
444 [label="squared_error = 0.0\nsamples = 1\nvalue = 1045.1", fillcolor="#fffefd"] ;
440 -> 444 ;
445 [label="ETH <= 12.07\nsquared_error = 2.28\nsamples = 2\nvalue = 1053.37", fillcolor="#fffefd"] ;
439 -> 445 ;
446 [label="squared_error = 0.0\nsamples = 1\nvalue = 1055.5", fillcolor="#fffefd"] ;
445 -> 446 ;
447 [label="squared_error = 0.0\nsamples = 1\nvalue = 1052.3", fillcolor="#fffefd"] ;
445 -> 447 ;
448 [label="GOLD <= 1250.45\nsquared_error = 24.5\nsamples = 4\nvalue = 1037.44", fillcolor="#fffefd"] ;
438 -> 448 ;
449 [label="Mean_Block_Size(in_bytes) <= 970368.28\nsquared_error = 2.31\nsamples = 2\nvalue = 1033.76", fillcolor="#fffefd"] ;
448 -> 449 ;
450 [label="squared_error = 0.0\nsamples = 1\nvalue = 1035.0", fillcolor="#fffefd"] ;
449 -> 450 ;
451 [label="squared_error = 0.0\nsamples = 1\nvalue = 1031.9", fillcolor="#fffefd"] ;
449 -> 451 ;
452 [label="Mean_Hashrate <= 3464349.12\nsquared_error = 1.39\nsamples = 2\nvalue = 1043.57", fillcolor="#fffefd"] ;
448 -> 452 ;
453 [label="squared_error = 0.0\nsamples = 1\nvalue = 1041.9", fillcolor="#fffefd"] ;
452 -> 453 ;
454 [label="squared_error = -0.0\nsamples = 1\nvalue = 1044.4", fillcolor="#fffefd"] ;
452 -> 454 ;
455 [label="Mean_Tx_size(native_units) <= 2.64\nsquared_error = 688.49\nsamples = 8\nvalue = 1093.04", fillcolor="#fffefd"] ;
437 -> 455 ;
456 [label="JP225 <= 19316.26\nsquared_error = 354.61\nsamples = 5\nvalue = 1111.62", fillcolor="#fffefd"] ;
455 -> 456 ;
457 [label="DJI <= 20643.64\nsquared_error = 98.01\nsamples = 2\nvalue = 1087.5", fillcolor="#fffefd"] ;
456 -> 457 ;
458 [label="squared_error = 0.0\nsamples = 1\nvalue = 1077.6", fillcolor="#fffefd"] ;
457 -> 458 ;
459 [label="squared_error = 0.0\nsamples = 1\nvalue = 1097.4", fillcolor="#fffefd"] ;
457 -> 459 ;
460 [label="LTC <= 4.3\nsquared_error = 46.71\nsamples = 3\nvalue = 1123.68", fillcolor="#fffefd"] ;
456 -> 460 ;
461 [label="Sum_Block_Weight <= 542257648.0\nsquared_error = 1.18\nsamples = 2\nvalue = 1119.77", fillcolor="#fffefd"] ;
460 -> 461 ;
462 [label="squared_error = 0.0\nsamples = 1\nvalue = 1119.0", fillcolor="#fffefd"] ;
461 -> 462 ;
463 [label="squared_error = -0.0\nsamples = 1\nvalue = 1121.3", fillcolor="#fffefd"] ;
461 -> 463 ;
464 [label="squared_error = -0.0\nsamples = 1\nvalue = 1135.4", fillcolor="#fffefd"] ;
460 -> 464 ;
465 [label="BTC_low <= 1016.5\nsquared_error = 177.73\nsamples = 3\nvalue = 1070.74", fillcolor="#fffefd"] ;
455 -> 465 ;
466 [label="squared_error = 0.0\nsamples = 1\nvalue = 1044.7", fillcolor="#fffefd"] ;
465 -> 466 ;
467 [label="Active_Addr_Cnt <= 673103.5\nsquared_error = 10.27\nsamples = 2\nvalue = 1077.25", fillcolor="#fffefd"] ;
465 -> 467 ;
468 [label="squared_error = 0.0\nsamples = 1\nvalue = 1079.1", fillcolor="#fffefd"] ;
467 -> 468 ;
469 [label="squared_error = -0.0\nsamples = 1\nvalue = 1071.7", fillcolor="#fffefd"] ;
467 -> 469 ;
470 [label="SILVER <= 16.61\nsquared_error = 9869.21\nsamples = 32\nvalue = 1230.32", fillcolor="#fffdfc"] ;
404 -> 470 ;
471 [label="LTC <= 27.38\nsquared_error = 236.67\nsamples = 3\nvalue = 1519.42", fillcolor="#fffdfc"] ;
470 -> 471 ;
472 [label="Mean_Hashrate <= 3853202.88\nsquared_error = 18.0\nsamples = 2\nvalue = 1510.8", fillcolor="#fffdfc"] ;
471 -> 472 ;
473 [label="squared_error = 0.0\nsamples = 1\nvalue = 1507.8", fillcolor="#fffdfc"] ;
472 -> 473 ;
474 [label="squared_error = 0.0\nsamples = 1\nvalue = 1516.8", fillcolor="#fffdfc"] ;
472 -> 474 ;
475 [label="squared_error = -0.0\nsamples = 1\nvalue = 1545.3", fillcolor="#fffdfb"] ;
471 -> 475 ;
476 [label="BTC_high <= 1244.3\nsquared_error = 3275.7\nsamples = 29\nvalue = 1206.72", fillcolor="#fffdfc"] ;
470 -> 476 ;
477 [label="BTC_high <= 1180.8\nsquared_error = 773.82\nsamples = 16\nvalue = 1170.98", fillcolor="#fffdfd"] ;
476 -> 477 ;
478 [label="ETH <= 13.12\nsquared_error = 146.68\nsamples = 4\nvalue = 1138.61", fillcolor="#fffefd"] ;
477 -> 478 ;
479 [label="squared_error = 0.0\nsamples = 1\nvalue = 1120.5", fillcolor="#fffefd"] ;
478 -> 479 ;
480 [label="GOLD <= 1258.35\nsquared_error = 8.74\nsamples = 3\nvalue = 1146.37", fillcolor="#fffefd"] ;
478 -> 480 ;
481 [label="GOLD <= 1256.15\nsquared_error = 0.54\nsamples = 2\nvalue = 1148.2", fillcolor="#fffefd"] ;
480 -> 481 ;
482 [label="squared_error = 0.0\nsamples = 1\nvalue = 1147.6", fillcolor="#fffefd"] ;
481 -> 482 ;
483 [label="squared_error = -0.0\nsamples = 1\nvalue = 1149.1", fillcolor="#fffefd"] ;
481 -> 483 ;
484 [label="squared_error = -0.0\nsamples = 1\nvalue = 1141.8", fillcolor="#fffefd"] ;
480 -> 484 ;
485 [label="BTC_low <= 1169.75\nsquared_error = 365.92\nsamples = 12\nvalue = 1185.7", fillcolor="#fffdfd"] ;
477 -> 485 ;
486 [label="BTC_open <= 1222.6\nsquared_error = 140.2\nsamples = 7\nvalue = 1172.43", fillcolor="#fffdfd"] ;
485 -> 486 ;
487 [label="Total_Fees(USD) <= 273866.95\nsquared_error = 26.73\nsamples = 6\nvalue = 1177.05", fillcolor="#fffdfd"] ;
486 -> 487 ;
488 [label="BTC_high <= 1184.8\nsquared_error = 7.08\nsamples = 5\nvalue = 1175.63", fillcolor="#fffdfd"] ;
487 -> 488 ;
489 [label="squared_error = 0.0\nsamples = 1\nvalue = 1171.9", fillcolor="#fffdfd"] ;
488 -> 489 ;
490 [label="GOLD <= 1229.85\nsquared_error = 1.59\nsamples = 4\nvalue = 1177.23", fillcolor="#fffdfd"] ;
488 -> 490 ;
491 [label="squared_error = 0.0\nsamples = 1\nvalue = 1179.2", fillcolor="#fffdfd"] ;
490 -> 491 ;
492 [label="Xfer_Cnt <= 601791.0\nsquared_error = 0.05\nsamples = 3\nvalue = 1176.44", fillcolor="#fffdfd"] ;
490 -> 492 ;
493 [label="squared_error = 0.0\nsamples = 1\nvalue = 1176.2", fillcolor="#fffdfd"] ;
492 -> 493 ;
494 [label="Xfer_Cnt <= 662275.0\nsquared_error = 0.02\nsamples = 2\nvalue = 1176.6", fillcolor="#fffdfd"] ;
492 -> 494 ;
495 [label="squared_error = 0.0\nsamples = 1\nvalue = 1176.8", fillcolor="#fffdfd"] ;
494 -> 495 ;
496 [label="squared_error = 0.0\nsamples = 1\nvalue = 1176.5", fillcolor="#fffdfd"] ;
494 -> 496 ;
497 [label="squared_error = 0.0\nsamples = 1\nvalue = 1191.3", fillcolor="#fffdfd"] ;
487 -> 497 ;
498 [label="squared_error = 0.0\nsamples = 1\nvalue = 1147.0", fillcolor="#fffefd"] ;
486 -> 498 ;
499 [label="SILVER <= 18.44\nsquared_error = 70.28\nsamples = 5\nvalue = 1204.87", fillcolor="#fffdfd"] ;
485 -> 499 ;
500 [label="BTC_open <= 1205.2\nsquared_error = 16.85\nsamples = 4\nvalue = 1210.3", fillcolor="#fffdfc"] ;
499 -> 500 ;
501 [label="Mean_Hashrate <= 3715458.88\nsquared_error = 0.08\nsamples = 2\nvalue = 1206.3", fillcolor="#fffdfc"] ;
500 -> 501 ;
502 [label="squared_error = 0.0\nsamples = 1\nvalue = 1206.7", fillcolor="#fffdfc"] ;
501 -> 502 ;
503 [label="squared_error = 0.0\nsamples = 1\nvalue = 1206.1", fillcolor="#fffdfc"] ;
501 -> 503 ;
504 [label="GOLD <= 1280.75\nsquared_error = 1.62\nsamples = 2\nvalue = 1214.3", fillcolor="#fffdfc"] ;
500 -> 504 ;
505 [label="squared_error = 0.0\nsamples = 1\nvalue = 1212.5", fillcolor="#fffdfc"] ;
504 -> 505 ;
506 [label="squared_error = 0.0\nsamples = 1\nvalue = 1215.2", fillcolor="#fffdfc"] ;
504 -> 506 ;
507 [label="squared_error = 0.0\nsamples = 1\nvalue = 1194.0", fillcolor="#fffdfd"] ;
499 -> 507 ;
508 [label="BTC_high <= 1326.45\nsquared_error = 1055.49\nsamples = 13\nvalue = 1273.99", fillcolor="#fffdfc"] ;
476 -> 508 ;
509 [label="BTC_low <= 1252.6\nsquared_error = 340.52\nsamples = 11\nvalue = 1261.12", fillcolor="#fffdfc"] ;
508 -> 509 ;
510 [label="S&P500 <= 2375.15\nsquared_error = 112.78\nsamples = 9\nvalue = 1249.1", fillcolor="#fffdfc"] ;
509 -> 510 ;
511 [label="BTC_volume <= 50.17\nsquared_error = 31.12\nsamples = 5\nvalue = 1240.88", fillcolor="#fffdfc"] ;
510 -> 511 ;
512 [label="XRP <= 0.03\nsquared_error = 13.64\nsamples = 3\nvalue = 1244.53", fillcolor="#fffdfc"] ;
511 -> 512 ;
513 [label="S&P500 <= 2357.07\nsquared_error = 1.21\nsamples = 2\nvalue = 1242.0", fillcolor="#fffdfc"] ;
512 -> 513 ;
514 [label="squared_error = 0.0\nsamples = 1\nvalue = 1240.9", fillcolor="#fffdfc"] ;
513 -> 514 ;
515 [label="squared_error = -0.0\nsamples = 1\nvalue = 1243.1", fillcolor="#fffdfc"] ;
513 -> 515 ;
516 [label="squared_error = 0.0\nsamples = 1\nvalue = 1249.6", fillcolor="#fffdfc"] ;
512 -> 516 ;
517 [label="Xfer_Cnt <= 643068.0\nsquared_error = 7.29\nsamples = 2\nvalue = 1235.4", fillcolor="#fffdfc"] ;
511 -> 517 ;
518 [label="squared_error = 0.0\nsamples = 1\nvalue = 1238.1", fillcolor="#fffdfc"] ;
517 -> 518 ;
519 [label="squared_error = -0.0\nsamples = 1\nvalue = 1232.7", fillcolor="#fffdfc"] ;
517 -> 519 ;
520 [label="JP225 <= 19516.99\nsquared_error = 24.81\nsamples = 4\nvalue = 1259.38", fillcolor="#fffdfc"] ;
510 -> 520 ;
521 [label="squared_error = 0.0\nsamples = 2\nvalue = 1264.3", fillcolor="#fffdfc"] ;
520 -> 521 ;
522 [label="Difficulty <= 450774499328.0\nsquared_error = 1.1\nsamples = 2\nvalue = 1254.45", fillcolor="#fffdfc"] ;
520 -> 522 ;
523 [label="squared_error = 0.0\nsamples = 1\nvalue = 1255.5", fillcolor="#fffdfc"] ;
522 -> 523 ;
524 [label="squared_error = 0.0\nsamples = 1\nvalue = 1253.4", fillcolor="#fffdfc"] ;
522 -> 524 ;
525 [label="SILVER <= 17.59\nsquared_error = 22.12\nsamples = 2\nvalue = 1282.76", fillcolor="#fffdfc"] ;
509 -> 525 ;
526 [label="squared_error = 0.0\nsamples = 1\nvalue = 1286.6", fillcolor="#fffdfc"] ;
525 -> 526 ;
527 [label="squared_error = 0.0\nsamples = 1\nvalue = 1277.0", fillcolor="#fffdfc"] ;
525 -> 527 ;
528 [label="Mean_Tx_size(native_units) <= 1.95\nsquared_error = 9.98\nsamples = 2\nvalue = 1334.07", fillcolor="#fffdfc"] ;
508 -> 528 ;
529 [label="squared_error = 0.0\nsamples = 1\nvalue = 1336.3", fillcolor="#fffdfc"] ;
528 -> 529 ;
530 [label="squared_error = -0.0\nsamples = 1\nvalue = 1329.6", fillcolor="#fffdfc"] ;
528 -> 530 ;
531 [label="BTC_low <= 1838.8\nsquared_error = 48279.06\nsamples = 14\nvalue = 2022.23", fillcolor="#fefcfa"] ;
403 -> 531 ;
532 [label="Mean_Tx_size(native_units) <= 2.84\nsquared_error = 4740.61\nsamples = 6\nvalue = 1764.33", fillcolor="#fefcfb"] ;
531 -> 532 ;
533 [label="BTC_volume <= 99.51\nsquared_error = 1169.04\nsamples = 5\nvalue = 1739.37", fillcolor="#fefcfb"] ;
532 -> 533 ;
534 [label="GOLD <= 1223.3\nsquared_error = 51.9\nsamples = 3\nvalue = 1763.07", fillcolor="#fefcfb"] ;
533 -> 534 ;
535 [label="squared_error = 0.0\nsamples = 1\nvalue = 1752.3", fillcolor="#fefcfb"] ;
534 -> 535 ;
536 [label="BTC_high <= 1786.65\nsquared_error = 17.6\nsamples = 2\nvalue = 1766.67", fillcolor="#fefcfb"] ;
534 -> 536 ;
537 [label="squared_error = 0.0\nsamples = 1\nvalue = 1763.7", fillcolor="#fefcfb"] ;
536 -> 537 ;
538 [label="squared_error = 0.0\nsamples = 1\nvalue = 1772.6", fillcolor="#fefcfb"] ;
536 -> 538 ;
539 [label="ETH <= 87.97\nsquared_error = 30.8\nsamples = 2\nvalue = 1691.95", fillcolor="#fefcfb"] ;
533 -> 539 ;
540 [label="squared_error = 0.0\nsamples = 1\nvalue = 1686.4", fillcolor="#fefcfb"] ;
539 -> 540 ;
541 [label="squared_error = 0.0\nsamples = 1\nvalue = 1697.5", fillcolor="#fefcfb"] ;
539 -> 541 ;
542 [label="squared_error = -0.0\nsamples = 1\nvalue = 1914.1", fillcolor="#fefcfa"] ;
532 -> 542 ;
543 [label="ETH <= 158.42\nsquared_error = 6721.93\nsamples = 8\nvalue = 2186.35", fillcolor="#fefbf9"] ;
531 -> 543 ;
544 [label="Mean_Hashrate <= 4078018.62\nsquared_error = 1298.14\nsamples = 3\nvalue = 2073.67", fillcolor="#fefcfa"] ;
543 -> 544 ;
545 [label="squared_error = 0.0\nsamples = 1\nvalue = 2124.4", fillcolor="#fefcfa"] ;
544 -> 545 ;
546 [label="Mean_Block_Size(in_bytes) <= 984121.72\nsquared_error = 16.81\nsamples = 2\nvalue = 2048.3", fillcolor="#fefcfa"] ;
544 -> 546 ;
547 [label="squared_error = 0.0\nsamples = 1\nvalue = 2044.2", fillcolor="#fefcfa"] ;
546 -> 547 ;
548 [label="squared_error = -0.0\nsamples = 1\nvalue = 2052.4", fillcolor="#fefcfa"] ;
546 -> 548 ;
549 [label="BTC_high <= 2333.35\nsquared_error = 2208.15\nsamples = 5\nvalue = 2228.61", fillcolor="#fefbf9"] ;
543 -> 549 ;
550 [label="COPPER <= 5834.25\nsquared_error = 422.12\nsamples = 3\nvalue = 2204.4", fillcolor="#fefbf9"] ;
549 -> 550 ;
551 [label="Mean_Tx_size(native_units) <= 2.41\nsquared_error = 2.43\nsamples = 2\nvalue = 2189.9", fillcolor="#fefbf9"] ;
550 -> 551 ;
552 [label="squared_error = 0.0\nsamples = 1\nvalue = 2189.0", fillcolor="#fefbf9"] ;
551 -> 552 ;
553 [label="squared_error = -0.0\nsamples = 1\nvalue = 2192.6", fillcolor="#fefbf9"] ;
551 -> 553 ;
554 [label="squared_error = 0.0\nsamples = 1\nvalue = 2233.4", fillcolor="#fefbf9"] ;
550 -> 554 ;
555 [label="Mean_Tx_size(native_units) <= 2.68\nsquared_error = 531.3\nsamples = 2\nvalue = 2301.25", fillcolor="#fefbf9"] ;
549 -> 555 ;
556 [label="squared_error = 0.0\nsamples = 1\nvalue = 2278.2", fillcolor="#fefbf9"] ;
555 -> 556 ;
557 [label="squared_error = 0.0\nsamples = 1\nvalue = 2324.3", fillcolor="#fefbf9"] ;
555 -> 557 ;
558 [label="BTC_high <= 4220.3\nsquared_error = 782375.9\nsamples = 221\nvalue = 3885.72", fillcolor="#fef8f4"] ;
2 -> 558 ;
559 [label="BTC_low <= 2841.65\nsquared_error = 299327.95\nsamples = 144\nvalue = 3397.53", fillcolor="#fef9f6"] ;
558 -> 559 ;
560 [label="BTC_low <= 2521.35\nsquared_error = 20839.7\nsamples = 45\nvalue = 2650.22", fillcolor="#fefbf8"] ;
559 -> 560 ;
561 [label="BTC_low <= 2335.15\nsquared_error = 6409.85\nsamples = 19\nvalue = 2503.14", fillcolor="#fefbf8"] ;
560 -> 561 ;
562 [label="Mean_Block_Size(in_bytes) <= 976949.59\nsquared_error = 2211.82\nsamples = 6\nvalue = 2410.96", fillcolor="#fefbf9"] ;
561 -> 562 ;
563 [label="GOLD <= 1236.85\nsquared_error = 677.12\nsamples = 2\nvalue = 2344.0", fillcolor="#fefbf9"] ;
562 -> 563 ;
564 [label="squared_error = 0.0\nsamples = 1\nvalue = 2362.4", fillcolor="#fefbf9"] ;
563 -> 564 ;
565 [label="squared_error = -0.0\nsamples = 1\nvalue = 2307.2", fillcolor="#fefbf9"] ;
563 -> 565 ;
566 [label="BTC_high <= 2478.9\nsquared_error = 124.46\nsamples = 4\nvalue = 2439.66", fillcolor="#fefbf9"] ;
562 -> 566 ;
567 [label="squared_error = 0.0\nsamples = 1\nvalue = 2412.6", fillcolor="#fefbf9"] ;
566 -> 567 ;
568 [label="Mean_Hashrate <= 5093098.0\nsquared_error = 2.85\nsamples = 3\nvalue = 2444.17", fillcolor="#fefbf9"] ;
566 -> 568 ;
569 [label="Mean_Hashrate <= 4792889.5\nsquared_error = 0.14\nsamples = 2\nvalue = 2445.83", fillcolor="#fefbf9"] ;
568 -> 569 ;
570 [label="squared_error = 0.0\nsamples = 1\nvalue = 2445.3", fillcolor="#fefbf9"] ;
569 -> 570 ;
571 [label="squared_error = 0.0\nsamples = 1\nvalue = 2446.1", fillcolor="#fefbf9"] ;
569 -> 571 ;
572 [label="squared_error = 0.0\nsamples = 1\nvalue = 2442.5", fillcolor="#fefbf9"] ;
568 -> 572 ;
573 [label="BTC_high <= 2579.55\nsquared_error = 2436.02\nsamples = 13\nvalue = 2547.03", fillcolor="#fefbf8"] ;
561 -> 573 ;
574 [label="XRP <= 0.25\nsquared_error = 1277.62\nsamples = 5\nvalue = 2497.01", fillcolor="#fefbf8"] ;
573 -> 574 ;
575 [label="BTC_high <= 2552.95\nsquared_error = 696.89\nsamples = 2\nvalue = 2461.93", fillcolor="#fefbf9"] ;
574 -> 575 ;
576 [label="squared_error = 0.0\nsamples = 1\nvalue = 2424.6", fillcolor="#fefbf9"] ;
575 -> 576 ;
577 [label="squared_error = 0.0\nsamples = 1\nvalue = 2480.6", fillcolor="#fefbf9"] ;
575 -> 577 ;
578 [label="BTC_volume <= 92.49\nsquared_error = 97.9\nsamples = 3\nvalue = 2523.32", fillcolor="#fefbf8"] ;
574 -> 578 ;
579 [label="S&P500 <= 2431.24\nsquared_error = 34.17\nsamples = 2\nvalue = 2528.23", fillcolor="#fefbf8"] ;
578 -> 579 ;
580 [label="squared_error = 0.0\nsamples = 1\nvalue = 2536.5", fillcolor="#fefbf8"] ;
579 -> 580 ;
581 [label="squared_error = -0.0\nsamples = 1\nvalue = 2524.1", fillcolor="#fefbf8"] ;
579 -> 581 ;
582 [label="squared_error = -0.0\nsamples = 1\nvalue = 2508.6", fillcolor="#fefbf8"] ;
578 -> 582 ;
583 [label="ETH <= 333.56\nsquared_error = 1138.8\nsamples = 8\nvalue = 2572.04", fillcolor="#fefbf8"] ;
573 -> 583 ;
584 [label="COPPER <= 5854.12\nsquared_error = 446.53\nsamples = 6\nvalue = 2561.25", fillcolor="#fefbf8"] ;
583 -> 584 ;
585 [label="DOGE <= 0.0\nsquared_error = 151.49\nsamples = 3\nvalue = 2538.34", fillcolor="#fefbf8"] ;
584 -> 585 ;
586 [label="squared_error = 0.0\nsamples = 1\nvalue = 2513.9", fillcolor="#fefbf8"] ;
585 -> 586 ;
587 [label="Mean_Tx_size(native_units) <= 3.28\nsquared_error = 2.71\nsamples = 2\nvalue = 2544.45", fillcolor="#fefbf8"] ;
585 -> 587 ;
588 [label="squared_error = 0.0\nsamples = 1\nvalue = 2545.4", fillcolor="#fefbf8"] ;
587 -> 588 ;
589 [label="squared_error = -0.0\nsamples = 1\nvalue = 2541.6", fillcolor="#fefbf8"] ;
587 -> 589 ;
590 [label="SILVER <= 16.32\nsquared_error = 14.58\nsamples = 3\nvalue = 2577.61", fillcolor="#fefbf8"] ;
584 -> 590 ;
591 [label="squared_error = 0.0\nsamples = 1\nvalue = 2572.5", fillcolor="#fefbf8"] ;
590 -> 591 ;
592 [label="SILVER <= 16.65\nsquared_error = 5.76\nsamples = 2\nvalue = 2579.66", fillcolor="#fefbf8"] ;
590 -> 592 ;
593 [label="squared_error = 0.0\nsamples = 1\nvalue = 2582.6", fillcolor="#fefbf8"] ;
592 -> 593 ;
594 [label="squared_error = 0.0\nsamples = 1\nvalue = 2577.7", fillcolor="#fefbf8"] ;
592 -> 594 ;
595 [label="ETH <= 371.2\nsquared_error = 400.0\nsamples = 2\nvalue = 2636.8", fillcolor="#fefbf8"] ;
583 -> 595 ;
596 [label="squared_error = 0.0\nsamples = 1\nvalue = 2616.8", fillcolor="#fefbf8"] ;
595 -> 596 ;
597 [label="squared_error = 0.0\nsamples = 1\nvalue = 2656.8", fillcolor="#fefbf8"] ;
595 -> 597 ;
598 [label="BTC_high <= 2766.4\nsquared_error = 6676.61\nsamples = 26\nvalue = 2747.24", fillcolor="#fefaf8"] ;
560 -> 598 ;
599 [label="Active_Addr_Cnt <= 668247.0\nsquared_error = 3012.88\nsamples = 9\nvalue = 2660.03", fillcolor="#fefbf8"] ;
598 -> 599 ;
600 [label="JP225 <= 20107.15\nsquared_error = 566.43\nsamples = 4\nvalue = 2596.14", fillcolor="#fefbf8"] ;
599 -> 600 ;
601 [label="Sum_Block_Weight <= 543516800.0\nsquared_error = 46.92\nsamples = 2\nvalue = 2621.05", fillcolor="#fefbf8"] ;
600 -> 601 ;
602 [label="squared_error = 0.0\nsamples = 1\nvalue = 2614.2", fillcolor="#fefbf8"] ;
601 -> 602 ;
603 [label="squared_error = -0.0\nsamples = 1\nvalue = 2627.9", fillcolor="#fefbf8"] ;
601 -> 603 ;
604 [label="DJI <= 21340.89\nsquared_error = 223.31\nsamples = 2\nvalue = 2579.53", fillcolor="#fefbf8"] ;
600 -> 604 ;
605 [label="squared_error = 0.0\nsamples = 1\nvalue = 2558.4", fillcolor="#fefbf8"] ;
604 -> 605 ;
606 [label="squared_error = -0.0\nsamples = 1\nvalue = 2590.1", fillcolor="#fefbf8"] ;
604 -> 606 ;
607 [label="S&P500 <= 2431.76\nsquared_error = 844.58\nsamples = 5\nvalue = 2695.52", fillcolor="#fefaf8"] ;
599 -> 607 ;
608 [label="squared_error = 0.0\nsamples = 1\nvalue = 2617.3", fillcolor="#fefbf8"] ;
607 -> 608 ;
609 [label="Difficulty <= 774928498688.0\nsquared_error = 89.71\nsamples = 4\nvalue = 2705.3", fillcolor="#fefaf8"] ;
607 -> 609 ;
610 [label="Sum_Block_Weight <= 579572384.0\nsquared_error = 39.81\nsamples = 3\nvalue = 2709.77", fillcolor="#fefaf8"] ;
609 -> 610 ;
611 [label="squared_error = 0.0\nsamples = 1\nvalue = 2722.8", fillcolor="#fefaf8"] ;
610 -> 611 ;
612 [label="Xfer_Cnt <= 659037.0\nsquared_error = 7.0\nsamples = 2\nvalue = 2707.16", fillcolor="#fefaf8"] ;
610 -> 612 ;
613 [label="squared_error = 0.0\nsamples = 1\nvalue = 2710.4", fillcolor="#fefaf8"] ;
612 -> 613 ;
614 [label="squared_error = 0.0\nsamples = 1\nvalue = 2705.0", fillcolor="#fefaf8"] ;
612 -> 614 ;
615 [label="squared_error = 0.0\nsamples = 1\nvalue = 2691.9", fillcolor="#fefaf8"] ;
609 -> 615 ;
616 [label="Mean_Block_Size(in_bytes) <= 975029.91\nsquared_error = 3635.69\nsamples = 17\nvalue = 2784.23", fillcolor="#fefaf8"] ;
598 -> 616 ;
617 [label="BTC_low <= 2720.35\nsquared_error = 2257.3\nsamples = 13\nvalue = 2801.6", fillcolor="#fefaf7"] ;
616 -> 617 ;
618 [label="BTC_open <= 2727.0\nsquared_error = 953.6\nsamples = 9\nvalue = 2781.1", fillcolor="#fefaf8"] ;
617 -> 618 ;
619 [label="BTC_low <= 2618.8\nsquared_error = 594.79\nsamples = 5\nvalue = 2801.55", fillcolor="#fefaf7"] ;
618 -> 619 ;
620 [label="squared_error = 0.0\nsamples = 1\nvalue = 2754.4", fillcolor="#fefaf8"] ;
619 -> 620 ;
621 [label="LTC <= 44.6\nsquared_error = 180.19\nsamples = 4\nvalue = 2810.98", fillcolor="#fefaf7"] ;
619 -> 621 ;
622 [label="BTC_open <= 2691.7\nsquared_error = 21.72\nsamples = 3\nvalue = 2804.6", fillcolor="#fefaf7"] ;
621 -> 622 ;
623 [label="squared_error = -0.0\nsamples = 1\nvalue = 2798.8", fillcolor="#fefaf8"] ;
622 -> 623 ;
624 [label="BTC_open <= 2706.2\nsquared_error = 2.46\nsamples = 2\nvalue = 2808.08", fillcolor="#fefaf7"] ;
622 -> 624 ;
625 [label="squared_error = -0.0\nsamples = 1\nvalue = 2806.8", fillcolor="#fefaf7"] ;
624 -> 625 ;
626 [label="squared_error = 0.0\nsamples = 1\nvalue = 2810.0", fillcolor="#fefaf7"] ;
624 -> 626 ;
627 [label="squared_error = -0.0\nsamples = 1\nvalue = 2836.5", fillcolor="#fefaf7"] ;
621 -> 627 ;
628 [label="BTC_high <= 2805.5\nsquared_error = 130.34\nsamples = 4\nvalue = 2753.82", fillcolor="#fefaf8"] ;
618 -> 628 ;
629 [label="Difficulty <= 832373489664.0\nsquared_error = 1.8\nsamples = 2\nvalue = 2765.72", fillcolor="#fefaf8"] ;
628 -> 629 ;
630 [label="squared_error = 0.0\nsamples = 1\nvalue = 2763.4", fillcolor="#fefaf8"] ;
629 -> 630 ;
631 [label="squared_error = 0.0\nsamples = 1\nvalue = 2766.5", fillcolor="#fefaf8"] ;
629 -> 631 ;
632 [label="Mean_Block_Size(in_bytes) <= 796949.72\nsquared_error = 29.16\nsamples = 2\nvalue = 2744.3", fillcolor="#fefaf8"] ;
628 -> 632 ;
633 [label="squared_error = 0.0\nsamples = 1\nvalue = 2747.0", fillcolor="#fefaf8"] ;
632 -> 633 ;
634 [label="squared_error = 0.0\nsamples = 1\nvalue = 2733.5", fillcolor="#fefaf8"] ;
632 -> 634 ;
635 [label="BTC_volume <= 67.91\nsquared_error = 1121.3\nsamples = 4\nvalue = 2863.13", fillcolor="#fefaf7"] ;
617 -> 635 ;
636 [label="squared_error = 0.0\nsamples = 1\nvalue = 2811.4", fillcolor="#fefaf7"] ;
635 -> 636 ;
637 [label="Mean_Hashrate <= 5479000.25\nsquared_error = 71.35\nsamples = 3\nvalue = 2883.82", fillcolor="#fefaf7"] ;
635 -> 637 ;
638 [label="squared_error = 0.0\nsamples = 1\nvalue = 2900.3", fillcolor="#fefaf7"] ;
637 -> 638 ;
639 [label="LTC <= 42.67\nsquared_error = 4.32\nsamples = 2\nvalue = 2879.7", fillcolor="#fefaf7"] ;
637 -> 639 ;
640 [label="squared_error = 0.0\nsamples = 1\nvalue = 2883.3", fillcolor="#fefaf7"] ;
639 -> 640 ;
641 [label="squared_error = 0.0\nsamples = 1\nvalue = 2878.5", fillcolor="#fefaf7"] ;
639 -> 641 ;
642 [label="BTC_open <= 2705.6\nsquared_error = 202.91\nsamples = 4\nvalue = 2686.96", fillcolor="#fefaf8"] ;
616 -> 642 ;
643 [label="squared_error = 0.0\nsamples = 1\nvalue = 2713.0", fillcolor="#fefaf8"] ;
642 -> 643 ;
644 [label="Difficulty <= 695228497920.0\nsquared_error = 41.74\nsamples = 3\nvalue = 2680.45", fillcolor="#fefaf8"] ;
642 -> 644 ;
645 [label="squared_error = 0.0\nsamples = 1\nvalue = 2691.5", fillcolor="#fefaf8"] ;
644 -> 645 ;
646 [label="BTC_volume <= 154.89\nsquared_error = 1.39\nsamples = 2\nvalue = 2676.77", fillcolor="#fefaf8"] ;
644 -> 646 ;
647 [label="squared_error = 0.0\nsamples = 1\nvalue = 2677.6", fillcolor="#fefaf8"] ;
646 -> 647 ;
648 [label="squared_error = 0.0\nsamples = 1\nvalue = 2675.1", fillcolor="#fefaf8"] ;
646 -> 648 ;
649 [label="BTC_low <= 3605.95\nsquared_error = 55418.13\nsamples = 99\nvalue = 3738.41", fillcolor="#fef8f5"] ;
559 -> 649 ;
650 [label="BTC_high <= 3561.3\nsquared_error = 19279.88\nsamples = 46\nvalue = 3526.14", fillcolor="#fef9f5"] ;
649 -> 650 ;
651 [label="BTC_high <= 3382.9\nsquared_error = 7040.94\nsamples = 17\nvalue = 3371.83", fillcolor="#fef9f6"] ;
650 -> 651 ;
652 [label="DOGE <= 0.0\nsquared_error = 178.98\nsamples = 4\nvalue = 3244.84", fillcolor="#fef9f6"] ;
651 -> 652 ;
653 [label="Mean_Hashrate <= 23904308.75\nsquared_error = 2.42\nsamples = 2\nvalue = 3230.9", fillcolor="#fef9f6"] ;
652 -> 653 ;
654 [label="squared_error = 0.0\nsamples = 1\nvalue = 3232.0", fillcolor="#fef9f6"] ;
653 -> 654 ;
655 [label="squared_error = -0.0\nsamples = 1\nvalue = 3228.7", fillcolor="#fef9f6"] ;
653 -> 655 ;
656 [label="BTC_high <= 3340.3\nsquared_error = 56.25\nsamples = 2\nvalue = 3255.3", fillcolor="#fef9f6"] ;
652 -> 656 ;
657 [label="squared_error = 0.0\nsamples = 1\nvalue = 3247.8", fillcolor="#fef9f6"] ;
656 -> 657 ;
658 [label="squared_error = 0.0\nsamples = 1\nvalue = 3262.8", fillcolor="#fef9f6"] ;
656 -> 658 ;
659 [label="BTC_low <= 3303.85\nsquared_error = 1439.55\nsamples = 13\nvalue = 3418.61", fillcolor="#fef9f6"] ;
651 -> 659 ;
660 [label="BTC_volume <= 92.58\nsquared_error = 1271.27\nsamples = 3\nvalue = 3355.33", fillcolor="#fef9f6"] ;
659 -> 660 ;
661 [label="squared_error = 0.0\nsamples = 1\nvalue = 3401.9", fillcolor="#fef9f6"] ;
660 -> 661 ;
662 [label="BTC_open <= 3447.8\nsquared_error = 280.56\nsamples = 2\nvalue = 3332.05", fillcolor="#fef9f6"] ;
660 -> 662 ;
663 [label="squared_error = 0.0\nsamples = 1\nvalue = 3348.8", fillcolor="#fef9f6"] ;
662 -> 663 ;
664 [label="squared_error = -0.0\nsamples = 1\nvalue = 3315.3", fillcolor="#fef9f6"] ;
662 -> 664 ;
665 [label="BTC_low <= 3393.0\nsquared_error = 579.58\nsamples = 10\nvalue = 3430.48", fillcolor="#fef9f6"] ;
659 -> 665 ;
666 [label="BTC_volume <= 262.74\nsquared_error = 133.53\nsamples = 6\nvalue = 3414.33", fillcolor="#fef9f6"] ;
665 -> 666 ;
667 [label="ETH <= 295.9\nsquared_error = 3.42\nsamples = 2\nvalue = 3427.55", fillcolor="#fef9f6"] ;
666 -> 667 ;
668 [label="squared_error = 0.0\nsamples = 1\nvalue = 3429.4", fillcolor="#fef9f6"] ;
667 -> 668 ;
669 [label="squared_error = -0.0\nsamples = 1\nvalue = 3425.7", fillcolor="#fef9f6"] ;
667 -> 669 ;
670 [label="COPPER <= 6106.38\nsquared_error = 26.08\nsamples = 4\nvalue = 3405.52", fillcolor="#fef9f6"] ;
666 -> 670 ;
671 [label="squared_error = 0.0\nsamples = 1\nvalue = 3414.8", fillcolor="#fef9f6"] ;
670 -> 671 ;
672 [label="LTC <= 33.11\nsquared_error = 10.61\nsamples = 3\nvalue = 3403.66", fillcolor="#fef9f6"] ;
670 -> 672 ;
673 [label="XRP <= 0.3\nsquared_error = 2.17\nsamples = 2\nvalue = 3405.15", fillcolor="#fef9f6"] ;
672 -> 673 ;
674 [label="squared_error = -0.0\nsamples = 1\nvalue = 3404.3", fillcolor="#fef9f6"] ;
673 -> 674 ;
675 [label="squared_error = -0.0\nsamples = 1\nvalue = 3407.7", fillcolor="#fef9f6"] ;
673 -> 675 ;
676 [label="squared_error = -0.0\nsamples = 1\nvalue = 3397.7", fillcolor="#fef9f6"] ;
672 -> 676 ;
677 [label="Mean_Tx_size(native_units) <= 1.01\nsquared_error = 164.51\nsamples = 4\nvalue = 3457.38", fillcolor="#fef9f5"] ;
665 -> 677 ;
678 [label="COPPER <= 6184.12\nsquared_error = 16.22\nsamples = 2\nvalue = 3466.08", fillcolor="#fef9f5"] ;
677 -> 678 ;
679 [label="squared_error = 0.0\nsamples = 1\nvalue = 3459.1", fillcolor="#fef9f5"] ;
678 -> 679 ;
680 [label="squared_error = 0.0\nsamples = 1\nvalue = 3468.4", fillcolor="#fef9f5"] ;
678 -> 680 ;
681 [label="ETH <= 106.26\nsquared_error = 7.84\nsamples = 2\nvalue = 3440.0", fillcolor="#fef9f5"] ;
677 -> 681 ;
682 [label="squared_error = 0.0\nsamples = 1\nvalue = 3442.8", fillcolor="#fef9f5"] ;
681 -> 682 ;
683 [label="squared_error = 0.0\nsamples = 1\nvalue = 3437.2", fillcolor="#fef9f6"] ;
681 -> 683 ;
684 [label="XRP <= 0.17\nsquared_error = 7871.55\nsamples = 29\nvalue = 3601.84", fillcolor="#fef9f5"] ;
650 -> 684 ;
685 [label="squared_error = 0.0\nsamples = 1\nvalue = 3243.1", fillcolor="#fef9f6"] ;
684 -> 685 ;
686 [label="DJI <= 23100.61\nsquared_error = 5500.42\nsamples = 28\nvalue = 3608.74", fillcolor="#fef9f5"] ;
684 -> 686 ;
687 [label="SILVER <= 17.02\nsquared_error = 3178.18\nsamples = 6\nvalue = 3722.24", fillcolor="#fef8f5"] ;
686 -> 687 ;
688 [label="Active_Addr_Cnt <= 608196.5\nsquared_error = 1354.24\nsamples = 2\nvalue = 3824.8", fillcolor="#fef8f4"] ;
687 -> 688 ;
689 [label="squared_error = 0.0\nsamples = 1\nvalue = 3788.0", fillcolor="#fef8f4"] ;
688 -> 689 ;
690 [label="squared_error = -0.0\nsamples = 1\nvalue = 3861.6", fillcolor="#fef8f4"] ;
688 -> 690 ;
691 [label="Difficulty <= 922979008512.0\nsquared_error = 347.12\nsamples = 4\nvalue = 3696.6", fillcolor="#fef8f5"] ;
687 -> 691 ;
692 [label="Mean_Hashrate <= 8164663.25\nsquared_error = 105.96\nsamples = 3\nvalue = 3702.63", fillcolor="#fef8f5"] ;
691 -> 692 ;
693 [label="Total_Fees(USD) <= 401530.48\nsquared_error = 21.62\nsamples = 2\nvalue = 3694.25", fillcolor="#fef8f5"] ;
692 -> 693 ;
694 [label="squared_error = 0.0\nsamples = 1\nvalue = 3689.6", fillcolor="#fef8f5"] ;
693 -> 694 ;
695 [label="squared_error = 0.0\nsamples = 1\nvalue = 3698.9", fillcolor="#fef8f5"] ;
693 -> 695 ;
696 [label="squared_error = -0.0\nsamples = 1\nvalue = 3713.8", fillcolor="#fef8f5"] ;
692 -> 696 ;
697 [label="squared_error = 0.0\nsamples = 1\nvalue = 3654.4", fillcolor="#fef9f5"] ;
691 -> 697 ;
698 [label="JP225 <= 21323.05\nsquared_error = 2255.87\nsamples = 22\nvalue = 3581.72", fillcolor="#fef9f5"] ;
686 -> 698 ;
699 [label="BTC_open <= 3531.45\nsquared_error = 1218.05\nsamples = 19\nvalue = 3593.46", fillcolor="#fef9f5"] ;
698 -> 699 ;
700 [label="BTC_volume <= 619.23\nsquared_error = 169.53\nsamples = 3\nvalue = 3650.95", fillcolor="#fef9f5"] ;
699 -> 700 ;
701 [label="squared_error = 0.0\nsamples = 1\nvalue = 3638.1", fillcolor="#fef9f5"] ;
700 -> 701 ;
702 [label="Mean_Hashrate <= 41373604.0\nsquared_error = 8.82\nsamples = 2\nvalue = 3663.8", fillcolor="#fef9f5"] ;
700 -> 702 ;
703 [label="squared_error = 0.0\nsamples = 1\nvalue = 3668.0", fillcolor="#fef8f5"] ;
702 -> 703 ;
704 [label="squared_error = 0.0\nsamples = 1\nvalue = 3661.7", fillcolor="#fef9f5"] ;
702 -> 704 ;
705 [label="BTC_low <= 3558.45\nsquared_error = 657.46\nsamples = 16\nvalue = 3582.33", fillcolor="#fef9f5"] ;
699 -> 705 ;
706 [label="LTC <= 31.17\nsquared_error = 319.19\nsamples = 8\nvalue = 3562.39", fillcolor="#fef9f5"] ;
705 -> 706 ;
707 [label="BTC_open <= 3609.45\nsquared_error = 5.02\nsamples = 2\nvalue = 3537.82", fillcolor="#fef9f5"] ;
706 -> 707 ;
708 [label="squared_error = 0.0\nsamples = 1\nvalue = 3536.7", fillcolor="#fef9f5"] ;
707 -> 708 ;
709 [label="squared_error = 0.0\nsamples = 1\nvalue = 3542.3", fillcolor="#fef9f5"] ;
707 -> 709 ;
710 [label="DOGE <= 0.0\nsquared_error = 62.95\nsamples = 6\nvalue = 3573.55", fillcolor="#fef9f5"] ;
706 -> 710 ;
711 [label="COPPER <= 6008.25\nsquared_error = 8.7\nsamples = 2\nvalue = 3558.55", fillcolor="#fef9f5"] ;
710 -> 711 ;
712 [label="squared_error = 0.0\nsamples = 1\nvalue = 3561.5", fillcolor="#fef9f5"] ;
711 -> 712 ;
713 [label="squared_error = -0.0\nsamples = 1\nvalue = 3555.6", fillcolor="#fef9f5"] ;
711 -> 713 ;
714 [label="S&P500 <= 2637.61\nsquared_error = 13.86\nsamples = 4\nvalue = 3576.89", fillcolor="#fef9f5"] ;
710 -> 714 ;
715 [label="squared_error = 0.0\nsamples = 1\nvalue = 3580.1", fillcolor="#fef9f5"] ;
714 -> 715 ;
716 [label="BTC_open <= 3566.7\nsquared_error = 2.18\nsamples = 3\nvalue = 3572.88", fillcolor="#fef9f5"] ;
714 -> 716 ;
717 [label="squared_error = 0.0\nsamples = 1\nvalue = 3574.3", fillcolor="#fef9f5"] ;
716 -> 717 ;
718 [label="Xfer_Cnt <= 628061.5\nsquared_error = 0.3\nsamples = 2\nvalue = 3571.45", fillcolor="#fef9f5"] ;
716 -> 718 ;
719 [label="squared_error = 0.0\nsamples = 1\nvalue = 3570.9", fillcolor="#fef9f5"] ;
718 -> 719 ;
720 [label="squared_error = 0.0\nsamples = 1\nvalue = 3572.0", fillcolor="#fef9f5"] ;
718 -> 720 ;
721 [label="BTC_low <= 3587.9\nsquared_error = 141.36\nsamples = 8\nvalue = 3603.61", fillcolor="#fef9f5"] ;
705 -> 721 ;
722 [label="BTC_open <= 3607.4\nsquared_error = 65.12\nsamples = 5\nvalue = 3598.39", fillcolor="#fef9f5"] ;
721 -> 722 ;
723 [label="BTC_low <= 3572.25\nsquared_error = 26.11\nsamples = 2\nvalue = 3607.65", fillcolor="#fef9f5"] ;
722 -> 723 ;
724 [label="squared_error = 0.0\nsamples = 1\nvalue = 3616.5", fillcolor="#fef9f5"] ;
723 -> 724 ;
725 [label="squared_error = 0.0\nsamples = 1\nvalue = 3604.7", fillcolor="#fef9f5"] ;
723 -> 725 ;
726 [label="Xfer_Cnt <= 586758.5\nsquared_error = 10.44\nsamples = 3\nvalue = 3593.1", fillcolor="#fef9f5"] ;
722 -> 726 ;
727 [label="squared_error = 0.0\nsamples = 1\nvalue = 3597.2", fillcolor="#fef9f5"] ;
726 -> 727 ;
728 [label="Mean_Block_Size(in_bytes) <= 1003838.66\nsquared_error = 5.2\nsamples = 2\nvalue = 3591.46", fillcolor="#fef9f5"] ;
726 -> 728 ;
729 [label="squared_error = 0.0\nsamples = 1\nvalue = 3586.9", fillcolor="#fef9f5"] ;
728 -> 729 ;
730 [label="squared_error = 0.0\nsamples = 1\nvalue = 3592.6", fillcolor="#fef9f5"] ;
728 -> 730 ;
731 [label="DOGE <= 0.0\nsquared_error = 70.48\nsamples = 3\nvalue = 3617.95", fillcolor="#fef9f5"] ;
721 -> 731 ;
732 [label="squared_error = 0.0\nsamples = 1\nvalue = 3632.0", fillcolor="#fef9f5"] ;
731 -> 732 ;
733 [label="COPPER <= 6183.38\nsquared_error = 6.24\nsamples = 2\nvalue = 3613.27", fillcolor="#fef9f5"] ;
731 -> 733 ;
734 [label="squared_error = 0.0\nsamples = 1\nvalue = 3611.5", fillcolor="#fef9f5"] ;
733 -> 734 ;
735 [label="squared_error = 0.0\nsamples = 1\nvalue = 3616.8", fillcolor="#fef9f5"] ;
733 -> 735 ;
736 [label="Mean_Block_Size(in_bytes) <= 1159734.88\nsquared_error = 1364.35\nsamples = 3\nvalue = 3494.82", fillcolor="#fef9f5"] ;
698 -> 736 ;
737 [label="BTC_open <= 3509.85\nsquared_error = 57.42\nsamples = 2\nvalue = 3512.98", fillcolor="#fef9f5"] ;
736 -> 737 ;
738 [label="squared_error = 0.0\nsamples = 1\nvalue = 3526.1", fillcolor="#fef9f5"] ;
737 -> 738 ;
739 [label="squared_error = 0.0\nsamples = 1\nvalue = 3508.6", fillcolor="#fef9f5"] ;
737 -> 739 ;
740 [label="squared_error = -0.0\nsamples = 1\nvalue = 3422.2", fillcolor="#fef9f6"] ;
736 -> 740 ;
741 [label="BTC_high <= 3975.65\nsquared_error = 14533.59\nsamples = 53\nvalue = 3920.69", fillcolor="#fef8f4"] ;
649 -> 741 ;
742 [label="BTC_low <= 3649.15\nsquared_error = 4673.07\nsamples = 22\nvalue = 3809.79", fillcolor="#fef8f4"] ;
741 -> 742 ;
743 [label="Difficulty <= 3503115075584.0\nsquared_error = 31.74\nsamples = 2\nvalue = 3672.1", fillcolor="#fef8f5"] ;
742 -> 743 ;
744 [label="squared_error = 0.0\nsamples = 1\nvalue = 3667.5", fillcolor="#fef8f5"] ;
743 -> 744 ;
745 [label="squared_error = 0.0\nsamples = 1\nvalue = 3679.0", fillcolor="#fef8f5"] ;
743 -> 745 ;
746 [label="LTC <= 50.1\nsquared_error = 2318.74\nsamples = 20\nvalue = 3828.92", fillcolor="#fef8f4"] ;
742 -> 746 ;
747 [label="XRP <= 0.36\nsquared_error = 1178.09\nsamples = 14\nvalue = 3808.51", fillcolor="#fef8f4"] ;
746 -> 747 ;
748 [label="Mean_Hashrate <= 35759550.0\nsquared_error = 631.59\nsamples = 11\nvalue = 3796.15", fillcolor="#fef8f4"] ;
747 -> 748 ;
749 [label="squared_error = 0.0\nsamples = 1\nvalue = 3706.8", fillcolor="#fef8f5"] ;
748 -> 749 ;
750 [label="BTC_volume <= 172.21\nsquared_error = 244.06\nsamples = 10\nvalue = 3800.62", fillcolor="#fef8f4"] ;
748 -> 750 ;
751 [label="BTC_open <= 3819.95\nsquared_error = 16.59\nsamples = 5\nvalue = 3813.26", fillcolor="#fef8f4"] ;
750 -> 751 ;
752 [label="Active_Addr_Cnt <= 708184.5\nsquared_error = 7.15\nsamples = 3\nvalue = 3816.86", fillcolor="#fef8f4"] ;
751 -> 752 ;
753 [label="Active_Addr_Cnt <= 678331.5\nsquared_error = 1.0\nsamples = 2\nvalue = 3815.6", fillcolor="#fef8f4"] ;
752 -> 753 ;
754 [label="squared_error = 0.0\nsamples = 1\nvalue = 3814.6", fillcolor="#fef8f4"] ;
753 -> 754 ;
755 [label="squared_error = 0.0\nsamples = 1\nvalue = 3816.6", fillcolor="#fef8f4"] ;
753 -> 755 ;
756 [label="squared_error = 0.0\nsamples = 1\nvalue = 3821.9", fillcolor="#fef8f4"] ;
752 -> 756 ;
757 [label="JP225 <= 21526.04\nsquared_error = 0.1\nsamples = 2\nvalue = 3809.66", fillcolor="#fef8f4"] ;
751 -> 757 ;
758 [label="squared_error = 0.0\nsamples = 1\nvalue = 3810.3", fillcolor="#fef8f4"] ;
757 -> 758 ;
759 [label="squared_error = 0.0\nsamples = 1\nvalue = 3809.5", fillcolor="#fef8f4"] ;
757 -> 759 ;
760 [label="BTC_volume <= 468.78\nsquared_error = 151.75\nsamples = 5\nvalue = 3787.97", fillcolor="#fef8f4"] ;
750 -> 760 ;
761 [label="BTC_open <= 3916.1\nsquared_error = 36.33\nsamples = 3\nvalue = 3780.7", fillcolor="#fef8f4"] ;
760 -> 761 ;
762 [label="Active_Addr_Cnt <= 558753.0\nsquared_error = 4.49\nsamples = 2\nvalue = 3784.34", fillcolor="#fef8f4"] ;
761 -> 762 ;
763 [label="squared_error = 0.0\nsamples = 1\nvalue = 3785.4", fillcolor="#fef8f4"] ;
762 -> 763 ;
764 [label="squared_error = 0.0\nsamples = 1\nvalue = 3780.1", fillcolor="#fef8f4"] ;
762 -> 764 ;
765 [label="squared_error = -0.0\nsamples = 1\nvalue = 3771.6", fillcolor="#fef8f4"] ;
761 -> 765 ;
766 [label="Mean_Tx_size(native_units) <= 1.06\nsquared_error = 9.98\nsamples = 2\nvalue = 3804.93", fillcolor="#fef8f4"] ;
760 -> 766 ;
767 [label="squared_error = 0.0\nsamples = 1\nvalue = 3809.4", fillcolor="#fef8f4"] ;
766 -> 767 ;
768 [label="squared_error = 0.0\nsamples = 1\nvalue = 3802.7", fillcolor="#fef8f4"] ;
766 -> 768 ;
769 [label="BTC_low <= 3685.15\nsquared_error = 684.78\nsamples = 3\nvalue = 3851.77", fillcolor="#fef8f4"] ;
747 -> 769 ;
770 [label="squared_error = 0.0\nsamples = 1\nvalue = 3815.0", fillcolor="#fef8f4"] ;
769 -> 770 ;
771 [label="ETH <= 132.06\nsquared_error = 13.32\nsamples = 2\nvalue = 3870.15", fillcolor="#fef8f4"] ;
769 -> 771 ;
772 [label="squared_error = 0.0\nsamples = 1\nvalue = 3866.5", fillcolor="#fef8f4"] ;
771 -> 772 ;
773 [label="squared_error = 0.0\nsamples = 1\nvalue = 3873.8", fillcolor="#fef8f4"] ;
771 -> 773 ;
774 [label="BTC_high <= 3929.6\nsquared_error = 742.27\nsamples = 6\nvalue = 3890.14", fillcolor="#fef8f4"] ;
746 -> 774 ;
775 [label="BTC_high <= 3901.05\nsquared_error = 63.92\nsamples = 4\nvalue = 3871.75", fillcolor="#fef8f4"] ;
774 -> 775 ;
776 [label="BTC_low <= 3776.55\nsquared_error = 15.6\nsamples = 2\nvalue = 3861.15", fillcolor="#fef8f4"] ;
775 -> 776 ;
777 [label="squared_error = 0.0\nsamples = 1\nvalue = 3857.2", fillcolor="#fef8f4"] ;
776 -> 777 ;
778 [label="squared_error = 0.0\nsamples = 1\nvalue = 3865.1", fillcolor="#fef8f4"] ;
776 -> 778 ;
779 [label="BTC_open <= 3864.1\nsquared_error = 3.8\nsamples = 2\nvalue = 3877.05", fillcolor="#fef8f4"] ;
775 -> 779 ;
780 [label="squared_error = 0.0\nsamples = 1\nvalue = 3875.1", fillcolor="#fef8f4"] ;
779 -> 780 ;
781 [label="squared_error = -0.0\nsamples = 1\nvalue = 3879.0", fillcolor="#fef8f4"] ;
779 -> 781 ;
782 [label="Active_Addr_Cnt <= 590633.5\nsquared_error = 68.84\nsamples = 2\nvalue = 3926.93", fillcolor="#fef8f4"] ;
774 -> 782 ;
783 [label="squared_error = 0.0\nsamples = 1\nvalue = 3915.2", fillcolor="#fef8f4"] ;
782 -> 783 ;
784 [label="squared_error = 0.0\nsamples = 1\nvalue = 3932.8", fillcolor="#fef8f4"] ;
782 -> 784 ;
785 [label="BTC_low <= 4003.95\nsquared_error = 4626.64\nsamples = 31\nvalue = 4009.84", fillcolor="#fef8f4"] ;
741 -> 785 ;
786 [label="ETH <= 284.13\nsquared_error = 3544.77\nsamples = 26\nvalue = 3992.86", fillcolor="#fef8f4"] ;
785 -> 786 ;
787 [label="BTC_open <= 4051.1\nsquared_error = 2638.88\nsamples = 22\nvalue = 3983.27", fillcolor="#fef8f4"] ;
786 -> 787 ;
788 [label="BTC_high <= 4033.2\nsquared_error = 1448.59\nsamples = 20\nvalue = 3993.61", fillcolor="#fef8f4"] ;
787 -> 788 ;
789 [label="Xfer_Cnt <= 705150.5\nsquared_error = 519.83\nsamples = 12\nvalue = 3975.3", fillcolor="#fef8f4"] ;
788 -> 789 ;
790 [label="BTC_low <= 3958.0\nsquared_error = 100.57\nsamples = 9\nvalue = 3985.63", fillcolor="#fef8f4"] ;
789 -> 790 ;
791 [label="BTC_low <= 3913.35\nsquared_error = 38.03\nsamples = 5\nvalue = 3977.29", fillcolor="#fef8f4"] ;
790 -> 791 ;
792 [label="XRP <= 0.35\nsquared_error = 14.22\nsamples = 2\nvalue = 3969.73", fillcolor="#fef8f4"] ;
791 -> 792 ;
793 [label="squared_error = 0.0\nsamples = 1\nvalue = 3972.4", fillcolor="#fef8f4"] ;
792 -> 793 ;
794 [label="squared_error = -0.0\nsamples = 1\nvalue = 3964.4", fillcolor="#fef8f4"] ;
792 -> 794 ;
795 [label="Sum_Block_Weight <= 472841424.0\nsquared_error = 7.12\nsamples = 3\nvalue = 3981.07", fillcolor="#fef8f4"] ;
791 -> 795 ;
796 [label="DJI <= 24690.11\nsquared_error = 3.63\nsamples = 2\nvalue = 3982.6", fillcolor="#fef8f4"] ;
795 -> 796 ;
797 [label="squared_error = 0.0\nsamples = 1\nvalue = 3985.9", fillcolor="#fef8f4"] ;
796 -> 797 ;
798 [label="squared_error = 0.0\nsamples = 1\nvalue = 3981.5", fillcolor="#fef8f4"] ;
796 -> 798 ;
799 [label="squared_error = 0.0\nsamples = 1\nvalue = 3978.0", fillcolor="#fef8f4"] ;
795 -> 799 ;
800 [label="Mean_Tx_size(native_units) <= 0.9\nsquared_error = 23.86\nsamples = 4\nvalue = 3993.98", fillcolor="#fef8f4"] ;
790 -> 800 ;
801 [label="squared_error = 0.0\nsamples = 1\nvalue = 4002.5", fillcolor="#fef8f4"] ;
800 -> 801 ;
802 [label="BTC_volume <= 2.33\nsquared_error = 3.99\nsamples = 3\nvalue = 3991.54", fillcolor="#fef8f4"] ;
800 -> 802 ;
803 [label="squared_error = 0.0\nsamples = 1\nvalue = 3994.7", fillcolor="#fef8f4"] ;
802 -> 803 ;
804 [label="S&P500 <= 2816.82\nsquared_error = 0.01\nsamples = 2\nvalue = 3990.28", fillcolor="#fef8f4"] ;
802 -> 804 ;
805 [label="squared_error = 0.0\nsamples = 1\nvalue = 3990.4", fillcolor="#fef8f4"] ;
804 -> 805 ;
806 [label="squared_error = 0.0\nsamples = 1\nvalue = 3990.2", fillcolor="#fef8f4"] ;
804 -> 806 ;
807 [label="BTC_volume <= 326.2\nsquared_error = 260.9\nsamples = 3\nvalue = 3938.1", fillcolor="#fef8f4"] ;
789 -> 807 ;
808 [label="BTC_volume <= 2.15\nsquared_error = 96.62\nsamples = 2\nvalue = 3931.32", fillcolor="#fef8f4"] ;
807 -> 808 ;
809 [label="squared_error = 0.0\nsamples = 1\nvalue = 3914.3", fillcolor="#fef8f4"] ;
808 -> 809 ;
810 [label="squared_error = 0.0\nsamples = 1\nvalue = 3937.0", fillcolor="#fef8f4"] ;
808 -> 810 ;
811 [label="squared_error = -0.0\nsamples = 1\nvalue = 3965.2", fillcolor="#fef8f4"] ;
807 -> 811 ;
812 [label="BTC_volume <= 722.07\nsquared_error = 1449.53\nsamples = 8\nvalue = 4026.0", fillcolor="#fef8f4"] ;
788 -> 812 ;
813 [label="BTC_open <= 3910.1\nsquared_error = 765.83\nsamples = 7\nvalue = 4018.13", fillcolor="#fef8f4"] ;
812 -> 813 ;
814 [label="GOLD <= 1266.2\nsquared_error = 389.88\nsamples = 2\nvalue = 3992.7", fillcolor="#fef8f4"] ;
813 -> 814 ;
815 [label="squared_error = 0.0\nsamples = 1\nvalue = 3958.5", fillcolor="#fef8f4"] ;
814 -> 815 ;
816 [label="squared_error = 0.0\nsamples = 1\nvalue = 4004.1", fillcolor="#fef8f4"] ;
814 -> 816 ;
817 [label="S&P500 <= 2839.55\nsquared_error = 468.66\nsamples = 5\nvalue = 4030.85", fillcolor="#fef8f4"] ;
813 -> 817 ;
818 [label="BTC_high <= 4203.3\nsquared_error = 149.19\nsamples = 4\nvalue = 4037.8", fillcolor="#fef8f4"] ;
817 -> 818 ;
819 [label="DOGE <= 0.0\nsquared_error = 81.42\nsamples = 3\nvalue = 4046.58", fillcolor="#fef8f4"] ;
818 -> 819 ;
820 [label="Active_Addr_Cnt <= 762169.0\nsquared_error = 0.06\nsamples = 2\nvalue = 4041.37", fillcolor="#fef8f4"] ;
819 -> 820 ;
821 [label="squared_error = 0.0\nsamples = 1\nvalue = 4041.2", fillcolor="#fef8f4"] ;
820 -> 821 ;
822 [label="squared_error = 0.0\nsamples = 1\nvalue = 4041.7", fillcolor="#fef8f4"] ;
820 -> 822 ;
823 [label="squared_error = -0.0\nsamples = 1\nvalue = 4062.2", fillcolor="#fdf8f4"] ;
819 -> 823 ;
824 [label="squared_error = -0.0\nsamples = 1\nvalue = 4026.1", fillcolor="#fef8f4"] ;
818 -> 824 ;
825 [label="squared_error = -0.0\nsamples = 1\nvalue = 3982.2", fillcolor="#fef8f4"] ;
817 -> 825 ;
826 [label="squared_error = -0.0\nsamples = 1\nvalue = 4120.4", fillcolor="#fdf8f3"] ;
812 -> 826 ;
827 [label="Mean_Block_Size(in_bytes) <= 945940.16\nsquared_error = 246.42\nsamples = 2\nvalue = 3859.2", fillcolor="#fef8f4"] ;
787 -> 827 ;
828 [label="squared_error = 0.0\nsamples = 1\nvalue = 3870.3", fillcolor="#fef8f4"] ;
827 -> 828 ;
829 [label="squared_error = 0.0\nsamples = 1\nvalue = 3837.0", fillcolor="#fef8f4"] ;
827 -> 829 ;
830 [label="ETH <= 317.39\nsquared_error = 2730.65\nsamples = 4\nvalue = 4086.4", fillcolor="#fdf8f3"] ;
786 -> 830 ;
831 [label="BTC_high <= 4166.2\nsquared_error = 703.23\nsamples = 3\nvalue = 4113.5", fillcolor="#fdf8f3"] ;
830 -> 831 ;
832 [label="JP225 <= 19754.92\nsquared_error = 28.09\nsamples = 2\nvalue = 4095.0", fillcolor="#fdf8f3"] ;
831 -> 832 ;
833 [label="squared_error = 0.0\nsamples = 1\nvalue = 4089.7", fillcolor="#fdf8f3"] ;
832 -> 833 ;
834 [label="squared_error = 0.0\nsamples = 1\nvalue = 4100.3", fillcolor="#fdf8f3"] ;
832 -> 834 ;
835 [label="squared_error = -0.0\nsamples = 1\nvalue = 4150.5", fillcolor="#fdf8f3"] ;
831 -> 835 ;
836 [label="squared_error = 0.0\nsamples = 1\nvalue = 4005.1", fillcolor="#fef8f4"] ;
830 -> 836 ;
837 [label="LTC <= 53.09\nsquared_error = 568.67\nsamples = 5\nvalue = 4101.08", fillcolor="#fdf8f3"] ;
785 -> 837 ;
838 [label="squared_error = 0.0\nsamples = 1\nvalue = 4066.6", fillcolor="#fdf8f4"] ;
837 -> 838 ;
839 [label="Sum_Block_Weight <= 545104320.0\nsquared_error = 229.99\nsamples = 4\nvalue = 4112.57", fillcolor="#fdf8f3"] ;
837 -> 839 ;
840 [label="squared_error = 0.0\nsamples = 1\nvalue = 4145.1", fillcolor="#fdf8f3"] ;
839 -> 840 ;
841 [label="XRP <= 0.31\nsquared_error = 21.97\nsamples = 3\nvalue = 4106.06", fillcolor="#fdf8f3"] ;
839 -> 841 ;
842 [label="Sum_Block_Weight <= 567088608.0\nsquared_error = 0.0\nsamples = 2\nvalue = 4102.23", fillcolor="#fdf8f3"] ;
841 -> 842 ;
843 [label="squared_error = 0.0\nsamples = 1\nvalue = 4102.3", fillcolor="#fdf8f3"] ;
842 -> 843 ;
844 [label="squared_error = -0.0\nsamples = 1\nvalue = 4102.2", fillcolor="#fdf8f3"] ;
842 -> 844 ;
845 [label="squared_error = 0.0\nsamples = 1\nvalue = 4111.8", fillcolor="#fdf8f3"] ;
841 -> 845 ;
846 [label="BTC_high <= 5021.4\nsquared_error = 289088.1\nsamples = 77\nvalue = 4882.09", fillcolor="#fdf6f1"] ;
558 -> 846 ;
847 [label="BTC_high <= 4621.95\nsquared_error = 48216.61\nsamples = 39\nvalue = 4414.88", fillcolor="#fdf7f2"] ;
846 -> 847 ;
848 [label="BTC_high <= 4371.85\nsquared_error = 8796.12\nsamples = 25\nvalue = 4286.16", fillcolor="#fdf7f3"] ;
847 -> 848 ;
849 [label="Mean_Hashrate <= 6584069.0\nsquared_error = 5524.5\nsamples = 11\nvalue = 4207.86", fillcolor="#fdf7f3"] ;
848 -> 849 ;
850 [label="ETH <= 298.06\nsquared_error = 1563.7\nsamples = 3\nvalue = 4285.32", fillcolor="#fdf7f3"] ;
849 -> 850 ;
851 [label="squared_error = 0.0\nsamples = 1\nvalue = 4245.9", fillcolor="#fdf7f3"] ;
850 -> 851 ;
852 [label="JP225 <= 19445.43\nsquared_error = 20.06\nsamples = 2\nvalue = 4324.73", fillcolor="#fdf7f3"] ;
850 -> 852 ;
853 [label="squared_error = 0.0\nsamples = 1\nvalue = 4318.4", fillcolor="#fdf7f3"] ;
852 -> 853 ;
854 [label="squared_error = 0.0\nsamples = 1\nvalue = 4327.9", fillcolor="#fdf7f3"] ;
852 -> 854 ;
855 [label="LTC <= 48.92\nsquared_error = 2628.08\nsamples = 8\nvalue = 4165.62", fillcolor="#fdf8f3"] ;
849 -> 855 ;
856 [label="XRP <= 0.26\nsquared_error = 1079.12\nsamples = 2\nvalue = 4072.55", fillcolor="#fdf8f4"] ;
855 -> 856 ;
857 [label="squared_error = 0.0\nsamples = 1\nvalue = 4105.4", fillcolor="#fdf8f3"] ;
856 -> 857 ;
858 [label="squared_error = -0.0\nsamples = 1\nvalue = 4039.7", fillcolor="#fef8f4"] ;
856 -> 858 ;
859 [label="Xfer_Cnt <= 649579.0\nsquared_error = 619.74\nsamples = 6\nvalue = 4186.3", fillcolor="#fdf7f3"] ;
855 -> 859 ;
860 [label="Sum_Block_Weight <= 573252736.0\nsquared_error = 86.36\nsamples = 4\nvalue = 4211.1", fillcolor="#fdf7f3"] ;
859 -> 860 ;
861 [label="BTC_volume <= 103.18\nsquared_error = 8.38\nsamples = 3\nvalue = 4216.27", fillcolor="#fdf7f3"] ;
860 -> 861 ;
862 [label="Total_Fees(USD) <= 628042.28\nsquared_error = 0.16\nsamples = 2\nvalue = 4218.3", fillcolor="#fdf7f3"] ;
861 -> 862 ;
863 [label="squared_error = 0.0\nsamples = 1\nvalue = 4218.7", fillcolor="#fdf7f3"] ;
862 -> 863 ;
864 [label="squared_error = 0.0\nsamples = 1\nvalue = 4217.9", fillcolor="#fdf7f3"] ;
862 -> 864 ;
865 [label="squared_error = -0.0\nsamples = 1\nvalue = 4212.2", fillcolor="#fdf7f3"] ;
861 -> 865 ;
866 [label="squared_error = -0.0\nsamples = 1\nvalue = 4195.6", fillcolor="#fdf7f3"] ;
860 -> 866 ;
867 [label="DJI <= 22108.59\nsquared_error = 160.78\nsamples = 2\nvalue = 4166.46", fillcolor="#fdf7f3"] ;
859 -> 867 ;
868 [label="squared_error = 0.0\nsamples = 1\nvalue = 4141.1", fillcolor="#fdf8f3"] ;
867 -> 868 ;
869 [label="squared_error = -0.0\nsamples = 1\nvalue = 4172.8", fillcolor="#fdf7f3"] ;
867 -> 869 ;
870 [label="BTC_volume <= 120.19\nsquared_error = 4016.97\nsamples = 14\nvalue = 4339.41", fillcolor="#fdf7f3"] ;
848 -> 870 ;
871 [label="SILVER <= 16.65\nsquared_error = 1007.75\nsamples = 9\nvalue = 4376.0", fillcolor="#fdf7f3"] ;
870 -> 871 ;
872 [label="squared_error = 0.0\nsamples = 1\nvalue = 4314.2", fillcolor="#fdf7f3"] ;
871 -> 872 ;
873 [label="Sum_Block_Weight <= 442093680.0\nsquared_error = 564.99\nsamples = 8\nvalue = 4384.24", fillcolor="#fdf7f3"] ;
871 -> 873 ;
874 [label="BTC_high <= 4381.3\nsquared_error = 20.82\nsamples = 3\nvalue = 4358.47", fillcolor="#fdf7f3"] ;
873 -> 874 ;
875 [label="squared_error = 0.0\nsamples = 1\nvalue = 4352.3", fillcolor="#fdf7f3"] ;
874 -> 875 ;
876 [label="BTC_low <= 4228.45\nsquared_error = 2.71\nsamples = 2\nvalue = 4361.55", fillcolor="#fdf7f3"] ;
874 -> 876 ;
877 [label="squared_error = 0.0\nsamples = 1\nvalue = 4360.6", fillcolor="#fdf7f3"] ;
876 -> 877 ;
878 [label="squared_error = 0.0\nsamples = 1\nvalue = 4364.4", fillcolor="#fdf7f3"] ;
876 -> 878 ;
879 [label="JP225 <= 20545.75\nsquared_error = 189.7\nsamples = 5\nvalue = 4401.42", fillcolor="#fdf7f2"] ;
873 -> 879 ;
880 [label="JP225 <= 20063.39\nsquared_error = 47.21\nsamples = 4\nvalue = 4397.12", fillcolor="#fdf7f2"] ;
879 -> 880 ;
881 [label="Difficulty <= 905702506496.0\nsquared_error = 1.87\nsamples = 2\nvalue = 4388.37", fillcolor="#fdf7f3"] ;
880 -> 881 ;
882 [label="squared_error = 0.0\nsamples = 1\nvalue = 4390.3", fillcolor="#fdf7f3"] ;
881 -> 882 ;
883 [label="squared_error = 0.0\nsamples = 1\nvalue = 4387.4", fillcolor="#fdf7f3"] ;
881 -> 883 ;
884 [label="COPPER <= 6499.38\nsquared_error = 0.78\nsamples = 2\nvalue = 4402.38", fillcolor="#fdf7f2"] ;
880 -> 884 ;
885 [label="squared_error = 0.0\nsamples = 1\nvalue = 4401.3", fillcolor="#fdf7f2"] ;
884 -> 885 ;
886 [label="squared_error = 0.0\nsamples = 1\nvalue = 4403.1", fillcolor="#fdf7f2"] ;
884 -> 886 ;
887 [label="squared_error = -0.0\nsamples = 1\nvalue = 4435.8", fillcolor="#fdf7f2"] ;
879 -> 887 ;
888 [label="XRP <= 0.16\nsquared_error = 1519.95\nsamples = 5\nvalue = 4261.65", fillcolor="#fdf7f3"] ;
870 -> 888 ;
889 [label="squared_error = 0.0\nsamples = 1\nvalue = 4161.7", fillcolor="#fdf8f3"] ;
888 -> 889 ;
890 [label="BTC_low <= 4119.6\nsquared_error = 106.06\nsamples = 4\nvalue = 4275.93", fillcolor="#fdf7f3"] ;
888 -> 890 ;
891 [label="BTC_open <= 4239.65\nsquared_error = 0.98\nsamples = 2\nvalue = 4266.1", fillcolor="#fdf7f3"] ;
890 -> 891 ;
892 [label="squared_error = 0.0\nsamples = 1\nvalue = 4265.4", fillcolor="#fdf7f3"] ;
891 -> 892 ;
893 [label="squared_error = 0.0\nsamples = 1\nvalue = 4267.5", fillcolor="#fdf7f3"] ;
891 -> 893 ;
894 [label="XRP <= 0.27\nsquared_error = 58.08\nsamples = 2\nvalue = 4283.3", fillcolor="#fdf7f3"] ;
890 -> 894 ;
895 [label="squared_error = 0.0\nsamples = 1\nvalue = 4278.9", fillcolor="#fdf7f3"] ;
894 -> 895 ;
896 [label="squared_error = 0.0\nsamples = 1\nvalue = 4296.5", fillcolor="#fdf7f3"] ;
894 -> 896 ;
897 [label="BTC_volume <= 110.56\nsquared_error = 27644.82\nsamples = 14\nvalue = 4672.32", fillcolor="#fdf6f2"] ;
847 -> 897 ;
898 [label="BTC_high <= 4727.8\nsquared_error = 11856.11\nsamples = 10\nvalue = 4760.74", fillcolor="#fdf6f1"] ;
897 -> 898 ;
899 [label="Mean_Block_Size(in_bytes) <= 896693.28\nsquared_error = 377.53\nsamples = 4\nvalue = 4606.9", fillcolor="#fdf7f2"] ;
